{
    "conv1.bias": [
        -0.039778850972652435, 0.00739553477615118, 0.05298786982893944,
        0.030290881171822548
    ],
    "conv2.bias": [
        0.02054794877767563, -0.3486083745956421, 0.01034882664680481,
        -0.2824620306491852
    ],
    "conv3.bias": [0.5336016416549683, 0.6442952752113342],
    "classifier.weight": [
        [-1.8559030294418335, 2.329101085662842],
        [-1.7800179719924927, -2.316472053527832],
        [2.543712854385376, 2.234900712966919],
        [2.4806430339813232, -2.2876639366149902]
    ],
    "classifier.bias": [
        0.22108545899391174, 0.30399879813194275, 0.3022165298461914,
        0.3496207594871521
    ],
    "onnx::MatMul_271": [
        [
            0.9893048405647278, -1.086769938468933, -0.3226100504398346,
            0.05203956738114357
        ],
        [
            -0.6487584114074707, -1.3011393547058105, 0.657602846622467,
            0.7091618776321411
        ],
        [
            -0.6693059206008911, 0.24557778239250183, 0.8903368711471558,
            0.38997209072113037
        ],
        [
            -0.061488159000873566, -0.7953605651855469, 0.17842361330986023,
            0.688416063785553
        ],
        [
            0.6027281284332275, -0.44313284754753113, -1.0069857835769653,
            -0.8923645615577698
        ],
        [
            1.1585496664047241, -0.26551222801208496, -0.7734331488609314,
            -1.1721446514129639
        ],
        [
            0.7938240170478821, -0.8488276600837708, -0.6475750207901001,
            -0.8211774826049805
        ],
        [
            -0.37291911244392395, -1.2819608449935913, -0.10548148304224014,
            0.700600802898407
        ],
        [
            -0.6078949570655823, 0.085958331823349, 0.7784180045127869,
            0.6962624192237854
        ],
        [
            -1.019310474395752, 0.4039897322654724, 0.8775168657302856,
            0.684576153755188
        ],
        [
            0.888720691204071, -0.9797573089599609, -1.1781915426254272,
            -0.8090587854385376
        ],
        [
            -0.14729653298854828, -0.7530570030212402, -0.34934866428375244,
            0.46833211183547974
        ],
        [
            0.36528247594833374, -1.009992003440857, -0.7400274276733398,
            0.8664590120315552
        ],
        [
            -0.5544971823692322, -0.83162921667099, 0.27796265482902527,
            0.646905243396759
        ],
        [
            -0.8041731119155884, 0.40065351128578186, 0.5610171556472778,
            0.8954497575759888
        ],
        [
            -0.407879501581192, 0.57783442735672, 0.719500720500946,
            1.0170537233352661
        ],
        [
            1.0150080919265747, -0.5675382614135742, -0.8564833998680115,
            -0.9166651964187622
        ],
        [
            0.26991885900497437, -1.1067417860031128, -0.6734955310821533,
            0.8642145991325378
        ],
        [
            -0.9722954630851746, 0.9948689937591553, 0.6867812871932983,
            0.872460126876831
        ],
        [
            0.008811303414404392, -1.240233063697815, 0.10466138273477554,
            0.8391602039337158
        ],
        [
            -0.6478948593139648, 0.7423436641693115, 0.3970860242843628,
            0.3236689269542694
        ],
        [
            0.18996596336364746, -1.2623895406723022, -0.14382313191890717,
            0.9725213646888733
        ],
        [
            -0.35285821557044983, 0.5717364549636841, 0.7316150069236755,
            0.8425100445747375
        ],
        [
            -0.5920192003250122, 0.9571552872657776, 1.2899011373519897,
            -1.0676791667938232
        ],
        [
            0.449328750371933, 1.2723480463027954, -0.27916643023490906,
            -1.2199265956878662
        ],
        [
            0.3950616121292114, 1.3687399625778198, -0.35890233516693115,
            -1.026166558265686
        ],
        [
            -0.5013118386268616, 0.7042592167854309, 0.7257921099662781,
            0.6901787519454956
        ],
        [
            -0.06783761829137802, 1.0436320304870605, 0.2499416023492813,
            -1.236046314239502
        ],
        [
            -1.1909692287445068, 0.9127604365348816, 0.4831370711326599,
            0.14308381080627441
        ],
        [
            -1.0784555673599243, 1.2222535610198975, 0.87014240026474,
            0.14414763450622559
        ],
        [
            -1.0771616697311401, 0.22886039316654205, 0.9172792434692383,
            0.6263406872749329
        ],
        [
            -0.21848787367343903, 1.3793621063232422, -0.08236891031265259,
            -0.8696257472038269
        ],
        [
            -0.6120357513427734, 0.5734186172485352, 0.9808419942855835,
            0.44832244515419006
        ],
        [
            -0.6529147028923035, 1.0790693759918213, 0.6088036894798279,
            0.8819981813430786
        ]
    ],
    "onnx::MatMul_274": [
        [
            1.2033096551895142, -0.6395522356033325, -0.9524176120758057,
            -0.8513102531433105
        ],
        [
            1.0415712594985962, 1.668886423110962, -0.4098542332649231,
            1.250900387763977
        ],
        [
            -1.3115639686584473, 0.5811387300491333, 1.502284288406372,
            1.6092745065689087
        ],
        [
            -1.3608648777008057, -0.3753971457481384, 1.6849888563156128,
            0.039249785244464874
        ]
    ],
    "onnx::MatMul_277": [
        [2.2809906005859375, -0.282516211271286],
        [0.9949226379394531, 1.749162197113037],
        [-2.182363748550415, 0.7861846089363098],
        [-0.22786621749401093, 1.5348572731018066]
    ]
}
