{"conv1.bias": [-0.08896053582429886, -0.06129349023103714, 0.013541731052100658, 0.007927358150482178, -0.028671687468886375, 0.023730037733912468, 0.0002721899072639644, 0.02747339941561222, -0.10319700837135315, 0.006368694826960564, -0.07257833331823349, -0.11155197769403458, -0.026359083130955696, -0.05557543411850929, -0.0842263475060463, -0.07213664799928665, -0.08679566532373428, 0.02109743095934391, -0.10964683443307877, -0.09950220584869385, -0.07810609042644501, -0.07678616046905518, -0.022260986268520355, 0.059008676558732986, -0.12422110885381699, -0.042323168367147446, 0.0504869781434536, -0.080838643014431, -0.07410465180873871, -0.09517841041088104, -0.0882490798830986, -0.07989104837179184, -0.0636136457324028, 0.12680365145206451, -0.09820614755153656, -0.12533970177173615, 0.014967218972742558, -0.08587997406721115, 0.08426404744386673, -0.15474152565002441, 0.0, -0.09868394583463669, -0.1680421382188797, -0.07992969453334808, 0.0030471377540379763, -0.09315817058086395, 0.03251563757658005, -0.05282384902238846, 0.06708470731973648, -0.0017222041497007012, -0.07071554660797119, -0.07443136721849442, -0.013598773628473282, -0.036589521914720535, -0.07846861332654953, 0.12805220484733582, 0.05843231827020645, -0.11616012454032898, -0.06005481258034706, 0.0018364364514127374, -0.05555368587374687, 0.01979381963610649, -0.03708994388580322, 0.048231758177280426], "conv2.bias": [-0.017679329961538315, -0.08110148459672928, -0.06351319700479507, -0.045242033898830414, -0.07700413465499878, -0.06477299332618713, -0.030426520854234695, -0.06565269827842712, -0.06518122553825378, -0.0518668070435524, -0.09311342239379883, -0.06964226812124252, -0.07982447743415833, -0.1279659867286682, -0.06005490943789482, -0.07874982059001923, -0.02561497874557972, -0.06840731203556061, -0.056309089064598083, -0.045133087784051895, -0.0760204941034317, 0.03154190257191658, -0.15882496535778046, -0.0522632896900177, -0.06662067770957947, -0.8098590970039368, -0.08080904930830002, -0.05266363546252251, -0.03845713660120964, -0.06005465239286423, -0.0483211949467659, -0.035545714199543, -0.049137700349092484, -0.060052383691072464, -0.11364107578992844, -0.04865635186433792, -0.060053665190935135, -0.058508679270744324, -0.052256736904382706, -0.07632330060005188, -0.22576528787612915, -0.5910741686820984, 0.0350976288318634, -0.06005246564745903, -0.09873607754707336, -0.1114618107676506, -0.12956900894641876, -0.03713212162256241, -0.06001713126897812, -0.050709232687950134, -0.07306920737028122, -0.014880504459142685, -0.0383620522916317, -0.06446604430675507, -0.08823210000991821, -0.11728508770465851, -0.08486734330654144, -0.026357606053352356, -0.10348326712846756, 0.037298377603292465, -0.05611228570342064, 0.003859595162793994, -0.09391715377569199, -0.1188470646739006], "conv3.bias": [-0.1002492904663086, 0.08918377012014389, -0.001779293525032699, 0.0012945299968123436, 0.024543998762965202, -0.002378774806857109, 0.08753394335508347, -0.10477178543806076, -0.10892235487699509, 0.06671322137117386, -0.0950503945350647, 0.05594094097614288, 0.07804989814758301, 0.08547515422105789, 0.06316569447517395, 0.005072237458080053, 0.09111542999744415, 0.0212872214615345, -0.04660845920443535, 0.012807384133338928, 0.1675405204296112, -0.0350593701004982, 0.15211711823940277, 0.1304733157157898, -0.11718346178531647, -0.08080406486988068, -0.020010139793157578, -0.03110075742006302, -0.048577986657619476, 0.10361682623624802, 0.07553104311227798, -0.01052694022655487, 0.03495120257139206, 0.06267715245485306, -0.10502056032419205, 0.05042601376771927, 0.03166869282722473, -0.04555799812078476, 0.04002813622355461, 0.026388343423604965, 0.03940492868423462, -0.042480096220970154, 0.024788392707705498, -0.011691614054143429, -0.006071330979466438, -0.0673547089099884, -0.05569455027580261, -0.12138273566961288, 0.027302097529172897, -0.07310687750577927, -0.0037462934851646423, 0.1087316945195198, -0.029255617409944534, 0.1271364986896515, -0.1042386144399643, -0.13896696269512177, -0.09110890328884125, -0.001012027496472001, -0.07031480222940445, 0.022951312363147736, 0.028026582673192024, 0.035960160195827484, -0.03521694615483284, -0.08848915249109268], "lin.weight": [[-0.04214998334646225, 0.05288432911038399, -0.016604984179139137, 0.00805147085338831, 0.23353596031665802, 0.07909911125898361, 0.059881869703531265, -0.08330219238996506, -0.10958278924226761, 0.11560537666082382, -0.14465679228305817, 0.16468839347362518, 0.23160070180892944, 0.1725061684846878, 0.033586032688617706, -0.09627247601747513, 0.22632820904254913, 0.11632701754570007, 0.037126392126083374, -0.07126785814762115, 0.2037186324596405, -0.12519127130508423, 0.2930222153663635, 0.2713024616241455, -0.10281690955162048, -0.0967322364449501, 0.0027848866302520037, -0.062209635972976685, -0.21689768135547638, 0.19103798270225525, -0.032133881002664566, 0.0319061353802681, 0.09622323513031006, 0.16337651014328003, -0.0932358056306839, 0.15068665146827698, 0.1545945554971695, -0.0644129067659378, 0.1427953541278839, -0.07142891734838486, -0.13099996745586395, -0.11183403432369232, 0.08606919646263123, -0.24457590281963348, -0.15467871725559235, -0.1794724315404892, -0.2528608739376068, -0.294321209192276, 0.07098301500082016, -0.043781060725450516, -0.09707086533308029, 0.16243058443069458, -0.18625733256340027, 0.19468335807323456, -0.2000141143798828, -0.09862233698368073, -0.13035093247890472, 0.01683705300092697, -0.11744986474514008, 0.07937255501747131, 0.09245291352272034, 0.15472720563411713, 0.16362901031970978, -0.02984636276960373], [0.20697933435440063, -0.19230030477046967, 0.07767476886510849, 0.008910952135920525, -0.12169642001390457, -0.18126171827316284, -0.11564785242080688, 0.12000654637813568, 0.013006170280277729, -0.12986847758293152, 0.04933265224099159, -0.07955983281135559, -0.09096404910087585, -0.05378652364015579, -0.061948951333761215, 0.16267052292823792, -0.21202990412712097, -0.17052720487117767, -0.1792163848876953, 0.05821574851870537, -0.12011854350566864, 0.010704864747822285, -0.1390794813632965, -0.08035146445035934, 0.0911332443356514, 0.01679038070142269, 0.061998896300792694, 0.08791189640760422, 0.145087331533432, -0.05481932684779167, -0.17782969772815704, 0.08477731794118881, -0.09970979392528534, 0.035435061901807785, 0.035407308489084244, -0.056610140949487686, -0.2001224309206009, 0.1611676961183548, -0.19869793951511383, 0.17888344824314117, 0.17817284166812897, -0.030763912945985794, 0.0635637640953064, 0.2201438844203949, 0.11180615425109863, 0.15866269171237946, 0.1901698112487793, 0.13867658376693726, -0.13971829414367676, 0.09041070938110352, 0.08708087354898453, -0.16198258101940155, 0.1038469597697258, -0.37522876262664795, 0.1387982815504074, 0.11474461853504181, 0.13753242790699005, 0.1956213265657425, 0.15712693333625793, -0.20914365351200104, -0.1072893962264061, -0.1343739777803421, -0.12543609738349915, 0.2710750997066498]], "lin.bias": [-0.1566510945558548, -0.006633923389017582], "onnx::MatMul_311": [[-0.15560518205165863, 0.04290219768881798, -0.06499813497066498, -0.5774523615837097, 0.3202919065952301, -0.10020169615745544, -0.05342593789100647, -0.09150546789169312, 0.1478765904903412, -0.14650391042232513, -0.3011641204357147, -0.17570838332176208, 0.13472482562065125, -0.10013612359762192, -0.31257355213165283, -0.044488921761512756, -0.22550392150878906, -0.0690571740269661, -0.06421904265880585, -0.358291894197464, 0.13103407621383667, 0.11439468711614609, -0.1452566534280777, -0.7242408394813538, -0.20619234442710876, -0.10386472195386887, -0.0831374078989029, -0.15785153210163116, -0.22799338400363922, 0.21720419824123383, -0.15430384874343872, -0.181488037109375, -0.1917734593153, -0.17157110571861267, -0.13740597665309906, 0.0957469791173935, -0.7988396286964417, -0.012415560893714428, -0.038403965532779694, 0.11983481049537659, -0.06167849898338318, -0.10709649324417114, 0.04183594137430191, -0.025193223729729652, -0.033603549003601074, -0.3070097267627716, -0.1044224351644516, 0.21548691391944885, 0.19391317665576935, -0.09477925300598145, -0.0827743262052536, -0.19454221427440643, 0.3137677013874054, -0.5551517009735107, -0.2332664579153061, -0.13913209736347198, 0.12641943991184235, 0.1193767637014389, -0.05326462164521217, -0.16985593736171722, -0.16681158542633057, 0.2523431181907654, 0.020863862708210945, -0.14005692303180695], [-0.20704582333564758, 0.4791245758533478, -0.17844907939434052, 0.374035120010376, -0.06058341637253761, 0.19284315407276154, 0.5149890780448914, 0.7610085606575012, -0.5589761137962341, 0.9727498888969421, 0.0560714527964592, 0.8674102425575256, -0.4552856981754303, -0.04057673364877701, -0.3608759045600891, -0.06524482369422913, 0.1398908942937851, 0.7329300045967102, 0.013465644791722298, 0.054503876715898514, -0.37007537484169006, -0.5927007794380188, 0.6903710961341858, 0.25560587644577026, 0.13721461594104767, 0.43109461665153503, 0.6636408567428589, 0.7240390777587891, 0.8098801970481873, -0.07721658796072006, -0.16205894947052002, -0.12521101534366608, 0.7769525647163391, 0.6590327024459839, 0.6506000757217407, -0.33517709374427795, 0.5023932456970215, 0.03594836965203285, 0.28312888741493225, 0.008062279783189297, -0.07438677549362183, -0.3418816030025482, 0.47663161158561707, -0.06402231752872467, -0.26728108525276184, 0.1174745187163353, -0.20385362207889557, -0.5979145169258118, -0.17681150138378143, -0.5915277600288391, 0.44316956400871277, 0.8162312507629395, -0.18727286159992218, 0.4701002240180969, -0.3239380121231079, 0.589651346206665, -0.7421829104423523, -0.4234984815120697, -0.14569225907325745, 0.7817240953445435, -0.00830642506480217, -0.13581359386444092, 0.6050310134887695, 0.3546876907348633], [0.009560748003423214, -0.46786701679229736, 1.1088892221450806, 0.46500152349472046, -0.3400121033191681, 0.41542455554008484, 0.048278167843818665, 0.5532853603363037, 0.2911684811115265, -0.12677717208862305, -0.09011079370975494, -0.4694485366344452, -0.41433998942375183, -0.24142152070999146, 0.14920276403427124, 0.06811955571174622, -0.022570613771677017, -0.28692251443862915, -0.14712978899478912, 0.1161469891667366, -0.45653036236763, -0.5727895498275757, -0.6363050937652588, 0.4469345808029175, -0.05034586042165756, -0.22245556116104126, 0.5097468495368958, -0.18402241170406342, -0.5039608478546143, 0.03142084553837776, 0.08505526930093765, -0.11720030009746552, -0.5067344307899475, 0.3003469705581665, -0.4151775538921356, -0.3256608545780182, 0.5135949850082397, 0.07516735047101974, 0.6187114119529724, 0.014711874537169933, -0.07066692411899567, 0.12609925866127014, -0.40928778052330017, 0.09979783743619919, -0.2090723216533661, 0.021736513823270798, -0.14061111211776733, -0.6084991693496704, -0.41552215814590454, 0.6107491254806519, -0.2610529959201813, -0.4481147825717926, -0.40917038917541504, 0.09735315293073654, 0.13955216109752655, -0.302259624004364, 0.23104992508888245, -0.41109198331832886, -0.23517589271068573, -0.5992027521133423, -0.1343766748905182, -0.3834221065044403, 0.04627364128828049, 0.10880865901708603], [-0.2723884880542755, 0.037355173379182816, -0.2274402678012848, -0.28656429052352905, -0.67127925157547, 0.787762463092804, 0.6128485798835754, -0.006171741988509893, 0.09144753962755203, 1.3481767177581787, -0.2877008616924286, -0.24855592846870422, -0.39270323514938354, 0.01076894998550415, -0.14019402861595154, 0.03381677344441414, -0.08245053887367249, 1.058562159538269, -0.07675023376941681, 0.0021554231643676758, -0.4935733675956726, 0.06681652367115021, 1.8570342063903809, -0.04299892485141754, 0.1305973380804062, -0.23219309747219086, -0.21108590066432953, 0.03510785475373268, -0.17172561585903168, -0.4400288760662079, -0.20698818564414978, 0.0007682954892516136, 0.5895732641220093, 1.0112273693084717, -0.2851835787296295, -0.35287314653396606, -0.21046942472457886, 0.025522416457533836, -0.31842222809791565, 0.6374093294143677, -0.25779402256011963, -0.15024399757385254, -0.4234643876552582, -0.16981762647628784, 0.9287732839584351, 0.12344087660312653, 1.4238097667694092, 0.04632987454533577, -0.21368905901908875, -0.09743368625640869, 1.3274118900299072, -0.17201414704322815, -0.5908401012420654, 0.6067658066749573, -0.2682206928730011, 0.6482599973678589, 0.0057360827922821045, -0.43859344720840454, -0.24599695205688477, 0.7633876204490662, -0.02165815234184265, -0.7204925417900085, 0.19551461935043335, 1.2294849157333374], [-0.12628474831581116, -0.19945712387561798, 0.1235717236995697, -0.24923795461654663, 0.06417077779769897, -0.2557872533798218, -0.1589352786540985, -0.0693502277135849, 0.14009833335876465, 0.19633445143699646, -0.12608762085437775, 0.19036898016929626, -0.14157049357891083, -0.001479804515838623, -0.06222251057624817, -0.10704851150512695, 0.11252456903457642, -0.09867331385612488, 0.2769048511981964, -0.05703434348106384, 0.20350691676139832, -0.09186263382434845, -0.021437406539916992, 0.0426773726940155, 0.2782590687274933, 0.17304888367652893, 0.0730668306350708, -0.04400196671485901, -0.2175520956516266, -0.009600192308425903, 0.06728428602218628, -0.17730633914470673, 0.24869737029075623, 0.19210615754127502, 0.2784954607486725, -0.2041899859905243, -0.05819065868854523, 0.2827039659023285, -0.10331974923610687, 0.001910865306854248, -0.09130896627902985, 0.06620430946350098, 0.021048426628112793, 0.10349267721176147, -0.2866779863834381, -0.08076059818267822, -0.22877666354179382, -0.074770987033844, -0.1647929698228836, 0.12392356991767883, -0.07890845835208893, -0.26273977756500244, -0.1376391053199768, -0.2326284497976303, -0.13615478575229645, 0.2716422379016876, 0.06414163112640381, 0.2829572260379791, 0.15307015180587769, -0.1545391082763672, 0.16160142421722412, -0.15375041961669922, -0.07211463153362274, -0.15596769750118256], [-0.20052354037761688, -0.32024967670440674, -0.1275876760482788, -0.024099498987197876, -0.16629335284233093, -0.17620155215263367, 0.5764227509498596, -0.1867387741804123, -0.19451023638248444, 0.42070257663726807, -0.13851800560951233, 0.5934060215950012, -0.4668264091014862, -0.2057262510061264, 0.12367841601371765, 0.11996158212423325, 0.10668551921844482, -0.06594947725534439, -0.1207122653722763, 0.11159461736679077, -0.20852966606616974, -0.08787842094898224, 0.4118189215660095, -0.025877676904201508, 0.09196421504020691, 0.22377024590969086, 0.7169807553291321, 0.16703064739704132, 0.5595108866691589, -0.08778173476457596, -0.2258300483226776, -0.09462285041809082, 0.13172996044158936, 0.22601136565208435, 0.40229710936546326, -0.3747657239437103, -0.28113025426864624, -0.11589385569095612, -0.19165784120559692, 0.11655101180076599, -0.10998563468456268, 0.48009195923805237, -0.005064838100224733, -0.035991061478853226, 0.570830762386322, -0.014658749103546143, 0.40909987688064575, -0.12812462449073792, -0.3776026666164398, 0.35820406675338745, -0.2673211097717285, -0.26578813791275024, -0.4923601746559143, 0.0319378562271595, -0.03064262866973877, 0.45783960819244385, 0.16113190352916718, -0.2359662652015686, -0.06590715050697327, -0.20512986183166504, -0.1986905038356781, -0.24453172087669373, 0.40351808071136475, -0.2901601195335388], [0.05011609569191933, 0.7341082692146301, -0.18225567042827606, 0.023109963163733482, 1.6731293201446533, -0.11179600656032562, -0.2413453906774521, -0.30740806460380554, 1.1706526279449463, -0.22276490926742554, -0.18633121252059937, -0.06337669491767883, 1.748028039932251, -0.24737194180488586, 0.07602402567863464, 0.0575200654566288, 0.11122480034828186, -0.2149922400712967, 0.18956676125526428, 0.06090062856674194, 1.7303173542022705, 1.1114020347595215, -0.0902869775891304, -0.07341751456260681, 0.07987836003303528, -0.22276383638381958, -0.25446829199790955, -0.17447517812252045, -0.0792449414730072, 1.2689934968948364, -0.09657151997089386, -0.15850865840911865, -0.2644396126270294, -0.3417573869228363, -0.15041027963161469, 1.6866893768310547, -0.21917571127414703, -0.21626675128936768, -0.27420932054519653, 1.2120814323425293, -0.10258238017559052, -0.23403209447860718, 1.0540552139282227, -0.1959865391254425, -0.09176499396562576, 0.08321395516395569, -0.1762281060218811, 1.722984790802002, 1.6808040142059326, -0.12064584344625473, -0.17615075409412384, -0.14208142459392548, 1.6474385261535645, -0.08794911950826645, -0.25710606575012207, -0.3499576151371002, 0.9958975911140442, 1.4333242177963257, -0.008804470300674438, -0.1677018105983734, -0.03587520122528076, 1.7963588237762451, -0.1513848900794983, -0.2060067504644394]], "onnx::MatMul_314": [[-0.09785671532154083, 0.07404468208551407, 0.15272732079029083, 0.20468445122241974, 0.11017827689647675, 0.18635272979736328, -0.09485418349504471, -0.11339908838272095, 0.15345682203769684, 0.04704202711582184, 0.21154190599918365, -0.021829497069120407, -0.07055482268333435, 0.17058686912059784, -0.15663594007492065, 0.08533691614866257, -0.041503652930259705, -0.001312345266342163, -0.0699901282787323, -0.17255328595638275, 0.1554766446352005, -0.25240999460220337, -0.1567612737417221, 0.05335460603237152, 0.10811567306518555, -0.044734057039022446, 0.10911844670772552, 0.16555596888065338, -0.2418832927942276, -0.013508742675185204, 0.08017947524785995, -0.047798510640859604, -0.00517686503008008, 0.12013846635818481, 0.21430698037147522, -0.1329675018787384, 0.005824163556098938, -0.018720457330346107, -0.004836589097976685, 0.11537154018878937, 0.14173610508441925, 0.16876019537448883, 0.03263651207089424, -0.05776500701904297, -0.10474413633346558, 0.092026486992836, -0.06838998198509216, 0.09994738548994064, 0.015617623925209045, 0.1642635017633438, 0.13121555745601654, -0.060822173953056335, 0.12532486021518707, -0.08497892320156097, -0.12007603049278259, -0.07819018512964249, -0.11128100752830505, -0.1049383208155632, -0.05133194476366043, 0.03886910900473595, -0.02760305069386959, -0.032221805304288864, -0.027086786925792694, -0.029331624507904053], [-0.08730944991111755, -0.19481408596038818, -0.04042820259928703, -0.17396843433380127, -0.23986651003360748, -0.007982050068676472, 0.14720509946346283, -0.11456494778394699, -0.2473480999469757, -0.18854920566082, 0.08858363330364227, -0.016750849783420563, 0.015245994552969933, -0.05124208331108093, 0.08084855228662491, 0.09987657517194748, -0.20079270005226135, -0.011550366878509521, -0.10811256617307663, 0.14190120995044708, -0.2754683792591095, 0.08733271062374115, -0.41852161288261414, -0.12259245663881302, 0.13829925656318665, 0.08178321272134781, -0.10388068854808807, -0.048464614897966385, 0.061257656663656235, -0.15208785235881805, 0.1321420520544052, -0.19027374684810638, 0.10555218905210495, -0.2645130753517151, -1.0274533033370972, -0.1930902600288391, -0.045017827302217484, -0.05437212064862251, -0.13848794996738434, -0.23342649638652802, -0.2361091524362564, -0.05582210794091225, 0.09627745300531387, -0.151304230093956, -0.1599278599023819, -0.09513675421476364, -0.02232111431658268, -0.11916505545377731, -0.1886744499206543, -0.12070415169000626, -0.22907333076000214, 0.07288968563079834, 0.095025435090065, -0.18626321852207184, -0.09597909450531006, 0.03317108005285263, -0.0006427814369089901, -0.15105196833610535, -0.01899361051619053, -0.12809240818023682, -0.24964745342731476, 0.19421300292015076, 0.14880309998989105, -0.16966567933559418], [-0.32380327582359314, -0.06749586760997772, -0.18251705169677734, -0.1956626921892166, -0.22676901519298553, -0.04191739112138748, -0.6156240701675415, 0.01259922981262207, 0.07160057872533798, -0.7585508227348328, -0.30715295672416687, 0.026967454701662064, 0.033602047711610794, 0.07160602509975433, 0.04996369034051895, -0.18231318891048431, -0.40932849049568176, -0.08485012501478195, 0.09397338330745697, -0.6314122080802917, -0.004171470180153847, -0.22922708094120026, 0.15593574941158295, -0.15349657833576202, -0.18400755524635315, -0.777500331401825, 0.13799013197422028, 0.15952785313129425, -0.2528527081012726, 0.04692338779568672, -0.4964737594127655, -0.4480017125606537, -0.09864377230405807, 0.024599038064479828, 0.2017381191253662, 0.04394855350255966, 0.05930841341614723, -0.7279058694839478, -0.11581005156040192, 0.05257752910256386, -0.1937345415353775, -0.449963241815567, -0.8656126260757446, -0.09105951339006424, -0.511475145816803, -0.1335403323173523, 0.04361783713102341, -0.21595649421215057, -0.009938367642462254, -0.267040491104126, 0.07239451259374619, -0.5555662512779236, -0.28711313009262085, -0.14611850678920746, -0.08734659850597382, -0.41254758834838867, -0.2849348485469818, -0.20279183983802795, -0.4034681022167206, 0.4597543776035309, -0.17826975882053375, -0.5512925386428833, -0.42380884289741516, -0.024042442440986633], [-0.5997171401977539, 0.11077505350112915, -0.1402132362127304, 0.057133421301841736, 0.041158925741910934, -0.1748054474592209, -0.24619832634925842, -0.08916003257036209, -0.20622184872627258, -0.142081618309021, -0.28176039457321167, -0.06647908687591553, -0.1649812012910843, -0.13873203098773956, -0.017312128096818924, -0.09523256868124008, 0.08740179985761642, 0.1520230919122696, -0.0015880700666457415, -0.24267932772636414, -0.11571135371923447, -0.4883124828338623, -0.11071653664112091, 0.053727373480796814, 0.1392475962638855, -0.14003828167915344, -0.17043203115463257, -0.05010317265987396, -0.05276862159371376, -0.1041838750243187, -0.229254350066185, -0.2903676927089691, 0.19209013879299164, 0.0592275969684124, 0.22776658833026886, -0.24124261736869812, -0.07016564905643463, 0.033054690808057785, -0.24133366346359253, 0.12630154192447662, 0.003762295935302973, -0.444521427154541, -0.2405710071325302, -0.06732970476150513, 0.1036001667380333, 0.014255027286708355, -0.1587420552968979, -0.17016132175922394, -0.08378946036100388, 0.05178188532590866, 0.13927292823791504, -0.04390571638941765, -0.23086245357990265, -0.0351666584610939, -0.12268111109733582, -0.15612898766994476, 0.02947891131043434, -0.22938206791877747, 0.13607929646968842, -0.5034198760986328, 0.0037290616892278194, 0.0018761693499982357, -0.005781527608633041, -0.02792736142873764], [-0.07904353737831116, 0.10571873933076859, -0.2627567648887634, -0.06423239409923553, -0.023766035214066505, 0.037404146045446396, -0.06727521866559982, -0.15025129914283752, 0.01923954114317894, -0.1334441900253296, -0.2526366412639618, -0.264740914106369, 0.005868942476809025, -0.22967858612537384, 0.06938361376523972, -0.10432279855012894, 0.11142249405384064, -0.21922487020492554, -0.06348566710948944, 0.16081923246383667, 0.06626805663108826, -0.13716720044612885, -0.4175209701061249, -0.11287245154380798, -0.19393056631088257, -1.7052440643310547, 0.11835015565156937, 0.1313755363225937, 0.0857754573225975, 0.021301738917827606, -0.07002907991409302, 0.11793021857738495, -0.15340246260166168, -0.21738429367542267, -0.7016454339027405, 0.09255796670913696, 0.05449853092432022, 0.2074272334575653, -0.129508376121521, -0.09029942005872726, -0.3590060770511627, -1.2718194723129272, -0.08908900618553162, -0.10401847213506699, 0.054144956171512604, -0.2710782587528229, -0.11936303973197937, -0.2135990560054779, -0.08287664502859116, -0.09524332731962204, 0.03780743107199669, 0.16825389862060547, -0.0291132852435112, 0.14163002371788025, -0.033670514822006226, -0.1902850717306137, 0.1773160696029663, -0.15931040048599243, 0.162179633975029, -0.19819959998130798, -0.207325741648674, 0.10790973901748657, 0.09576934576034546, -0.22480733692646027], [0.052370600402355194, -0.03293626755475998, -0.12074437737464905, -0.06592559814453125, -0.18709330260753632, 0.011501752771437168, -0.3538515865802765, -0.16336026787757874, -0.2809462249279022, -0.21005667746067047, -0.2501032054424286, 0.135137140750885, 0.097968190908432, -0.08910679817199707, 0.0985196977853775, -0.2245594710111618, -0.25671133399009705, 0.05394734442234039, 0.030218129977583885, -0.014938781037926674, -0.017829529941082, 0.07333368062973022, -0.02887216955423355, -0.02743721567094326, -0.19958071410655975, 0.25276628136634827, 0.11685135215520859, -0.10460609942674637, -0.1943584680557251, 0.006349478382617235, -0.44019365310668945, -0.43772387504577637, 0.06915037333965302, -0.09122998267412186, 0.21922728419303894, -0.1807810664176941, 0.1373930275440216, -0.025569016113877296, -0.10505164414644241, -0.027397137135267258, 0.11451977491378784, 0.4913560152053833, -0.10414053499698639, 0.026178639382123947, -0.22461846470832825, -0.2815840244293213, -0.07712256908416748, 0.07135091722011566, 0.1333511918783188, 0.001202101120725274, -0.23077300190925598, -0.20862138271331787, -0.12261836230754852, -0.1722995638847351, -0.1378989964723587, -0.07748333364725113, -0.07502426207065582, 0.06150468438863754, -0.29868555068969727, 0.45077869296073914, 0.09633152186870575, -0.3256875276565552, -0.25243884325027466, -0.11914010345935822], [0.08421627432107925, -0.23776741325855255, -0.208319291472435, -0.0069350372068583965, -0.014810985885560513, -0.20792455971240997, -0.10260479897260666, -0.0797523483633995, -0.012130589224398136, -0.03498268499970436, 0.038710884749889374, 0.0044850981794297695, 0.12781600654125214, -0.17238298058509827, 0.036050353199243546, -0.012829484418034554, 0.04396548494696617, -0.13262048363685608, -0.25900134444236755, -0.002037088153883815, -0.06506755948066711, 0.16712787747383118, -0.030340252444148064, -0.25827595591545105, -0.0022201878018677235, -0.006780928000807762, -0.03638453036546707, 0.1043829619884491, -0.16966846585273743, 0.10304592549800873, -0.4132843613624573, -0.04114595055580139, -0.2754760682582855, 0.05955606326460838, -0.010495832189917564, -0.27135738730430603, 0.07591076195240021, -0.19267581403255463, 0.1587315946817398, -0.26163655519485474, -0.12588872015476227, 0.14443045854568481, -0.0797932967543602, -0.07776196300983429, 0.006674337200820446, -0.04822981730103493, -0.02495802380144596, -0.10983453691005707, -0.057906899601221085, -0.1289442479610443, 0.09787482023239136, -0.35198619961738586, -0.22639960050582886, -0.2989673614501953, -0.14185096323490143, -0.02363959699869156, -0.14078393578529358, -0.0052362908609211445, -0.2737094759941101, -0.1867576390504837, -0.164970263838768, -0.2043280154466629, 0.014835519716143608, -0.19812360405921936], [-0.07879839837551117, 0.017113903537392616, 0.07578568160533905, 0.03806580975651741, -0.021095367148518562, -0.08532518893480301, -0.3211577534675598, -0.09031730890274048, -0.22942139208316803, -0.14124923944473267, 0.10900253057479858, -0.14643938839435577, 0.02040591835975647, 0.03611764684319496, -0.009550992399454117, -0.04363008216023445, -0.24939149618148804, -0.2220204770565033, 0.1461908221244812, -0.504459023475647, -0.0730685293674469, -0.16283446550369263, -0.23704876005649567, -0.06950641423463821, 0.06966443359851837, 0.10961200296878815, 0.04122595861554146, 0.11691824346780777, -0.18842707574367523, -0.14727354049682617, -0.2953307628631592, -0.3476812243461609, -0.22169092297554016, -0.14764739573001862, 0.29195636510849, -0.2564462721347809, 0.08714884519577026, -0.5210378170013428, 0.04828394576907158, 0.01588496007025242, -0.24904921650886536, -0.039344362914562225, -0.4971751272678375, -0.03942610323429108, -0.23759613931179047, 0.013021236285567284, 0.05110646039247513, -0.15137504041194916, 0.12523184716701508, -0.38520392775535583, -0.0076770787127316, -0.6018983721733093, 0.0012965056812390685, -0.24097274243831635, 0.12577570974826813, -0.3072411119937897, 0.022935066372156143, -0.15551713109016418, -0.29358914494514465, -0.07518374919891357, -0.12972258031368256, -0.3553164005279541, -0.3969120979309082, 0.14901481568813324], [0.10071668028831482, -0.127629354596138, -0.016102761030197144, -0.255236953496933, -0.04508045315742493, 0.03652044013142586, 0.13852211833000183, -0.23403044044971466, 0.05868925526738167, 0.11478898674249649, -0.12279242277145386, 0.0803193747997284, 0.056918222457170486, -0.14062091708183289, -0.24719233810901642, 0.10845939815044403, -0.19215543568134308, -0.07216481119394302, -0.0638982281088829, 0.1286550909280777, -0.25042545795440674, -0.032117296010255814, -0.21143242716789246, 0.05778200924396515, 0.13102315366268158, -0.955362856388092, -0.11633777618408203, -0.17576541006565094, -0.07508638501167297, -0.23934756219387054, 0.07693750411272049, 0.14241667091846466, 0.08028780668973923, -0.186832457780838, -0.6343747973442078, -0.034130968153476715, -0.21436037123203278, 0.016042759642004967, 0.06409519910812378, 0.06704846769571304, -0.27221137285232544, -0.8683503866195679, 0.228318452835083, -0.02176426537334919, 0.10864821076393127, -0.1857835203409195, 0.0989077240228653, -0.20411814749240875, -0.15260735154151917, -0.08004429936408997, -0.08155283331871033, 0.03297142684459686, -0.10790634155273438, 0.16674387454986572, 0.004672191571444273, 0.17218099534511566, -0.01973016932606697, -0.16823287308216095, -0.11422888189554214, 0.3746022582054138, -0.09111355245113373, 0.035196203738451004, -0.02939562499523163, -0.09342317283153534], [0.3932703733444214, -0.1596362441778183, 0.017474278807640076, -0.05354975163936615, -0.12842300534248352, -0.20001938939094543, -0.6141827702522278, -0.18632952868938446, 0.08364816009998322, -0.5484681129455566, -0.2687872350215912, -0.1721583753824234, 0.001636130502447486, -0.06996240466833115, -0.25474464893341064, -0.2754906713962555, -0.8524574637413025, -0.12802378833293915, -0.23184970021247864, -0.7453189492225647, 0.05804435536265373, 0.25319939851760864, -0.15934544801712036, 0.09093104302883148, -0.10377239435911179, 0.7166987657546997, 0.06206151843070984, -0.021889299154281616, -0.8544805645942688, -0.11002612113952637, -0.8591761589050293, -0.811288595199585, 0.07663414627313614, -0.2574916183948517, 0.13527478277683258, -0.11661718040704727, 0.04079106077551842, -0.5828277468681335, -0.07484748214483261, 0.04012433812022209, -0.048318617045879364, 0.49519026279449463, -1.0252211093902588, -0.24070820212364197, -0.6920995116233826, -0.22759251296520233, 0.002312309108674526, -0.11565212160348892, -0.17763493955135345, -0.7944068312644958, -0.13441577553749084, -0.7920862436294556, 0.11242325603961945, -0.16508576273918152, 0.049857839941978455, -0.41627150774002075, -0.4058563709259033, -0.16609029471874237, -0.5866355299949646, -0.06799738109111786, 0.013003211468458176, -0.7672011256217957, -0.8115620017051697, -0.19402837753295898], [0.16641120612621307, 0.08973643183708191, -0.19166693091392517, -0.082768015563488, 0.12007130682468414, -0.11770938336849213, 0.16058173775672913, 0.019327059388160706, -0.10460501909255981, 0.0048137241974473, 0.09946654736995697, -0.07213706523180008, 0.08779039233922958, -0.04884582757949829, -0.03643888980150223, -0.06326142698526382, -0.05789488926529884, -0.049751609563827515, -0.07635515928268433, 0.20221160352230072, -0.07042452692985535, 0.11685709655284882, -0.05969110131263733, -0.05755370855331421, 0.054551079869270325, -0.22403199970722198, 0.0865500345826149, -0.12280631065368652, 0.13937951624393463, -0.14718034863471985, 0.03167871758341789, 0.08347293734550476, -0.19708658754825592, -0.20515762269496918, -0.12356564402580261, -0.03289920464158058, -0.11859192699193954, -0.21158884465694427, 0.17446334660053253, 0.11871080100536346, -0.0457424521446228, -0.19004720449447632, -0.08119385689496994, -0.1041434109210968, -0.13902415335178375, -0.25640255212783813, -0.04009212553501129, 0.10123853385448456, -0.11522050946950912, 0.19316443800926208, 0.03386805206537247, -0.2661515176296234, 0.03602251410484314, -0.1547020673751831, -0.06240781024098396, 0.015804244205355644, 0.0379752591252327, -0.19086241722106934, -0.1964627206325531, 0.0925600454211235, 0.1045570820569992, -0.2444804310798645, 0.03254717215895653, 0.1182451844215393], [1.0014562606811523, 0.04848671332001686, -0.13799907267093658, -7.545528205810115e-05, 0.08679025620222092, -0.1755533367395401, -0.6977887749671936, -0.15613795816898346, -0.17119349539279938, -0.5933644771575928, -0.058517929166555405, -0.2624356746673584, 0.009115745313465595, -0.03425920754671097, 0.02021211013197899, 0.057078368961811066, -0.6751707196235657, -0.057596370577812195, -0.15866127610206604, -0.7231745719909668, -0.07812443375587463, 0.7980390787124634, -0.26440897583961487, -0.005855366587638855, -0.012346191331744194, 0.7708726525306702, -0.11983457207679749, -0.12774552404880524, -0.6643100380897522, 0.10389597713947296, -0.7810349464416504, -0.47036194801330566, -0.2972913682460785, -0.22138860821723938, -1.247925043106079, 0.006718536373227835, 0.14771012961864471, -0.7619351148605347, -0.20813462138175964, -0.15093612670898438, -0.20298010110855103, 0.21710935235023499, -0.353259801864624, -0.0429377406835556, -0.6139188408851624, 0.04756057262420654, 0.12519598007202148, -0.12624453008174896, 0.13884712755680084, -0.44339415431022644, -0.04784659296274185, -0.5722202062606812, 0.05506979301571846, -0.4512108266353607, -0.22588549554347992, -0.3868577778339386, -0.34330135583877563, 0.28262460231781006, -0.3426707088947296, 0.7802400588989258, -0.06433582305908203, -0.48824843764305115, -0.3334473967552185, -0.11795292794704437], [0.25869235396385193, 0.07079078257083893, -0.2394500970840454, -0.21485209465026855, -0.08080051839351654, 0.12519049644470215, 0.08201204240322113, -0.021315841004252434, -0.22304198145866394, 0.17934666574001312, -0.06725552678108215, 0.01293142605572939, -0.06490817666053772, 0.07671623677015305, -0.1245693564414978, -0.09945504367351532, -0.037444062530994415, -0.029657794162631035, 0.04967568814754486, 0.18948322534561157, -0.008906897157430649, -0.004051700234413147, -0.31054991483688354, -0.23474077880382538, 0.05854395776987076, -0.7011497020721436, -0.1305011510848999, 0.007564257830381393, 0.009029826149344444, -0.009413703344762325, 0.2577238976955414, 0.04083099588751793, -0.1220179945230484, -0.04031301289796829, 0.3227476477622986, -0.13341452181339264, 0.06780184805393219, -0.09761600196361542, 0.030725643038749695, -0.1498326063156128, -0.10912215709686279, -0.7664819955825806, 0.3044050633907318, 0.12227555364370346, -0.10084114968776703, -0.0050138928927481174, -0.2392573058605194, 0.022966818884015083, 0.10244087874889374, 0.20837953686714172, -0.15399760007858276, 0.16054382920265198, -0.07736524939537048, 0.01967344433069229, -0.038197748363018036, 0.09768979251384735, 0.010043214075267315, -0.24750463664531708, 0.014500818215310574, 0.07959911972284317, -0.04756724461913109, 0.07037307322025299, 0.16044911742210388, -0.15607425570487976], [-0.1036209762096405, 0.24059781432151794, 0.07660241425037384, 0.033552952110767365, 0.23493875563144684, -0.05501629412174225, 0.15699221193790436, -0.21057535707950592, -0.10361243039369583, -0.03354186564683914, 0.0528094619512558, 0.025729689747095108, 0.05152977630496025, 0.14093385636806488, -0.008696019649505615, 0.1599981039762497, 0.08796369284391403, 0.08674882352352142, -0.021269097924232483, 0.14745597541332245, -0.09078468382358551, 0.15370580554008484, 0.12710018455982208, -0.10469963401556015, -0.01869724690914154, -0.206644207239151, -0.0963549092411995, 0.18912173807621002, -0.03869369998574257, 0.1340716928243637, -0.005301496479660273, 0.08776123076677322, -0.04894962161779404, 0.09818322956562042, 0.15186724066734314, 0.007382676005363464, 0.051728978753089905, 0.06184614449739456, -0.1692546308040619, -0.14856944978237152, -0.08743280172348022, -0.026181772351264954, -0.02751130796968937, 0.09164120256900787, 0.06051904335618019, -0.13755932450294495, 0.015666693449020386, 0.04283733665943146, 0.11035366356372833, 0.09520193934440613, -0.03101019188761711, 0.13187138736248016, -0.10692641884088516, -0.04536019265651703, -0.16871389746665955, 0.013964646495878696, 0.12799645960330963, -0.10132461786270142, -0.19484443962574005, 0.02801544964313507, -0.04025164246559143, -0.18760403990745544, 0.05348352715373039, 0.03449808061122894], [-0.14287766814231873, -0.12430563569068909, 0.04621928930282593, 0.1293376386165619, 0.1563497632741928, -0.004588678944855928, -0.061028558760881424, -0.13326109945774078, 0.1931675225496292, 0.1856222301721573, -0.2045445740222931, -0.06015752628445625, 0.11297380924224854, -0.09895669668912888, -0.035380274057388306, 0.022817283868789673, 0.18659824132919312, -0.07873103022575378, 0.17647571861743927, 0.011852123774588108, -0.13118968904018402, 0.016009263694286346, 0.033549174666404724, -0.1778644472360611, 0.06316045671701431, -0.15331442654132843, -0.19265304505825043, 0.0008650273084640503, 0.23199966549873352, -0.07377124577760696, 0.11212964355945587, 0.11905593425035477, 0.1520044356584549, -0.11783184111118317, 0.16197490692138672, 0.0498904213309288, -0.1314641237258911, 0.08666447550058365, -0.0996432825922966, -0.19847163558006287, 0.1906326562166214, -0.14469361305236816, -0.09555675089359283, -0.14706632494926453, 0.28798332810401917, 0.10069985687732697, 0.05521826073527336, -0.0787152424454689, -0.0020797867327928543, 0.10562454164028168, 0.25535231828689575, 0.11338012665510178, -0.052328336983919144, -0.12462546676397324, -0.04173962026834488, -0.19646303355693817, 0.09830088168382645, 0.12448565661907196, 0.22423774003982544, 0.22372062504291534, -0.0069743371568620205, 0.28247132897377014, 0.08948460966348648, -0.11286983639001846], [0.24151554703712463, -0.11868514120578766, -0.015260768122971058, 0.30557823181152344, 0.1590537577867508, 0.011379224248230457, -0.12907379865646362, -0.012520715594291687, 0.1607106477022171, -0.02438555471599102, -0.026542097330093384, -0.23248161375522614, -0.041600290685892105, 0.04974938929080963, 0.14572805166244507, -0.12647956609725952, -0.03705723583698273, 0.054710015654563904, -0.04739411175251007, 0.12870384752750397, 0.06711432337760925, 0.18172819912433624, 0.12327362596988678, -0.024100378155708313, 0.02916896715760231, -0.1539420485496521, 0.0376957468688488, -0.21270954608917236, -0.0004549933655653149, -0.1534658521413803, 0.10944905877113342, -0.07769963890314102, -0.03115646168589592, 0.10895568132400513, -0.10498236119747162, 0.24098537862300873, -0.02358025312423706, 0.09561032056808472, -0.1133432611823082, 0.20060496032238007, -0.1464756727218628, -0.035285789519548416, 0.025733910501003265, -0.1937047392129898, -0.06833592057228088, -0.002854930004104972, -0.003530466463416815, -0.028034087270498276, 0.08236147463321686, 0.30007117986679077, -0.06304796785116196, 0.16870617866516113, -0.15848304331302643, -0.26568207144737244, -0.24061913788318634, -0.021488457918167114, 0.26494336128234863, 0.18956606090068817, -0.004641864914447069, 0.15722206234931946, -0.0027349351439625025, 0.017948877066373825, 0.07820706069469452, 0.008748265914618969], [-0.14133456349372864, -0.2807573676109314, -0.10787929594516754, -0.1612793207168579, -0.060880694538354874, -0.23918922245502472, -0.20445822179317474, -0.2522152066230774, -0.14884977042675018, -0.0812547579407692, -0.012164562940597534, 0.06162221357226372, -0.07982483506202698, -0.19320595264434814, -0.036310818046331406, 0.031152108684182167, -0.2800198793411255, 0.026100188493728638, -0.11418092250823975, -0.010816709138453007, 0.04859773814678192, -0.0709906741976738, 0.1887083202600479, -0.1890392154455185, 0.021255169063806534, -0.09333829581737518, -0.08076462149620056, -0.2327488511800766, 0.09303692728281021, -0.11498020589351654, -0.04496857896447182, -0.1451827585697174, 0.029041197150945663, -0.051761627197265625, 0.10601291060447693, 0.13983778655529022, -0.16381485760211945, 0.1012846976518631, 0.08782413601875305, -0.04982811212539673, -0.043496862053871155, -0.1803007572889328, 0.05892883986234665, 0.07819657027721405, 0.009842373430728912, -0.08058685809373856, 0.04528024420142174, 0.08058138191699982, -0.2563876211643219, 0.04924866557121277, -0.00042879130342043936, -0.29264187812805176, -0.16395321488380432, -0.04240194335579872, -0.21504497528076172, 0.09000147134065628, -0.05684562772512436, 0.059430692344903946, 0.0013546515256166458, 0.29312950372695923, 0.0042768255807459354, -0.1534249633550644, -0.22772790491580963, -0.053133368492126465], [0.18976810574531555, -0.011158909648656845, 0.09717582166194916, 0.07016738504171371, -0.12421541661024094, -0.03672568127512932, -0.23502083122730255, 0.05738574638962746, -0.19785934686660767, -0.4513338804244995, 0.04002172127366066, -0.1385311633348465, -0.07112375646829605, 0.0219950620085001, -0.21706810593605042, 0.052638985216617584, -0.2136022448539734, -0.16663917899131775, -0.04894960671663284, -0.35544565320014954, 0.03130228444933891, 0.09617184847593307, -0.04937760531902313, -0.041089609265327454, 0.1178559809923172, 0.38640961050987244, 0.12599147856235504, 0.011028286069631577, -0.4337764382362366, 0.2686959505081177, -0.5712586045265198, -0.3527179956436157, -0.14353279769420624, 0.062243636697530746, 0.08993352949619293, -0.30856752395629883, -0.10107959806919098, -0.5127532482147217, -0.22342361509799957, -0.10177623480558395, 0.03794698417186737, 0.36849796772003174, -0.5383995175361633, -0.1629190891981125, -0.35339465737342834, -0.16295328736305237, -0.20734933018684387, 0.12305604666471481, -0.1369033306837082, -0.07314933836460114, -0.24486127495765686, -0.6695042252540588, 0.09428030252456665, -0.3885231018066406, 0.010395766235888004, -0.21323929727077484, -0.2448829710483551, 0.1999281942844391, -0.03887970745563507, 0.08271541446447372, -0.16530629992485046, -0.543914258480072, -0.37646156549453735, 0.025417175143957138], [0.20648956298828125, 0.08642958104610443, 0.01635332591831684, 0.09890713542699814, 0.10319419205188751, -0.12317876517772675, 0.2097870111465454, -0.09320704638957977, -0.07799230515956879, -0.25790414214134216, -0.13713282346725464, -0.07156335562467575, -0.211903914809227, 0.10250993072986603, -0.0911112129688263, 0.13299641013145447, 0.23598217964172363, -0.03655272722244263, 0.14337454736232758, 0.0374564528465271, -0.021542774513363838, 0.2554613947868347, 0.13326944410800934, 0.09979788959026337, -0.18505972623825073, -0.14698530733585358, -0.0352768637239933, -0.18626943230628967, 0.09506409615278244, -0.23160183429718018, -0.2182975709438324, 0.16849203407764435, -0.11727554351091385, -0.014368267729878426, -0.13067369163036346, 0.017213793471455574, 0.1626625806093216, -0.14655432105064392, 0.0009932070970535278, -0.021615147590637207, 0.18308992683887482, 0.12088672816753387, -0.13088726997375488, 0.09181451797485352, 0.05856464430689812, 0.10135232657194138, -0.17064207792282104, -0.10307192802429199, -0.17738373577594757, -0.14192573726177216, -0.20313788950443268, -0.126389279961586, 0.016407398506999016, -0.1020502969622612, -0.08799218386411667, 0.10977974534034729, -0.13397151231765747, 0.04037441313266754, 0.16054242849349976, 0.13544969260692596, 0.14141538739204407, 0.1593877375125885, 0.0753641203045845, 0.13295692205429077], [0.08927261084318161, 0.09070111066102982, 0.13358154892921448, 0.07852965593338013, -0.16698087751865387, -0.18958266079425812, -0.16314107179641724, -0.2711328864097595, -0.1276736706495285, 0.16154789924621582, 0.12721966207027435, -0.1725015640258789, -0.028599731624126434, 0.031258195638656616, 0.09386932104825974, 0.09224747121334076, 0.14708809554576874, 0.06399361789226532, 0.043322350829839706, -0.01975238509476185, 0.06958314031362534, 0.07274386286735535, 0.07857592403888702, 0.07773445546627045, 0.07951828092336655, 0.1780567467212677, -0.28604790568351746, -0.0970834344625473, -0.04337833821773529, -0.07462290674448013, 0.1265486180782318, -0.22955773770809174, 0.02356562577188015, 0.059402480721473694, 0.09124576300382614, -0.21580985188484192, 0.02957756444811821, -0.1562284529209137, -0.24483317136764526, 0.1890396624803543, -0.21123485267162323, 0.03733786568045616, 0.19755980372428894, 0.004491463303565979, -0.056178946048021317, 0.03574983775615692, -0.1803131252527237, -0.1589002162218094, 0.03744811192154884, -0.15437868237495422, -0.04872848466038704, -0.07404583692550659, -0.11446767300367355, 0.04690961539745331, 0.06086914241313934, 0.14890553057193756, 0.2005053460597992, -0.1586017608642578, -0.1758843958377838, -0.09435232728719711, -0.16024337708950043, 0.0036673955619335175, 0.0012466320767998695, -0.15386684238910675], [0.06918483227491379, 0.14492645859718323, -0.1437697410583496, -0.22401516139507294, 0.12759320437908173, -0.18254539370536804, 0.1643890142440796, 0.02232123725116253, -0.17612479627132416, -0.030039463192224503, 0.12880556285381317, -0.25939032435417175, -0.04248050972819328, -0.24537166953086853, 0.13209852576255798, -0.048060785979032516, 0.13859321177005768, -0.15845368802547455, -0.15993954241275787, -0.16911140084266663, 0.13734079897403717, 0.0365239717066288, -0.12497349083423615, -0.16448447108268738, 0.08319304138422012, -0.4121284782886505, 0.011864245869219303, -0.021502869203686714, -0.19038979709148407, -0.1784818172454834, 0.16178326308727264, 0.026217222213745117, 0.054934486746788025, -0.15357761085033417, -0.03745656833052635, -0.19196052849292755, -0.07352250814437866, -0.001528051681816578, 0.08004213869571686, -0.04279099404811859, -0.24529273808002472, -0.8686059713363647, 0.2031434327363968, -0.022317102178931236, -0.05742780864238739, -0.17411383986473083, -0.11477809399366379, 0.048370517790317535, -0.005172654986381531, 0.11307269334793091, -0.07402850687503815, 0.253917932510376, -0.18703438341617584, -0.16720902919769287, -0.23743943870067596, -0.13818269968032837, -0.008172823116183281, -0.11129201948642731, 0.10204129666090012, 0.10617312043905258, -0.04135136678814888, 0.11665814369916916, 0.029615623876452446, 0.09140308201313019], [0.03242085501551628, 0.06497982144355774, -0.2072242945432663, -0.12039551138877869, 0.11602295935153961, -0.03551313653588295, 0.26815086603164673, -0.18185020983219147, -0.2409152239561081, -0.04660550132393837, -0.04690411686897278, -0.038442835211753845, 0.13312318921089172, -0.06546667218208313, -0.22765426337718964, -0.12483291327953339, 0.2022104412317276, -0.010925420559942722, -0.2042471170425415, 0.13221165537834167, 0.09638703614473343, 0.30376186966896057, -0.3160240650177002, -0.26083531975746155, 0.138386532664299, -1.097049355506897, -0.211452454328537, -0.1533370018005371, 0.04488871246576309, -0.2591298520565033, 0.28296592831611633, 0.024831309914588928, 0.15715298056602478, -0.10954166203737259, 0.05910222604870796, 0.11985623091459274, -0.0009305626153945923, -0.05552874505519867, -0.1496371626853943, -0.16690242290496826, -0.006160689517855644, -1.039538025856018, 0.16742654144763947, -0.22651296854019165, -0.09893730282783508, -0.14684654772281647, -0.05087897554039955, 0.1559808999300003, -0.05925638973712921, -0.06190641596913338, 0.08854657411575317, -0.10268698632717133, -0.10979633778333664, 0.10383042693138123, -0.20957636833190918, 0.1336604207754135, -0.013497257605195045, -0.13574710488319397, 0.20902031660079956, 0.1912079006433487, -0.15348781645298004, 0.15846015512943268, 0.20401176810264587, -0.09482306987047195], [0.4755748212337494, 0.06781948357820511, -0.13071781396865845, 0.02995363436639309, 0.08091329783201218, -0.07517887651920319, -1.080594778060913, -0.13044996559619904, -0.008042472414672375, -0.8542807102203369, 0.016627609729766846, 0.01575358398258686, -0.050807856023311615, 0.059354837983846664, 0.015312151983380318, -0.16919943690299988, -0.8535528779029846, 0.033547643572092056, 0.09345270693302155, -1.2594294548034668, -0.1567310243844986, 0.5439644455909729, -0.018816351890563965, 0.04595668613910675, 0.07444648444652557, 0.7044237852096558, 0.12659548223018646, -0.16136202216148376, -1.112425446510315, -0.19891856610774994, -1.1594537496566772, -1.1421208381652832, -0.11092370003461838, -0.0018625480588525534, -0.24324901401996613, -0.18544502556324005, -0.20652669668197632, -1.075456142425537, -0.11258193105459213, -0.40275463461875916, -0.09597499668598175, 0.7745319604873657, -0.9134178161621094, -0.16696107387542725, -0.8189945220947266, 0.08526728302240372, -0.04579716920852661, 0.10293982177972794, -0.012805411592125893, -0.9633148908615112, -0.1266137659549713, -1.0367282629013062, -0.07470473647117615, -0.40365681052207947, -0.26419350504875183, -0.6445922255516052, -0.3396095633506775, 0.10307813435792923, -0.6515917181968689, 0.8516772389411926, -0.16063547134399414, -1.1841833591461182, -1.0069955587387085, -0.11531072109937668], [-0.5363078117370605, -0.284387469291687, 0.110532745718956, 0.08276548981666565, -0.19003216922283173, -0.12437587976455688, 0.09259089082479477, 0.010705891065299511, -0.18683946132659912, -0.22639839351177216, -0.15580956637859344, -0.01972370781004429, 0.1161005049943924, -0.16694426536560059, -0.08628934621810913, -0.2453111857175827, -0.058505382388830185, -0.03932490199804306, 0.006310383323580027, 0.15346817672252655, -0.11913558840751648, -0.46554961800575256, 0.08810289949178696, 0.03444235399365425, -0.14251013100147247, -0.5869250893592834, 0.04222777485847473, -0.0889711081981659, -0.06114478409290314, -0.12470506876707077, -0.003107966622337699, -0.34837982058525085, -0.12892837822437286, 0.10912348330020905, 0.30416128039360046, -0.23422475159168243, 0.10940021276473999, -0.03549949824810028, -0.1667376309633255, -0.0315370075404644, 0.1296013444662094, -0.5635520815849304, 0.13989020884037018, 0.1318899244070053, -0.13947559893131256, 0.06123514100909233, 0.019933853298425674, -0.112994484603405, -0.10266126692295074, -0.2214953601360321, -0.1320732682943344, -0.4562895894050598, -0.07220998406410217, -0.09066769480705261, -0.14642903208732605, -0.0399772971868515, -0.005906158592551947, 0.022294187918305397, 0.08543572574853897, -0.4321315884590149, -0.12144365161657333, -0.16331852972507477, 0.0840977281332016, -0.12648192048072815], [-0.04441653937101364, -0.2179870456457138, -0.24578431248664856, 0.15403245389461517, 0.0706668570637703, 0.03133589029312134, 0.08585786074399948, 0.16913478076457977, 0.12518435716629028, 0.1506820172071457, 0.033957675099372864, 0.09307999908924103, 0.25070247054100037, -0.08876485377550125, 0.04650280997157097, -0.04136763513088226, -0.26021355390548706, 0.15130381286144257, -0.14817553758621216, -0.14068953692913055, 0.1787930577993393, -0.08113058656454086, -0.01850496232509613, -0.11293603479862213, -0.16856059432029724, -0.12203904241323471, 0.1119680255651474, -0.12529750168323517, -0.21627816557884216, 0.11520076543092728, 0.00413620937615633, 0.06330997496843338, 0.2485150843858719, 0.016412043944001198, -0.08621788024902344, -0.19466732442378998, -0.22854825854301453, 0.12054651975631714, 0.18596680462360382, 0.20161975920200348, 0.14935168623924255, 0.13467465341091156, 0.054387304931879044, 0.06719718128442764, 0.04004279151558876, -0.04640192911028862, -0.1748632937669754, 0.08261489868164062, 0.14005136489868164, 0.11286849528551102, -0.042993467301130295, -0.009439807385206223, -0.1107846349477768, 0.15008050203323364, -0.1283058226108551, -0.23801980912685394, -0.2903377115726471, 0.15357021987438202, 0.008963742293417454, -0.07149719446897507, -0.11266961693763733, -0.00032166048185899854, 0.1372777670621872, 0.11854933947324753], [0.3423211872577667, 0.016431899741292, -0.1531774252653122, -0.06079128384590149, -0.3225786089897156, -0.051369134336709976, -0.03551122173666954, 0.1435522586107254, -0.03353702276945114, -0.08109253644943237, -0.05161944031715393, -0.10298570990562439, -0.2245449721813202, -0.11912069469690323, -0.2564164400100708, 0.11307927221059799, -0.06011870875954628, 0.07817057520151138, -0.11835593730211258, -0.17361871898174286, -0.2101258635520935, 0.2662925720214844, -0.47020161151885986, 0.023078426718711853, 0.0005195139674469829, 0.4806153476238251, -0.17843393981456757, 0.13769803941249847, -0.28563192486763, 0.1702611893415451, -0.2625318467617035, -0.13971079885959625, -0.18021640181541443, 0.17204447090625763, -0.0009350798791274428, -0.005285155493766069, 0.020233402028679848, -0.1586858630180359, -0.12908022105693817, -0.4020528793334961, -0.15175633132457733, 0.08209706097841263, -0.0778365284204483, -0.18764355778694153, -0.19041942059993744, -0.0031306527089327574, -0.3189699351787567, -0.13297675549983978, -0.07741878926753998, 0.10562432557344437, -0.20067563652992249, -0.21060244739055634, 0.16188843548297882, 0.1414555162191391, -0.09035996347665787, -0.18332572281360626, -0.23758721351623535, -0.05811562016606331, 0.0024659764021635056, 0.3405584394931793, -0.21192874014377594, -0.17576156556606293, 0.04605691134929657, -0.027015207335352898], [-0.36290866136550903, 0.08934570103883743, 0.04260652884840965, -0.09894964843988419, 0.08280092477798462, -0.11519461125135422, -0.23623274266719818, 0.08797340095043182, 0.11657218635082245, -0.3319154381752014, -0.21977248787879944, -0.17995843291282654, -0.2685145139694214, -0.22521013021469116, -0.2705722153186798, 0.0403144434094429, -0.34974050521850586, -0.04241003468632698, -0.14262394607067108, -0.10762334614992142, -0.07085801661014557, -0.18644964694976807, -0.11555439233779907, -0.0028560373466461897, -0.251886248588562, 0.0012937425635755062, 0.1320013701915741, -0.1955696940422058, -0.2780165374279022, -0.04688354209065437, -0.519161581993103, -0.3916603922843933, 0.11376189440488815, -0.16568918526172638, 0.30278366804122925, -0.08082645386457443, -0.05880767107009888, -0.1404605358839035, -0.16556844115257263, -0.1817101389169693, -0.04786098748445511, -0.0003424643073230982, -0.13657523691654205, 0.04224766790866852, -0.0937863290309906, -0.016432667151093483, -0.17251527309417725, -0.13747389614582062, -0.11173668503761292, -0.15051542222499847, -0.139608696103096, -0.3419802784919739, 0.1510743349790573, 0.07362056523561478, -0.10554859042167664, 0.03138748183846474, -0.39761465787887573, -0.28687766194343567, 0.009432315826416016, -0.06677776575088501, -0.21207256615161896, -0.2560928463935852, -0.2235545814037323, -0.20154233276844025], [0.3719078600406647, -0.2195780724287033, -0.05168391019105911, -0.2558659017086029, -0.08093719184398651, -0.2771010100841522, 0.01794782280921936, -0.14499057829380035, -0.08301419764757156, -0.06833859533071518, -0.11077076941728592, -0.25809359550476074, 0.04491379112005234, 0.01550799049437046, -0.2038155496120453, -0.11842614412307739, -0.0012186160311102867, 0.11415202170610428, -0.09988749027252197, 0.01587558537721634, -0.17458991706371307, 0.13592182099819183, -0.18156078457832336, -0.09303251653909683, -0.14048436284065247, 0.7252015471458435, -0.2402048408985138, -0.07893618941307068, -0.02216494455933571, -0.08631294965744019, 0.18384596705436707, -0.14323844015598297, 0.041228845715522766, 0.14743201434612274, -0.2303861826658249, -0.200315460562706, -0.2065671980381012, 0.14482975006103516, -0.19229865074157715, -0.39675986766815186, -0.19507427513599396, 0.4396789073944092, -0.0429702065885067, -0.178004190325737, 0.163829505443573, 0.13858330249786377, -0.1291712075471878, 0.013414505869150162, -0.09378761798143387, 0.08855866640806198, 0.06289946287870407, 0.05168003588914871, -0.1872864067554474, -0.12038929760456085, -0.12120022624731064, -0.1769021600484848, -0.203497976064682, 0.14002200961112976, -0.1905079334974289, 0.44416874647140503, -0.028533855453133583, 0.23799146711826324, 0.07900965958833694, -0.16631805896759033], [0.6239724159240723, 0.11684894561767578, -0.19577714800834656, 0.08850337564945221, 0.21492692828178406, -0.116541787981987, -0.4108961224555969, 0.007981563918292522, -0.07914318889379501, -0.18148629367351532, -0.17750325798988342, -0.08878882974386215, -0.1516564041376114, -0.0739491879940033, -0.19709694385528564, -0.16831351816654205, -0.3990497589111328, -0.08441083878278732, 0.09011290967464447, -0.27861419320106506, 0.08698586374521255, 0.8866293430328369, -0.13658754527568817, 0.02865488827228546, -0.2639661431312561, 0.9360876679420471, -0.08059611916542053, -0.14698368310928345, -0.2239542007446289, 0.09502027928829193, -0.23818698525428772, -0.3764529526233673, -0.2877179980278015, 0.0524258092045784, -0.4261735677719116, 0.09882483631372452, -0.030918028205633163, -0.22075238823890686, -0.13215459883213043, -0.48132115602493286, -0.30445465445518494, 0.5490669012069702, -0.23661987483501434, 0.11224095523357391, -0.3735135793685913, -0.055244725197553635, -0.13105225563049316, -0.08391375839710236, -0.24845023453235626, -0.3738071024417877, -0.00012196687021059915, -0.5317738652229309, -0.044053517282009125, -0.12418672442436218, -0.09813080728054047, -0.1683732122182846, -0.1227954775094986, 0.03327352553606033, -0.11881089210510254, 0.7880929112434387, -0.08487076312303543, -0.1389845460653305, -0.2631639838218689, -0.17004834115505219], [-0.01454053446650505, -0.23803851008415222, 0.12818728387355804, -0.12240786105394363, 0.05872511491179466, -0.2775782346725464, -0.042345818132162094, 0.03474145010113716, -0.27297714352607727, 0.13491056859493256, -0.2511884570121765, -0.18655212223529816, -0.24855174124240875, -0.09585745632648468, -0.024143125861883163, 0.02290373295545578, 0.11759380251169205, -0.28864550590515137, -0.2184632271528244, 0.06772041320800781, -0.11618904024362564, -0.12142128497362137, -0.28699567914009094, 0.11084342747926712, -0.06378751993179321, -1.3536113500595093, 0.10545520484447479, -0.003626977326348424, -0.05254150927066803, -0.02289355732500553, 0.011178918182849884, 0.0007940053474158049, 0.029300548136234283, -0.1159365251660347, -0.747232973575592, 0.10709317773580551, -0.25858446955680847, 0.19349460303783417, -0.24140632152557373, -0.21496812999248505, -0.1192244216799736, -1.0590566396713257, 0.07596002519130707, -0.20049673318862915, 0.034565169364213943, -0.1187882050871849, -0.17448653280735016, -0.24248206615447998, 0.08989037573337555, 0.17236250638961792, -0.23863980174064636, -0.15935330092906952, 0.1369224637746811, 0.14684684574604034, 0.09714580327272415, 0.08782869577407837, 0.08761884272098541, 0.1300351768732071, 0.1400246024131775, -0.025982361286878586, 0.09060372412204742, 0.11557877063751221, -0.029544176533818245, 0.026141420006752014], [0.0022013389971107244, 0.19001783430576324, -0.08381422609090805, -0.1143980547785759, 0.05661884695291519, -0.01863887906074524, 0.10980203747749329, -0.11418619751930237, 0.09580971300601959, 0.18389539420604706, -0.20823700726032257, -0.07972706109285355, -0.010216530412435532, -0.14264246821403503, -0.17531266808509827, 0.02008940652012825, -0.06944161653518677, -0.1991950124502182, -0.0930868536233902, -0.024395959451794624, 0.14561763405799866, 0.1730988323688507, 0.05573706328868866, -0.08836633712053299, -0.08115393668413162, -0.024909771978855133, -0.12328075617551804, 0.21129365265369415, 0.19111813604831696, 0.09557916224002838, 0.14668722450733185, -0.21243339776992798, 0.13282765448093414, -0.23933646082878113, 0.006868319120258093, 0.2322281002998352, -0.08934039622545242, 0.16985146701335907, 0.1983553022146225, -0.20906144380569458, 0.008335381746292114, -0.01467164233326912, 0.08895594626665115, 0.04344823583960533, 0.13740362226963043, -0.2130902260541916, -0.16333913803100586, 0.15245968103408813, 0.11650906503200531, -0.0725339725613594, 0.21321649849414825, 0.0519784577190876, 0.1073131412267685, -0.12009591609239578, -0.11608444899320602, -0.08190546929836273, -0.11974448710680008, -0.05909430980682373, 0.13644230365753174, 0.1340510994195938, -0.11080437153577805, -0.08066407591104507, 0.02784942090511322, -0.1076262816786766], [0.0005410705343820155, -0.09035065025091171, -0.051211658865213394, -0.15888071060180664, 0.0007917376351542771, -0.11063285917043686, -0.11183016747236252, 0.19541947543621063, -0.02887466549873352, 0.03090914525091648, 0.15597279369831085, 0.011228260584175587, 0.14166797697544098, -0.07563197612762451, -0.1047929897904396, 0.11090834438800812, 0.16861630976200104, -0.07532235980033875, -0.21129821240901947, -0.1615026444196701, 0.09200253337621689, 0.2278638780117035, 0.07841388881206512, 0.03745894134044647, 0.24120227992534637, -0.18026959896087646, -0.0628492683172226, 0.028950199484825134, -0.18942488729953766, 0.12909500300884247, -0.08700791001319885, -0.1298350840806961, 0.16133612394332886, -0.15276837348937988, 0.08190153539180756, 0.21266503632068634, 0.08224587142467499, 0.24123615026474, 0.1324165016412735, -0.18283526599407196, -0.18956051766872406, -0.1180376335978508, 0.13798865675926208, -0.07701311260461807, -0.11199113726615906, -0.15392686426639557, -0.1588488519191742, 0.13639725744724274, -0.17846611142158508, 0.25264912843704224, 0.0937730222940445, 0.008055893704295158, 0.023422563448548317, -0.14395199716091156, 0.12328644841909409, 0.08876296877861023, -0.03335028514266014, -0.06682923436164856, 0.153980553150177, -0.0587022490799427, 0.12711560726165771, -0.061072614043951035, -0.14970159530639648, 0.20313213765621185], [0.5703129172325134, -0.24314305186271667, -0.0560121051967144, -0.04849088191986084, -0.2571341395378113, -0.27322307229042053, -0.21860699355602264, -0.1581546515226364, -0.2566876709461212, 0.02160058543086052, 0.0634041577577591, -0.1143452376127243, -0.0708453506231308, -0.30303141474723816, -0.03112594410777092, 0.03640475124120712, -0.10605418682098389, -0.03848668932914734, -0.1463010013103485, -0.2881506383419037, -0.14206522703170776, 0.49214568734169006, -0.3540728986263275, -0.1456427425146103, -0.1275646984577179, 0.611499011516571, 0.12107263505458832, -0.07755830883979797, 0.12833458185195923, 0.1282893717288971, -0.21740828454494476, -0.27208736538887024, -0.2094079852104187, -0.24117429554462433, -0.8585103154182434, 0.06578103452920914, -0.14092692732810974, -0.09424645453691483, 0.07494927942752838, -0.2785005569458008, -0.22092479467391968, 0.4831450581550598, -0.10711874812841415, -0.06131520867347717, -0.22680790722370148, -0.24292230606079102, -0.22684414684772491, -0.06093317270278931, 0.0917879194021225, -0.11988003551959991, -0.2541787922382355, 0.049039002507925034, -0.16117236018180847, 0.07961432635784149, -0.21594174206256866, -0.21691188216209412, -0.0982886254787445, 0.005343272816389799, 0.07217298448085785, 0.4583181142807007, 0.048721324652433395, -0.14371123909950256, -0.19910557568073273, -0.18733009696006775], [0.04737444594502449, -0.1272733062505722, -0.14392226934432983, -0.027119874954223633, -0.22509169578552246, -0.07701350003480911, -0.2384246438741684, -0.11783807724714279, 0.15279895067214966, -0.22340801358222961, -0.26971426606178284, -0.1413937211036682, -0.1467960774898529, 0.04302724078297615, 0.03904283046722412, -0.06616845726966858, -0.11964508891105652, -0.09907472878694534, -0.15653108060359955, -0.11814563721418381, -0.16192400455474854, 0.05437161400914192, -0.21091316640377045, -0.12187879532575607, -0.2098984271287918, -0.02240596152842045, -0.11823298037052155, -0.2398272156715393, -0.10542714595794678, -0.01056620478630066, -0.32411712408065796, -0.4190542697906494, -0.05514811724424362, 0.056593332439661026, 0.1990264505147934, 0.07308441400527954, -0.1628011018037796, -0.24242554605007172, 0.10077112168073654, -0.27176517248153687, -0.19986028969287872, 0.1216847151517868, -0.2773456275463104, -0.26060017943382263, 0.033676013350486755, -0.1396304965019226, -0.012997487559914589, -0.2568696141242981, 0.05726858228445053, -0.05479074642062187, -0.0012409818591549993, -0.3721065819263458, 0.010225262492895126, -0.1450643092393875, -0.2217780500650406, -0.35206127166748047, 0.020709197968244553, 0.1369112730026245, -0.17411920428276062, 0.08160459250211716, -0.15630094707012177, -0.017864543944597244, -0.2610327899456024, -0.08056584745645523], [0.22169432044029236, 0.11412898451089859, -0.250609815120697, -0.10441740602254868, 0.12031460553407669, -0.04720637574791908, -0.29953935742378235, -0.2652050256729126, 0.057543735951185226, -0.3030494153499603, -0.1766170710325241, -0.011182709597051144, -0.11306746304035187, 0.12200124561786652, -0.24586938321590424, 0.05040939524769783, 0.10140147060155869, -0.22802340984344482, 0.17487217485904694, -0.26069483160972595, -0.07517651468515396, 0.3030952513217926, -0.11014222353696823, -0.18115364015102386, -0.06627487391233444, 0.3063437342643738, -0.24658629298210144, -0.08874889463186264, -0.2961246371269226, -0.2472839653491974, -0.38527369499206543, -0.08341708779335022, -0.02188834361732006, -0.24087248742580414, -0.991375207901001, 0.16675437986850739, 0.19016458094120026, -0.027774682268500328, -0.06648743152618408, -0.05375542864203453, -0.20378905534744263, 0.17299681901931763, -0.07501743733882904, -0.20207782089710236, -0.2294543981552124, -0.1950393170118332, -0.21413804590702057, -0.1558963507413864, -0.01740458607673645, -0.04235701262950897, -0.09084895253181458, -0.0808408260345459, -0.04567068815231323, -0.03181292861700058, -0.2572903633117676, -0.047051407396793365, 0.03354842588305473, 0.2957921028137207, 0.0415068194270134, 0.20609484612941742, -0.1569693386554718, -0.009895714931190014, -0.2854834496974945, -0.031188227236270905], [0.004749536048620939, -0.010453694500029087, -0.1925000697374344, 0.04543592780828476, -0.1447024643421173, 0.049124497920274734, 0.16133515536785126, -0.03793351724743843, 0.1540497988462448, -0.10756697505712509, 0.10299290716648102, -0.12965768575668335, -0.13885143399238586, -0.006905714049935341, 0.035446204245090485, -0.17746633291244507, -0.08655786514282227, 0.0547475628554821, -0.10593678802251816, -0.09970805048942566, -0.17328789830207825, -0.024765383452177048, -0.10007230937480927, 0.06200839579105377, -0.04170681908726692, -0.18390603363513947, 0.08105224370956421, -0.06519390642642975, -0.0019282619468867779, -0.22860155999660492, 0.08709906786680222, 0.1426536589860916, 0.14020448923110962, -0.08906164020299911, -0.055650293827056885, -0.050049543380737305, -0.12420327961444855, 0.24730592966079712, -0.0340329110622406, 0.0710117518901825, -0.18050773441791534, -0.34941133856773376, 0.040829043835401535, -0.026454588398337364, -0.09031885862350464, 0.004659405909478664, -0.17522168159484863, -0.16692501306533813, 0.084144726395607, 0.09109873324632645, -0.18172504007816315, 0.04188184812664986, 0.1561243236064911, -0.13668039441108704, 0.025151317939162254, 0.10327553004026413, -0.023770814761519432, -0.1314263939857483, -0.14776208996772766, 0.22818221151828766, 0.06096924841403961, 0.18741737306118011, 0.11401817947626114, -0.18660038709640503], [-0.3978826701641083, 0.07028689235448837, -0.06508482247591019, 0.026278814300894737, -0.1923483908176422, 0.0002511529892217368, -0.12129120528697968, 0.08823107182979584, -0.12916718423366547, 0.12298815697431564, 0.07709721475839615, -0.01869315467774868, 0.1332106590270996, -0.26460501551628113, -0.12937818467617035, 0.037073735147714615, -0.09072273224592209, 0.07140006124973297, -0.035126782953739166, -0.15421482920646667, -0.07459358870983124, -0.5540437698364258, 0.06287885457277298, -0.25899988412857056, -0.010380908846855164, 0.061485402286052704, 0.11125776171684265, -0.15819032490253448, 0.0711505115032196, -0.18585418164730072, -0.13882464170455933, -0.2291313260793686, -0.14510123431682587, -0.16776330769062042, 0.014774969778954983, -0.09284135699272156, -0.11517239362001419, 0.03634188324213028, 0.07279817014932632, -0.12918736040592194, -0.023927422240376472, -0.4700338840484619, -0.22567953169345856, 0.1088603287935257, -0.07157739996910095, -0.3291243016719818, -0.15155109763145447, -0.08379239588975906, 0.034803979098796844, 0.03259262442588806, 0.07005515694618225, -0.38990283012390137, 0.18681195378303528, 0.17721959948539734, -0.15053847432136536, -0.0643882155418396, 0.11951494961977005, -0.09242068231105804, 0.10695664584636688, -0.8324043154716492, 0.14494293928146362, -0.16140000522136688, -0.011819492094218731, -0.2982509136199951], [0.1986023187637329, 0.09132583439350128, -0.09248396754264832, 0.0938488021492958, -0.15861433744430542, -0.16195276379585266, 0.15274232625961304, 0.13051597774028778, -0.0327419638633728, -0.23375734686851501, -0.12604540586471558, -0.14139702916145325, -0.11792425811290741, -0.17372958362102509, 0.09541688114404678, 0.1251971423625946, -0.19905509054660797, 0.1643175631761551, -0.05103229731321335, -0.18182095885276794, -0.002653119619935751, 0.15842868387699127, 0.12236405909061432, -0.1800633668899536, -0.01806022599339485, -0.18831300735473633, -0.24518628418445587, 0.12235504388809204, 0.16007231175899506, -0.20768670737743378, 0.13112705945968628, -0.0936800017952919, 0.03805018216371536, -0.06214379891753197, 0.037687998265028, 0.10578872263431549, -0.13074004650115967, 0.00905117392539978, -0.14444078505039215, 0.06630022823810577, 0.006212738808244467, -0.0066441819071769714, -0.23077690601348877, 0.05421185865998268, -0.07154311239719391, 0.035938359797000885, -0.1419602781534195, 0.16408780217170715, -0.13339367508888245, 0.03788749873638153, 0.12438247352838516, 0.08312231302261353, 0.03849218413233757, -0.022881587967276573, 0.03032865561544895, 0.021406222134828568, -0.14205916225910187, -0.11762110143899918, 0.002118979813531041, -0.15565459430217743, 0.04552362486720085, -0.15136870741844177, -0.08373969048261642, -0.07688460499048233], [-0.2754860520362854, 0.004110437352210283, 0.03551388159394264, 0.038975607603788376, 0.08033808320760727, -0.10261636972427368, -0.3481270372867584, -0.14542725682258606, -0.06408962607383728, -0.1441125124692917, 0.11142485588788986, 0.03212857246398926, 0.11196199059486389, -0.017996689304709435, -0.24153786897659302, -0.20391781628131866, -0.21803788840770721, 0.013439351692795753, 0.005884496029466391, -0.2730412483215332, -0.09069570153951645, -0.2988901734352112, -0.27670860290527344, 0.08602513372898102, -0.09468650817871094, -0.08378107845783234, -0.14818178117275238, 0.11446027457714081, -0.32690688967704773, -0.11796603351831436, -0.2826261520385742, -0.2979201078414917, -0.10602829605340958, -0.1714562475681305, 0.21489426493644714, -0.0056292470544576645, 0.017464181408286095, -0.3029056191444397, 0.11752462387084961, 0.048954978585243225, -0.0014110356569290161, 0.09850595891475677, -0.10901143401861191, -0.002064175670966506, -0.21451538801193237, 0.11772343516349792, -0.0926969051361084, -0.1290532499551773, -0.15460829436779022, -0.09895483404397964, -0.22884522378444672, -0.18256698548793793, -0.17120766639709473, -0.3458034098148346, -0.14810754358768463, -0.03929733484983444, -0.1519126296043396, -0.14200051128864288, 0.010928990319371223, 0.058261461555957794, -0.2908158302307129, -0.11703852564096451, -0.2323819100856781, 0.04962925612926483], [0.026781126856803894, 0.07088520377874374, 0.01784852147102356, 0.11710643768310547, -0.001284725614823401, -0.0868234932422638, 0.06915546208620071, -0.26115238666534424, -0.2219216674566269, 0.15148106217384338, -0.0859760195016861, 0.07881851494312286, -0.20313097536563873, -0.2663315534591675, -0.14552752673625946, -0.1113835796713829, 0.15747250616550446, -0.29756203293800354, -0.10909459739923477, 0.16220146417617798, 0.07431097328662872, 0.24702051281929016, -0.30055612325668335, -0.2049843966960907, -0.2344539910554886, 0.13492317497730255, -0.028058769181370735, -0.24416129291057587, -0.01921885833144188, 0.13463424146175385, -0.0851537212729454, -0.009189173579216003, 0.08393304795026779, 0.040256716310977936, 0.027492893859744072, 0.014349911361932755, 0.131845161318779, 0.004291186109185219, -0.2024141550064087, -0.2727369964122772, -0.16114398837089539, 0.16491982340812683, 0.056283529847860336, 0.04086514934897423, 0.03613312914967537, 0.07918020337820053, -0.18218441307544708, 0.03783279284834862, -0.21192549169063568, 0.20333702862262726, -0.001090537989512086, 0.013949122279882431, -0.12893304228782654, 0.010872461833059788, 0.013327069580554962, 0.010606390424072742, -0.026862777769565582, -0.08314631134271622, 0.03312014788389206, 0.04933621734380722, 0.03292376548051834, 0.03381718695163727, 0.09103195369243622, -0.2343907356262207], [0.1855808049440384, 0.06773887574672699, 0.20904441177845, 0.12698553502559662, -0.05560825765132904, 0.2082083374261856, -0.11926879733800888, 0.19718612730503082, -0.2019960731267929, 0.11857165396213531, 0.0832834392786026, -0.09287098050117493, 0.2068507820367813, 0.0748889297246933, -0.008152440190315247, -0.08055196702480316, -0.11339278519153595, -0.11991468816995621, 0.10890109837055206, 0.02819715440273285, -0.05937717854976654, -0.0984206572175026, -0.2016059160232544, -0.207711324095726, 0.12832580506801605, 0.04794062674045563, 0.1396857053041458, 0.17511142790317535, 0.05979333817958832, -0.16496607661247253, 0.1471104472875595, 0.10238130390644073, 0.04285918176174164, 0.03557361662387848, -0.05018220841884613, 0.06528209149837494, -0.05975501239299774, 0.10069893300533295, 0.05749689042568207, 0.00140419602394104, -0.1515958309173584, -0.08973318338394165, 0.07955087721347809, 0.075860396027565, 0.18820108473300934, -0.19891919195652008, -0.04665602743625641, -0.027009889483451843, 0.06164620816707611, 0.1785125583410263, 0.18724258244037628, -0.014117807149887085, 0.057249054312705994, 0.17066700756549835, 0.2153444141149521, 0.04801155626773834, 0.09444750845432281, 0.050211235880851746, 0.05569474399089813, 0.07375262677669525, -0.07801558077335358, -0.15442834794521332, -0.18760786950588226, 0.08809696137905121], [0.1778915375471115, 0.08986756950616837, 0.015750162303447723, -0.15841853618621826, -0.09312707185745239, -0.040872279554605484, -0.22679246962070465, 0.12405995279550552, 0.01817329227924347, -0.22592885792255402, -0.16481511294841766, -0.19462844729423523, -0.20913651585578918, 0.17386068403720856, -0.032658737152814865, -0.27638423442840576, -0.1174268126487732, 0.045108068734407425, 0.09198163449764252, -0.14346002042293549, 0.1593352109193802, 0.260334849357605, 0.21976733207702637, -0.2074517160654068, -0.02741226926445961, -0.2912227511405945, 0.1352856308221817, 0.0354875773191452, 0.08848024159669876, 0.041753850877285004, -0.24672049283981323, -0.07764582335948944, -0.24659039080142975, 0.1309768408536911, -0.01094330195337534, 0.04300478845834732, -0.26127541065216064, -0.21298809349536896, -0.12553568184375763, -0.12196728587150574, -0.05637229233980179, -0.6982552409172058, -0.17316408455371857, -0.2687438130378723, 0.016201341524720192, 0.19950895011425018, 0.014025051146745682, -0.07902470976114273, -0.19706980884075165, 0.09154901653528214, 0.08575376868247986, -0.1717281937599182, -0.10281527787446976, -0.06638967245817184, -0.2680423855781555, -0.2663055658340454, 0.08194611966609955, 0.07262695580720901, -0.049986790865659714, 0.1430644690990448, 0.0626831129193306, -0.10992162674665451, -0.3100092113018036, -0.17007966339588165], [0.06234017759561539, 0.05647644028067589, -0.1351439654827118, -0.16618111729621887, -0.1989874243736267, -0.1467604637145996, 0.0371381901204586, -0.2138860523700714, -0.028976909816265106, 0.06130261719226837, 0.06766815483570099, -0.00020489920279942453, -0.010927071794867516, -0.04223480448126793, -0.006024853326380253, -0.1554681360721588, 0.14717501401901245, -0.17466674745082855, 0.1035422533750534, -0.13596129417419434, -0.02031102031469345, 0.12212534248828888, -0.5333064198493958, -0.21549008786678314, -0.13908465206623077, 0.29658833146095276, 0.07036840170621872, -0.242741659283638, -0.012545946054160595, 0.11451959609985352, 0.207830011844635, -0.0835147276520729, -0.03215499594807625, 0.08137612789869308, -0.7362779378890991, 0.11338910460472107, -0.21423222124576569, 0.046140074729919434, -0.20006847381591797, -0.10730399936437607, -0.17483018338680267, 0.2557761073112488, 0.16601233184337616, -0.10615779459476471, -0.09801292419433594, 0.13797372579574585, 0.09215409308671951, 0.0020360583439469337, -0.1878211498260498, -0.01320763397961855, -0.2651185393333435, -0.14873556792736053, -0.10496324300765991, 0.24351027607917786, 0.058956339955329895, 0.08362646400928497, 0.05468481034040451, -0.030062027275562286, -0.12600022554397583, 0.14714939892292023, 0.05584288761019707, 0.24481093883514404, 0.049127306789159775, -0.06548835337162018], [0.12030092626810074, -0.1577160656452179, -0.10530830174684525, 0.12115754187107086, -0.032203901559114456, 0.020478134974837303, 0.003796675242483616, -0.1478348672389984, 0.046982407569885254, -0.013449117541313171, 0.07735411822795868, 0.037340205162763596, -0.11960979551076889, -0.03869703412055969, 0.10725017637014389, -0.03546740487217903, 0.03696306049823761, -0.13971462845802307, -0.11339300870895386, 0.14136286079883575, 0.0626056119799614, -0.17449712753295898, -0.12905430793762207, 0.15379878878593445, 0.031069105491042137, -0.07101349532604218, -0.06575953960418701, -0.11567497253417969, -0.23886586725711823, -0.1371014416217804, -0.1980666071176529, -0.156367227435112, 0.16226187348365784, 0.049490202218294144, 0.1434754729270935, -0.035373054444789886, -0.2081661969423294, -0.03358237445354462, -0.20564253628253937, 0.02634677290916443, -0.03137589246034622, -0.20655108988285065, 0.09005825966596603, 0.11867685616016388, -0.010853416286408901, -0.01708441972732544, -0.0942748412489891, -0.10171426087617874, 0.10163052380084991, -0.10839024186134338, -0.09703486412763596, -0.23889310657978058, 0.15180660784244537, -0.01220973115414381, -0.1641869693994522, -0.029493600130081177, -0.19553296267986298, 0.2285442054271698, 0.06547028571367264, 0.017460709437727928, 0.14991125464439392, -0.23747970163822174, -0.1656363159418106, -0.25435173511505127], [0.44735008478164673, 0.10063324123620987, -0.011549538932740688, 0.05352221056818962, 0.14815008640289307, -0.2141815721988678, 0.18329451978206635, 0.14467503130435944, -0.2571984827518463, 0.18932035565376282, 0.10966257750988007, -0.19553005695343018, 0.04167342558503151, -0.015565186738967896, 0.08863359689712524, 0.20337800681591034, -0.08760841935873032, -0.07357573509216309, -0.14519695937633514, 0.08215322345495224, -0.132659912109375, 0.354230672121048, 0.09634014219045639, -0.16109591722488403, -0.04527849331498146, 0.30611059069633484, 0.057338230311870575, 0.0016772598028182983, 0.0580277293920517, -0.22675028443336487, 0.03997908532619476, 0.025673430413007736, -0.25328388810157776, -0.2667393684387207, -0.004050080198794603, -0.07377026230096817, 0.0919424444437027, -0.024909768253564835, -0.18667662143707275, -0.4151889383792877, -0.2315237820148468, 0.36493566632270813, 0.0731191337108612, -0.03445471450686455, -0.15890537202358246, 0.02027764357626438, -0.185792475938797, 0.21714544296264648, -0.13207709789276123, -0.16740822792053223, -0.25056371092796326, 0.21717342734336853, -0.15681049227714539, -0.3376593589782715, 0.024072440341114998, 0.15051057934761047, -0.23035109043121338, 0.24518680572509766, 0.1410793513059616, 0.5104849338531494, -0.20015865564346313, -0.016653571277856827, -0.013416506350040436, -0.2738238275051117], [-0.13806389272212982, -0.0855436846613884, -0.19347718358039856, -0.06893491744995117, -0.01572263613343239, 0.11519628763198853, -0.2046799659729004, -0.018082166090607643, 0.07814740389585495, -0.11710867285728455, 0.12876398861408234, 0.11717857420444489, -0.0051659028977155685, -0.13618214428424835, 0.016747456043958664, -0.121924489736557, -0.027166852727532387, -0.10732261091470718, 0.14214782416820526, 0.04633269086480141, -0.19332168996334076, 0.17829743027687073, -0.03678418695926666, 0.036702051758766174, -0.1953524798154831, -0.11639846861362457, -0.11842512339353561, 0.015313133597373962, 0.14966243505477905, 0.060516998171806335, 0.10683269053697586, 0.03366400673985481, -0.02143486589193344, -0.2428218424320221, -0.00168418581597507, -0.2699243128299713, -0.011866021901369095, 0.07673629373311996, -0.14130310714244843, 0.08364184200763702, -0.012379477731883526, 0.0330878347158432, -0.1579841524362564, -0.07133860141038895, 0.15609487891197205, 0.03151852265000343, -0.10864812135696411, 0.01233301218599081, 0.012291799299418926, -0.036580152809619904, -0.06008891016244888, -0.2757905423641205, -0.07987891137599945, -0.05677150562405586, 0.09051411598920822, 0.11607081443071365, -0.03548424318432808, 0.06283386051654816, -0.1395186483860016, 0.18091097474098206, -0.14757545292377472, -0.009224188514053822, -0.2116711288690567, -0.08856050670146942], [0.915073812007904, 0.03064008429646492, 0.09355849772691727, -0.057092055678367615, 0.21796956658363342, -0.04966369643807411, -0.37415996193885803, -0.01424311101436615, 0.05835406109690666, -0.25588536262512207, -0.12147342413663864, 0.0719243660569191, 0.03472372889518738, -0.253139466047287, 0.20255419611930847, -0.14398619532585144, -0.38005897402763367, 0.04750324785709381, -0.040125876665115356, -0.41339176893234253, 0.09241251647472382, 0.942923903465271, 0.06036491319537163, -0.12874005734920502, 0.0917101800441742, 0.47014597058296204, 0.12155522406101227, 0.12047682702541351, -0.3732532858848572, 0.13682246208190918, -0.41983476281166077, -0.33925849199295044, -0.04842545837163925, -0.142375648021698, 0.5557077527046204, -0.22666394710540771, -0.11533753573894501, -0.18239204585552216, -0.05439580976963043, -0.360289067029953, -0.12082035094499588, 0.48753809928894043, -0.3124256432056427, -0.08049678802490234, -0.25983402132987976, -0.0910222977399826, -0.20065276324748993, 0.02368692122399807, -0.0667584091424942, -0.2395492047071457, -0.2573472559452057, -0.47320300340652466, -0.24843451380729675, -0.4797554314136505, -0.07813010364770889, -0.42971765995025635, -0.11809533089399338, 0.03914837911725044, -0.11174555867910385, 0.8616626262664795, -0.146257221698761, 0.019618837162852287, -0.07287101447582245, -0.24096788465976715], [0.18402032554149628, -0.18425501883029938, 0.07682846486568451, 0.03134534880518913, -0.26309260725975037, 0.07709942013025284, 0.013303830288350582, -0.10198753327131271, 0.110600046813488, 0.27724912762641907, -0.29780611395835876, -0.307769775390625, 0.13134929537773132, -0.23877207934856415, 0.04713013023138046, -0.1820770651102066, 0.29047146439552307, -0.3264090418815613, 0.02975510060787201, -0.017659638077020645, 0.031493157148361206, 0.15577948093414307, -0.31352728605270386, -0.22025306522846222, -0.002885680180042982, -1.1106685400009155, -0.08727509528398514, -0.20301459729671478, 0.2075093686580658, -0.1882280558347702, 0.20578379929065704, -0.061499133706092834, -0.19631022214889526, 0.11548861861228943, -0.24033930897712708, -0.0003663061070255935, -0.11216136068105698, 0.035823967307806015, -0.203187495470047, -0.16991223394870758, -0.21389447152614594, -1.3386350870132446, 0.23575539886951447, 0.022852420806884766, 0.020145900547504425, 0.15607023239135742, -0.265512079000473, 0.053982652723789215, 0.08623681962490082, -0.08786274492740631, 0.07777173817157745, 0.2829701006412506, 0.09676190465688705, 0.08154706656932831, 0.07800871133804321, -0.030595146119594574, 0.0506325364112854, 0.17702056467533112, 0.19544540345668793, 0.12106728553771973, 0.1040806993842125, 0.06799836456775665, 0.201396644115448, 0.0011290843831375241], [-0.13580477237701416, -0.1013297364115715, -0.13518652319908142, -0.07437507808208466, -0.1658926010131836, -0.26383620500564575, -0.025119157508015633, -0.15011397004127502, -0.12142132222652435, 0.11586739122867584, -0.12631504237651825, -0.19625450670719147, 0.11745419353246689, -0.15859189629554749, -0.2458621710538864, -0.23283739387989044, 0.0006110018584877253, 0.0024854352232068777, -0.05150347948074341, 0.16546349227428436, -0.13872499763965607, -0.003960884641855955, -0.30006247758865356, 0.00771824736148119, -0.12069661915302277, -2.0952911376953125, -0.03616075590252876, 0.19825021922588348, 0.24651406705379486, 0.0034927737433463335, -0.02433439902961254, 0.27901750802993774, -0.15271282196044922, 0.13997255265712738, -0.2593623995780945, -0.06642825156450272, 0.035622552037239075, 0.168873593211174, 0.20854149758815765, 0.11119983345270157, 0.001109689474105835, -1.1907262802124023, 0.03212282061576843, -0.058287668973207474, 0.21192291378974915, 0.01482001319527626, -0.14280445873737335, 0.05035346746444702, -0.025222092866897583, 0.16650612652301788, 0.07937672734260559, -0.03540309518575668, 0.07169802486896515, -0.07995929569005966, -0.06468838453292847, 0.108945332467556, 0.05049454793334007, -0.21669669449329376, 0.2596784234046936, -0.33184701204299927, 0.2230629324913025, 0.026603855192661285, 0.07286267727613449, -0.19393429160118103], [-0.22620165348052979, -0.053780343383550644, 0.07540921866893768, 0.03267639875411987, -0.1978616863489151, -0.20428848266601562, -0.19119036197662354, 0.1179896891117096, -0.09153798967599869, -0.05468817055225372, -0.0848165974020958, -0.03222615271806717, -0.17173761129379272, -0.040777310729026794, -0.09217637777328491, -0.2746225893497467, -0.3005501925945282, 0.03127693384885788, 0.05541977658867836, -0.004988318774849176, 0.04255841299891472, -0.03846646100282669, -0.014487609267234802, 0.14918473362922668, 0.07673203200101852, -1.3727941513061523, -0.19460457563400269, 0.045168861746788025, -0.04607398808002472, 0.012051846832036972, -0.1199769675731659, 0.0182951632887125, -0.04511647671461105, 0.06687778234481812, 0.022064073011279106, 0.12908686697483063, -0.2758180499076843, 0.10406041145324707, -0.25926145911216736, -0.09704392403364182, -0.10001407563686371, -0.7165438532829285, -0.27649933099746704, -0.26986759901046753, 0.05798253417015076, 0.03590977191925049, 0.017753582447767258, 0.14385026693344116, 0.07764721661806107, -0.17667587101459503, -0.2653558850288391, 0.00919436477124691, -0.17538076639175415, -0.18931354582309723, -0.23228858411312103, -0.051824524998664856, 0.05978989973664284, -0.16140732169151306, 0.1536359041929245, 0.6887746453285217, -0.18015357851982117, 0.2232227474451065, -0.09094531834125519, -0.19138211011886597], [0.3920745253562927, -0.09819938987493515, -0.009739747270941734, -0.07083561271429062, -0.10788848251104355, 0.09462094306945801, 0.02709347754716873, 0.09671422839164734, -0.10588696599006653, 0.02704634703695774, -0.20752586424350739, -0.17737416923046112, -0.22594685852527618, 0.030177870765328407, -0.18039719760417938, -0.2576267123222351, 0.14487409591674805, -0.22611328959465027, -0.16660436987876892, -0.0797436386346817, 0.16050539910793304, 0.6090469360351562, -0.3222307562828064, -0.1762157827615738, -0.2609993815422058, 0.4629420340061188, -0.12612275779247284, 0.10810535401105881, 0.21538548171520233, -0.07510858029127121, -0.024484561756253242, -0.15883579850196838, -0.0980304554104805, -0.011201637797057629, -0.2512134313583374, -0.09845664352178574, 0.14990262687206268, -0.14621394872665405, -0.16234873235225677, -0.07899989187717438, -0.005770023912191391, 0.4340693950653076, -0.1405949890613556, 0.0925179198384285, -0.06142021715641022, -0.08922064304351807, -0.10015848278999329, 0.07110091298818588, 0.1904071718454361, -0.23265637457370758, 0.017435897141695023, 0.1972295045852661, 0.13800984621047974, -0.30133256316185, 0.022868968546390533, -0.21314989030361176, -0.16349898278713226, -0.10848730057477951, -0.13767209649085999, 0.4693843126296997, -0.08633135259151459, 0.17194484174251556, 0.026378994807600975, -0.2954252362251282], [0.9449863433837891, -0.044163238257169724, -0.04468204826116562, 0.0819006860256195, -0.24095526337623596, -0.02001234143972397, -0.2888720631599426, -0.11086955666542053, -0.12750530242919922, -0.13042134046554565, -0.1772294044494629, -0.1606615036725998, -0.02680930495262146, 0.11657115817070007, 0.15615133941173553, -0.23882341384887695, -0.45045024156570435, -0.19766126573085785, 0.08079565316438675, -0.04017851874232292, -0.19988104701042175, 0.9010530710220337, -0.1625133901834488, 0.045990392565727234, -0.2505477964878082, 0.8907148838043213, -0.08804003149271011, -0.08133469521999359, -0.22625233232975006, -0.043214213103055954, -0.5024346113204956, -0.6450162529945374, 0.10671605914831161, -0.09547023475170135, -0.9076738357543945, -0.3097706437110901, -0.12267988920211792, -0.2945494055747986, -0.0855376273393631, -0.25295111536979675, -0.10332491248846054, 0.4363311231136322, -0.47534915804862976, -0.1671665906906128, -0.0011211400851607323, -0.09782310575246811, -0.07543150335550308, 0.09692888706922531, -0.07986274361610413, -0.010408151894807816, -0.07082676887512207, -0.40606385469436646, 0.0336003378033638, -0.42234668135643005, 0.2470531463623047, -0.34059256315231323, -0.22289825975894928, 0.14486223459243774, -0.16488789021968842, 0.8844719529151917, -0.2307494729757309, -0.18735523521900177, -0.2944236099720001, 0.09552973508834839], [0.0155136464163661, 0.10020230710506439, -0.10517200827598572, 0.12341763079166412, -0.09976376593112946, 0.13162723183631897, 0.257132351398468, 0.020044956356287003, 0.07852987200021744, 0.25554391741752625, -0.291048139333725, -0.20087435841560364, -0.10593166947364807, 0.08479869365692139, 0.05269869416952133, 0.0008634926634840667, -0.04543570056557655, -0.1828143447637558, -0.02796885371208191, 0.15967121720314026, -0.16819679737091064, -0.20695754885673523, -0.25200900435447693, 0.08532765507698059, 0.13895216584205627, -1.745400071144104, -0.14582699537277222, -0.06410225480794907, -0.032229430973529816, 0.039281316101551056, 0.23673687875270844, 0.25406312942504883, 0.13041836023330688, -0.1571216881275177, -0.016492698341608047, -0.1542922556400299, -0.14429311454296112, 0.22553355991840363, -0.10595539957284927, -0.09768813103437424, 0.034039098769426346, -1.2145805358886719, 0.22544370591640472, -0.04914640635251999, 0.2500346004962921, -0.23647145926952362, -0.02650020271539688, -0.21300341188907623, -0.06367282569408417, 0.1258147954940796, 0.029132002964615822, 0.22394979000091553, 0.025761643424630165, 0.243635892868042, 0.03826030343770981, 0.12630735337734222, -0.110287606716156, -0.09040990471839905, -0.12702517211437225, -0.25784385204315186, -0.02761227823793888, 0.09319086372852325, 0.09899506717920303, -0.32440805435180664], [-0.5146616101264954, 0.04214552789926529, -0.24782687425613403, -0.08788294345140457, -0.13548189401626587, 0.05356995388865471, 0.12349990755319595, -0.1843123435974121, 0.05124615132808685, -0.23554113507270813, -0.15067704021930695, 0.054478440433740616, -0.036749839782714844, -0.25612902641296387, -0.27635326981544495, -0.2157348096370697, -0.24012094736099243, -0.08561629056930542, -0.05282213166356087, -0.11373099684715271, -0.2423214614391327, -0.7791416645050049, -0.12555372714996338, -0.05028464272618294, 0.10333441942930222, 0.47553372383117676, -0.08014827221632004, -0.16612407565116882, 0.01975521259009838, -0.15942813456058502, -0.5159114599227905, -0.5788891911506653, 0.13575002551078796, -0.2560635209083557, 0.01721734181046486, -0.2556909918785095, -0.10309657454490662, 0.02827264554798603, -0.11545979231595993, -0.19218242168426514, -0.2484927922487259, 0.5099753141403198, -0.28701546788215637, -0.08359521627426147, -0.21628758311271667, -0.07711061835289001, -0.10721435397863388, -0.22414712607860565, -0.13541093468666077, -0.05078136920928955, -0.11243559420108795, -0.5350849628448486, -0.0042685638181865215, -0.18719694018363953, -0.19738216698169708, -0.22904998064041138, -0.022974947467446327, -0.5893166661262512, 0.09952869266271591, -0.3506976366043091, 0.1293485164642334, 0.05540463700890541, -0.0999206155538559, -0.1666141003370285], [0.24458159506320953, -0.06452080607414246, -0.19328178465366364, -0.03858811408281326, 0.15576985478401184, -0.01741241291165352, 0.07667160034179688, 0.08656568825244904, 0.08235909044742584, -0.0638674944639206, 0.031386807560920715, -0.03328187018632889, 0.01997922733426094, 0.004976779222488403, -0.20207159221172333, -0.2501584589481354, 0.09265705198049545, 0.02666620910167694, -0.20666219294071198, 0.04270235449075699, 0.07846072316169739, 0.07433940470218658, -0.12173570692539215, -0.25083184242248535, 0.11877889931201935, -0.25655674934387207, 0.05475775524973869, -0.05306851863861084, -0.14723987877368927, -0.20602792501449585, -0.16977658867835999, -0.09821753948926926, 0.18816788494586945, -0.04115384817123413, 0.1285717636346817, 0.15084505081176758, 0.04534820094704628, -0.12537698447704315, -0.15723980963230133, -0.11704935878515244, 0.04962678253650665, -0.09035429358482361, 0.11932721734046936, -0.20150060951709747, 0.08811763674020767, 0.10852422565221786, -0.1297939121723175, 0.031702276319265366, -0.008258812129497528, -0.12423637509346008, 0.2391805350780487, 0.23751409351825714, 0.11837296932935715, 0.1403559148311615, -0.03595084697008133, 0.15226784348487854, -0.046022843569517136, -0.1519434005022049, -0.05951766297221184, -0.026264917105436325, 0.03364274278283119, 0.13324742019176483, 0.11479386687278748, 0.06839810311794281], [0.05350548401474953, 0.12893974781036377, -0.003124639391899109, -0.2581943869590759, 0.04080326482653618, -0.16623347997665405, -0.288707971572876, -0.269791841506958, -0.30265501141548157, -0.34911367297172546, -0.037190210074186325, -0.04294231906533241, -0.1470707654953003, -0.2655891180038452, -0.12116288393735886, 0.12341883033514023, -0.1468648612499237, -0.12446676939725876, 0.024428419768810272, -0.21000343561172485, -0.2527100145816803, 0.06267406046390533, -0.19035562872886658, -0.10525590926408768, 0.10208239406347275, 0.39763393998146057, 0.06928212940692902, 0.005741818342357874, -0.06037890538573265, 0.11239530146121979, -0.13699275255203247, -0.28788673877716064, -0.2933866083621979, 0.13578201830387115, 0.06183720752596855, -0.06443385034799576, 0.14076165854930878, -0.08020762354135513, -0.0867813378572464, -0.06565169990062714, -0.28305044770240784, 0.06693140417337418, -0.4243575930595398, -0.11149434000253677, -0.21405743062496185, -0.0451018251478672, -0.1259240061044693, 0.1022740826010704, -0.08786283433437347, -0.10557078570127487, -0.21966803073883057, -0.41680365800857544, -0.2570285201072693, -0.23095135390758514, 0.09658412635326385, -0.25276535749435425, -0.21124516427516937, 0.14360402524471283, -0.2885726988315582, 0.10345620661973953, 0.06934323161840439, -0.36680886149406433, -0.21190421283245087, 0.08733059465885162], [0.2786884009838104, -0.03355051577091217, -0.17603063583374023, -0.23746681213378906, 0.036640942096710205, -0.24257223308086395, 0.1753048449754715, 0.15932665765285492, -0.2584489583969116, -0.09359019994735718, 0.06685663014650345, -0.05235748365521431, -0.12376797944307327, 0.031638238579034805, 0.012537762522697449, -0.23269818723201752, 0.15547922253608704, -0.22323818504810333, -0.07655826956033707, -0.09230907261371613, -0.20877236127853394, 0.23436526954174042, -0.3529670536518097, 0.08353464305400848, -0.21218352019786835, -1.5287538766860962, -0.1017419770359993, -0.08665937185287476, 0.07766497880220413, -0.21160174906253815, 0.23282134532928467, 0.1948302835226059, 0.15796685218811035, 0.11379347741603851, -0.7766805291175842, -0.13423225283622742, -0.1702241599559784, 0.19243548810482025, 0.21171869337558746, 0.12275335937738419, 0.0019077302422374487, -1.3769711256027222, 0.24424414336681366, -0.16852067410945892, -0.1464611440896988, 0.07497648894786835, -0.008387519046664238, -0.054578106850385666, 0.010847419500350952, 0.23756170272827148, -0.18755440413951874, 0.30423086881637573, -0.023949842900037766, -0.14966367185115814, -0.10266374051570892, 0.053754232823848724, -0.04259374365210533, -0.16817688941955566, 0.0229497030377388, 0.30272355675697327, -0.057611849159002304, -0.009669843129813671, 0.21869808435440063, 0.047844111919403076], [-0.07146557420492172, -0.14345483481884003, 0.016866400837898254, -0.21415001153945923, -0.1450835019350052, 0.14516764879226685, 0.12417427450418472, 0.0022227310109883547, 0.0036999089643359184, 0.12533289194107056, -0.06781959533691406, -0.16229984164237976, -0.1941327601671219, -0.1795121282339096, -0.20975476503372192, -0.24514703452587128, 0.20834112167358398, 0.08516576141119003, -0.04670773446559906, 0.004266650881618261, 0.12927128374576569, 0.20043809711933136, -0.1838669627904892, 0.047413092106580734, -0.08734963834285736, -0.5978938937187195, 0.0333029180765152, -0.10562429577112198, 0.17656360566616058, -0.019631417468190193, 0.13060526549816132, -0.04559421166777611, 0.01942296326160431, 0.014790191315114498, 0.425361305475235, -0.18491849303245544, 0.172528937458992, -0.030436234548687935, -0.08618447184562683, 0.062160711735486984, 0.06498844921588898, -0.4705565273761749, 0.20757295191287994, 0.012252146378159523, 0.17871560156345367, -0.021327121183276176, -0.0431104376912117, 0.06875839829444885, 0.024599537253379822, 0.23502716422080994, -0.2440299242734909, -0.08026646822690964, -0.10372664034366608, 0.21616768836975098, 0.007596306037157774, -0.189829021692276, -0.16612392663955688, -0.25152134895324707, 0.10179892182350159, 0.1769658625125885, 0.17846651375293732, -0.023373935371637344, -0.05023724213242531, -0.11358852684497833], [-0.03828154504299164, -0.09850112348794937, 0.12776456773281097, -0.07372471690177917, -0.12689325213432312, -0.2020149976015091, 0.07838091999292374, -0.13009284436702728, -0.018511906266212463, -0.24131456017494202, -0.04932722449302673, -0.1653066724538803, -0.04152249917387962, -0.07419055700302124, -0.14315392076969147, 0.0696086436510086, -0.07028058171272278, 0.17951638996601105, -0.11317472159862518, -0.06246490776538849, -0.06858466565608978, 0.06296085566282272, 0.1414666622877121, 0.15031228959560394, -0.08883312344551086, 0.10893196612596512, -0.194757878780365, 0.083738312125206, -0.09901821613311768, -0.12258452922105789, -0.09830500185489655, 0.23876281082630157, -0.12171311676502228, -0.030029335990548134, -0.06613227725028992, 0.020419402047991753, 0.16140444576740265, 0.019910074770450592, 0.024475395679473877, -0.09345082193613052, 0.07676146924495697, -0.20952416956424713, 0.0031757119577378035, 0.11633462458848953, -0.10681609064340591, -0.22373628616333008, 0.18206872045993805, -0.08499211817979813, 0.03737048804759979, 0.20117396116256714, -0.200996533036232, -0.05793251097202301, -0.15384267270565033, 0.12370816618204117, 0.04139154404401779, -0.0010557796340435743, -0.02856239303946495, 0.020626872777938843, 0.1458299458026886, 0.1788693219423294, 0.02590147778391838, -0.14197717607021332, 0.11476708948612213, -0.05197859928011894], [0.09589560329914093, -0.2711274027824402, 0.11840201914310455, -0.22660745680332184, 0.07518614828586578, -0.11420536041259766, -0.603080689907074, 0.03857109323143959, 0.0231618732213974, -0.4821474850177765, -0.26916325092315674, -0.06713294237852097, 0.048160869628190994, 0.03761410713195801, 0.11225146800279617, 0.006063505541533232, -0.4195139408111572, 0.12251558154821396, 0.06545425206422806, -0.9385434985160828, -0.0018414459191262722, 0.4222775101661682, -0.11159951984882355, 0.0749235600233078, 0.1470814049243927, 0.2637864947319031, -0.09626751393079758, 0.09922824054956436, -0.7098713517189026, -0.0845465362071991, -0.6422434449195862, -0.8443390727043152, -0.28611308336257935, -0.14630091190338135, -0.07935392111539841, -0.14103859663009644, -0.16225966811180115, -0.8517860770225525, -0.09893834590911865, -0.25567442178726196, 0.048428311944007874, 0.163218691945076, -0.8685557842254639, 0.2046804577112198, -0.46210604906082153, -0.0255816001445055, 0.07563965022563934, -0.12981167435646057, -0.15554244816303253, -0.7025361061096191, -0.20392818748950958, -0.6833220720291138, -0.3029378056526184, -0.33087119460105896, 0.22138652205467224, -0.2598469853401184, -0.3947674632072449, -0.045230355113744736, -0.28790631890296936, 0.16775760054588318, -0.015436659567058086, -0.6028916239738464, -0.48906832933425903, -0.08487531542778015], [-0.0973290354013443, 0.23161500692367554, 0.06831131875514984, -0.12279403954744339, 0.032709453254938126, -0.20419490337371826, -0.07813308387994766, -0.02429918944835663, 0.019000589847564697, 0.000915192998945713, 0.17171256244182587, -0.18508635461330414, 0.234754279255867, 0.007075145840644836, -0.1567992866039276, -0.1385313719511032, 0.03606521710753441, 0.16529978811740875, -0.06220404803752899, 0.08515004068613052, -0.15241600573062897, -0.09082076698541641, -0.18971744179725647, 0.07713939249515533, -0.14338436722755432, 0.08259697258472443, 0.10444317758083344, 0.19526134431362152, 0.1075502410531044, 0.0458807498216629, -0.2129889279603958, -0.1252208799123764, 0.1253054291009903, -0.20302531123161316, 