{"conv1.lin_l.weight": [[-0.039531633257865906, -0.035828668624162674, -0.12420058995485306, 0.034385569393634796, 0.098334401845932, -0.10244687646627426, 0.06437267363071442, 0.009374246932566166, 0.02507746033370495, -0.017063656821846962, -0.13393202424049377, -0.08192970603704453, 0.13627484440803528, -0.021647337824106216, 0.07448238134384155, 0.04396502301096916, -0.11340534687042236, -0.1315087229013443, 0.06461453437805176, 0.10996181517839432, 0.1058611050248146, 0.1135011836886406, 0.045645907521247864, 0.03848748281598091, 0.06134406477212906, -0.017913203686475754, 0.008392837829887867, 0.04297250136733055, -0.29373008012771606, 0.09714510291814804, 0.0639268159866333, 0.08249196410179138, -0.11405816674232483, -0.012279395945370197, -0.03549884632229805, 0.020150940865278244, 0.02808343805372715, -0.14204668998718262, -0.13858476281166077, -0.13466915488243103, -0.03666168078780174, 0.08123011887073517, 0.042107123881578445, -0.058368902653455734, -0.06576230376958847, -0.010809524916112423, 0.02425823174417019, 0.0751960426568985, -0.12888824939727783, 0.026156915351748466, -0.1885271668434143, 0.11285225301980972, -0.20736244320869446, -0.02555684745311737, -0.14217419922351837, -0.1382356733083725, -0.049725186079740524, 0.08855745941400528, -0.3051259517669678, -0.16082078218460083, -0.026580773293972015, 0.043895233422517776, 0.16487537324428558, -0.00581486476585269, 0.17490017414093018, -0.0025618751533329487, -0.12040450423955917, -0.16890335083007812, 0.11671243607997894, -0.06827232241630554, -0.09172612428665161, -0.13284771144390106, 0.03428488224744797, -0.03640332445502281, -0.07094652205705643, 0.37571296095848083, -0.06721566617488861, -0.06591847538948059, -0.11385422199964523, -0.015012059360742569, 0.08879535645246506, -0.03367540240287781, 0.007223929278552532, 0.03156418725848198, 0.00563032366335392, -0.027584388852119446, 0.0873672366142273, -0.1034688800573349, -0.15370364487171173, -0.0816025510430336, -0.08422276377677917, -0.007909150794148445, -0.08475302904844284, -0.11322671175003052, -0.06779518723487854, -0.31802302598953247, 0.29793283343315125, 0.046122290194034576, -0.1308620274066925, -0.04181525483727455, -0.021661460399627686, 0.06179089844226837, -0.01544305682182312, -0.042409833520650864, 0.016067134216427803, 0.010159097611904144, 0.06712585687637329, 0.0731159895658493, -0.056683287024497986, -0.12720516324043274, -0.09958143532276154, 0.10622382164001465, 0.001929842634126544, 0.04433618113398552, 0.07548830658197403, 0.18875303864479065, 0.016602054238319397, 0.034084293991327286, -0.00306708668358624, -0.021818963810801506, 0.04146708548069, -0.14362038671970367, -0.0911795049905777, 0.03789481148123741, -0.14679186046123505, -0.11676144599914551, 0.01831918954849243, -0.10667796432971954], [-0.006974384188652039, -0.05073019489645958, -0.07412894070148468, 0.14269304275512695, -0.018009323626756668, -0.06448133289813995, 0.08946205675601959, -0.06295817345380783, -0.04921481013298035, -0.01006777212023735, -0.15006300806999207, -0.1348208338022232, 0.22014784812927246, -0.07035728543996811, 0.0634424239397049, 0.02780928835272789, 0.022435037419199944, -0.05678625777363777, -0.01867798902094364, 0.12865190207958221, -0.01827584207057953, 0.0858490839600563, 0.04576924070715904, 0.005726168397814035, -0.08069179207086563, -0.1509343981742859, 0.05935443937778473, 0.06284209340810776, -0.12289315462112427, -0.006941950414329767, 0.11052598059177399, -0.00670032249763608, -0.09453422576189041, -0.05488206073641777, -0.1389228105545044, -0.021228419616818428, -0.03976081311702728, -0.1422828733921051, -0.042238105088472366, 0.029208678752183914, 0.12661199271678925, -0.05020395293831825, -0.0823354721069336, 0.02642671763896942, -0.00015612396236974746, 0.018136994913220406, -0.09054742008447647, 0.14199763536453247, -0.02277742698788643, 0.09554418921470642, 0.0002775260363705456, 0.10551616549491882, -0.10398220270872116, -0.11490423232316971, -0.0900319442152977, -0.04682423919439316, -0.03817928582429886, -0.006599030457437038, -0.04372251778841019, 0.02235075831413269, 0.06415809690952301, 0.0383538156747818, -0.10230227559804916, -0.09499736875295639, 0.14520373940467834, -0.028513280674815178, 0.01188601553440094, -0.09470174461603165, -0.18781472742557526, 0.019275464117527008, -0.1221390962600708, -0.1382286548614502, -0.03389102593064308, -0.12445027381181717, -0.00738622946664691, 0.022494100034236908, 0.01301463320851326, -0.019779888913035393, -0.013282131403684616, -0.08638332784175873, 0.12053032964468002, 0.047002196311950684, 0.027668287977576256, -0.07125372439622879, 0.025974974036216736, 0.019149769097566605, 0.09843986481428146, -0.1536901593208313, -0.11408054828643799, 0.00453142961487174, -0.12289305776357651, -0.07109153270721436, -0.021917978301644325, -0.12407749146223068, -0.05573563277721405, -0.20643727481365204, -0.11377504467964172, -0.1403517723083496, -0.0682394802570343, -0.05612539127469063, 0.11949310451745987, 0.09415024518966675, -0.008097515441477299, -0.06254157423973083, 0.021403048187494278, 0.08780279755592346, 0.10861119627952576, -0.11279590427875519, -0.03097471036016941, 0.027993885800242424, 0.019997237250208855, 0.1414066106081009, 0.039932917803525925, -0.1096121072769165, -0.06764919310808182, 0.03033788874745369, -0.046140145510435104, -0.03932718560099602, -0.1276395320892334, 0.09286729246377945, -0.10180481523275375, -0.07999511808156967, -0.011562337167561054, 0.11640789359807968, -0.0799415186047554, -0.061724353581666946, -0.02580820955336094, 0.023650743067264557], [-0.14726871252059937, -0.09866513311862946, -0.05723169445991516, 0.06162193790078163, 0.011947991326451302, -0.06344891339540482, 0.07627401500940323, -0.12119953334331512, 0.021762851625680923, 0.018241047859191895, -0.022626949474215508, -0.11088153719902039, 0.0621861070394516, -0.0586308129131794, 0.1503269523382187, 0.1381349414587021, -0.05210471898317337, -0.046139396727085114, 0.09477708488702774, 0.05949049070477486, 0.03196363151073456, 0.05201816186308861, 0.14110560715198517, 0.0075310999527573586, -0.07269056141376495, -0.0635865181684494, 0.008462374098598957, 0.07309994846582413, -0.07507072389125824, -0.06795673072338104, 0.08537761121988297, 0.018567757681012154, 0.012910347431898117, -0.04746178537607193, -0.08374375849962234, -0.005346375051885843, -0.0388072170317173, -0.03084743581712246, -0.031205998733639717, -0.08064871281385422, 0.04466485232114792, 0.025066900998353958, -0.15126188099384308, -0.12986338138580322, -0.06879755854606628, -0.044676899909973145, -0.10037078708410263, 0.1000191792845726, -0.08472657948732376, 0.1360035538673401, -0.028107386082410812, 0.02822730503976345, -0.06022517755627632, -0.01995653472840786, -0.02029995433986187, -0.10097382962703705, 0.019622355699539185, 0.04744056612253189, -0.017116950824856758, -0.07678315788507462, 0.14062926173210144, 0.08320310711860657, -0.07999242097139359, -0.059285346418619156, 0.1563323438167572, -0.05740639939904213, -0.05955836549401283, -0.004439882002770901, 0.014592191204428673, -0.014104154892265797, -0.01082522887736559, -0.04777315631508827, -0.07362530380487442, -0.06616408377885818, -0.04354635253548622, 0.028383860364556313, -0.1191638857126236, -0.046581022441387177, -0.03703649342060089, -0.029287613928318024, 0.04946114122867584, 0.01008255872875452, 0.0316103994846344, -0.01819368079304695, 0.0903325006365776, 0.09074859321117401, 0.11801842600107193, -0.07089480757713318, -0.08618427067995071, -0.023155976086854935, -0.13561108708381653, -0.08024711161851883, -0.1449143886566162, -0.12992005050182343, -0.05918968841433525, -0.07618538290262222, -0.07393694669008255, -0.07572635263204575, 0.004046179354190826, -0.007333436980843544, 0.11120394617319107, 0.14582155644893646, -0.10906035453081131, -0.018501704558730125, -0.012055378407239914, 0.10354557633399963, 0.04025401175022125, -0.11596496403217316, -0.06040890887379646, -0.012613585218787193, -0.18568867444992065, 0.08787534385919571, 0.04800187051296234, -0.049892958253622055, 0.02841675654053688, 0.048610392957925797, -0.10570545494556427, 0.0059028868563473225, 0.005859667435288429, 0.02383786253631115, -0.1026591956615448, -0.01054335106164217, -0.013635081239044666, 0.14895524084568024, 0.0026789139956235886, 0.004924698732793331, -0.10262405127286911, -0.13174308836460114], [-0.09544380009174347, -0.04356740787625313, -0.08465512841939926, 0.013612329959869385, 0.025817332789301872, -0.027994204312562943, -0.05030134692788124, -0.09845966845750809, -0.05091658607125282, -0.025329411029815674, -0.023366743698716164, -0.028199216350913048, 0.001653577433899045, -0.021111000329256058, 0.07528228312730789, 0.12089665234088898, 0.03397718444466591, -0.004671327769756317, -0.0305290836840868, -0.047862619161605835, 0.0833677351474762, 0.08083032071590424, 0.10879383236169815, 0.009530197829008102, -0.007484917528927326, 0.04868614301085472, 0.02498789131641388, 0.004780383314937353, -0.09329017251729965, 0.2034715861082077, 0.004853229504078627, -0.006673573050647974, -0.15998682379722595, 0.006426685489714146, 0.02116491086781025, -0.05972626432776451, -0.00703027006238699, -0.03065699338912964, -0.05791466310620308, -0.08596492558717728, -0.07238666713237762, 0.008245189674198627, 0.033120445907115936, -0.04900500550866127, -0.13647033274173737, -0.04192144423723221, 0.009087511338293552, -0.036582689732313156, -0.05909093841910362, -0.0017005125992000103, -0.010050410404801369, -0.00636586919426918, -0.0626753568649292, -0.015506173484027386, -0.13442209362983704, -0.09399569779634476, 0.30359265208244324, 0.009125679731369019, -0.16361534595489502, -0.047436442226171494, 0.05185889080166817, -0.024895809590816498, 0.051642756909132004, -0.08053155243396759, 0.006932809017598629, -0.12783950567245483, -0.12063536792993546, 0.0224706269800663, -0.07029980421066284, -0.093681700527668, -0.12231991440057755, 0.01298989076167345, -0.060306254774332047, -0.03474433347582817, 0.021180126816034317, -0.18875721096992493, 0.1054605096578598, 0.0025527963880449533, -0.05194474384188652, -0.0313640758395195, -0.02104341611266136, 0.23420502245426178, -0.023296279832720757, -0.0025281731504946947, -0.0026763533242046833, 0.04555097222328186, -0.006948023568838835, -0.08183170109987259, -0.049182597547769547, 0.05616774782538414, 0.008190032094717026, -0.18162637948989868, -0.14812946319580078, 0.03714034706354141, -0.014942011795938015, -0.10928323119878769, 0.000502516224514693, 0.02446552738547325, 0.023330572992563248, 0.023423410952091217, -0.05023635923862457, 0.021892491728067398, -0.06848075240850449, -0.015331309288740158, 0.03608063608407974, 0.01716967672109604, 0.21190941333770752, 0.014311626553535461, -0.10008402913808823, -0.03087717667222023, -0.1118888407945633, 0.11832472681999207, 0.03738359361886978, -0.034501079469919205, 0.05532103031873703, -0.031375084072351456, -0.11782784759998322, 0.008974608033895493, -0.04186277464032173, -0.038271091878414154, -0.10192453116178513, -0.09158969670534134, 0.017819246277213097, 0.05984390154480934, -0.013805384747684002, 0.02923063561320305, -0.11653070151805878, -0.07642912864685059], [0.12148690223693848, -0.061869312077760696, 0.0755206048488617, 0.06173266842961311, -0.012593600898981094, 0.022389709949493408, 0.004945690743625164, 0.037612829357385635, -0.059526219964027405, -0.12354207038879395, -0.041091542690992355, -0.06262462586164474, 0.10757383704185486, -0.14153477549552917, 0.07131441682577133, 0.05046835169196129, 0.019362591207027435, 0.03882071375846863, -0.2186770737171173, 0.11444025486707687, 0.015940532088279724, -0.11510712653398514, -0.11423715949058533, -0.022900264710187912, 0.06935445219278336, 0.022868599742650986, 0.11685073375701904, 0.01968573033809662, -0.0744943767786026, 0.014696076512336731, 0.1105893924832344, -0.11018187552690506, 0.044224128127098083, 0.07879985123872757, -0.12324541062116623, 0.11063332855701447, -0.030776623636484146, -0.015464158728718758, 0.030985703691840172, 0.08913145214319229, -0.18806378543376923, -0.11820261925458908, -0.01640198938548565, -0.007585463114082813, -0.0363614484667778, 0.00943733099848032, 0.03274992108345032, 0.031409211456775665, -0.014891577884554863, 0.09569039195775986, 0.03861550986766815, 0.011572121642529964, 0.048451028764247894, -0.010475574061274529, 0.038550835102796555, -0.03406573459506035, 0.020106947049498558, -0.14787240326404572, -0.043562162667512894, -0.01869894377887249, -0.014344495721161366, 0.02456313744187355, 0.029247470200061798, 0.08786097168922424, -0.08599529415369034, 0.1977219581604004, 0.04268474876880646, -0.07659436762332916, 0.006450714077800512, -0.005810157395899296, -0.07972218096256256, 0.16446223855018616, -0.09787730872631073, 0.009788217954337597, 0.02958925999701023, -0.20024622976779938, 0.051087889820337296, 0.12144418060779572, -0.005497605539858341, 0.020274033769965172, 0.010440969839692116, 0.035654738545417786, 0.16535839438438416, -0.04463506117463112, 0.03916258364915848, -0.10675130784511566, 0.011186935938894749, 0.09125088155269623, -0.05790798366069794, 0.04174211993813515, -0.17103353142738342, 0.0035708085633814335, 0.16932927072048187, -0.016495192423462868, 0.0873081311583519, -0.29398801922798157, -0.11856495589017868, 0.03948068246245384, -0.027937132865190506, -0.09485271573066711, -0.12149690091609955, 0.04295370727777481, -0.10433278232812881, -0.07600186765193939, 0.026822052896022797, 0.07514120638370514, 0.04272523149847984, 0.01573733612895012, -0.006808517500758171, 0.06839266419410706, 0.04508740082383156, -0.05559036508202553, -0.0075922817923128605, -0.034378532320261, 0.00813897792249918, 0.053408969193696976, -0.017779968678951263, -0.009449931792914867, -0.030627842992544174, 0.02883426658809185, 0.008718139491975307, 0.1019236296415329, -0.0230217557400465, -0.12063027918338776, -0.20094726979732513, -0.14030760526657104, 0.05479409173130989, -0.028708720579743385], [-0.2089705616235733, -0.028803782537579536, -0.08808549493551254, 0.20131991803646088, -0.04459158331155777, -0.036700181663036346, 0.1766674518585205, 0.03348777815699577, -0.008305474184453487, -0.06532180309295654, 0.055919475853443146, 0.013327610678970814, -0.1942390352487564, -0.021303212270140648, 0.15095967054367065, 0.13566935062408447, 6.198923074407503e-05, -0.06132457032799721, 0.049789778888225555, 0.18950991332530975, 0.10138604789972305, 0.03026951290667057, 0.03888535872101784, -0.08910103142261505, -0.08324757218360901, -0.037428393959999084, 0.17446079850196838, 0.22351056337356567, -0.03131144866347313, 0.1500878632068634, 0.16193661093711853, 0.043509166687726974, -0.13238610327243805, -0.003943021409213543, -0.1023881658911705, 0.012002327479422092, -0.0669671818614006, 0.032889578491449356, 0.05825173854827881, 0.009482805617153645, -0.043389320373535156, 0.0702115148305893, -0.025032922625541687, -0.03808658570051193, -0.12219125777482986, -0.04250909015536308, -0.005604536272585392, 0.1396344006061554, -0.16627736389636993, 0.032340046018362045, -0.037020958960056305, 0.08063916116952896, -0.019654154777526855, -0.05904862657189369, 0.048801638185977936, -0.013996221125125885, 0.03773149847984314, -0.04765765741467476, 0.0022362745366990566, 0.00540165975689888, 0.09907690435647964, 0.07346580922603607, 0.0019811606034636497, -0.009369965642690659, 0.04992331564426422, -0.16978812217712402, 0.05027786269783974, -0.06232655420899391, 0.11009616404771805, -0.038227587938308716, -0.04928208515048027, -0.03580159321427345, 0.05819952115416527, 0.030113259330391884, -0.0774768590927124, -0.03928582742810249, -0.09341618418693542, -0.09882857650518417, 0.05134569853544235, -0.06227254122495651, 0.0901598259806633, 0.4672315716743469, 0.18442505598068237, -0.02615695260465145, 0.09042774885892868, 0.029498660936951637, 0.18090642988681793, 0.015450754202902317, -0.0320097990334034, -0.08665138483047485, -0.11543557047843933, -0.06737804412841797, -0.02025211788713932, 0.019210034981369972, 0.07099772244691849, -0.08657198399305344, -0.026098007336258888, 0.027805810794234276, 0.0337439700961113, 0.1177457645535469, 0.07273831218481064, 0.08569493144750595, -0.06655988842248917, -0.02777392603456974, 0.13294993340969086, 0.13737906515598297, 0.22546133399009705, 0.05334848538041115, 0.011659976094961166, 0.012498264200985432, -0.14349959790706635, 0.11538559943437576, 0.12489040940999985, 0.1349579095840454, 0.06541044265031815, 0.1276637762784958, -0.030618298798799515, -0.07079018652439117, 0.024678489193320274, 0.07646697014570236, -0.05723642185330391, -0.0663343146443367, -0.007881665602326393, 0.07190793007612228, 0.026921136304736137, 0.20511189103126526, -0.040806885808706284, 0.030669569969177246], [-0.10124185681343079, 0.00711973849684, -0.058157507330179214, 0.14160293340682983, -0.061175938695669174, -0.12114186584949493, 0.01107105240225792, -0.11840815097093582, -0.004134093876928091, -0.04699584096670151, -0.10258984565734863, 0.033486295491456985, 0.05425962805747986, -0.0955972895026207, 0.08624456822872162, 0.07560859620571136, 0.04015512391924858, -0.0007027679239399731, 0.07757683843374252, 0.08286803960800171, 0.02580944076180458, 0.07026104629039764, -0.009247098118066788, -0.0815596878528595, 0.020188022404909134, -0.09340120106935501, -0.012357995845377445, 0.14579586684703827, -0.005299818702042103, 0.06645206362009048, 0.010894239880144596, 0.11434316635131836, -0.10388322174549103, 0.04701320454478264, -0.12599758803844452, 0.1578790843486786, -0.06133241951465607, -0.0534798838198185, 0.02696479856967926, -0.13142293691635132, 0.04481109231710434, 0.02327357418835163, -0.059594299644231796, -0.10521344840526581, -0.026285022497177124, -0.1590823233127594, -0.11062603443861008, 0.06430035084486008, -0.09302094578742981, 0.11967436969280243, -0.0980638638138771, 0.03778993338346481, -0.09498736262321472, -0.12633995711803436, -0.07577910274267197, -0.1379348337650299, 0.0927763506770134, -0.05458126962184906, -0.09289462119340897, -0.14369167387485504, 0.14773014187812805, 0.02334684692323208, -0.02422458864748478, -0.0903225913643837, 0.06584324687719345, -0.05548759922385216, 0.0031344571616500616, 0.0004896319005638361, -0.014172574505209923, 0.015171107836067677, -0.016490913927555084, -0.10381027311086655, -0.015125051140785217, -0.008970641531050205, -0.07465166598558426, -0.09846365451812744, -0.03275352343916893, -0.12722572684288025, -0.03453679382801056, -0.06783246994018555, 0.07649648189544678, -0.020998788997530937, -0.021450400352478027, -0.06465913355350494, 0.15523751080036163, 0.1084098219871521, 0.08293367177248001, -0.03281435742974281, -0.14024703204631805, -0.03918243572115898, -0.05828404799103737, 0.0179595947265625, 0.019254567101597786, -0.06622456014156342, -0.061493903398513794, 0.00830296240746975, -0.02605924755334854, 0.0442063994705677, -0.04935292527079582, -0.010587642900645733, 0.07845883071422577, 0.09968492388725281, 0.03208911418914795, -0.027856599539518356, 0.012943858280777931, 0.08305377513170242, 0.060968562960624695, -0.05545053631067276, -0.0010424958309158683, -0.06217093765735626, -0.16863195598125458, 0.06678507477045059, 0.0757724791765213, -0.037664659321308136, -0.031922098249197006, 0.1150517612695694, -0.16380499303340912, -0.10627320408821106, 0.00554709043353796, 0.1421232521533966, -0.018635213375091553, -0.030718596652150154, 0.0011205411283299327, 0.032548751682043076, -0.08915720134973526, -0.022218450903892517, -0.11365357786417007, -0.06119062751531601], [-0.14000366628170013, -0.05233568698167801, -0.022744150832295418, 0.06209130212664604, -0.03647588565945625, -0.032670967280864716, 0.1513417661190033, -0.00818109791725874, -0.052543945610523224, 0.01626800186932087, -0.07193534821271896, -0.04105916991829872, -0.018009113147854805, -0.11169389635324478, 0.11684193462133408, 0.16244909167289734, -0.08591585606336594, -0.02524622529745102, -0.021612906828522682, 0.13427235186100006, 0.1624564379453659, 0.0029996968805789948, 0.017070816829800606, -0.0949806496500969, -0.025097308680415154, 0.0007395031279884279, 0.04540197551250458, 0.021346166729927063, -0.05076109245419502, -0.0040128156542778015, 0.09410043805837631, 0.14972057938575745, -0.09223917126655579, 0.022891441360116005, -0.0258021280169487, 0.0006653529708273709, -0.06654351949691772, -0.09691217541694641, -0.09647808223962784, -0.007182147353887558, 0.0324561670422554, 0.051873862743377686, -0.05622141808271408, -0.002976663177832961, 0.012165838852524757, 0.014979418367147446, -0.11620340496301651, 0.11902814358472824, -0.1379677802324295, 0.15398606657981873, -0.04814457520842552, 0.07879433035850525, -0.06850221753120422, -0.1174965500831604, -0.04689229652285576, 0.008989996276795864, 0.04760299623012543, -0.024448545649647713, -0.034831542521715164, -0.04516733065247536, 0.1471834033727646, 0.16327889263629913, -0.0306552667170763, -0.10459332913160324, 0.13057462871074677, -0.12779390811920166, -0.11842971295118332, -0.128315731883049, -0.017088908702135086, 0.009479540400207043, 0.032828595489263535, -0.008269954472780228, -0.02535005658864975, -0.0329018197953701, 0.00016684335423633456, 0.057587772607803345, -0.04349832236766815, -0.10009811073541641, 0.06534570455551147, -0.026835881173610687, 0.003494671545922756, -0.02680015377700329, -0.030267901718616486, -0.03328575938940048, 0.10946080088615417, 0.04761306196451187, 0.13245250284671783, -0.06214508041739464, -0.15390340983867645, -0.03263808786869049, -0.010438214987516403, -0.08084899932146072, -0.10158674418926239, -0.09586997330188751, -0.09958452731370926, -0.10778576135635376, -0.04252505302429199, -0.06290621310472488, 0.019966525956988335, 0.00647065369412303, 0.07031484693288803, 0.14268116652965546, 0.006584890652447939, -0.07160543650388718, -0.08048178255558014, 0.022666513919830322, 0.076141357421875, -0.0366368368268013, 0.0004619963583536446, -0.12974365055561066, -0.1621502786874771, 0.058585721999406815, 0.015910794958472252, 0.0027201944030821323, -0.01347526628524065, 0.05646493658423424, -0.12961091101169586, -0.08996395766735077, -0.08352408558130264, 0.07856248319149017, -0.014231273904442787, -0.03765956312417984, -0.04675377160310745, 0.13367894291877747, 0.019000159576535225, 0.03474617004394531, -0.15707218647003174, -0.109291672706604], [-0.20518918335437775, 0.01027359813451767, -0.032077111303806305, 0.1398557722568512, 0.037401288747787476, -0.11339783668518066, 0.16287559270858765, 0.02544543519616127, -0.041963543742895126, -0.12988190352916718, -0.09383461624383926, 0.03484417498111725, 0.05649258568882942, -0.12269534915685654, 0.10302086919546127, 0.09500832110643387, -0.08824166655540466, -0.14404700696468353, -0.01903807930648327, 0.15920528769493103, 0.04299935698509216, 0.12418754398822784, 0.05311495065689087, -0.08433475345373154, -0.15784499049186707, -0.08259610086679459, 0.08730566501617432, 0.08379334211349487, 0.04528475180268288, -0.017693625763058662, 0.016514401882886887, 0.10849639028310776, -0.14740532636642456, -0.10625694692134857, -0.19460228085517883, 0.011922278441488743, -0.034893523901700974, 0.0010970032308250666, -0.14154864847660065, -0.015873294323682785, 0.16554586589336395, -0.0027370897587388754, -0.16592462360858917, 0.019969284534454346, 0.013723427429795265, 0.028888901695609093, 0.058167293667793274, 0.1780472844839096, -0.15005221962928772, 0.09489917010068893, 0.0022077984176576138, 0.13204024732112885, -0.0034599711652845144, -0.10812747478485107, -0.035260364413261414, -0.08530431985855103, 0.047429002821445465, -0.034316934645175934, -0.10555366426706314, -0.1272565722465515, 0.027446813881397247, 0.09794239699840546, 0.2181463986635208, -0.06959296762943268, 0.06908311694860458, -0.015472013503313065, -0.11005783081054688, -0.1366557627916336, 0.06152533367276192, -0.1138124018907547, -0.06198142468929291, -0.07765818387269974, -0.03361912816762924, -0.057400256395339966, 0.004595860838890076, 0.030931830406188965, 0.05591299384832382, 0.014132745563983917, 0.00020060774113517255, 0.0040804841555655, 0.0651705339550972, 0.05104662477970123, 0.09136853367090225, -0.07109595090150833, 0.025237493216991425, 0.15989650785923004, 0.10789037495851517, -0.022314894944429398, -0.11422321200370789, -0.12163331359624863, -0.09169287234544754, -0.10713990777730942, 0.02178596332669258, -0.11935843527317047, -0.06962411850690842, -0.013849361799657345, -0.06535092741250992, 0.02435537800192833, -0.07378504425287247, 0.035872504115104675, 0.10024448484182358, 0.014591033570468426, -0.10774324834346771, -0.10155767947435379, 0.05887550115585327, -0.05722865089774132, -0.03501475602388382, -0.05395430698990822, -0.13547919690608978, -0.09362995624542236, -0.1758057177066803, 0.12758851051330566, 0.1266508251428604, 0.03230377659201622, -0.021433575078845024, 0.07124842703342438, -0.13564424216747284, 0.017193885520100594, -0.15665887296199799, 0.06952744722366333, -0.13638614118099213, -0.11529064923524857, -0.010354208759963512, 0.02128778211772442, -0.015854032710194588, -0.04248060658574104, -0.17471769452095032, -0.10792391002178192], [-0.12864255905151367, -0.0041312770918011665, -0.12934257090091705, 0.10012761503458023, -0.022389283403754234, -0.10328911989927292, 0.11263161152601242, -0.0894584134221077, -0.006501542404294014, 0.00031648657750338316, -0.10947621613740921, -0.004254100378602743, 0.03969661518931389, -0.12442167103290558, 0.08441600948572159, 0.010035289451479912, -0.07466380298137665, -0.002174497116357088, 0.11347068101167679, 0.04472971335053444, 0.01788311079144478, 0.027188802137970924, 0.08674097061157227, 0.015130221843719482, -0.11764708161354065, -0.03645338490605354, 0.09186913818120956, 0.1196235939860344, -0.10435320436954498, 0.02836623042821884, 0.07627010345458984, 0.13417765498161316, -0.1271800547838211, -0.008997038938105106, -0.1084328219294548, 0.011681108735501766, 0.01789749599993229, -0.12324681878089905, -0.0262475423514843, -0.05208662524819374, 0.026121454313397408, 0.03848259896039963, -0.04041994363069534, -0.09604866057634354, 0.0036104731261730194, -0.13177525997161865, -0.040756478905677795, 0.09736685454845428, -0.1500321626663208, 0.09406183660030365, -0.04712017625570297, 0.13926918804645538, -0.09890910238027573, -0.08171427249908447, -0.08884157240390778, -0.006925256457179785, -0.018822088837623596, -0.03185439482331276, -0.04930828511714935, -0.06618641316890717, 0.08819743245840073, -0.0060266489163041115, -0.12403963506221771, -0.05807510018348694, 0.1145542711019516, -0.0011081986594945192, -0.08749386668205261, -0.02594780921936035, -0.037879351526498795, -0.10419480502605438, -0.061393849551677704, -0.006898930761963129, 0.03810536116361618, -0.06095750629901886, -0.1405804306268692, -0.09101786464452744, 0.006730267778038979, -0.13056950271129608, 0.011624056845903397, -0.0014252773253247142, 0.026942258700728416, 0.15107250213623047, 0.21347390115261078, -0.02405337430536747, -0.009285524487495422, 0.09984228760004044, 0.1463778018951416, -0.08573323488235474, 0.017565865069627762, 0.00530273700132966, -0.17119356989860535, -0.13150684535503387, -0.10853497684001923, -0.11672820895910263, -0.14625519514083862, -0.07638145983219147, -0.10560877621173859, 0.006427354644984007, -0.13952608406543732, -0.024099260568618774, 0.1390872597694397, 0.036273133009672165, -0.09221692383289337, -0.05531585216522217, -0.03012295812368393, 0.019212938845157623, 0.13903556764125824, -0.11187820136547089, -0.08937153965234756, -0.10985054075717926, -0.08759880810976028, -0.013748914934694767, 0.023940812796354294, -0.052605655044317245, -0.1249149814248085, 0.13327227532863617, -0.10477381944656372, -0.00815686397254467, -0.11773794889450073, 0.08355791121721268, -0.08527901768684387, -0.15521731972694397, -0.04848988726735115, 0.045883908867836, 0.003485268447548151, -0.027031367644667625, -0.008360272273421288, -0.11144091188907623], [-0.14209038019180298, -0.06326822936534882, -0.0735459253191948, 0.006775876972824335, 0.17901001870632172, -0.11279276013374329, 0.0515141561627388, -0.07470814138650894, 0.03787275776267052, -0.06216490641236305, -0.047221653163433075, 0.10731680691242218, -0.10530367493629456, 0.04770423099398613, 0.14842960238456726, 0.0668083056807518, -0.02626403421163559, -0.13130971789360046, 0.08152411878108978, 0.05863035097718239, 0.00762663409113884, -0.014345794916152954, -0.0029461346566677094, -0.04969899728894234, -0.09900251775979996, -0.0004102448874618858, 0.02599307894706726, 0.14554879069328308, -0.04986747354269028, 0.13394218683242798, 0.09358981996774673, 0.04735429212450981, -0.04571257159113884, -0.0035297046415507793, -0.07293739914894104, 0.21466976404190063, 0.01845901645720005, 0.03552548959851265, 0.12998193502426147, -0.04800736904144287, -0.0328451506793499, 0.04171889275312424, -0.08714910596609116, -0.017359130084514618, 0.03660224378108978, 0.0271608866751194, -0.046513404697179794, 0.07150062173604965, -0.09227227419614792, 0.09480578452348709, -0.05666632577776909, 0.0005302459467202425, -0.007696193642914295, 0.0065469988621771336, 0.05071551725268364, -0.14080548286437988, 0.02082245983183384, 0.10538593679666519, 0.006750902626663446, -0.03649544343352318, 0.15241031348705292, 0.08891180902719498, 0.04823264107108116, -0.07421695441007614, 0.03633837774395943, -0.1977219581604004, -0.027737608179450035, -0.01349150761961937, 0.03556334972381592, -0.10877185314893723, -0.02817491441965103, 0.03472038358449936, -0.0839541107416153, -0.03341913968324661, 0.009581071324646473, 0.18614496290683746, 0.020198162645101547, 0.01391605194658041, -0.007016059942543507, -0.03127485513687134, 0.13267652690410614, 0.034599825739860535, 0.028389323502779007, -0.022187894210219383, 0.043688639998435974, 0.1320679783821106, 0.07219845801591873, 0.1887296587228775, -0.12428811937570572, -0.07260747998952866, -0.014589639380574226, -0.10996152460575104, -0.0949806272983551, -0.006426995154470205, -0.020279930904507637, -0.01379435695707798, -0.09296845644712448, 0.048788879066705704, -0.073861263692379, -0.028325483202934265, 0.07836002111434937, 0.10323261469602585, -0.052514009177684784, -0.07101862877607346, -0.031236791983246803, 0.08371497690677643, 0.12897104024887085, -0.07079456001520157, -0.06575451791286469, -0.009906966239213943, -0.11092711240053177, 0.009175274521112442, 0.03443867713212967, -0.007911596447229385, 0.03594085946679115, -0.02379610203206539, -0.0422707125544548, -0.06929466873407364, -0.06045428290963173, 0.03392218053340912, -0.07772154361009598, -0.07737798988819122, -0.10837000608444214, 0.09596965461969376, 0.045807864516973495, 0.09506139159202576, -0.11529507488012314, -0.05239870026707649], [-0.10340532660484314, -0.08706207573413849, -0.007466655224561691, 0.1337684839963913, -0.060748372226953506, -0.06954420357942581, 0.011470905505120754, -0.07837971299886703, -0.018138157203793526, -0.10860094428062439, -0.1381063014268875, -0.047605592757463455, -0.008980308659374714, -0.002161522163078189, 0.054566722363233566, 0.03287837654352188, 0.0025315626990050077, -0.08206495642662048, 0.15511643886566162, 0.16891518235206604, 0.06983265280723572, 0.11821312457323074, 0.11456632614135742, -0.06610426306724548, -0.15865002572536469, -0.019102709367871284, 0.03210856765508652, 0.01764596439898014, -0.10640598088502884, 0.08595184236764908, 0.15481869876384735, 0.01006445474922657, -0.031547002494335175, -0.09216345846652985, -0.15458549559116364, 0.1631055474281311, -0.034579820930957794, -0.05866432562470436, -0.014873778447508812, -0.04559045284986496, 0.01958974078297615, 0.0005048014572821558, -0.0040381974540650845, -0.11279907077550888, -0.1199401244521141, 0.002095302799716592, 0.04676973074674606, 0.005584149155765772, -0.09708616137504578, 0.1426546573638916, -0.05778012424707413, 0.190048485994339, -0.1348181962966919, -0.04719741642475128, -0.06209243834018707, -0.11184712499380112, 0.02367033250629902, 0.06906349956989288, -0.1038292795419693, -0.10295078903436661, 0.1323515772819519, 0.10105891525745392, 0.12725494801998138, -0.0896226167678833, 0.09557583928108215, -0.029111012816429138, -0.009346207603812218, -0.16005447506904602, 0.11631371080875397, -0.13885000348091125, -0.04426533356308937, -0.06990697234869003, -0.010378596372902393, -0.005635058507323265, -0.03813716769218445, -0.07840243726968765, -0.09350035339593887, -0.029167572036385536, -0.03888016939163208, -0.07967087626457214, 0.13784416019916534, 0.07546726614236832, 0.1629183441400528, -0.04807225987315178, 0.09098836034536362, 0.17002534866333008, 0.08041509240865707, 0.02476687543094158, -0.14184848964214325, -0.1307756006717682, -0.10120999813079834, -0.07879363000392914, -0.040282439440488815, -0.0965069979429245, -0.024891650304198265, -0.09009728580713272, -0.033194031566381454, 0.025665055960416794, -0.05512695387005806, 0.11424900591373444, 0.02653045579791069, 0.02444549649953842, -0.1470014601945877, -0.0528811551630497, 0.14484989643096924, 0.11685535311698914, 0.11446983367204666, -0.0013871227856725454, -0.11940967291593552, -0.14535312354564667, -0.0917070209980011, 0.024089600890874863, 0.10733605176210403, -0.002000581007450819, -0.010389421135187149, 0.0140178631991148, -0.004175394773483276, -0.011865542270243168, -0.018675794824957848, 0.10831318795681, -0.10109083354473114, -0.11759792268276215, -0.00017043935076799244, 0.15005061030387878, -0.028395676985383034, 0.023042380809783936, -0.16342952847480774, 0.004731017164885998], [-0.12988397479057312, -0.08355031162500381, 0.004001572262495756, 0.06310427933931351, -0.04743368923664093, -0.08735791593790054, 0.021059460937976837, -0.05774705484509468, 0.04819245636463165, -0.01719781570136547, 0.02549406699836254, -0.04060925170779228, 0.08687140792608261, -0.1646607518196106, 0.06788568198680878, 0.08985816687345505, -0.059840187430381775, -0.0363919734954834, 0.04904627799987793, 0.03391622379422188, 0.04116223752498627, 0.12645801901817322, 0.10513610392808914, -0.051111843436956406, -0.038558024913072586, -0.090008445084095, 0.09946178644895554, 0.05025722086429596, -0.06067684292793274, 0.026460468769073486, 0.05439218878746033, 0.06296376883983612, -0.041239649057388306, -0.03885708376765251, -0.18831564486026764, 0.0255308635532856, -0.13250918686389923, -0.06536053866147995, -0.015546249225735664, -0.1318371742963791, 0.06469593942165375, 0.006290077231824398, -0.08089715987443924, -0.04490162432193756, -0.14768065512180328, -0.08197871595621109, -0.07663854211568832, 0.17584654688835144, -0.16241508722305298, 0.17121583223342896, -0.006868794094771147, 0.1857796013355255, -0.002886338857933879, -0.1449718326330185, -0.05112015828490257, -0.1069369986653328, 0.2762330174446106, -0.019676482304930687, -0.03808632493019104, -0.13708004355430603, 0.09391926229000092, 0.1426859349012375, 0.03680091351270676, -0.0114359762519598, 0.011440280824899673, -0.059392765164375305, 0.014363545924425125, -0.09113295376300812, 0.09553897380828857, -0.013779951259493828, -0.06599072366952896, -0.03558879718184471, 0.03428076207637787, -0.012201478704810143, -0.030653420835733414, 0.004025750327855349, -0.007523504085838795, -0.08756015449762344, -0.022824322804808617, -0.11340335011482239, 0.009131318889558315, 0.09451355040073395, -0.007123404182493687, -0.03137025237083435, 0.16176144778728485, 0.04757243022322655, 0.12117151916027069, 0.04128780961036682, -0.14046037197113037, -0.0759560763835907, -0.042374033480882645, -0.1228950247168541, -0.03585081547498703, 0.00021943557658232749, -0.06336388736963272, -0.05428269878029823, -0.01859414577484131, -0.034464918076992035, -0.07152990996837616, -0.09736699610948563, 0.08668774366378784, 0.07103496789932251, -0.09523884207010269, -0.023021388798952103, -0.12561684846878052, 0.0387144461274147, 0.02201133221387863, -0.0019801603630185127, 0.009234697557985783, -0.14435483515262604, -0.07075291872024536, 0.14637285470962524, -0.04895298182964325, -0.026681240648031235, 0.04517866298556328, 0.03628964349627495, -0.12370293587446213, -0.007605545222759247, -0.05991325527429581, 0.06014145910739899, -0.013305661268532276, -0.12375786900520325, -0.17301490902900696, 0.022657722234725952, 0.024743368849158287, -0.0006439515855163336, -0.0620325431227684, -0.016693536192178726], [-0.09890107810497284, -0.008231459185481071, -0.014784584753215313, 0.11470405757427216, -0.07466807961463928, -0.0882837101817131, 0.11132153123617172, -0.041575249284505844, 0.03302587568759918, -0.007913083769381046, -0.13714450597763062, -0.05818486586213112, 0.09950608760118484, -0.0850067064166069, -0.0070176864974200726, 0.16375283896923065, -0.01602139323949814, 0.012350615113973618, 0.12571518123149872, 0.03221142664551735, 0.1658472865819931, -0.025918005034327507, 0.07962143421173096, -0.0917002335190773, -0.0904139056801796, 0.013915146701037884, 0.13092610239982605, -0.01858329586684704, -0.024993864819407463, 0.044293634593486786, 0.043704528361558914, -0.01672542095184326, -0.0975157618522644, -0.05123690888285637, 0.0014224023325368762, -0.029527463018894196, -0.11851026117801666, -0.11358381062746048, 0.004012975841760635, -0.015435240231454372, -0.00674748420715332, 0.07853932678699493, -0.051448266953229904, -0.004246266093105078, -0.10754313319921494, -0.1379183828830719, -0.089291051030159, -0.020498642697930336, -0.11691494286060333, 0.11353142559528351, -0.049320753663778305, 0.018634965643286705, 0.003083636984229088, -0.10977227240800858, 0.026200508698821068, -0.12859681248664856, -0.00703659001737833, 0.0009884871542453766, -0.3325296640396118, -0.13750185072422028, 0.07509660720825195, 0.060100752860307693, -0.029456693679094315, -0.020960606634616852, 0.06160620227456093, -0.09057597815990448, 0.001710682874545455, -0.09120098501443863, -0.10891476273536682, -0.06925224512815475, -0.11352401971817017, -0.05524725466966629, 0.05066833645105362, -0.08904390782117844, -0.057673390954732895, 0.009712200611829758, -0.04183119535446167, 0.0016967825358733535, 0.1517665684223175, -0.053552769124507904, -0.0006671775481663644, 0.14878955483436584, -0.04199038818478584, -0.09016480296850204, 0.06048830226063728, 0.1172674223780632, 0.09559967368841171, 0.03279917314648628, 0.001679760403931141, -0.01791667565703392, 0.029631447046995163, -0.10670109838247299, -0.16165761649608612, -0.021094288676977158, -0.007086376193910837, -0.06750695407390594, -0.027631793171167374, -0.09270793944597244, -0.013684391044080257, -0.09842837601900101, 0.1294596642255783, 0.11070628464221954, -0.0692896917462349, 0.0020698015578091145, -0.061374958604574203, 0.05277251824736595, 0.13459566235542297, -0.06072991341352463, -0.1555028259754181, 0.030067194253206253, -0.044018231332302094, 0.09457086026668549, 0.061779361218214035, -0.020826853811740875, 0.021796584129333496, 0.18799926340579987, -0.1067676991224289, -0.04961954429745674, -0.10526442527770996, -0.01277291402220726, -0.09273242950439453, -0.06315411627292633, 0.004316885955631733, 0.09414239227771759, -0.05089522525668144, -0.12906983494758606, -0.11665435880422592, -0.06205687299370766], [-0.023155342787504196, -0.040154073387384415, -0.001433254685252905, 0.018116939812898636, -0.036484166979789734, -0.05625148117542267, 0.13256818056106567, -0.07179145514965057, -0.029618389904499054, -0.020653704181313515, -0.027836192399263382, -0.09354430437088013, 0.032027196139097214, -0.007887565530836582, 0.18483270704746246, 0.037445779889822006, 0.03460394963622093, -0.0719456672668457, -0.06313180178403854, 0.14208479225635529, -0.0028835260309278965, 0.1023721992969513, 0.04285869374871254, -0.051149193197488785, -0.09594610333442688, -0.07809218019247055, 0.07202258706092834, 0.06493741273880005, 0.0019425343489274383, 0.08458440750837326, 0.026969071477651596, 0.09186800569295883, -0.03716478869318962, -0.0416044145822525, -0.040018584579229355, -0.034954216331243515, -0.0030556386336684227, 0.03711918741464615, 0.016152719035744667, -0.023563837632536888, 0.03513215854763985, 0.04047428071498871, -0.062425397336483, -0.08684007823467255, -0.024383727461099625, -0.020043272525072098, 0.022555293515324593, 0.025544798001646996, -0.012866736389696598, 0.04173566773533821, -0.0882529690861702, 0.08905420452356339, -0.12353067845106125, -0.13945052027702332, -0.07377340644598007, -0.04581775143742561, 0.0993771106004715, 0.013172985054552555, -0.04972095042467117, 0.0015892888186499476, 0.022446777671575546, 0.047619592398405075, -0.013232262805104256, -0.026428770273923874, -0.032060809433460236, -0.13999103009700775, 0.005378404166549444, -0.09845574200153351, 0.06871218979358673, -0.08243052661418915, -0.02247430384159088, -0.03875827416777611, -0.0429261215031147, -0.05604071915149689, -0.032554395496845245, 0.03621448948979378, 0.0015424212906509638, -0.06579665094614029, -0.07437070459127426, -0.07566173374652863, 0.03315240144729614, -0.003199012717232108, 0.14835479855537415, -0.02332405187189579, 0.051541220396757126, 0.023925354704260826, 0.14414656162261963, 0.03383997082710266, -0.07587632536888123, -0.0950033962726593, -0.05232193320989609, -0.0854988694190979, -0.1345357596874237, -0.029798345640301704, -0.051275089383125305, -0.09753704071044922, -0.015861662104725838, 0.02613196149468422, -0.021256107836961746, 0.059510163962841034, 0.04031764343380928, 0.11632860451936722, -0.11482229828834534, -0.04764192923903465, -0.04739021882414818, 0.0706358328461647, 0.22950664162635803, 0.055402971804142, -0.06668367981910706, -0.010704707354307175, 0.0028852911200374365, 0.0349891372025013, 0.12680746614933014, -0.00182463345117867, 0.07934629917144775, 0.03374641761183739, -0.1299431324005127, -0.06361672282218933, -0.009551764465868473, 0.0634370744228363, -0.03747531399130821, -0.020196804776787758, -0.06431415677070618, 0.07067874073982239, -0.08304612338542938, -0.03707576543092728, -0.024002380669116974, -0.06092923879623413], [-0.03879969194531441, -0.07622335851192474, -0.01756450906395912, 0.18208621442317963, -0.02885572798550129, -0.04049041122198105, 0.026378033682703972, -0.04111945629119873, -0.02163713611662388, -0.022972160950303078, -0.02774430811405182, -0.12035688757896423, -0.014139512553811073, -0.10118234902620316, 0.10871673375368118, 0.1567743569612503, -0.03572971373796463, -0.10234114527702332, -0.002131462562829256, 0.10446072369813919, 0.051273420453071594, 0.11645770072937012, 0.13134042918682098, -0.0079113794490695, -0.028910737484693527, -0.03481496870517731, 0.06631144136190414, 0.10129028558731079, -0.03559939190745354, 0.15481966733932495, -0.0076252371072769165, 0.08462812751531601, -0.06369269639253616, -0.015399390831589699, -0.1019693985581398, -0.004449940752238035, -0.02360369637608528, -0.053435586392879486, -0.13841436803340912, -0.17032890021800995, -0.015033438801765442, 0.09322289377450943, -0.0398748405277729, -0.1020488515496254, -0.048018928617239, -0.03334977850317955, -0.035820409655570984, 0.07024332135915756, -0.053785502910614014, 0.06417541205883026, -0.009965050034224987, 0.029430460184812546, -0.1468372493982315, -0.09524918347597122, -0.06090451031923294, -0.04439742490649223, 0.052513353526592255, -0.11159967631101608, -0.07910692691802979, -0.019585207104682922, 0.15582111477851868, 0.0427335686981678, -0.09826245158910751, -0.08356662839651108, 0.15965990722179413, -0.06091712787747383, -0.04726829752326012, -0.13211792707443237, -0.020455408841371536, -0.03526957705616951, -0.07517997175455093, -0.14733561873435974, -0.004823228344321251, -0.04284276068210602, -0.011745668016374111, 0.009127586148679256, -0.14417986571788788, -0.06324092298746109, 0.08866007626056671, -0.10754519701004028, 0.10788579285144806, -0.028735699132084846, 0.04217582941055298, -0.041819870471954346, 0.032972488552331924, 0.023624179884791374, 0.02541074901819229, -0.09573499858379364, -0.13915559649467468, -0.02954811416566372, -0.10760357975959778, -0.049364179372787476, -0.14541257917881012, -0.0616438090801239, -0.11637397855520248, -0.1013445183634758, -0.01008004229515791, -0.03503518924117088, -0.01455482468008995, -0.057795632630586624, 0.028679000213742256, 0.012471139430999756, -0.07502231001853943, -0.06339654326438904, -0.11972124874591827, 0.13233916461467743, 0.05381721258163452, -0.026777878403663635, -0.0805397629737854, -0.045453235507011414, -0.1555703729391098, 0.14647172391414642, -0.030306000262498856, -0.09571550786495209, -0.020189547911286354, 0.020718859508633614, -0.04590756818652153, -0.11321739852428436, -0.03762843459844589, 0.09314680099487305, -0.08873311430215836, -0.05510733649134636, -0.048347923904657364, 0.10100679099559784, -0.12323322892189026, -0.01692596822977066, -0.08922237157821655, -0.1361261010169983], [-0.09858483821153641, -0.033014073967933655, -0.1002940833568573, 0.12995831668376923, -0.030389847233891487, -0.0284932479262352, -0.03583831340074539, -0.009111525490880013, -0.060877490788698196, -0.03765607252717018, -0.041418153792619705, -0.022474588826298714, 0.08542479574680328, -0.11712031811475754, 0.0250473003834486, 0.12359194457530975, -0.032922208309173584, -0.07107242941856384, -0.05498269200325012, 0.017514731734991074, 0.0605267733335495, 0.04183122515678406, 0.06134285032749176, -0.09584967792034149, -0.08446803689002991, -0.01030432153493166, 0.0849771574139595, 0.04839298874139786, -0.09793569147586823, 0.18409569561481476, 0.05504251644015312, 0.08354970812797546, 0.004685572814196348, 0.011040905490517616, -0.046983201056718826, -0.008737005293369293, -0.04938030615448952, -0.0530627965927124, -0.15012554824352264, -0.09359211474657059, 0.06593521684408188, 0.02361578866839409, -0.038801293820142746, -0.014978683553636074, -0.009844660758972168, -0.07442492991685867, 0.13662593066692352, 0.104283906519413, -0.10151997208595276, -0.033021479845047, -0.012209287844598293, -0.01511846948415041, -0.1764223873615265, -0.015731077641248703, 0.008637427352368832, -0.012064463458955288, -0.0005190858501009643, -0.06589187681674957, 0.23603446781635284, -0.12580081820487976, 0.02942388877272606, -0.014476179145276546, -0.08107311278581619, -0.03739171847701073, -0.013240989297628403, -0.08367558568716049, -0.10006280243396759, -0.14324401319026947, 0.06749919801950455, 0.02296290174126625, -0.03485310077667236, -0.1026751771569252, 0.05738168954849243, -0.07916577905416489, -0.08101808279752731, -0.03830210119485855, 0.03626295551657677, 0.039220403879880905, -0.055807873606681824, -0.03540421277284622, 0.037103988230228424, -0.017671819776296616, -0.0014886148273944855, -0.11045579612255096, 0.09137482196092606, 0.08728016167879105, 0.10742161422967911, -0.09268900752067566, 0.041955117136240005, -0.08913928270339966, -0.08371586352586746, -0.024036383256316185, -0.13330493867397308, 0.046840451657772064, -0.08815988898277283, -0.10401825606822968, 0.06320901215076447, -0.01152189914137125, -0.05262162163853645, 0.01638086512684822, 0.07994550466537476, 0.0312768928706646, -0.0790967270731926, 0.0001849683467298746, 0.7519621849060059, 0.11146730929613113, -0.010293643921613693, 0.35598230361938477, 0.023839326575398445, -0.007968963123857975, -0.06066425144672394, 0.03647848218679428, 0.044760677963495255, 0.13716012239456177, -0.026954973116517067, -0.0090942969545722, -0.019545210525393486, 0.0501367412507534, -0.04704712703824043, 0.10988780856132507, -0.08456089347600937, 0.009816622361540794, -0.1002328023314476, -0.035637784749269485, 0.05373096466064453, 0.03536660224199295, -0.014078603126108646, -0.1222902312874794], [-0.1803111881017685, -0.06110219657421112, -0.09823265671730042, 0.13733771443367004, -0.11999570578336716, -0.07470112293958664, 0.13426025211811066, -0.02270236611366272, -0.020223315805196762, -0.0832669660449028, -0.017336567863821983, 0.10786523669958115, 0.13542303442955017, -0.02110930345952511, 0.17198266088962555, 0.12760500609874725, -0.03922570124268532, -0.049151353538036346, 0.11273541301488876, 0.07322715222835541, 0.16837966442108154, 0.07973672449588776, 0.07473067194223404, 0.09366941452026367, -0.08401492983102798, -0.11503010988235474, 0.15705464780330658, 0.1764792948961258, 0.11572637408971786, -0.06074206903576851, 0.14228162169456482, 0.14176583290100098, -0.1060989648103714, -0.062407296150922775, -0.09423933923244476, 0.09893573075532913, 0.019519204273819923, 0.08126825094223022, 0.04501153156161308, -0.06834179162979126, 0.015705842524766922, -0.015764880925416946, -0.15011201798915863, -0.0660305917263031, -0.0887225791811943, -0.08430182933807373, -0.03625168278813362, 0.07518456131219864, -0.2021513134241104, 0.11084555089473724, -0.05024144425988197, 0.1887723058462143, -0.03874422609806061, -0.1903105527162552, -0.04731173813343048, -0.10540719330310822, 0.09311967343091965, -0.028978420421481133, 0.03572535887360573, -0.047382667660713196, 0.08091960847377777, 0.10437829047441483, 0.13329151272773743, -0.11748058348894119, 0.04625486209988594, -0.18108537793159485, -0.0679887980222702, -0.10368617624044418, 0.13123579323291779, -0.0704502984881401, -0.023283015936613083, 0.0008592697558924556, 0.09813521802425385, 0.06192325800657272, -0.13041375577449799, -0.04775069281458855, -0.0020199157297611237, -0.08740155398845673, 0.011463761329650879, -0.01105715986341238, 0.05305325984954834, 0.038947708904743195, 0.06379641592502594, -0.07060661911964417, 0.19044475257396698, 0.16619087755680084, 0.16089509427547455, 0.09003445506095886, -0.10272439569234848, -0.06292055547237396, -0.13616394996643066, -0.024930110201239586, -0.0796477198600769, -0.0350385382771492, -0.019032426178455353, -0.10377074778079987, 0.11999133974313736, -0.07528747618198395, 0.09514747560024261, 0.025366228073835373, 0.034629937261343, 0.07845950871706009, -0.03276021406054497, -0.06500238925218582, 0.025728266686201096, 0.014233892783522606, 0.15214502811431885, -0.0504838265478611, -0.0028539837803691626, -0.034987062215805054, -0.06663373857736588, 0.07777462899684906, 0.05765664204955101, 0.02793148159980774, 0.05094817653298378, 0.06456003338098526, -0.08261630684137344, -0.03942301869392395, -0.02254781499505043, 0.15999186038970947, -0.01663590781390667, -0.0364726297557354, -0.10666872560977936, 0.12736833095550537, -0.04805004596710205, -0.051826585084199905, -0.019916895776987076, 0.049294233322143555], [-0.07913722842931747, 0.0430985726416111, 0.0036889698822051287, 0.07467109709978104, 0.031665053218603134, -0.07369357347488403, 0.08105248957872391, -0.05702115222811699, -0.049387481063604355, -0.11037304252386093, -0.08838777244091034, 0.010842204093933105, -0.0020242410246282816, -0.06416507810354233, 0.13419866561889648, 0.021408215165138245, 0.014319917187094688, -0.10514833778142929, 0.020792948082089424, 0.1376144140958786, 0.15697547793388367, 0.02744743600487709, -0.002418521326035261, -0.11731060594320297, -0.12046149373054504, 0.02539031021296978, 0.11705701798200607, 0.09469183534383774, -0.055261339992284775, 0.018213964998722076, 0.041178688406944275, -0.01870405301451683, -0.1238875761628151, -0.06002969667315483, -0.1161709800362587, -0.028238531202077866, -0.10274620354175568, 0.04204272851347923, -0.1221911832690239, 0.03767243027687073, -0.033187657594680786, 0.053648125380277634, -0.07453065365552902, -0.02882390469312668, 0.009054957889020443, -0.08335443586111069, -0.007878554053604603, 0.0263642780482769, -0.006259969435632229, 0.09556283801794052, -0.12038888782262802, 0.1037890613079071, 0.023802470415830612, -0.2151714712381363, -0.005580455530434847, -0.09501578658819199, 0.10013575106859207, -0.023055851459503174, -0.081830233335495, 0.030042167752981186, 0.010060175321996212, 0.11265408992767334, -0.08209395408630371, -0.06402606517076492, -0.000901290331967175, -0.04345380514860153, -0.09962136298418045, -0.10210374742746353, -0.06750749796628952, -0.04916050285100937, -0.11689765006303787, -0.051081955432891846, 0.012938227504491806, 0.03677014634013176, -0.14055871963500977, 0.010110002011060715, -0.008417357690632343, -0.11851276457309723, -0.056430917233228683, 0.02058274671435356, 0.021297471597790718, 0.11047806590795517, 0.02895171567797661, -0.03419347107410431, 0.05715109035372734, 0.12632864713668823, -0.001614967710338533, 0.0605684369802475, 0.013107980601489544, -0.006172813940793276, -0.05523092672228813, -0.08506274223327637, -0.09039650112390518, 0.044025249779224396, -0.012469539418816566, -0.15900804102420807, -0.0024986162316054106, 0.07870960980653763, -0.029550688341259956, -0.08464061468839645, 0.0533183217048645, 0.10893126577138901, -0.10731387138366699, -0.04017066955566406, 0.0053703198209404945, 0.06142546981573105, 0.03808308765292168, 0.0389406718313694, 0.010532908141613007, -0.04835066199302673, -0.12954369187355042, 0.11997738480567932, -0.056507792323827744, -0.017283599823713303, -0.06988077610731125, 0.10241954773664474, -0.1570366472005844, -0.08287632465362549, -0.10102870315313339, 0.07785335183143616, -0.06478916853666306, 0.007073692977428436, -0.04684977978467941, 0.07048558443784714, -0.051883209496736526, 0.08824779093265533, -0.18593813478946686, -0.07966935634613037], [-0.04280472919344902, -0.07317470759153366, -0.11073777079582214, 0.035564497113227844, -0.06718797981739044, 0.011073751375079155, 0.069467693567276, -0.0008409004076384008, -0.1091352179646492, -0.1184496283531189, -0.00908705499023199, -0.0381617546081543, 0.13989238440990448, -0.006910418625921011, 0.007650132291018963, 0.08908333629369736, 0.024451889097690582, -0.13335232436656952, 0.029643448069691658, 0.032130226492881775, 0.05098692700266838, 0.11075956374406815, 0.04540686681866646, -0.014720194973051548, -0.019358089193701744, -0.05701221153140068, 0.0650964006781578, 0.10131139308214188, -0.037599194794893265, 0.09587803483009338, 0.08564082533121109, 0.09297803044319153, -0.04895009472966194, -0.0009298505028709769, -0.032768040895462036, 0.021813848987221718, -0.11113856732845306, -0.0005857509677298367, -0.08129622042179108, -0.01208233181387186, 0.022449767217040062, 0.008063371293246746, -0.12029504030942917, -0.09810642898082733, -0.027194835245609283, -0.058965060859918594, -0.005414326675236225, 0.09903902560472488, -0.09773726016283035, -0.007480658125132322, -0.08222223073244095, 0.13308532536029816, -0.08979005366563797, -0.08963222056627274, 0.005422795657068491, -0.015627555549144745, 0.008242755196988583, 0.015420462004840374, -0.016974058002233505, 0.01825834810733795, 0.1447828859090805, 0.14938242733478546, 0.004036407917737961, -0.03138745203614235, 0.043567169457674026, -0.08837679028511047, 0.012241076678037643, 0.0030949979554861784, -0.034963201731443405, -0.08503257483243942, -0.049668654799461365, -0.05563601851463318, -0.02503378875553608, -0.09483323246240616, -0.0954536572098732, -0.013018283993005753, -0.10609877109527588, 0.011621128767728806, 0.040831729769706726, -0.08686202019453049, 0.053520914167165756, 0.13674084842205048, 0.03206814453005791, -0.06402657181024551, 0.15558715164661407, 0.09446342289447784, 0.13635244965553284, -0.06933127343654633, -0.038566842675209045, -0.002249110024422407, -0.04986510053277016, -0.04361242055892944, -0.11494725197553635, -0.07837259024381638, -0.07575387507677078, -0.15685385465621948, -0.01590578258037567, -0.07378091663122177, 0.01389940083026886, -0.018944352865219116, 0.12273027747869492, 0.06944307684898376, 0.020403211936354637, 0.003717969171702862, -0.04401048272848129, 0.016022777184844017, 0.11711530387401581, -0.016896672546863556, -0.08909181505441666, -0.0986270010471344, -0.056015025824308395, 0.02450953610241413, 0.05395955964922905, -0.03052760288119316, -0.07166659832000732, 0.038707103580236435, -0.04519848898053169, -0.06074270233511925, -0.030353546142578125, 0.017237180843949318, -0.1056525707244873, -0.04047545790672302, -0.005594099871814251, 0.10085809230804443, 0.039615996181964874, 0.024467840790748596, -0.03439889848232269, 0.014674526639282703], [-0.1613258570432663, -0.03331417590379715, -0.07193150371313095, 0.09880704432725906, -0.021833110600709915, -0.03986585512757301, 0.10330341756343842, -0.03166777268052101, -0.029023729264736176, -0.04863455519080162, -0.07211927324533463, 0.05405837669968605, -0.05853954702615738, -0.011406952515244484, 0.1127500832080841, 0.09322801232337952, -0.05484234541654587, -0.1260520964860916, 0.03323563188314438, 0.11265910416841507, 0.18815217912197113, 0.09263209998607635, 0.04720089212059975, 0.0541468970477581, -0.07342994958162308, -0.018394768238067627, 0.08513594418764114, 0.05487597733736038, -0.011407812125980854, 0.07743288576602936, 0.03411189094185829, 0.07283328473567963, -0.1345810741186142, 0.005959628149867058, -0.16770091652870178, 0.3294505476951599, 0.042029112577438354, 0.045229703187942505, 0.05369902029633522, -0.09685899317264557, -0.07669290155172348, 0.04355641081929207, -0.12645404040813446, -0.16036903858184814, -0.12362271547317505, -0.11581654846668243, -0.05106259882450104, 0.13864879310131073, -0.1329948902130127, 0.15200744569301605, 0.019205212593078613, 0.14546288549900055, -0.0002087745233438909, -0.03915680944919586, 0.0011516044614836574, -0.06597501784563065, 0.11074402928352356, -0.12235479056835175, -0.10988864302635193, -0.08224703371524811, 0.05688835680484772, 0.09131556004285812, 0.12918789684772491, -0.023312227800488472, 0.10257164388895035, -0.021787598729133606, -0.0379207618534565, -0.10520889610052109, 0.13616807758808136, -0.11767292022705078, -0.04439747706055641, -0.07748502492904663, 0.009477265179157257, 0.039691463112831116, -0.12456385791301727, 0.04179619997739792, -0.03863482549786568, -0.12395517528057098, -0.011842583306133747, -0.0999002531170845, 0.15606069564819336, 0.12539999186992645, 0.17737582325935364, -0.04191625118255615, 0.184978187084198, 0.1938183456659317, 0.07637615501880646, -0.041103675961494446, 0.06073419004678726, -0.09826713800430298, -0.1343728005886078, -0.012645704671740532, -0.018204832449555397, -0.02201242372393608, -0.10938125848770142, -0.10031656175851822, -0.08693881332874298, -0.013017755001783371, -0.03617248311638832, 0.024534234777092934, 0.030751211568713188, 0.12675994634628296, 0.049310825765132904, -0.0924055203795433, -0.03420387953519821, 0.03147539123892784, 0.02817155420780182, 0.011648671701550484, -0.07223077863454819, -0.09441140294075012, -0.03136252611875534, 0.09745859354734421, 0.07081147283315659, 0.028899678960442543, -0.00019727530889213085, 0.14389875531196594, -0.025982584804296494, -0.02929973229765892, 0.033812422305345535, 0.057167280465364456, -0.014662856236100197, -0.04464689642190933, -0.1196104884147644, 0.03595747426152229, 0.0033091555815190077, -0.04205908626317978, -0.12249694019556046, 0.20636406540870667], [-0.08385755866765976, -0.024817872792482376, -0.15804076194763184, 0.09750136733055115, -0.03240480646491051, -0.042814385145902634, 0.12217587232589722, -0.03562096878886223, -0.03134309500455856, -0.13320110738277435, -0.011608157306909561, -0.0214630626142025, -0.028949258849024773, -0.1299111545085907, 0.17792664468288422, 0.03895878791809082, -0.07823701947927475, -0.054937537759542465, 0.14031966030597687, 0.19856075942516327, 0.0426810160279274, 0.039369136095047, 0.043029554188251495, 0.012098889797925949, -0.08101074397563934, 0.041047681123018265, 0.19935786724090576, 0.20714743435382843, 0.01856101304292679, 0.005337764974683523, 0.16601680219173431, 0.13269302248954773, -0.08445968478918076, -0.02878590114414692, -0.16698089241981506, 0.11652296036481857, -0.0937892273068428, -0.04603105038404465, 0.053806714713573456, -0.023879893124103546, 0.01129989605396986, 0.04575181379914284, -0.15906751155853271, -0.14901135861873627, -0.1706847995519638, -0.11966873705387115, 0.006880314089357853, 0.14511708915233612, -0.058321643620729446, 0.04308636859059334, -0.021514318883419037, 0.14434611797332764, -0.1266423761844635, -0.11817379295825958, -0.0012261505471542478, -0.09383135288953781, 0.10992243140935898, -0.04007634520530701, -0.020138949155807495, -0.01301159244030714, 0.03719152882695198, 0.055739134550094604, 0.24095621705055237, -0.08951319009065628, 0.06231117993593216, -0.16253504157066345, -0.11613017320632935, -0.02666056901216507, 0.16920684278011322, -0.06980115175247192, -0.04698190838098526, 0.02819959633052349, 0.004886440001428127, 0.014655089005827904, -0.13493844866752625, -0.03881317004561424, 0.009102187119424343, -0.09796697646379471, -0.003380055073648691, -0.016368050128221512, 0.06112371385097504, 0.04010560363531113, 0.04624122753739357, -0.04697301238775253, 0.1529155820608139, 0.04663572087883949, 0.1488371342420578, 0.030453871935606003, -0.03016115352511406, -0.09856824576854706, -0.0807601809501648, -0.14033375680446625, -0.05017344281077385, -0.09802132844924927, -0.07132494449615479, -0.1009727418422699, -0.0747232735157013, -0.014342482201755047, -0.009310905821621418, -0.031172635033726692, 0.065494604408741, 0.09852264821529388, -0.09488376975059509, -0.02634337730705738, 0.013597771525382996, 0.13791140913963318, 0.0424230694770813, 0.010949568822979927, -0.06457746773958206, -0.11341828852891922, -0.10008660703897476, 0.11149819195270538, 0.1850264072418213, 0.05900071561336517, -0.04024842754006386, 0.058657415211200714, -0.048628389835357666, -0.12168364226818085, -0.06357312202453613, 0.15146929025650024, -0.037916429340839386, -0.036119669675827026, -0.047068413347005844, 0.028556937351822853, -0.05225740373134613, -0.05840328335762024, -0.013793952763080597, 0.07217546552419662], [-0.05998855456709862, -0.008214238099753857, -0.035039663314819336, 0.02395210973918438, 0.014040874317288399, 0.020333729684352875, 0.10070082545280457, 0.020854085683822632, -0.1611212193965912, -0.10378255695104599, 0.04820742830634117, -0.05310837924480438, 0.19317302107810974, -0.06738106161355972, 0.051239825785160065, 0.0959554985165596, -0.022787639871239662, 0.0278487429022789, -0.41042283177375793, 0.06826085597276688, 0.15602008998394012, 0.11074019968509674, 0.10538902133703232, -0.013802268542349339, -0.07030198723077774, -0.021529467776417732, 0.008924470283091068, 0.04732660576701164, -0.14457246661186218, 0.04355813190340996, 0.020766982808709145, 0.014649921096861362, -0.049915414303541183, -0.04181154817342758, -0.14416934549808502, -0.08205670118331909, -0.0030827950686216354, 0.022119875997304916, -0.09659261256456375, -0.023909658193588257, -0.07124537974596024, -0.024721261113882065, 0.01681220717728138, -0.028107130900025368, 0.022185910493135452, -0.09418993443250656, -0.011315927840769291, 0.04526501148939133, -0.07984037697315216, 0.03224462643265724, -0.07200580090284348, 0.01279663760215044, -0.011163435876369476, 0.0006525255157612264, 0.0082337511703372, 0.013734012842178345, -0.04390937462449074, -0.21033865213394165, -0.20093654096126556, -0.02419755607843399, 0.10198751091957092, 0.02152559719979763, -0.06158478558063507, -0.1280411332845688, -0.0029923440888524055, -0.16586542129516602, -0.12779679894447327, -0.015438000671565533, 0.1556061953306198, -0.05535922944545746, 0.018080340698361397, -0.09298676252365112, -0.12283788621425629, 0.0005114568048156798, -0.05505234748125076, -0.08996293693780899, -0.03678681328892708, -0.04044416546821594, -0.06659676134586334, -0.10763665288686752, 0.05958893522620201, 0.059400420635938644, -0.005587466061115265, -0.013927695341408253, 0.07918114960193634, -0.024091986939311028, 0.08321350812911987, 0.026489365845918655, -0.003781793639063835, -0.020906155928969383, -0.07352671772241592, -0.09300301969051361, -0.1317664384841919, -0.028861261904239655, -0.1564517468214035, 0.027340354397892952, -0.027296412736177444, -0.10914537310600281, -0.015656152740120888, -0.11209188401699066, 0.12572962045669556, -0.0047164903953671455, -0.050872329622507095, 0.11158931255340576, 0.06076540797948837, 0.009487923234701157, -0.00743797468021512, -0.022441793233156204, 0.034640178084373474, -0.060346897691488266, -0.062210313975811005, 0.07098210602998734, 0.09797150641679764, 0.1562468558549881, 0.12067685276269913, 0.10902785509824753, 0.031159259378910065, -0.011647772043943405, -0.12089503556489944, -0.027748385444283485, -0.06745412945747375, -0.14435994625091553, -0.16190338134765625, 0.04903695359826088, 0.002511910628527403, 0.025706062093377113, -0.07144656777381897, -0.10007920116186142], [-0.11137580126523972, -0.06595075130462646, -0.08119116723537445, 0.14920996129512787, -0.05492021143436432, -0.08076078444719315, 0.08047530055046082, -0.10138160735368729, -0.01693299412727356, -0.10477972775697708, -0.011614547111093998, -0.005312545690685511, -0.010880249552428722, -0.04907295107841492, 0.0993175357580185, 0.059475187212228775, -0.0004087051493115723, -0.07444311678409576, 0.057792793959379196, 0.10291525721549988, 0.12631294131278992, 0.10704413801431656, 0.07236631959676743, 0.06675003468990326, -0.07061459124088287, -0.005887045059353113, 0.1053043082356453, 0.20849506556987762, 0.059906598180532455, 0.0271125640720129, 0.10840494185686111, 0.13920244574546814, -0.04889516904950142, -0.021858831867575645, -0.1743575632572174, -0.0010115030454471707, 0.011479917913675308, 0.0514918714761734, 0.02356315217912197, -0.06647396832704544, 0.035137344151735306, 0.018367528915405273, -0.14735853672027588, -0.04352010786533356, -0.12993966042995453, -0.13872389495372772, -0.022873833775520325, 0.09316307306289673, -0.1897210329771042, 0.057964399456977844, -0.018815578892827034, 0.20869995653629303, -0.02055247314274311, -0.14899568259716034, 0.07267890870571136, -0.0954207330942154, 0.040322445333004, -0.05825658142566681, -0.11863468587398529, -0.0656566172838211, 0.05200047791004181, 0.06194274127483368, 0.04061928018927574, -0.04662603139877319, 0.056185249239206314, -0.055855922400951385, -0.07933569699525833, -0.0718618854880333, 0.1955534964799881, -0.05083808675408363, -0.02253407984972, -0.05731425806879997, 0.009865167550742626, 0.07055506855249405, -0.09831434488296509, 0.032823484390974045, -0.036745622754096985, -0.13805313408374786, -0.06860433518886566, -0.11865023523569107, 0.12657877802848816, 0.0822656899690628, 0.15438318252563477, -0.04945665970444679, 0.0728248655796051, 0.1344415694475174, 0.1645100861787796, 0.024250900372862816, -0.008391879498958588, -0.1022997498512268, -0.09678976237773895, -0.03774970769882202, -0.11340587586164474, -0.02822445146739483, -0.11753015965223312, -0.11038247495889664, 0.05056564509868622, -0.0018766459543257952, 0.0004255645617377013, 0.0750512033700943, 0.05388006195425987, 0.0940304547548294, 0.015725210309028625, -0.01637500338256359, 0.005847688298672438, -0.045673687011003494, 0.10887470096349716, -0.0798472985625267, -0.05629050359129906, -0.048154693096876144, -0.12177305668592453, 0.11856578290462494, 0.06121223047375679, -0.04539318010210991, -0.10068443417549133, 0.06996255367994308, -0.08211560547351837, -0.1576133519411087, 0.04334130138158798, 0.08267809450626373, -0.08442500233650208, -0.04554678872227669, -0.11164157837629318, 0.0807190015912056, 0.0015065517509356141, 0.044718917459249496, -0.04896806925535202, -0.041398510336875916], [-0.09348271042108536, -0.10414326190948486, -0.1148412898182869, 0.18831054866313934, -0.12252365797758102, -0.030344896018505096, 0.11525341123342514, -0.0865096002817154, -0.04008210822939873, -0.0819755345582962, -0.024487445130944252, 0.02931688353419304, 0.1143711656332016, 0.008440105244517326, 0.0674106702208519, 0.08390967547893524, -0.04621269553899765, -0.048672325909137726, 0.07608865201473236, 0.1567937284708023, 0.17889177799224854, 0.05794312059879303, 0.04070749506354332, 0.004059493541717529, -0.09960681945085526, -0.040300413966178894, 0.22013650834560394, 0.12441768497228622, -0.0329141765832901, 0.06039313226938248, 0.1393279731273651, 0.027170944958925247, -0.0748002752661705, 0.009721146896481514, -0.07240048795938492, 0.04044831916689873, -0.010000980459153652, 0.07456455379724503, -0.01769559644162655, -0.02690863236784935, 0.046435337513685226, -0.0020406856201589108, -0.05848504975438118, -0.11508675664663315, -0.04153873398900032, -0.09786668419837952, 0.07305172830820084, 0.14649300277233124, -0.15495958924293518, 0.10702206939458847, -0.024194052442908287, 0.11484496295452118, 0.0039019398391246796, -0.11422687023878098, -0.05136178806424141, -0.07428530603647232, 0.08425026386976242, 0.007965882308781147, -0.13538901507854462, -0.07082460820674896, 0.1062447801232338, 0.13878652453422546, 0.06898751854896545, -0.10839907824993134, 0.028683241456747055, -0.06089091673493385, -0.058552373200654984, -0.05861387029290199, 0.09533989429473877, -0.04721949249505997, -0.022362053394317627, -0.08151653409004211, -0.07983385026454926, 0.04653775319457054, -0.0631086602807045, -0.11186341941356659, -0.05412106588482857, -0.025405246764421463, -0.10470052063465118, -0.09469858556985855, 0.10607311874628067, 0.12118065357208252, 0.08122044801712036, -0.05495557188987732, 0.06662608683109283, 0.09729086607694626, 0.07401781529188156, 0.0548618882894516, -0.10709607601165771, -0.09949765354394913, -0.21157309412956238, -0.04112889990210533, -0.06379780918359756, -0.03653747960925102, -0.030925597995519638, -0.15268217027187347, 0.04996883496642113, -0.05513833090662956, 0.09581197798252106, 0.05788058042526245, 0.014025640673935413, 0.05729812756180763, -0.0751676931977272, -0.036690276116132736, -0.04661405086517334, 0.06126995012164116, 0.11362804472446442, -0.008861459791660309, -0.050560303032398224, -0.03851914405822754, -0.027200233191251755, 0.07732703536748886, 0.11103283613920212, 0.011879289522767067, -0.028618207201361656, -0.01094091311097145, -0.05470360070466995, -0.004787217825651169, -0.05807599425315857, 0.15588407218456268, -0.06567399203777313, -0.03310743346810341, -0.10182394087314606, 0.11998286843299866, 0.07854557782411575, 0.038089968264102936, -0.14193160831928253, -0.02788264863193035], [0.0057182214222848415, 0.0033948051277548075, -0.0018330488819628954, 0.02958265319466591, -0.05877559632062912, -0.05821801349520683, 0.03973444923758507, -0.037272632122039795, 0.0037859242875128984, 0.017829332500696182, -0.0136498948559165, 0.022907789796590805, 0.031674738973379135, -0.10197775065898895, 0.01764216646552086, 0.024925967678427696, -0.11769936978816986, -0.08275948464870453, -0.05037951469421387, 0.021402329206466675, -0.0005976561224088073, 0.09342126548290253, 0.08344903588294983, -0.032690346240997314, -0.016278576105833054, 0.0616169348359108, 0.02723171003162861, 0.13053886592388153, -0.08441107720136642, 0.06978651881217957, 0.14411096274852753, -0.050880782306194305, 0.044326718896627426, -0.11918634176254272, 0.01820196770131588, -0.1987743079662323, -0.04271918907761574, -0.04193152114748955, -0.05794290825724602, -0.06293860822916031, 0.0964171513915062, 0.05476267635822296, -0.021306242793798447, -0.051414087414741516, -0.09665337204933167, -0.09134359657764435, 0.050293274223804474, 0.14521902799606323, -0.03643634542822838, 0.06839020550251007, 0.03362928703427315, 0.1213473528623581, -0.018336329609155655, -0.05387154221534729, -0.02312137745320797, -0.02594878152012825, 0.01585298776626587, 0.16417542099952698, -0.034590840339660645, -0.025346817448735237, -0.010046331211924553, 0.04041363298892975, 0.059938959777355194, -0.04913513362407684, -0.02804478257894516, -0.1301245242357254, -0.07063384354114532, -0.07999557256698608, 0.030996248126029968, 0.008165883831679821, 0.04982027783989906, -0.0699080303311348, -0.0884426161646843, -0.12286267429590225, 0.000639332109130919, -0.07940071821212769, -0.04792450740933418, -0.12021682411432266, -0.03697264567017555, 0.016344813629984856, 0.09042529761791229, -0.05956286936998367, 0.03529176488518715, -0.06015610322356224, 0.03735627233982086, 0.05315963178873062, 0.026253409683704376, 0.05924220755696297, -0.13604457676410675, -0.01232462003827095, 0.06482505053281784, -0.049117572605609894, -0.08184076845645905, -0.11096324771642685, 0.028225086629390717, -0.11229885369539261, -0.09755485504865646, -0.08500589430332184, -0.10853065550327301, 0.03495604172348976, 0.015472161583602428, 0.027492009103298187, -0.024471400305628777, 0.056694529950618744, -0.08836115896701813, 0.031017107889056206, 0.04311558976769447, 0.04828180372714996, -0.03979262709617615, -0.006455269642174244, 0.039211150258779526, 0.10751437395811081, 0.054302360862493515, -0.009836995042860508, 0.16891928017139435, -0.024687768891453743, 0.032604046165943146, -0.10853109508752823, -0.06780088692903519, 0.07797323912382126, -0.034592948853969574, -0.0797438845038414, -0.08232420682907104, -0.026285499334335327, -0.06467605382204056, 0.06296900659799576, -0.1261482536792755, -0.02289060689508915], [-0.09244103729724884, -0.043512407690286636, -0.049564022570848465, 0.07792679965496063, 0.06430713087320328, -0.0664585530757904, -0.027681058272719383, -0.06826017796993256, 0.02824723720550537, -0.04561460018157959, -0.04385363310575485, -0.0878542885184288, -0.051149800419807434, -0.09612232446670532, 0.012321414425969124, 0.006012121215462685, 0.021143754944205284, 0.002563896356150508, 0.03475147485733032, 0.03672771900892258, -0.024206651374697685, -0.01140846498310566, 0.08972571790218353, -0.008713523857295513, -0.08952517062425613, 0.02583531104028225, -0.026194516569375992, 0.023446694016456604, -0.0691886767745018, -0.001749329618178308, 0.11348342150449753, 0.06704455614089966, -0.05401044338941574, 0.009906388819217682, -0.09658097475767136, -0.03397633880376816, -0.06179739162325859, -0.06900870054960251, -0.02942652814090252, -0.07060389965772629, -0.01537533663213253, 0.030075887218117714, 0.008316130377352238, 0.018348712474107742, -0.06569328159093857, 0.015614603646099567, 0.012014064006507397, -0.025013279169797897, -0.011506251059472561, 0.12447833269834518, -0.023584015667438507, 0.13816623389720917, -0.003698422107845545, -0.06631806492805481, 0.04522149637341499, -0.07445640861988068, -0.005782362539321184, 0.05617355555295944, -0.10159260034561157, -0.06058376282453537, 0.0857415646314621, 0.02762475237250328, -0.07769875228404999, -0.1041860580444336, -0.019326413050293922, -0.03725608438253403, -0.047128256410360336, -0.06633701920509338, 0.053386274725198746, -0.09969973564147949, -0.06232098489999771, 0.01622626557946205, 0.09034130722284317, -0.03705305978655815, -0.02120361104607582, 0.01610802672803402, -0.10168937593698502, -0.030025122687220573, 0.002804512856528163, 0.03748277574777603, 0.008697513490915298, 0.02160455659031868, 0.09219132363796234, -0.06381355971097946, -0.010345143266022205, 0.026831533759832382, 0.0473739318549633, -0.04165530204772949, -0.07813626527786255, -0.060700442641973495, -0.006451346445828676, -0.022965677082538605, -0.05463031679391861, -0.11288179457187653, -0.08379760384559631, 0.08420558273792267, -0.0467536598443985, 0.10151094943284988, -0.10308703035116196, 0.049199897795915604, 0.005567846354097128, 0.020714029669761658, 0.011015175841748714, -0.12149123102426529, 0.00411222642287612, 0.07672754675149918, 0.12169045209884644, 0.043314069509506226, -0.025206217542290688, -0.09475023299455643, -0.1398056149482727, 0.08258789032697678, 0.02048289030790329, -0.05393661558628082, 0.07728690654039383, -0.005849650129675865, -0.12635335326194763, -0.013230716809630394, 0.020438071340322495, 0.023018278181552887, -0.09523691236972809, -0.12452023476362228, -0.07940442115068436, 0.007639157585799694, 0.0404679961502552, -0.07086708396673203, -0.10980069637298584, -0.09203305095434189], [-0.08810218423604965, -0.10022656619548798, -0.025439279153943062, 0.060069989413022995, -0.014784748665988445, -0.07084708660840988, 0.12709186971187592, 0.0020652662497013807, 0.07182540744543076, -0.06530474871397018, -0.08202262967824936, -0.07273996621370316, 0.0009977074805647135, -0.10215803980827332, 0.05303476005792618, -0.004128161817789078, -0.03373696655035019, -0.12272191792726517, 0.10978712141513824, 0.007693645544350147, 0.10716976225376129, 0.00617113895714283, 0.07506366074085236, -0.04361925646662712, 0.025461649522185326, 0.0014571764040738344, 0.02588501013815403, 0.06911296397447586, -0.06435658782720566, 0.016033999621868134, 0.04367709532380104, 0.0030268251430243254, 0.009946002624928951, -0.025558164343237877, -0.038536470383405685, 0.03801674768328667, -0.04848663508892059, -0.02142079919576645, 0.01420500222593546, -0.009418230503797531, 0.004803900606930256, 0.02749260514974594, 0.015468614175915718, 0.007294345181435347, -0.04826928302645683, -0.019925469532608986, -0.04558275267481804, 0.13019931316375732, -0.07938946783542633, 0.03202417120337486, -0.05572601780295372, 0.06721392273902893, 0.011377628892660141, -0.0870480164885521, 0.001057456131093204, -0.11809173226356506, 0.032644644379615784, -0.06585648655891418, -0.0972500741481781, 0.020854493603110313, 0.09081132709980011, 0.1267327219247818, 0.00677660945802927, -0.04676384478807449, 0.07076021283864975, -0.11072902381420135, -0.08399974554777145, -0.07767230272293091, 0.039778027683496475, -0.04393391311168671, -0.014465386047959328, 0.01732451096177101, 0.031181253492832184, 0.0037808693014085293, -0.03231735900044441, 0.006433471105992794, -0.033517125993967056, -0.06479015946388245, -0.04616869240999222, -0.12401092797517776, 0.01114461850374937, 0.11543054133653641, 0.10759612917900085, 0.01115535106509924, 0.10213597118854523, -0.015938445925712585, 0.043936651200056076, 0.05540423467755318, -0.1011529415845871, -0.1265239417552948, -0.07926826924085617, -0.07818640023469925, -0.0745697021484375, -0.057166896760463715, -0.03665788844227791, -0.08991790562868118, -0.042249828577041626, -0.012207034975290298, -0.049541961401700974, 0.021914880722761154, 0.015220390632748604, -0.004471078515052795, -0.04635217413306236, -0.01663401536643505, -0.09091735631227493, 0.11988792568445206, 0.0709657222032547, 0.007201428525149822, -0.10708163678646088, -0.04099132865667343, -0.09861186891794205, 0.04544244706630707, 0.07661697268486023, -0.057907454669475555, -0.05508338660001755, -0.017566194757819176, -0.08365510404109955, -0.09193743765354156, -0.051102835685014725, 0.09639094769954681, -0.09729481488466263, -0.06604120135307312, -0.0014065655414015055, 0.1027991995215416, -0.00961508322507143, 0.07783490419387817, -0.03370632231235504, -0.006021666340529919], [-0.137766495347023, -0.11202172935009003, -0.07847383618354797, 0.13601699471473694, -0.04763239622116089, -0.08493184298276901, 0.051485154777765274, -0.05169554799795151, 0.012886815704405308, -0.06677663326263428, -0.008071557618677616, -0.0792231410741806, -0.06194695457816124, -0.15159562230110168, 0.058109529316425323, 0.20664091408252716, 5.2462477469816804e-05, -0.03448409587144852, 0.04769904166460037, 0.06129606068134308, 0.11849630624055862, -0.023879369720816612, 0.04443426430225372, -0.09506019949913025, -0.029835084453225136, -0.12832686305046082, 0.07451746612787247, 0.10953951627016068, 0.02139362506568432, 0.01128835417330265, 0.07016021013259888, 0.049001630395650864, 0.018572991713881493, -0.003222870407626033, -0.07659124583005905, -0.013966461643576622, -0.05390030890703201, -0.022165214642882347, -0.047638505697250366, -0.06181441992521286, 0.0007009889814071357, 0.08481278270483017, 0.003398098051548004, -0.049824245274066925, -0.02032940648496151, -0.08326435089111328, -0.018390310928225517, 0.0391506552696228, -0.08705595135688782, 0.031430598348379135, 0.011304936371743679, 0.09346725791692734, -0.04186776280403137, -0.06482104957103729, -0.08302152901887894, -0.02362956665456295, 0.03545328229665756, -0.021266672760248184, -0.0704110786318779, -0.028136495500802994, 0.04230056703090668, 0.10353350639343262, -0.0034155105240643024, -0.04499223083257675, 0.04593944177031517, -0.09883476048707962, -0.09741415083408356, -0.13516248762607574, -0.007557205855846405, -0.08134785294532776, -0.09328638762235641, -0.11288920044898987, -0.031471848487854004, -0.0645303949713707, -0.11923696100711823, 0.05555814877152443, -0.043786969035863876, 0.011492201127111912, -0.0036945221945643425, -0.031143918633461, 0.03837849572300911, 0.14440681040287018, 0.06127651408314705, 0.02609400264918804, 0.06181511655449867, 0.031495351344347, 0.16597981750965118, 0.031337227672338486, 0.012054553255438805, -0.16879072785377502, -0.07298654317855835, -0.01822526752948761, -0.0341750904917717, -0.004385027103126049, -0.07394278794527054, -0.061923589557409286, -0.02318255603313446, 0.08761560916900635, -0.06113038212060928, 0.0062999785877764225, 0.1191743016242981, 0.14081233739852905, 0.015755241736769676, -0.19244226813316345, -0.12349604070186615, 0.1177981048822403, 0.03761056810617447, -0.020438795909285545, -0.11683168262243271, -0.14040784537792206, -0.08407445251941681, 0.07627825438976288, 0.0004851801786571741, -0.12154517322778702, -0.0403682217001915, 0.014656666666269302, -0.14510458707809448, 0.00606725225225091, -0.10244252532720566, 0.035788241773843765, -0.08870013803243637, -0.046343617141246796, -0.14095856249332428, 0.0628727450966835, -0.012309672310948372, 0.08629542589187622, -0.06577980518341064, -0.12939323484897614], [-0.0411958247423172, -0.016013789921998978, -0.020339922979474068, 0.11358299106359482, 0.0467284694314003, -0.12233096361160278, 0.09355751425027847, 0.009980722330510616, -0.030297070741653442, -0.042122114449739456, -0.05014248937368393, 0.004815395921468735, 0.009219824336469173, -0.069561667740345, -0.0284091979265213, 0.020492572337388992, -0.0463094487786293, -0.12145084887742996, -0.08980395644903183, 0.06810436397790909, 0.08225494623184204, 0.0742218941450119, -0.04607880860567093, -0.011992400512099266, 0.037345148622989655, 0.041374605149030685, 0.02254778891801834, 0.016195043921470642, -0.12101097404956818, 0.008810178376734257, 0.07037132233381271, 0.05990159139037132, -6.662909436272457e-05, 0.03421065956354141, -0.0392426997423172, 0.005075042601674795, -0.02814105711877346, -0.00868287868797779, -0.15198048949241638, -0.07793162018060684, 0.027768846601247787, 0.07374824583530426, 0.013303898274898529, 0.023102134466171265, -0.05919606611132622, -0.11463005840778351, -0.06306198984384537, 0.1389007419347763, -0.028683237731456757, 0.11631909757852554, -0.09404125809669495, 0.012281427159905434, -0.015306747518479824, -0.01306119840592146, -0.06638048589229584, -0.04067009687423706, 0.3797153830528259, -0.2737891972064972, -0.16222907602787018, -0.12720118463039398, 0.11113670468330383, 0.07550303637981415, -0.09929217398166656, -0.09174884855747223, 0.07422524690628052, -0.037521034479141235, -0.051599834114313126, -0.002934176940470934, -0.08501766622066498, -0.02425748109817505, -0.06782304495573044, 0.045499518513679504, 0.17051509022712708, -0.04033681005239487, -0.07097939401865005, -0.2064160257577896, 0.05682916194200516, -0.11665777862071991, 0.009280712343752384, -0.05408603698015213, 0.03605480119585991, 0.010453905910253525, 0.13530024886131287, -0.02336927317082882, 0.14233720302581787, -0.018552185967564583, 0.14549517631530762, 0.024679414927959442, 0.033773068338632584, -0.002342104446142912, -0.5543537139892578, 0.00658929580822587, -0.14162877202033997, 0.050360508263111115, -0.023711025714874268, 0.022951096296310425, -0.054454121738672256, 0.12480176240205765, 0.007748179137706757, 0.006183742545545101, -0.036372579634189606, 0.11263880133628845, 0.0145192239433527, -0.003955592401325703, 0.032367683947086334, 0.10145571082830429, 0.05610028654336929, -0.10598441958427429, -0.030829980969429016, -0.11288252472877502, -0.14251630008220673, 0.01598745584487915, 0.015940507873892784, 0.04764135926961899, 0.07731873542070389, 0.11371506750583649, -0.04265965521335602, -0.030753517523407936, -0.05112825706601143, 0.0710580125451088, -0.06554372608661652, 0.0398559533059597, 0.022215677425265312, -0.002315809018909931, -0.0049405586905777454, 0.14130865037441254, 0.017444636672735214, 0.018417388200759888], [-0.04203207790851593, -0.062422577291727066, -0.10947263240814209, -0.0009341256809420884, 0.07581643760204315, -0.0955023393034935, 0.04548393934965134, -0.0875968262553215, -0.05670296773314476, -0.13882851600646973, 0.025613747537136078, 0.004112732596695423, 0.049515992403030396, -0.07295852899551392, 0.036353692412376404, 0.032914455980062485, 0.05298300459980965, -0.10863902419805527, -0.0320943258702755, 0.00422385148704052, 0.10434325784444809, -0.04932880774140358, 0.105893075466156, -0.014603742398321629, -0.022044284269213676, -0.15419794619083405, 0.11389082670211792, -0.026616007089614868, -0.10040131211280823, -0.013561122119426727, -0.009532440453767776, 0.03391283005475998, -0.05016830191016197, -0.09520602226257324, -0.07925713807344437, -0.10463479161262512, -0.07931144535541534, -0.077225461602211, 0.12280895560979843, -0.0408816784620285, 0.00983017310500145, -0.03964529186487198, -0.08265569061040878, -0.07490762323141098, -0.06749815493822098, -0.11823344230651855, 0.011764220893383026, 0.07302246242761612, -0.030789505690336227, 0.08772990107536316, -0.14393097162246704, 0.05816369876265526, -0.03400791436433792, -0.09637394547462463, -0.10396134853363037, 0.008858438581228256, -0.0028953608125448227, -0.19359487295150757, -0.04792304337024689, -0.08810624480247498, 0.09487584978342056, 0.06305476278066635, -0.07392849028110504, -0.06369435787200928, 0.06346360594034195, -0.07639792561531067, -0.11634048819541931, -0.011269574984908104, -0.022471792995929718, 0.005938149057328701, -0.04898548498749733, -0.10242839902639389, -0.014828195795416832, 0.007855039089918137, -0.12177560478448868, 0.36120736598968506, -0.026363642886281013, -0.09255566447973251, -0.03686552494764328, 0.011083717457950115, 0.08498989045619965, 0.004736597184091806, 0.1320773810148239, -0.01961810141801834, 0.11577901244163513, 0.00670592812821269, 0.11477357149124146, 0.07501532137393951, 0.004993431270122528, -0.1460835337638855, -0.011031145229935646, -0.0036828280426561832, -0.02367650344967842, 0.014076746068894863, -0.004737932700663805, -0.18011082708835602, -0.05657137185335159, 0.07190613448619843, -0.008184225298464298, 0.07505964487791061, 0.0663674920797348, -0.014770136214792728, -0.10380484163761139, 0.009799486957490444, -0.059835806488990784, 0.03646555542945862, 0.07498334348201752, -0.06716632843017578, -0.01733553037047386, 0.03566127270460129, -0.0053881751373410225, 0.00942639447748661, -0.018707135692238808, -0.1119963675737381, 0.12144497781991959, 0.1037336215376854, 0.032123394310474396, -0.002498241839930415, 0.015950003638863564, 0.0801004022359848, 0.059585556387901306, -0.04743456467986107, 0.03914637863636017, 0.04518504813313484, -0.1882060021162033, 0.006824013777077198, -0.1448984295129776, -0.056558821350336075], [-0.038453955203294754, 0.02638307772576809, -0.058947980403900146, 0.11496347188949585, 0.035192638635635376, -0.04781961813569069, 0.17753338813781738, -0.014865731820464134, -0.003984537906944752, -0.01927170902490616, -0.0022552700247615576, 0.10153676569461823, 0.033262062817811966, -0.10696496814489365, 0.05907262861728668, 0.055971357971429825, -0.10832468420267105, -0.1679069846868515, 0.0865534096956253, 0.18072421848773956, 0.13106268644332886, 0.06039007380604744, 0.12038890272378922, -0.04613134637475014, -0.07519931346178055, -0.03365614265203476, 0.047033291310071945, 0.1308225393295288, -0.029244011268019676, 0.027011053636670113, 0.05634186044335365, 0.09939604252576828, -0.02709983102977276, 0.0030258868355304003, -0.10713084042072296, 0.03168417140841484, -0.015448048710823059, 0.02370464615523815, 0.02540997602045536, -0.11582913994789124, -0.018407821655273438, 0.138239786028862, -0.014195334166288376, -0.12493689358234406, -0.12456423044204712, -0.0727943405508995, 0.022494161501526833, 0.11856900900602341, -0.0602940209209919, 0.04533637687563896, -0.01436681766062975, 0.1738036423921585, -0.07947111874818802, -0.0414571687579155, -0.013882339932024479, -0.1368306577205658, 0.11027314513921738, -0.006245896685868502, -0.032261259853839874, -0.014457189477980137, 0.08001071959733963, 0.17160801589488983, 0.10958046466112137, -0.1460788995027542, 0.08525478839874268, -0.08846205472946167, -0.056759051978588104, -0.025959834456443787, 0.16015131771564484, -0.08284182846546173, -0.024453796446323395, -0.0379011295735836, 0.012795554473996162, -0.031807173043489456, -0.058915115892887115, 0.016365591436624527, -0.01884552463889122, -0.03834908455610275, -0.07231543213129044, -0.004744681995362043, 0.13849672675132751, 0.047634318470954895, 0.11709610372781754, -0.06336567550897598, 0.10602689534425735, 0.0869356021285057, 0.0755825936794281, 0.09009508788585663, -0.03502042964100838, -0.1377803534269333, -0.10077305883169174, -0.058045558631420135, -0.06635964661836624, -0.023594412952661514, -0.058194588869810104, -0.11078473180532455, -0.049611322581768036, 0.04746626690030098, -0.05793315917253494, 0.015423012897372246, 0.08928173035383224, 0.10923943668603897, -0.062498923391103745, 0.012518971227109432, -0.05451207980513573, 0.11707848310470581, 0.09354478865861893, -0.07607684284448624, -0.014849645085632801, -0.12376836687326431, -0.14444591104984283, 0.0688382238149643, 0.03319956362247467, 0.06922923028469086, -0.040472179651260376, 0.10400597006082535, -0.049547228962183, -0.06982073932886124, -0.01196856889873743, 0.1861155778169632, -0.0350954607129097, -0.08427257835865021, -0.003674729960039258, 0.1286872923374176, 0.04896257817745209, 0.051459453999996185, -0.08575588464736938, 0.017565060406923294], [-0.2679188549518585, -0.10785459727048874, 0.027867848053574562, 0.033600036054849625, -0.021457714959979057, 0.004207730293273926, -0.016414768993854523, -0.13641132414340973, -0.09693664312362671, -0.033740587532520294, -0.0937773734331131, -0.03480333089828491, 0.10499715805053711, -0.12172899395227432, 0.03320896625518799, -0.026066800579428673, -0.13102160394191742, 0.00984738115221262, 0.17820243537425995, 0.003350024577230215, 0.10002295672893524, -0.0240936279296875, 0.12908686697483063, -0.03187486529350281, 0.00025345003814436495, 0.021091585978865623, 0.09789213538169861, 0.11508779972791672, -0.1054215356707573, -0.014984817244112492, -0.016606464982032776, 0.09299827367067337, -0.02405623160302639, -0.0889015793800354, -0.038641173392534256, -0.06286504119634628, -0.011008922010660172, -0.10864387452602386, 0.03386072814464569, -0.12143167108297348, 0.06267974525690079, 0.17251715064048767, -0.055777180939912796, -0.017425235360860825, -0.06870497763156891, -0.11953269690275192, -0.052082136273384094, 0.0490495003759861, 0.013544398359954357, 0.07421451061964035, -0.11003021895885468, 0.0651877224445343, -0.12351128458976746, 0.007711318321526051, -0.026238536462187767, -0.02380279451608658, 0.10077572613954544, 0.11384032666683197, -0.029850801452994347, -0.10107222944498062, 0.020274341106414795, 0.033871784806251526, -0.07483072578907013, -0.04506797343492508, 0.060196325182914734, -0.052504464983940125, -0.00144606688991189, 0.03362857177853584, 0.011207548901438713, -0.11589383333921432, -0.12927302718162537, -0.12997211515903473, 0.03638103976845741, 0.01942051388323307, -0.10332207381725311, 0.06810896098613739, 0.011484596878290176, -0.06635189056396484, -0.045999497175216675, 0.010413928888738155, -0.0344160832464695, -0.0260444488376379, 0.07039043307304382, -0.029141714796423912, 0.042964834719896317, 0.04998880252242088, 0.022080272436141968, -0.0758044645190239, -0.04880199581384659, -0.019871648401021957, 0.06137348711490631, -0.011363716796040535, -0.1325732320547104, -0.0573403425514698, -0.12952736020088196, -0.22018912434577942, -0.06639748066663742, 0.11801618337631226, -0.0196230486035347, -0.08661597222089767, 0.03151269257068634, 0.09408608078956604, -0.027172693982720375, 0.04039962217211723, -0.025849726051092148, -0.014819946140050888, 0.0001298361166846007, 0.016064666211605072, -0.017468804493546486, 0.030890757218003273, -0.019655866548419, 0.04046040028333664, 0.015605183318257332, 0.014761976897716522, 0.06848748028278351, 0.12226901948451996, -0.08429478108882904, -0.021772965788841248, -0.11088631302118301, 0.06658735871315002, -0.1463051736354828, -0.11492162197828293, -0.019184276461601257, -0.024249505251646042, -0.07280290871858597, -0.04046372324228287, -0.12189098447561264, -0.09677717089653015], [-0.06597182899713516, -0.09410712122917175, 0.009499019011855125, 0.056887269020080566, -0.027799978852272034, -0.02227320708334446, 0.10431745648384094, -0.045512501150369644, 0.041919343173503876, -0.13283959031105042, 0.020259443670511246, -0.03759562969207764, -0.09626685827970505, -0.12414837628602982, 0.15112607181072235, 0.1278124451637268, -0.08287563920021057, -0.1271316558122635, -0.05799387767910957, 0.06203671917319298, 0.1328805834054947, 0.10864602029323578, 0.060397300869226456, 0.011423739604651928, -0.013631748966872692, -0.04723403975367546, 0.03470529243350029, 0.018796661868691444, -0.03423631191253662, 0.02007734775543213, 0.1432400792837143, -0.00044580301619134843, -0.05035387724637985, -0.034979794174432755, -0.06728022545576096, 0.000571606564335525, -0.05265316739678383, -0.06773899495601654, -0.0034143857192248106, -0.1244109570980072, -0.015276460908353329, 0.01699679344892502, -0.08754710853099823, -0.06955020874738693, -0.07227348536252975, 0.0040381355211138725, -0.09280391782522202, 0.10745954513549805, -0.06839891523122787, 0.1033163070678711, -0.11406359076499939, 0.09131579101085663, -0.007009869907051325, -0.03284848853945732, -0.02211964875459671, -0.004106923006474972, 0.14105257391929626, 0.005225924775004387, -0.09672001749277115, -0.02777658961713314, 0.050052396953105927, 0.045934949070215225, -0.0003711355966515839, -0.1085435226559639, 0.07169970124959946, -0.11223100870847702, 0.020425550639629364, -0.12044796347618103, 0.058450572192668915, 0.02314402163028717, 0.017259791493415833, -0.08970112353563309, 0.0315391942858696, -0.0827474594116211, -0.0862933024764061, -0.00012042128946632147, -0.09467198699712753, -0.04233676567673683, 0.05825177952647209, -0.031642522662878036, 0.1579321026802063, 0.16134148836135864, 0.0006808482576161623, -0.00014323537470772862, 0.17069052159786224, 0.018762508407235146, 0.09048443287611008, -0.045678041875362396, -0.02338501438498497, -0.12643472850322723, -0.10038146376609802, 0.010813824832439423, -0.14512668550014496, 0.009484338574111462, 0.00947983656078577, -0.0979023277759552, 0.012192290276288986, 0.013552596792578697, -0.054081980139017105, 0.027778133749961853, 0.030875924974679947, 0.08183582127094269, 0.006238022819161415, -0.027876146137714386, -0.06533840298652649, 0.11012109369039536, 0.04876852408051491, -0.08036474138498306, -0.021594850346446037, -0.12024172395467758, -0.0447477363049984, 0.05060547962784767, 0.009921738877892494, -0.022017020732164383, 0.10534730553627014, 0.00139131979085505, -0.11561065912246704, -0.07787501811981201, -0.01834798976778984, 0.08654485642910004, -0.06281633675098419, -0.06362532824277878, -0.13991840183734894, 0.10137354582548141, 0.026040909811854362, 0.017908189445734024, -0.02910733036696911, -0.09126543998718262], [-0.05815431848168373, 0.013225105591118336, -0.00492617953568697, 0.11635497212409973, -0.1842944622039795, -0.028306663036346436, -0.0031262654811143875, -0.0775141716003418, -0.084714874625206, 0.0013995907502248883, -0.0030174115672707558, -0.046947456896305084, 0.03514585271477699, -0.020754363387823105, 0.1437859833240509, -0.023062685504555702, -0.11610908061265945, -0.14189943671226501, 0.1803615391254425, 0.16804645955562592, 0.004179815296083689, 0.09198258817195892, 0.11788617074489594, 0.0025407043285667896, -0.12715201079845428, -0.0668545514345169, 0.08026625961065292, 0.0399499386548996, -0.12701024115085602, 0.08392414450645447, 0.09599173069000244, -0.005727110896259546, -0.14175617694854736, -0.0667022094130516, -0.05320969596505165, 0.06263409554958344, -0.06904452294111252, -0.012776772491633892, -0.0021376668009907007, -0.02583814412355423, -0.03351220116019249, -0.02153262495994568, 0.01962563581764698, -0.12369412928819656, -0.05504603683948517, -0.14740338921546936, -0.031135253608226776, 0.018505167216062546, -0.056716497987508774, -0.025369491428136826, -0.054153863340616226, 0.008118005469441414, -0.09974286705255508, -0.1183755174279213, -0.034968819469213486, -0.08455032855272293, 0.09858343005180359, -0.068583644926548, -0.10359003394842148, -0.0724274292588234, -0.012588845565915108, 0.08674731105566025, 0.02199733629822731, -0.13247528672218323, 0.022567272186279297, -0.1667940616607666, -0.02133001573383808, -0.023246247321367264, -0.039209261536598206, -0.1044701412320137, -0.12627819180488586, -0.04320141673088074, -0.08664104342460632, -0.14430837333202362, 0.009648701176047325, -0.05140543356537819, -0.11076661199331284, -0.028608625754714012, 0.017586922273039818, -0.029854483902454376, 0.06904741376638412, 0.1554701179265976, 0.12759020924568176, -0.04798635467886925, -0.0056657674722373486, 0.07446245104074478, 0.0614820271730423, -0.14837568998336792, -0.08312389254570007, -0.05252450704574585, -0.028081264346837997, -0.07848384231328964, -0.08728042989969254, -0.04415342956781387, -0.12084938585758209, -0.11019312590360641, -0.04578907787799835, -0.05306311324238777, -0.10768899321556091, -0.07776916772127151, 0.005458347965031862, 0.05053131654858589, -0.08006370067596436, 0.07980916649103165, 0.023180844262242317, 0.022609727457165718, 0.05973771587014198, -0.08022768050432205, -0.11214238405227661, -0.08492951840162277, 0.011124747805297375, 0.14267900586128235, 0.08179914206266403, -0.02966693788766861, -0.014522908255457878, 0.09028131514787674, -0.1179991066455841, -0.0577365905046463, -0.11691731959581375, 0.12767931818962097, -0.026427902281284332, -0.022838972508907318, -0.0907697007060051, -0.009061126969754696, -0.08126126229763031, 0.12691009044647217, -0.12187900394201279, -0.01657111942768097], [0.00013846467481926084, -0.06591279804706573, 0.007362867705523968, 0.050198011100292206, -0.02362767606973648, 0.003452176693826914, 0.05534065514802933, -0.13247966766357422, -0.16535194218158722, -0.036119669675827026, -0.049501050263643265, 0.031323663890361786, 0.04261407628655434, -0.004349882248789072, 0.13934984803199768, 0.04287389665842056, -0.10457772761583328, 0.013290307484567165, 0.03850538656115532, -0.032368872314691544, -0.032215092331171036, 0.05021771788597107, 0.009588167071342468, -0.08489253371953964, -0.10939435660839081, -0.021336296573281288, 0.03885507583618164, 0.054650187492370605, -0.018131054937839508, 0.0875910222530365, 0.057385943830013275, 0.08677008002996445, 0.027950216084718704, -0.07378022372722626, -0.09642200171947479, -0.014038044027984142, 0.004493716172873974, 0.0014394130557775497, -0.11439421772956848, -0.027011757716536522, 0.0018693231977522373, 0.010435210540890694, -0.009690401144325733, -0.13652420043945312, 0.010229196399450302, -0.11891065537929535, 0.021182071417570114, 0.01817680336534977, 0.005829032510519028, 0.09501676261425018, -0.008847846649587154, 0.06721305847167969, -0.10081146657466888, -0.018935512751340866, -0.046895384788513184, -0.06320365518331528, 0.036531880497932434, -0.023844938725233078, 0.0026493058539927006, -0.04402695223689079, -0.028744811192154884, 0.13153934478759766, -0.06570848822593689, -0.13926951587200165, 0.06309441477060318, -0.2497398406267166, -0.01420337613672018, 0.015408582054078579, -0.05913250520825386, -0.0740390419960022, -0.024670381098985672, -0.004379961173981428, -0.035694342106580734, -0.08843187987804413, 0.034167513251304626, 0.0013931525172665715, -0.03665325790643692, 0.004321746993809938, 0.0338435135781765, -0.09263152629137039, 0.07008117437362671, 0.11255575716495514, -0.04438765347003937, 0.0288405679166317, 0.0693226009607315, 0.14961831271648407, 0.09009471535682678, 0.0016457971651107073, -0.13244915008544922, -0.08507426083087921, -0.076344333589077, 0.01870276965200901, -0.025219766423106194, -0.07386906445026398, -0.14381156861782074, -0.019269853830337524, -0.06196252629160881, -0.02490091882646084, -0.12420209497213364, -0.07168206572532654, -0.01381590124219656, 0.06244632974267006, 