{"conv1.weight": [[-0.1310482770204544, -0.03476967290043831, -0.00805219542235136, -0.003191786352545023, -0.0031498060561716557, -0.02624000608921051, 0.06482861191034317, -0.00788190122693777, 0.01848113350570202, 0.01681387983262539, -0.09295854717493057, 0.013506113551557064, -0.03803926333785057, -0.044133901596069336, 0.0877465307712555, -0.02456800639629364, 0.00812759343534708, 0.0067655229941010475, 0.03188450634479523, -0.005824283231049776, 0.011991077102720737, 0.001998540945351124, -0.03320321440696716, 0.044768888503313065, -0.02586633525788784, -0.07865267992019653, 0.008524375036358833, 0.00826400425285101, -0.02309068664908409, -0.02279502898454666, -0.0770971029996872, -0.011023818515241146, -0.05831366777420044, -0.0019648342858999968, 0.06472690403461456, -0.07671719044446945, 0.06640203297138214, 0.0102342264726758, -0.049963679164648056, -0.08573593199253082, -0.035651542246341705, -0.0170031376183033, -0.06396394222974777, -0.027951659634709358, -0.09879130125045776, -0.01166772935539484, -0.005857167299836874, -0.069647416472435, -0.06935065239667892, -0.023795712739229202, -0.010478444397449493, -0.05436888337135315, -0.04263495281338692, -0.0025428920052945614, -0.004729045554995537, 0.05122644454240799, -0.07888082414865494, -0.022075261920690536, 0.08779805153608322, -0.02386748231947422, -0.07048160582780838, -0.03330402448773384, 0.018586084246635437, -0.029589973390102386], [-0.07772953063249588, -0.036524221301078796, -0.09916400909423828, -0.07405190914869308, -0.10582927614450455, -0.007950055412948132, -0.09821625798940659, 0.024209732189774513, -0.04678019881248474, -0.11544826626777649, -0.040370840579271317, -0.1045280247926712, -0.031696416437625885, -0.06637464463710785, 0.017241546884179115, -0.04157717898488045, 0.041181985288858414, -0.0937703400850296, 0.04530847445130348, -0.0633472353219986, -0.023981308564543724, 0.020931249484419823, -0.03502277657389641, -0.12104519456624985, 0.0012667968403548002, -0.10533662885427475, 0.010308370925486088, -0.034182317554950714, 0.044632215052843094, -0.0307371336966753, -0.10629789531230927, -0.01721581444144249, -0.06130652502179146, 0.010265427641570568, -0.08734630793333054, -0.06140120327472687, -0.052846506237983704, -0.02549830451607704, -0.08599896728992462, -0.05817427858710289, -0.08386427164077759, -0.02975575067102909, -0.12123265862464905, 0.006230910308659077, -0.031853124499320984, -0.04114837944507599, -0.04833465442061424, 0.032100774347782135, -0.009729101322591305, -0.03059518337249756, -0.02717244252562523, 0.04165133461356163, -0.036078695207834244, -0.07556476444005966, 0.042089786380529404, -0.024032384157180786, -0.004005287308245897, -0.02871510572731495, -0.089149609208107, -0.09757993370294571, -0.04578869789838791, 0.07631062716245651, 0.002871062606573105, -0.020979706197977066], [-0.11969020962715149, -0.06294159591197968, -0.06609931588172913, -0.09550057351589203, -0.015857292339205742, -0.011675072833895683, -0.07423856854438782, -0.0018039706628769636, 0.009990045800805092, 0.01754399761557579, -0.03990532457828522, -0.02030705101788044, -0.013497898355126381, -0.01785680465400219, -0.04060610383749008, -0.09813309460878372, 0.0163729265332222, -0.09646586328744888, -0.052979327738285065, -0.047337789088487625, -0.026057900860905647, 0.03603488951921463, -0.02819935977458954, 0.0026969716418534517, -0.039222221821546555, -0.13607479631900787, -0.042329952120780945, -0.042613234370946884, 0.030390555039048195, -0.052192602306604385, -0.0046480679884552956, -0.07726606726646423, 0.01132185198366642, -0.06089957803487778, -0.007465132046490908, -0.05730057880282402, 0.027207279577851295, -0.07142665982246399, -0.11433090269565582, -0.0036172945983707905, -0.042098429054021835, -0.03659871220588684, -0.014664770103991032, -0.10900834202766418, -0.0329555906355381, -0.060383036732673645, 0.004975884687155485, 0.03814299777150154, -0.039461586624383926, 0.004049940500408411, -0.0008650111267343163, -0.05492577329277992, -0.06072648614645004, -0.022371627390384674, -0.07181640714406967, -0.09012215584516525, -0.10733512789011002, -0.028470082208514214, -0.046124059706926346, -0.011353330686688423, -0.05522224307060242, -0.006275332532823086, -0.0476028211414814, -0.0504300631582737], [0.10719037801027298, 0.053486134856939316, 0.10341640561819077, 0.033329129219055176, 0.09367573261260986, 0.028899192810058594, 0.0723627507686615, 0.07719128578901291, 0.05428969860076904, -0.01477036066353321, 0.1461896300315857, 0.09713028371334076, 0.11948196589946747, 0.0800161063671112, 0.03191592916846275, 0.06316008418798447, 0.14540983736515045, 0.02531585656106472, 0.05367710068821907, 0.003781356383115053, 0.08753965049982071, 0.0604432038962841, 0.07237942516803741, 0.03408843278884888, 0.03504961356520653, 0.06628312915563583, 0.08029228448867798, 0.03517540916800499, 0.14047126471996307, 0.009862515144050121, 0.08457178622484207, 0.06846453994512558, 0.0027542486786842346, 0.023053493350744247, 0.09378060698509216, 0.08257245272397995, 0.057164546102285385, 0.04800980165600777, 0.032098155468702316, 0.08757548034191132, 0.06926501542329788, 0.03442869335412979, 0.03412765637040138, 0.0592791847884655, 0.05774329975247383, 0.09053312987089157, 0.051653243601322174, 0.11746350675821304, 0.045038748532533646, 0.06236064434051514, 0.08600400388240814, 0.09352815896272659, 0.014149061404168606, 0.049883682280778885, 0.08621285855770111, 0.11518146842718124, 0.042536720633506775, 0.03964795172214508, 0.022885248064994812, -0.0009564274805597961, 0.057719919830560684, -0.0032947296276688576, 0.10680589079856873, 0.09346252679824829], [0.049670349806547165, 0.0680476576089859, -0.06004660949110985, -0.05742556229233742, 0.023286817595362663, 0.003289255080744624, 0.05615346133708954, -0.02746564894914627, 0.07663661986589432, -0.008304058574140072, 0.0777493566274643, -0.0010104384273290634, -0.030761169269680977, 0.006800406146794558, 0.05921065807342529, 0.05535716190934181, 0.02657354809343815, 0.0034616817720234394, -0.016024135053157806, 0.04620126634836197, 0.03630777448415756, -0.0036222918424755335, -0.033007390797138214, 0.027323340997099876, 0.024246789515018463, -0.01997978799045086, 0.03994939848780632, -0.020722873508930206, 0.1017395630478859, 0.028368832543492317, 0.0213853120803833, 0.07499027997255325, 0.009119789116084576, 0.09170511364936829, 0.026359006762504578, 0.003980913665145636, 0.08799625933170319, 0.034035827964544296, -0.059269703924655914, -0.01773177459836006, 0.04271702468395233, 0.02644718997180462, 0.1320939064025879, 0.033456601202487946, 0.04178127273917198, 0.03449646010994911, -0.05399864912033081, 0.031200086697936058, -0.007857107557356358, 0.02024930529296398, -0.07909689098596573, 0.04949631541967392, -0.06987737864255905, -0.030534371733665466, 0.05935128405690193, -0.018789704889059067, -0.00638196337968111, -0.002674239920452237, 0.03575592115521431, 0.010670505464076996, 0.09661085903644562, 0.09025611728429794, 0.04519576579332352, -0.02228759601712227], [-0.10335168987512589, -0.11957719177007675, -0.06172509863972664, -0.033647600561380386, -0.08855355530977249, -0.07153648883104324, -0.05874241143465042, -0.02106883004307747, -0.10436733067035675, -0.012269649654626846, -0.07541035860776901, -0.05094929784536362, -0.011519352905452251, -0.028596103191375732, -0.06829854846000671, -0.031123684719204903, -0.021002426743507385, -0.06023962050676346, -0.042389966547489166, -0.05493896082043648, -0.059555504471063614, -0.035434506833553314, 0.021920157596468925, -0.10019756853580475, -0.006732781883329153, -0.065312959253788, -0.002987942425534129, -0.07309971004724503, -0.028859736397862434, 0.01738460548222065, -0.04710962623357773, -0.08271797746419907, -0.10230108350515366, -0.09402310103178024, -0.02125622145831585, -0.08938412368297577, -0.06316955387592316, -0.0196040328592062, -0.047675151377916336, -0.041361697018146515, -0.037802666425704956, 0.01885903999209404, -0.08618422597646713, -0.018181515857577324, -0.06609122455120087, 0.01112532988190651, -0.009435859508812428, -0.07769735157489777, -0.11034388840198517, -0.07550102472305298, 0.033562108874320984, -0.07479055225849152, -0.12293078750371933, -0.10546663403511047, -0.06768669933080673, -0.060490746051073074, -0.07742288708686829, -0.010131309740245342, -0.10580265522003174, -0.08624209463596344, -0.04975678771734238, -0.009972775354981422, -0.028776079416275024, -0.11384507268667221], [0.022008156403899193, 0.11668773740530014, 0.010365387424826622, 0.01913137175142765, 0.09842902421951294, 0.045281924307346344, 0.015783704817295074, 0.015835003927350044, 0.0495777390897274, 0.08170560747385025, 0.06600481271743774, 0.036548685282468796, 0.007704577874392271, -0.011885756626725197, 0.0022585662081837654, 0.029351992532610893, -0.08000196516513824, 0.05534566938877106, 0.020632069557905197, 0.056899797171354294, 0.046703796833753586, -0.014933560974895954, 0.03160879388451576, 0.017819248139858246, 0.0073511735536158085, 0.013322857208549976, 0.04282911866903305, 0.018831223249435425, 0.008113928139209747, 0.015513983555138111, 0.113663449883461, 0.06786402314901352, 0.04018276929855347, 0.016140321269631386, 0.05451012775301933, 0.03431715816259384, -0.022466471418738365, 0.014165895991027355, 0.07013262063264847, 0.06602992862462997, -0.006621771026402712, -0.018098583444952965, 0.06468520313501358, 0.1165272518992424, 0.021792223677039146, 0.09106817096471786, 0.09204228967428207, 0.0326770655810833, 0.04754556715488434, 0.014107937924563885, 0.05340610444545746, -0.03602853789925575, 0.05530251935124397, 0.0940631628036499, 0.032242145389318466, 0.026819005608558655, 0.06316231191158295, 0.08235754817724228, 0.06359033286571503, 0.03966512903571129, -0.04484299197793007, -0.054148901253938675, 0.04403943568468094, -0.0006113838753663003], [-0.01567448116838932, -0.04769352450966835, -0.0244365856051445, -0.0053271083161234856, -0.10875355452299118, -0.0286614578217268, 0.0023492558393627405, 0.029520465061068535, -0.0006492521497420967, -0.07047254592180252, -0.013486949726939201, -0.09066490083932877, -0.07077136635780334, -0.04267546534538269, -0.05100007727742195, -0.06800422817468643, 0.048022814095020294, 0.0043863109312951565, 0.020910093560814857, -0.0798158049583435, -0.021136250346899033, -0.036357395350933075, -0.020096387714147568, -0.10742373764514923, -0.010848287492990494, -0.09061962366104126, -0.02809164486825466, -0.03412254899740219, 0.01375903282314539, 0.016886472702026367, -0.010229082778096199, -0.02681061252951622, -0.010932388715445995, 0.006946443114429712, -0.001431501586921513, -0.09331600368022919, -0.047639086842536926, -0.01968376897275448, -0.08974070847034454, -0.03691412881016731, -0.07901531457901001, 0.02665814198553562, 0.01015881635248661, -0.03284361585974693, -0.006097470410168171, -0.055628351867198944, -0.009848861955106258, -0.006974778138101101, -0.004378339741379023, 0.01460138987749815, -0.10977715253829956, 0.009476466104388237, -0.1153472363948822, -0.04958796501159668, -0.0656914934515953, -0.05532203987240791, -0.03265182673931122, -0.007675671949982643, -0.02714279107749462, -0.037541426718235016, -0.04883069172501564, 0.003448894014582038, -0.07605881243944168, -0.0521676205098629], [-0.044579003006219864, -0.07382334023714066, -0.04337010532617569, -0.025148209184408188, 0.013235164806246758, -0.01691902056336403, 0.030516138300299644, 0.05227747932076454, -0.03830888122320175, 0.024122992530465126, -0.035778459161520004, -0.03868398070335388, -0.031341709196567535, -0.06425965577363968, 0.15593764185905457, -0.04779781401157379, 0.023475755006074905, -0.036934372037649155, 0.016339829191565514, -0.050588302314281464, 0.03589659556746483, 0.01940341480076313, 0.07326897978782654, -0.09615481644868851, -0.09053932875394821, -0.10091286897659302, 0.004307776223868132, -0.05255848914384842, -0.03028273396193981, -0.05227429419755936, -0.02830776572227478, 0.008256841450929642, -0.012550785206258297, -0.07373261451721191, -0.018809182569384575, -0.044465675950050354, -0.030807016417384148, 0.0305499155074358, 0.013649048283696175, 0.009464981034398079, -0.045232851058244705, 0.043382372707128525, -0.08089318871498108, 0.0025908732786774635, -0.04270564019680023, 0.004612107295542955, -0.01307748258113861, 0.014522084034979343, 0.0641055703163147, 0.06223975121974945, -0.020969348028302193, 0.031432196497917175, 0.0204643364995718, -0.0008067418821156025, -0.012831510975956917, -0.03444254770874977, -0.032494693994522095, -0.003385225310921669, 0.003259200369939208, -0.058247171342372894, -0.06401075422763824, 0.21845924854278564, 0.07577556371688843, 0.013833092525601387], [-0.07890447974205017, -0.10680516064167023, -0.02347528375685215, -0.017962398007512093, -0.043402813374996185, -0.03571770712733269, -0.1165224015712738, -0.07321488857269287, -0.07155697047710419, -0.12432674318552017, -0.03890162706375122, -0.034628976136446, -0.004623402841389179, -0.10442148149013519, 0.0022402124013751745, -0.016064586117863655, -0.03215920180082321, -0.04114866629242897, -0.019283106550574303, -0.08553323894739151, -0.07131855934858322, 0.04436837509274483, 0.04462490975856781, -0.006986052263528109, -0.08068174123764038, -0.004908451344817877, -0.09480447322130203, -0.01857992447912693, 0.041229452937841415, -0.021334854885935783, -0.011241037398576736, -0.10524150729179382, -0.08124857395887375, -0.11006414145231247, -0.0022265901789069176, -0.016586575657129288, 0.02447338216006756, -0.029438171535730362, -0.015351027250289917, -0.01744457706809044, -0.06368929147720337, 0.0031103547662496567, -0.08421986550092697, -0.06127592548727989, -0.042125996202230453, -0.053333133459091187, 0.01021567266434431, -0.002091242466121912, -0.12363332509994507, -0.015023550018668175, -0.07646144926548004, 0.06666985899209976, -0.1220635399222374, -0.029850974678993225, -0.10795630514621735, -0.06670425087213516, -0.09727200865745544, -0.1227562353014946, -0.05185806378722191, -0.10936793684959412, -0.06268128752708435, 0.11733651161193848, 1.6782643797341734e-05, -0.085540771484375], [-0.07501856237649918, -0.11919967830181122, -0.023330876603722572, 0.03116382099688053, -0.02750648930668831, -0.01684654876589775, -0.019762691110372543, 0.06455134600400925, -0.10906722396612167, -0.06717201322317123, 0.062145084142684937, -0.027585748583078384, -0.035575173795223236, -0.06317818909883499, 0.04712391644716263, -0.02258943021297455, 0.002324968809261918, -0.0893682986497879, -0.0009355618385598063, -0.09264013171195984, -0.035054974257946014, 0.020261239260435104, 0.049316491931676865, -0.06850333511829376, -0.006964205298572779, -0.015479818917810917, -0.0632459968328476, 0.008850457146763802, 0.01596083492040634, -0.018207909539341927, -0.10184300690889359, -0.0456850565969944, -0.05698167532682419, -0.06400971859693527, -0.012476878240704536, -0.05987875163555145, 0.029384173452854156, 0.017852749675512314, -0.007962625473737717, 0.05273792892694473, -0.05404214560985565, 0.07219624519348145, -0.005665250588208437, -0.04994530975818634, -0.0817355290055275, -0.03833407908678055, 0.032843973487615585, -0.023618102073669434, -0.07182779163122177, 0.02608594298362732, -0.001471996190957725, -0.003147160168737173, -0.06875396519899368, -0.10921411216259003, -0.020557578653097153, -0.0018870242638513446, -0.08627889305353165, -0.030326049774885178, -0.12720859050750732, -0.10042047500610352, -0.04132452234625816, -0.00914786383509636, -0.025998659431934357, -0.036614418029785156], [-0.037011176347732544, -0.05242025852203369, -0.06969645619392395, 0.008553271181881428, -0.09638067334890366, -0.025546209886670113, -0.041646186262369156, -0.05890932306647301, -0.026537328958511353, -0.07247868925333023, 0.0705018937587738, -0.003059769282117486, -0.00024711235892027617, -0.0304978359490633, 0.03038191795349121, -0.04512728378176689, -0.04735942184925079, -0.04496113955974579, -0.058701880276203156, -0.03752018138766289, -0.011773238889873028, -0.06019911542534828, 0.03342204913496971, -0.00873873196542263, -0.12478330731391907, -0.129062220454216, -0.05022980272769928, -0.009987973608076572, 0.022587234154343605, -0.008461910299956799, -0.03374601528048515, -0.03492328152060509, -6.329611642286181e-05, -0.11960969120264053, -0.06449427455663681, 0.009921160526573658, 0.04940177872776985, -0.030211297795176506, 0.007298933807760477, 0.03985249623656273, -0.04084290191531181, -0.07058202475309372, -0.04299613833427429, -0.1118292436003685, -0.056924887001514435, -0.06831323355436325, 0.04870237782597542, 0.05802947282791138, -0.0007026110542938113, -0.007197167258709669, -0.031580161303281784, 0.03330712020397186, -0.06507464498281479, -0.012138189747929573, -0.027252238243818283, -0.06575419753789902, -0.08437088876962662, -0.0500747486948967, -0.03584674373269081, -0.08738947659730911, 0.009856084361672401, -0.02575857937335968, -0.04851788282394409, -0.01911013573408127], [0.07890316098928452, -0.002683930564671755, 0.055835820734500885, 0.04975054785609245, 0.014537845738232136, 0.029688701033592224, -0.004251105710864067, 0.003016185248270631, 0.07864868640899658, 0.09493709355592728, 0.07654368132352829, 0.030836453661322594, -0.00878251250833273, 0.035952936857938766, 0.0207914300262928, 0.024060998111963272, 0.11117392778396606, -0.11236278712749481, 0.01660636067390442, 0.1405412256717682, 0.029913989827036858, 0.08971607685089111, 0.07582294195890427, -0.05691021680831909, 0.09393150359392166, 0.01778573729097843, 0.029761487618088722, 0.1028907373547554, 0.08413489907979965, 0.027414308860898018, 0.11396680027246475, -0.035166624933481216, 0.007688035722821951, 0.06189395487308502, -0.0018707202980294824, 0.09781345725059509, 0.07046863436698914, 0.07099536061286926, -0.004259560257196426, 0.048980843275785446, 0.1260855793952942, 0.13729816675186157, 0.06837331503629684, 0.054799098521471024, 0.03368350863456726, -0.006856189575046301, 0.05349387601017952, 0.03339792415499687, -0.1203368678689003, 0.024961300194263458, 0.11294972151517868, 0.032604023814201355, -0.003912015818059444, 0.028562650084495544, 0.13052526116371155, 0.09632673114538193, 0.04693995788693428, 0.07072561979293823, 0.11572099477052689, 0.05644559487700462, 0.10319001227617264, 0.08725240081548691, -0.01084047369658947, 0.09336977452039719], [-0.03789364546537399, -0.09455938637256622, -0.0037073728162795305, -0.10503263771533966, -0.01127384789288044, -0.04117404669523239, -0.04368505999445915, -0.04591916501522064, -0.08592087030410767, -0.031187962740659714, -0.047210559248924255, -0.02615540102124214, 0.0036967636551707983, -0.04171774908900261, -0.03695829212665558, -0.03359609097242355, 0.03123234584927559, -0.062152352184057236, -0.033201299607753754, -0.09022638201713562, -0.0399998240172863, 0.04720192775130272, -0.08435285836458206, -0.00039775678305886686, -0.09851069748401642, -0.14180968701839447, -0.07046381384134293, -0.05300190672278404, -0.000802743888925761, -0.06978530436754227, -0.045511599630117416, -0.09664395451545715, -0.012317969463765621, -0.050918757915496826, -0.05279587581753731, -0.000582658511120826, 0.03869346156716347, 0.050547417253255844, -0.009165648370981216, -0.06554605066776276, -0.041729073971509933, 0.034096162766218185, -0.05856628715991974, -0.08309879153966904, -0.011246188543736935, -0.10368382185697556, 0.03231579810380936, -0.006745190359652042, -0.10434513539075851, -0.004973330069333315, 0.0015392600325867534, -0.04172052815556526, -0.10598213225603104, -0.007787133101373911, 0.059775520116090775, -0.07531707733869553, -0.03215724974870682, -0.11416106671094894, -0.0764230489730835, -0.009509118273854256, -0.0020926499273627996, 0.06435821205377579, -0.07666053622961044, -0.10588023066520691], [0.01997566968202591, 0.010652865283191204, 0.027926679700613022, 0.11407534778118134, 0.10560965538024902, 0.13333521783351898, 0.10227212309837341, 0.05718880891799927, 0.06705713272094727, -0.0014388201525434852, 0.04301098361611366, 0.015892772004008293, 0.10913891345262527, 0.10312921553850174, 0.1051197499036789, 0.014561229385435581, 0.030767327174544334, 0.09350007027387619, 0.1063106432557106, 0.043211545795202255, 0.07082856446504593, 0.0973939597606659, 0.11829188466072083, 0.07741200923919678, 0.009392835199832916, -0.036693260073661804, 0.057394906878471375, 0.08427555859088898, 0.1426844745874405, 0.016146071255207062, 0.11415917426347733, 0.06104133650660515, 0.09206957370042801, -0.012570737861096859, 0.08713472634553909, 0.06494402885437012, 0.1071380078792572, 0.0353105366230011, 0.014776984229683876, 0.05948246642947197, 0.02937522903084755, 0.10062893480062485, 0.06559158861637115, 0.017374923452734947, 0.13842067122459412, 0.07437609136104584, 0.01848735101521015, 0.0803256630897522, 0.04898970574140549, 0.07778055220842361, 0.0509231872856617, 0.0584784634411335, 0.05567510798573494, 0.06170595437288284, 0.08099236339330673, 0.05922998487949371, 0.02975687012076378, 0.10344402492046356, 0.08422843366861343, 0.07863270491361618, 0.09422153979539871, 0.022037038579583168, 0.11564463376998901, 0.055107686668634415], [-0.006403139792382717, 0.07567060738801956, 0.008275270462036133, -0.008829268626868725, 0.051843222230672836, 0.1296478807926178, 0.13809718191623688, -0.029781421646475792, -0.006832657847553492, 0.018120093271136284, 0.0947260633111, 0.034465208649635315, 0.029089495539665222, 0.1383279412984848, 0.035413581877946854, 0.018765268847346306, 0.02936748042702675, -0.006228158716112375, 0.05057452246546745, 0.02350425347685814, 0.021949831396341324, 0.023224906995892525, 0.06634155660867691, 0.0625552088022232, 0.03214104473590851, 0.03402296453714371, 0.10278260707855225, 0.08284465223550797, 0.09651076048612595, 0.002253457438200712, 0.01425852905958891, 0.12126070261001587, 0.03639746457338333, 0.08942566812038422, 0.03882340341806412, 0.14634095132350922, 0.05297257751226425, 0.11750578135251999, 0.09463635832071304, 0.0053760940209031105, 0.047717928886413574, 0.08542453497648239, 0.1461780071258545, 0.10071743279695511, 0.07575081288814545, 0.08008337765932083, 0.047930069267749786, 0.12802690267562866, 0.04705965146422386, 0.08169176429510117, 0.010152741335332394, 0.028939414769411087, 0.08065732568502426, 0.07875072211027145, 0.10374224185943604, 0.11571075022220612, 0.09598005563020706, 0.10520263761281967, 0.08911223709583282, 0.018566230311989784, 0.11011223495006561, 0.018568530678749084, 0.06560667604207993, 0.05086710304021835], [-0.12868735194206238, 0.005022415891289711, -0.00374243943952024, 0.0035127620212733746, -0.06124850735068321, 0.06671946495771408, -0.06242053583264351, 0.03917815536260605, -0.0842762365937233, -0.12290631234645844, 0.10055138915777206, -0.02431219443678856, -0.004152123350650072, -0.011281530372798443, 0.0671677216887474, -0.01994834654033184, 0.018653245642781258, -0.0034345260355621576, 0.0017460252856835723, -0.01354309357702732, -0.004785808734595776, 0.0316338874399662, 0.09098411351442337, -0.062497299164533615, -0.05624610185623169, -0.06863275170326233, -0.029869092628359795, 0.0007604605634696782, 0.06170478090643883, 0.010978884063661098, -0.06678954511880875, -0.10165543854236603, -0.0722893625497818, -0.12209290266036987, -0.0731562152504921, -0.07093644887208939, 0.02947927638888359, 0.07628484070301056, -0.10153619945049286, 0.044682327657938004, -0.08411085605621338, 0.07603336870670319, -0.010131408460438251, -0.015063575468957424, -0.03600730001926422, -0.10788117349147797, 0.0066178468987345695, 0.013177087530493736, -0.08804108947515488, 0.010993078351020813, 0.0025900097098201513, 0.07053934037685394, -0.02810644917190075, -0.09181324392557144, -0.020289553329348564, -0.03832966089248657, -0.05174287408590317, -0.02514909766614437, -0.0914008840918541, -0.07959247380495071, -0.020966103300452232, 0.10726433992385864, -0.07155486941337585, -0.07337352633476257], [-0.05947123095393181, -0.05220301076769829, -0.10135752707719803, -0.1043219193816185, -0.06439408659934998, 0.03340040147304535, -0.03614168241620064, -0.08595802634954453, -0.052907854318618774, -0.04965997114777565, -0.061038557440042496, -0.09805230051279068, -0.08263762295246124, -0.08394522964954376, 0.008695714175701141, -0.03334822878241539, 0.04304976388812065, -0.07506722211837769, -0.03449801728129387, -0.009727872908115387, -0.015200898051261902, -0.022058209404349327, -0.035451747477054596, -0.0486898198723793, -0.01422660518437624, -0.06446661800146103, 0.0048200772143900394, -0.02726692333817482, -0.04379948601126671, 0.005767703987658024, -0.10376495122909546, -0.027863848954439163, -0.09343791753053665, -0.10965397208929062, -0.019372180104255676, -0.06958380341529846, 0.0489787757396698, -0.011548851616680622, -0.01979690045118332, 0.0011369341518729925, -0.04703782871365547, -0.03592383861541748, -0.05866235867142677, -0.12764419615268707, -0.09562333673238754, 0.002919600810855627, -0.10770779103040695, -0.022843141108751297, -0.11914491653442383, -0.07136942446231842, -0.05657380819320679, 0.015574496239423752, -0.007654189597815275, -0.03621912747621536, -0.015083071775734425, -0.06718766689300537, -0.08825236558914185, -0.016855457797646523, -0.07522159069776535, -0.07250041514635086, -0.05724559724330902, 0.04823441058397293, -0.0616702176630497, -0.0413091778755188], [-0.056183815002441406, -0.00024701087386347353, -0.028774524107575417, 0.030614549294114113, -0.12327123433351517, 0.045737359672784805, -0.046950262039899826, 0.0726352110505104, 0.029147982597351074, 0.06369557231664658, 0.1315065175294876, -0.026477662846446037, -0.011764287948608398, 0.09508074820041656, 0.008670683950185776, 0.08354667574167252, 0.07917040586471558, -0.009155412204563618, 0.058891359716653824, -0.12125939875841141, 0.02203817293047905, 0.0973459854722023, 0.026090985164046288, 0.006249786354601383, -0.10248726606369019, -0.0629812479019165, -0.010155140422284603, -0.025588801130652428, 0.09904656559228897, -0.02032727189362049, -0.02304648607969284, 0.05979522690176964, 0.07725384831428528, 0.08688361197710037, -0.024265700951218605, 0.01441512443125248, 0.10685562342405319, 0.045028187334537506, 0.08760674297809601, 0.045495256781578064, 0.03484521061182022, 0.07569685578346252, -0.0805918425321579, 0.014482337981462479, -0.03157677501440048, -0.037620965391397476, 0.07901669293642044, 0.010466367937624454, -0.005760673899203539, 0.08827424049377441, 0.07209878414869308, 0.09846213459968567, 0.06454987078905106, 0.006734838709235191, 0.05215861648321152, -0.03999929875135422, -0.028627529740333557, 0.08798665553331375, 0.02322634868323803, 0.041409023106098175, 0.04558270052075386, 0.09804823994636536, -0.02226131223142147, 0.06525848805904388], [0.026417803019285202, 0.0873107984662056, 0.07538104057312012, 0.02858581952750683, 0.05557625740766525, 0.09641220420598984, 0.04321661964058876, 0.03705591335892677, 0.01851886324584484, 0.014852430671453476, 0.08571609854698181, 0.06464961916208267, 0.08782163262367249, 0.09843680262565613, 0.14486415684223175, 0.06333454698324203, 0.0852307602763176, 0.08014128357172012, 0.08222035318613052, 0.0860292986035347, 0.039692625403404236, 0.06621799618005753, 0.08918696641921997, 0.05021652206778526, 0.010475319810211658, 0.0867808535695076, 0.0887443870306015, 0.00828466285020113, 0.0784243568778038, -0.023954445496201515, 0.08475765585899353, 0.10649661719799042, 0.021230237558484077, 0.10211911052465439, 0.03204280510544777, 0.09957292675971985, 0.04609336704015732, 0.04108261689543724, 0.08528231084346771, 0.10500980913639069, 0.05138566717505455, 0.02879880927503109, 0.037470750510692596, 0.11643581092357635, 0.07410257309675217, 0.024934884160757065, -0.005147998221218586, 0.04118400067090988, 0.032164301723241806, 0.07268184423446655, 0.014825014397501945, -0.02391953207552433, 0.045544978231191635, 0.10161338746547699, 0.07245953381061554, 0.07084882259368896, 0.09330359846353531, 0.006800098344683647, 0.04949820414185524, 0.024020899087190628, 0.050886306911706924, 0.020974978804588318, 0.043439216911792755, 0.12436124682426453], [0.006839411798864603, 0.12063046544790268, 0.026346707716584206, -0.019777962937951088, 0.010609149001538754, -0.018622122704982758, 0.01731707714498043, 0.02614474855363369, 0.028606392443180084, 0.055220045149326324, -0.05784502625465393, 0.0724409893155098, -0.03376501798629761, -0.06477583944797516, -0.015797467902302742, -0.030892033129930496, -0.111272431910038, -0.010480575263500214, 0.007594292517751455, 0.06445614248514175, -0.0637994036078453, -0.0797281563282013, 0.034509457647800446, 0.09830890595912933, 0.04490164294838905, 0.15966983139514923, -0.003359236055985093, 0.06387944519519806, 0.0011879663215950131, -0.08654554188251495, 0.09558707475662231, -0.004308596253395081, 0.012631811201572418, 0.10213401913642883, 0.03181487321853638, 0.022857896983623505, -0.10388307273387909, -0.01220798958092928, 0.030430134385824203, -0.05731862783432007, -0.0265718512237072, -0.10294710099697113, -0.0013861428014934063, 0.08733400702476501, -0.03429592773318291, 0.018308905884623528, 0.061712846159935, -0.11723428964614868, 0.005070704035460949, -0.11043393611907959, 0.04878578707575798, -0.10561368614435196, 0.014598808251321316, 0.008609105832874775, -0.07405916601419449, -0.05718448385596275, 0.05547031760215759, 0.016707906499505043, 0.08072219043970108, 0.027019459754228592, -0.03867924585938454, -0.006309086456894875, -0.01303691603243351, 0.03148649260401726], [0.0010783745674416423, 0.005874910857528448, 0.039117246866226196, 0.05017334967851639, 0.0195668563246727, 0.09224804490804672, 0.051042500883340836, 0.017642509192228317, 0.06641384959220886, 0.024028904736042023, 0.026231199502944946, -0.018611695617437363, 0.07817251235246658, 0.09861671179533005, 0.05987842381000519, 0.030663276091217995, 0.1284419149160385, -0.04243668541312218, 0.09111053496599197, -0.003863798687234521, 0.036865234375, 0.019402019679546356, 0.014678244479000568, -0.013637575320899487, 0.026236696168780327, -0.04213227331638336, 0.027123164385557175, 0.021121535450220108, 0.05692138895392418, 0.09749767184257507, 0.07385659962892532, 0.07634276151657104, -0.008795649744570255, 0.029346128925681114, 0.02554219216108322, 0.03386441618204117, 0.06048599258065224, 0.039867814630270004, 0.04825842007994652, 0.013566507957875729, 0.06542125344276428, 0.05406542867422104, 0.04964670538902283, 0.00925391260534525, 0.039427898824214935, 0.08643756061792374, 0.12049449235200882, 0.018722986802458763, -0.08963526785373688, 0.10907440632581711, 0.11797235161066055, 0.04660823568701744, -0.062253061681985855, 0.06889749318361282, 0.023095926269888878, 0.10823168605566025, 0.034998487681150436, 0.008264400996267796, 0.02982686460018158, 0.11888661980628967, 0.11834927648305893, 0.030141472816467285, 0.05091986805200577, 0.046974584460258484], [0.05474717915058136, -0.009521791711449623, 0.040417518466711044, 0.059991251677274704, 0.09979734569787979, 0.01429106667637825, 0.05961761996150017, 0.032689884305000305, 0.09924925118684769, 0.05742974206805229, 0.0955391526222229, 0.016846265643835068, 0.05501147732138634, 0.039215367287397385, -0.020345745608210564, 0.03364277258515358, 0.07664526253938675, 0.03569222614169121, 0.05177986994385719, 0.06324402242898941, 0.1073274165391922, 0.024791866540908813, 0.0884496346116066, 0.0454702191054821, 0.04956962913274765, -0.03983652964234352, 0.08128365874290466, 0.0010224981233477592, 0.08859594911336899, 0.12300918996334076, 0.07507850229740143, 0.03992287814617157, 0.01660810597240925, -0.0011714475695043802, 0.03425944223999977, 0.06698277592658997, 0.06993065029382706, 0.056407541036605835, 0.09169723093509674, 0.01860949769616127, 0.07037186622619629, 0.068235382437706, 0.02647368796169758, 0.057562001049518585, 0.03918560594320297, 0.025937436148524284, 0.07091391831636429, 0.06442369520664215, 0.0036858159583061934, 0.019454553723335266, -0.017730848863720894, 0.07383577525615692, 0.027705656364560127, 0.09324897825717926, -0.03440537676215172, 0.05985981971025467, 0.009667341597378254, 0.07461252063512802, 0.06600721925497055, 0.06612137705087662, 0.0970938429236412, 0.06018475070595741, 0.04223927855491638, -0.004557425621896982], [-0.04881720244884491, -0.08593945950269699, -0.1049271747469902, 0.05122784897685051, -0.1096041277050972, -0.025824733078479767, -0.021142415702342987, -0.006500708404928446, -0.035911206156015396, -0.09990128129720688, 0.038459260016679764, -0.08996916562318802, -0.08723120391368866, -0.01103135570883751, -0.0046145799569785595, -0.01683150976896286, 0.03778693825006485, -0.1091652661561966, 0.03044966794550419, -0.022196047008037567, -0.07294885069131851, 0.07239848375320435, 0.08339310437440872, -0.001992246136069298, -0.048070717602968216, -0.11461515724658966, -0.0847976878285408, -0.10209861397743225, 0.07923226803541183, -0.039159443229436874, -0.07159850001335144, -0.0004118753713555634, -0.10122337937355042, -0.018250806257128716, -0.04184212535619736, -0.01021413505077362, -0.005778409540653229, -0.047393880784511566, -0.06114013120532036, -0.030742546543478966, -0.010594864375889301, 0.0536838173866272, -0.07015562057495117, -0.04627949744462967, -0.07538162171840668, -0.12101025134325027, -0.002244207076728344, 0.017259934917092323, 0.028485620394349098, 0.03726479783654213, -0.03627180680632591, 0.025385843589901924, -0.1287967562675476, -0.08116009086370468, -0.027902061119675636, -0.0104436120018363, -0.019466040655970573, -0.09129762649536133, -0.07542551308870316, -0.11119464784860611, -0.0838128924369812, 0.09522883594036102, -0.050589777529239655, -0.025001822039484978], [-0.06228121370077133, -0.08882537484169006, -0.0029714445117861032, -0.055553264915943146, -0.08058355003595352, -0.03385039418935776, -0.09086630493402481, -0.08166128396987915, -0.02216174826025963, 0.006922280881553888, -0.10426608473062515, -0.01485030259937048, -0.0011370775755494833, -0.051362957805395126, -0.043323442339897156, -0.04701235145330429, -0.03230458125472069, -0.03897932916879654, -0.09251698851585388, 0.0030699260532855988, -0.04734990373253822, -0.05205501616001129, -0.05294375121593475, -0.02702908404171467, 0.004390268586575985, -0.08949602395296097, -0.03854519501328468, -0.09957804530858994, 0.022849397733807564, -0.08241705596446991, -0.0913441926240921, -0.005987406708300114, -0.08183854073286057, -0.028669824823737144, -0.09638430923223495, -0.03792542591691017, 0.028268450871109962, 0.005305304657667875, -0.07991906255483627, -0.08662254363298416, -0.05810726061463356, -0.06366340070962906, -0.04890814051032066, 0.014444859698414803, -0.0673828050494194, 0.012987570837140083, -0.09785810858011246, -0.06309100985527039, -0.12429438531398773, -0.10774551331996918, 0.0043675280176103115, -0.07328688353300095, -0.08908718824386597, -0.03183543682098389, -0.032739896327257156, -0.02115810289978981, -0.10462674498558044, -0.08042040467262268, 0.006666488479822874, -0.060739386826753616, -0.0318133644759655, -0.015776125714182854, -0.008190796710550785, -0.030525438487529755], [-0.1304248720407486, 0.011120874434709549, -0.01841362938284874, -0.012195979245007038, -0.004066187888383865, -0.0026645977050065994, -0.07926734536886215, -0.006274155806750059, -0.09465336799621582, -0.03102734312415123, -0.040789950639009476, -0.09034788608551025, -0.08501727879047394, -0.06667722016572952, -0.04495764151215553, -0.033134885132312775, -0.037742987275123596, -0.08554379642009735, -0.030129414051771164, -0.009665378369390965, -0.026217002421617508, 0.033340852707624435, -0.012229988351464272, -0.12016509473323822, -0.02257779985666275, 0.015007742680609226, -0.05711676552891731, -0.016121158376336098, -0.04420265555381775, 0.02011718787252903, -0.012515195645391941, -0.07144268602132797, -0.014569699764251709, 0.005127707030624151, -0.09183090925216675, -0.02524569444358349, 0.025777386501431465, -0.03157269209623337, -0.07461423426866531, -0.06778044253587723, -0.061281271278858185, 0.05561753734946251, -0.020672181621193886, -0.02775724045932293, -0.029907351359725, -0.07963398844003677, -0.077604278922081, -0.08013032376766205, -0.06192707642912865, -0.04691854864358902, -0.005209153983741999, 0.09502684324979782, -0.02545802667737007, -0.0626138374209404, -0.05523785203695297, -0.05605491250753403, -0.0486740842461586, -0.11100532859563828, -0.08303847908973694, -0.06072332337498665, -0.059290800243616104, 0.027939356863498688, -0.09168802946805954, -0.046364109963178635], [0.06808026134967804, 0.11248444765806198, 0.10905864089727402, 0.014370910823345184, 0.06259974092245102, 0.0439593531191349, 0.06628873944282532, 0.036254748702049255, 0.041217099875211716, -0.012783337384462357, 0.02911565825343132, 0.03555343672633171, -0.0056419530883431435, -0.03952563926577568, -0.04699404165148735, 0.010498926974833012, -0.10325472056865692, 0.09761704504489899, 0.013194342143833637, 0.01049423310905695, -0.06483342498540878, -0.06284915655851364, 0.029165150597691536, 0.028849774971604347, 0.03954651579260826, 0.39114296436309814, 0.022156570106744766, 0.06711395829916, -0.028113950043916702, -0.033767104148864746, 0.0007154121994972229, -0.021017050370573997, 0.05736258625984192, 0.014655674807727337, -0.024274379014968872, 0.02863330766558647, -0.05345694348216057, 0.014626977033913136, 0.07168425619602203, -0.036151718348264694, -0.01089458353817463, -0.0939725786447525, -0.051429178565740585, 0.14327923953533173, -0.03963274508714676, 0.009545049630105495, 0.0647306889295578, -0.0802912563085556, 0.09415212273597717, -0.03364988788962364, 0.05304986611008644, -0.0387420691549778, 0.06696553528308868, -0.023687994107604027, 0.019702084362506866, 0.05987848341464996, 0.04755079001188278, 0.0029841121286153793, 0.10516111552715302, -0.00036983576137572527, -0.0006950857932679355, -0.008986353874206543, -0.019434373825788498, 0.0327594056725502], [0.04010078310966492, 0.09333915263414383, 0.05640319734811783, 0.07959549874067307, 0.07421866059303284, 0.04437493160367012, 0.07608674466609955, 0.09231552481651306, 0.055346958339214325, -0.007234309799969196, 0.022690903395414352, 0.06344054639339447, 0.03684692829847336, 0.13991041481494904, 0.053588367998600006, 0.10521665960550308, 0.09759654849767685, 0.06602855026721954, 0.07444604486227036, 0.08085674047470093, 0.0779406800866127, 0.02013631910085678, 0.09997446089982986, 0.09432418644428253, 0.0682498961687088, 0.02414669468998909, 0.08215899765491486, 0.08081595599651337, 0.14089378714561462, 0.08840156346559525, 0.10075890272855759, 0.08135661482810974, 0.09974520653486252, 0.04664213955402374, 0.04908090457320213, 0.05299442261457443, 0.09564653784036636, 0.03431951254606247, 0.06749078631401062, 0.060680873692035675, 0.1439814418554306, 0.03647727891802788, 0.08326899260282516, 0.019968165084719658, 0.1368386447429657, 0.08843976259231567, 0.07056592404842377, 0.01578350178897381, 0.07736004889011383, 0.04975723847746849, 0.09457962960004807, 0.07717312127351761, 0.09684135764837265, 0.043614260852336884, 0.050276752561330795, 0.09567927569150925, 0.13661673665046692, 0.10558079183101654, 0.05437503010034561, 0.048487961292266846, 0.025233380496501923, 0.061826758086681366, 0.04015287756919861, 0.05644327402114868], [-0.11362261325120926, -0.08408556878566742, -0.07116922736167908, -0.014280440285801888, -0.11177681386470795, 0.08527621626853943, -0.09465213119983673, -0.00934881903231144, -0.025821290910243988, 0.014752307906746864, 0.0897090882062912, -0.10393042862415314, 0.015266507863998413, -0.037995629012584686, 0.01687031425535679, -0.008248587138950825, 0.04309878498315811, -0.09317849576473236, 0.03361824154853821, -0.11763858050107956, 0.03961459919810295, 0.06111675873398781, 0.013261686079204082, -0.08574216812849045, -0.05401338264346123, -0.08219195902347565, -0.0470348484814167, -0.0018603223143145442, 0.11885660141706467, 0.02595994435250759, -0.021733609959483147, -0.07450897991657257, -0.09092280268669128, -0.05164117366075516, -0.0841570645570755, -0.03373999148607254, 0.06685943901538849, 0.017127934843301773, -0.0576220378279686, 0.09846945106983185, 0.002179865026846528, 0.06947427242994308, -0.09408964961767197, -0.03966192156076431, -0.019617803394794464, -0.1067044660449028, 0.04391549155116081, 0.017034083604812622, 0.02349093370139599, 0.0679020956158638, -0.05345093086361885, 0.03088528662919998, -0.0941273644566536, -0.00026711050304584205, 0.010152624920010567, -0.02063789591193199, -0.06606219708919525, -0.05640975385904312, -0.08303563296794891, -0.11634396761655807, -0.03986106812953949, 0.07923982292413712, -0.07280201464891434, -0.03630464896559715], [0.12804710865020752, 0.03997955098748207, 0.0747414380311966, 0.03159445524215698, 0.0671878382563591, 0.003490014700219035, 0.06645414233207703, 0.08780001848936081, 0.03474994748830795, 0.02017427608370781, -0.07355748116970062, 0.018622536212205887, 0.019274195656180382, 0.048694904893636703, 0.027157709002494812, 0.07967183738946915, 0.046446867287158966, 0.040477603673934937, 0.04504069685935974, 0.06544946879148483, 0.09066455811262131, 0.0143625158816576, 0.04557810723781586, 0.14089465141296387, 0.03579910099506378, 0.09358309954404831, 0.022174449637532234, 0.025671517476439476, 0.054786644876003265, 0.03351829573512077, 0.03265382722020149, 0.018089378252625465, 0.013461669906973839, 0.03562614694237709, 0.10657797753810883, 0.01443975605070591, 0.019179420545697212, 0.05268332362174988, 0.04831746220588684, -0.009434089064598083, 0.06464604288339615, 0.07723108679056168, 0.08801508694887161, 0.006925136782228947, 0.045425672084093094, 0.12719208002090454, -0.01840992271900177, 0.1345282644033432, 0.09524259716272354, -0.09550827741622925, -0.04806140437722206, 0.006597286555916071, 0.11167042702436447, 0.09625836461782455, -0.02150205336511135, 0.03057592734694481, 0.15257114171981812, 0.03869529440999031, 0.1296212375164032, 0.04461107775568962, 0.10611781477928162, 0.012760221026837826, 0.11576888710260391, 0.04845461621880531], [0.0960259735584259, 0.10725872218608856, 0.01673470437526703, 0.009169409982860088, 0.09567996859550476, 0.05754854902625084, 0.037982817739248276, 0.059470802545547485, -0.010475740768015385, 0.07563360780477524, -0.03419559448957443, 0.06272325664758682, -0.04971800372004509, -0.028297623619437218, 0.06599166244268417, 0.04963485896587372, 0.04611329361796379, 0.03834637999534607, 0.050364963710308075, 0.11542931944131851, 0.012377754785120487, 0.038527943193912506, 0.028560390695929527, 0.07148220390081406, 0.06817767024040222, 0.07286828011274338, 0.0943991169333458, 0.07082726061344147, -0.04744989424943924, 0.012994274497032166, 0.045521169900894165, 0.050185054540634155, 0.056646402925252914, 0.013031065464019775, 0.03664419427514076, -0.03373352438211441, -0.031092308461666107, 0.0013159841764718294, 0.09415063261985779, 0.01969776675105095, 0.025465508922934532, -0.030460137873888016, 0.008022529073059559, -0.004745179787278175, 0.030118325725197792, 0.03917260095477104, -0.013089189305901527, -0.012072107754647732, 0.011712316423654556, -0.10201029479503632, 0.009865463711321354, -0.06537698209285736, 0.05775740370154381, 0.07880821824073792, -0.032649051398038864, 0.046847764402627945, 0.10995171219110489, 0.10931152105331421, 0.022543447092175484, 0.06998450309038162, 0.044357042759656906, -0.025667425245046616, 0.06571893393993378, 0.03593035042285919], [0.07498758286237717, 0.06380510330200195, 0.10196226090192795, 0.09150058776140213, 0.08598586171865463, 0.032560914754867554, 0.09233283996582031, 0.07320774346590042, 0.07264620065689087, 0.05629695951938629, 0.08472518622875214, 0.020427998155355453, 0.06409171223640442, 0.07119841873645782, 0.05527195334434509, 0.09173016250133514, 0.038683511316776276, 0.10938894748687744, 0.07659359276294708, 0.05445745959877968, 0.057285819202661514, 0.005499834194779396, 0.05315275117754936, 0.08966068178415298, 0.052088432013988495, 0.10998272150754929, 0.029323119670152664, 0.05678102374076843, 0.07857319712638855, 0.019421515986323357, 0.034546736627817154, 0.03358900919556618, 0.04240947961807251, 0.028388243168592453, 0.046267323195934296, 0.0626063272356987, 0.030089670792222023, 0.07826218008995056, 0.04675223305821419, 0.10965432226657867, 0.007391922641545534, 0.03416522964835167, -0.0035494668409228325, 0.11240743845701218, 0.07426641136407852, -0.012371904216706753, 0.029459288343787193, 0.020326631143689156, 0.01994176022708416, 0.06699232012033463, 0.003202321007847786, 0.05470281094312668, 0.05205535143613815, 0.020594853907823563, 0.07904760539531708, 0.06923528760671616, 0.06798576563596725, 0.050950463861227036, 0.021924985572695732, 0.09046676754951477, 0.049301519989967346, 0.09458442032337189, 0.036069974303245544, 0.08822201937437057], [-0.04338667541742325, -0.015857741236686707, -0.012717285193502903, -0.06985289603471756, -0.070383720099926, -0.03167576342821121, -0.029615169391036034, -0.005864027887582779, -0.07374891638755798, -0.048679038882255554, -0.04763289541006088, -0.08112435787916183, -0.0022419188171625137, -0.08659396320581436, 0.05653972551226616, -0.055768806487321854, -0.02779984101653099, -0.06518492102622986, 0.017716875299811363, -0.10531887412071228, -0.02790106274187565, 0.028721850365400314, -0.031107688322663307, -0.020656144246459007, -0.00045967550249770284, -0.01902533881366253, 0.00030472446815110743, -0.024122031405568123, 0.04158144071698189, -0.03531957045197487, -0.08752739429473877, -0.09246620535850525, -0.01901339739561081, 0.0018161823973059654, -0.019860809668898582, -0.08984020352363586, 0.025681961327791214, -0.02515910193324089, -0.03171136602759361, -0.06861098110675812, -0.02008078433573246, 0.03922906145453453, -0.07105780392885208, -0.12131788581609726, -0.013140191324055195, -0.014750605449080467, 0.0005736984312534332, -0.04298754408955574, -0.07993549108505249, 0.0031458199955523014, -0.07781627774238586, 0.04017745330929756, -0.0320516899228096, -0.025177642703056335, -0.05524615943431854, -0.03789149969816208, -0.04960242658853531, -0.06311391294002533, -0.051934342831373215, -0.012069974094629288, -0.06719844043254852, -0.011679492890834808, -0.08117173612117767, -0.09700895100831985], [-0.08671373873949051, -0.11853255331516266, -0.07585476338863373, -0.1348629742860794, -0.09996559470891953, -0.01567063294351101, -0.03251580893993378, 0.04833533242344856, -0.10744617134332657, -0.0007353004184551537, -0.02183302491903305, -0.08566275984048843, -0.03478756546974182, -0.01333664171397686, -0.045107074081897736, -0.02140403352677822, 0.022739410400390625, -0.06321471929550171, -0.02248486690223217, -0.07377292215824127, -0.00926853995770216, -0.03091202862560749, -0.03415413573384285, 0.014351005665957928, -0.07850553095340729, -0.06973771005868912, -0.009621656499803066, -0.10606039315462112, 0.05937788262963295, -0.03391950950026512, -0.016820818185806274, -0.05859895795583725, -0.00463434774428606, -0.024566834792494774, -0.044916700571775436, -0.036030419170856476, -0.03141099587082863, 0.051393620669841766, -0.07808688282966614, 0.054251112043857574, -0.011939957737922668, -0.0017915808130055666, -0.10712426900863647, -0.09934252500534058, -0.04472300410270691, -0.08771947026252747, -0.02418534830212593, -0.0413743294775486, -0.14901120960712433, 0.0344880074262619, 0.0022254143841564655, 0.0068992613814771175, -0.042751915752887726, -0.02254307270050049, -0.08263653516769409, -0.05971700698137283, -0.054325297474861145, -0.02256770245730877, -0.08122553676366806, -0.02611580304801464, -0.013753964565694332, 0.05127168074250221, -0.037557389587163925, -0.07044792175292969], [-0.0984184592962265, -0.03341188654303551, -0.03931751102209091, -0.09594859927892685, -0.0570945106446743, -0.04470609501004219, 0.07884810119867325, -0.014754993841052055, -0.04192999377846718, 0.007974538952112198, -0.10426520556211472, -0.0578002966940403, 0.028862936422228813, 0.0054677133448421955, 0.03757728263735771, 0.02447475865483284, 0.13792170584201813, -0.02744714729487896, 0.03281337022781372, -0.03227460756897926, 0.029257601127028465, 0.009744510985910892, 0.010941150598227978, -0.011496778577566147, -0.09186252951622009, -0.11877556890249252, -0.013943420723080635, -0.012946877628564835, 0.07700100541114807, -0.017830101773142815, -0.10745135694742203, 0.04377172514796257, -0.05655229464173317, -0.05212965980172157, 0.05864866077899933, -0.016479073092341423, 0.06898318976163864, 0.014803987927734852, -0.0977308601140976, -0.031839143484830856, -0.004129152279347181, 0.07237333804368973, 0.06273958086967468, -0.009489462710916996, 0.04288545995950699, -0.024872975423932076, -0.025122566148638725, 0.05766155570745468, -0.04985014349222183, -0.0326705202460289, -0.024759767577052116, 0.05329548567533493, -0.050702840089797974, -0.06857259571552277, -0.005457772873342037, 0.03416092321276665, -0.07529985159635544, -0.005540485959500074, -0.003350558690726757, -0.0276190135627985, 0.02747480198740959, 0.09180490672588348, 0.0063056182116270065, -0.0300099216401577], [0.0681777223944664, 0.0031647575087845325, -0.004532711114734411, 0.032159753143787384, -0.08096142113208771, -0.02971930056810379, -0.054450519382953644, 0.09267362952232361, -0.0714755654335022, -0.04246821627020836, 0.05805737152695656, -0.04103563725948334, 0.03082217089831829, -0.061663668602705, -0.030014285817742348, 0.019008560106158257, 0.03841855004429817, 0.027168435975909233, 0.07914647459983826, -0.024462677538394928, 0.019193584099411964, 0.022069517523050308, -0.021601835265755653, 0.07644430547952652, -0.012536933645606041, -0.11050564050674438, 0.00020597514230757952, -0.010069957934319973, 0.07250536233186722, -0.005141645669937134, -0.018603067845106125, -0.1009550616145134, 0.024838443845510483, 0.020119348540902138, -0.07113901525735855, 0.06347978860139847, 0.028787096962332726, -0.0169144906103611, 0.0869969055056572, -0.03245197609066963, -0.025129904970526695, 0.05495119467377663, -0.11037863790988922, -0.00017797994951251894, -0.03437070921063423, -0.025007499381899834, -0.0013573401374742389, 0.03211996704339981, 0.11323309689760208, 0.06331241875886917, -0.019057150930166245, 0.03715911880135536, -0.012305310927331448, -0.007660028990358114, 0.03911586105823517, -0.03083360567688942, 0.0292714461684227, -0.07278773188591003, -0.05508687347173691, 0.00400718254968524, -0.003120412351563573, 0.08264957368373871, -0.07165266573429108, -0.017327163368463516], [-0.12397942692041397, -0.09459707885980606, -0.009108521044254303, 0.06651001423597336, -0.03839752450585365, 0.0318172350525856, -0.010513384826481342, -0.03423945978283882, -0.05345774069428444, 0.0167174581438303, -0.020532619208097458, -0.01723838411271572, -0.046449705958366394, -0.04474174603819847, -0.048441674560308456, -0.020962145179510117, -0.011217496357858181, -0.07289015501737595, -0.02919536456465721, -0.01088607870042324, -0.06219721958041191, 0.03243376687169075, -0.04736356437206268, -0.12196177989244461, 0.005786820314824581, -0.04315529391169548, 0.007767439819872379, -0.044490084052085876, -0.05542336776852608, -0.03326013311743736, -0.04483671486377716, -0.03914795443415642, -0.04007276892662048, -0.11486691981554031, -0.006442083511501551, -0.06079014763236046, 0.0354095920920372, -0.021517759189009666, -0.08645535260438919, -0.07232601195573807, -0.07073597609996796, -0.036210037767887115, -0.09061986207962036, -0.10234244167804718, -0.028551369905471802, -0.10500259697437286, -0.10468905419111252, 0.02896684966981411, -0.0010856955777853727, -0.012380652129650116, -0.000776915461756289, 0.037370044738054276, -0.07746417075395584, -0.02631625160574913, -0.03937350958585739, -0.01220558863133192, -0.008923270739614964, -0.05292808637022972, -0.06870073080062866, -0.05506611615419388, -0.014541763812303543, 0.03333738073706627, -0.03572046756744385, -0.033605143427848816], [-0.08678475022315979, -0.094773069024086, -0.09724099934101105, 0.009842160157859325, -0.023067710921168327, -0.0015592360869050026, -0.05707358568906784, 0.048476818948984146, -0.0545625202357769, -0.07688137888908386, 0.0326787605881691, -0.07290685176849365, 0.035525962710380554, -0.04209103062748909, -0.02973696030676365, -0.025552133098244667, 0.05042196065187454, -0.05532087758183479, 0.032364729791879654, -0.07001657038927078, -0.021617215126752853, -0.00999719463288784, 0.06925777345895767, -0.1266591101884842, -0.058842990547418594, -0.09490018337965012, -0.06008391082286835, -0.030215580016374588, -0.028820158913731575, 0.008012285456061363, -0.08189001679420471, -0.028548143804073334, -0.027309555560350418, -0.09330856055021286, -0.003001823090016842, -0.03941245377063751, -0.02679663524031639, 0.018456237390637398, -0.015162893570959568, -0.030729442834854126, -0.010249803774058819, 0.03412408009171486, -0.08220987021923065, -0.053349971771240234, -0.09351740777492523, -0.005226760637015104, -0.00993623398244381, 0.08224724978208542, -0.10385765135288239, 0.0194453913718462, -0.010690243914723396, 0.07134377956390381, -0.06001194566488266, -0.08687100559473038, -0.000676619412843138, -0.056175656616687775, -0.07045074552297592, -0.034339550882577896, 0.0030452273786067963, -0.07339012622833252, -0.04802340269088745, 0.007815429009497166, -0.07335169613361359, -0.011998920701444149], [-0.018002362921833992, -0.03333919867873192, -0.02839764393866062, -0.003545298706740141, -0.08293575793504715, -0.0015111370012164116, -0.011798649094998837, 0.05525124445557594, -0.013888726942241192, -0.01320689357817173, 0.02868892252445221, -0.03199811279773712, -0.025005828589200974, -0.031720079481601715, -0.04543399438261986, 0.08107085525989532, 0.07074256986379623, 0.006279804743826389, 0.06141013652086258, -0.02964645065367222, -0.03313659131526947, 0.027589453384280205, 0.039479393512010574, -0.07228443771600723, -0.07624470442533493, -0.037275832146406174, -0.008017844520509243, -0.05982159078121185, 0.05740898475050926, -0.07675198465585709, 0.006841456983238459, -0.05378007888793945, 0.013318936340510845, -0.06904982030391693, -0.10653011500835419, 0.043174125254154205, 0.053512509912252426, -0.014057614840567112, 0.03937264531850815, -0.06820744276046753, -0.03530360758304596, -0.05372338742017746, -0.0513673797249794, 0.08251965045928955, -0.04208390787243843, -0.009217913262546062, -0.009029780514538288, -0.030063675716519356, 0.005675980821251869, -0.0020408814307302237, -0.0007846267544664443, 0.0567588210105896, 0.02148301899433136, -0.022161653265357018, -0.04961014911532402, -0.09242046624422073, -0.01672922447323799, -0.023039985448122025, -0.06563669443130493, -0.10697237402200699, -0.05788248032331467, 0.1909027099609375, -0.01727990433573723, -0.011497488245368004], [-0.05072244629263878, 0.009799753315746784, -0.10372145473957062, 0.01622878760099411, 0.010029412806034088, 0.05214221030473709, -0.048163145780563354, 0.037049323320388794, -0.04650919884443283, -0.12087950110435486, 0.0638747438788414, -0.0811014324426651, -0.11666731536388397, -0.06497076898813248, 0.04061096906661987, -0.061156511306762695, -0.020704712718725204, 0.01181583758443594, -0.04983288794755936, -0.040350284427404404, -0.046236760914325714, 0.030715765431523323, 0.044314783066511154, -0.06459500640630722, -0.06619018316268921, -0.09561741352081299, -0.044420868158340454, -0.02027934417128563, 0.02596541866660118, -0.02661748230457306, -0.014938724227249622, -0.09880822151899338, -0.07480278611183167, -0.12468637526035309, 0.000734966597519815, -0.02591336891055107, 0.03137509152293205, -0.08833401650190353, -0.04379943013191223, -0.02349720150232315, -0.015354768373072147, 0.007531821262091398, -0.03578340262174606, -0.032064035534858704, -0.06372252106666565, -0.10683950036764145, -0.010492687113583088, -0.029357636347413063, -0.03469493240118027, -0.0076685412786901, 0.019458739086985588, 0.02723313681781292, -0.0961536169052124, -0.030186567455530167, -0.05004119873046875, -0.06754226982593536, -0.059128135442733765, -0.100920170545578, -0.02335876040160656, -0.10285814106464386, -0.06355291604995728, 0.0072019812650978565, -0.02146252617239952, -0.09722744673490524], [0.04116176441311836, 0.03206172585487366, 0.05602152645587921, -0.050342824310064316, 0.07665331661701202, 0.030092410743236542, 0.06199488043785095, -0.025577004998922348, 0.008396555669605732, 0.013545549474656582, 0.01548173651099205, 0.08562338352203369, -0.04211416468024254, 0.04297025129199028, -0.04584131017327309, 0.06257518380880356, 0.037946876138448715, 0.0509846955537796, 0.0049684238620102406, 0.03410080447793007, 0.03489008545875549, 0.04939143732190132, 0.02594836615025997, 0.05911719799041748, 0.0820082500576973, 0.1545930951833725, 0.021708780899643898, -0.005912987515330315, 0.05560864135622978, -0.00437459722161293, 0.032182417809963226, -0.03760850802063942, 0.05009652301669121, -0.04921483248472214, -0.013798627071082592, 0.023524560034275055, -0.042548537254333496, -0.0461815670132637, 0.06152572110295296, 0.0639873519539833, 0.04793253168463707, -0.023754538968205452, 0.07457804679870605, -0.0011887585278600454, 0.036731231957674026, -0.008216732181608677, 0.022638192400336266, 0.041006337851285934, 0.06529242545366287, 0.025980859994888306, 0.01757172681391239, 0.02849286049604416, 0.025955805554986, 0.08758445084095001, -0.028325410559773445, 0.0747285857796669, -0.02858368307352066, 0.013461916707456112, -0.0583171620965004, 0.004389573819935322, 0.07649699598550797, 0.05698300898075104, 0.04599304497241974, 0.04670684039592743], [0.002036208985373378, -0.0009359873947687447, 0.1263124942779541, 0.008610225282609463, 0.0937836691737175, 0.017201952636241913, 0.07474352419376373, 0.08933977782726288, 0.0017426317790523171, 0.05164124816656113, 0.04038207232952118, 0.07230772823095322, 0.08808723092079163, 0.06729769706726074, 0.0159892737865448, 0.10701587051153183, 0.1341426819562912, 0.04577897489070892, 0.02983015961945057, 0.035898104310035706, 0.09550873935222626, 0.07367908209562302, 0.05095355585217476, 0.10299400240182877, 0.1117471233010292, 0.061784155666828156, 0.12852749228477478, 0.10607311129570007, 0.07033100724220276, 0.062351856380701065, 0.12694229185581207, 0.08998005837202072, 0.08599371463060379, -0.0007751747616566718, 0.0701143816113472, 0.030775822699069977, 0.061027899384498596, 0.10216106474399567, 0.04679520055651665, 0.06394147127866745, 0.03232496604323387, 0.02140548825263977, 0.036610186100006104, 0.09056852012872696, 0.038565319031476974, 0.07411427795886993, -0.0037127097602933645, 0.015328958630561829, 0.11958807706832886, 0.05874574929475784, 0.034242574125528336, 0.09374765306711197, 0.002620467683300376, 0.060154855251312256, 0.0152925755828619, 0.07188687473535538, 0.046434931457042694, 0.0669916495680809, 0.027921557426452637, 0.008929414674639702, 0.04319325461983681, 0.10232385993003845, 0.024210210889577866, 0.02916712686419487], [-0.08863408863544464, -0.09276100248098373, -0.014986587688326836, -0.09073560684919357, -0.08311055600643158, -0.05292997509241104, -0.06364990770816803, -0.07367002218961716, -0.011199095286428928, -0.006235707551240921, -0.036168456077575684, -0.09037357568740845, -0.012802215293049812, -0.09258472174406052, -0.02036322094500065, -0.07871732115745544, -0.07151495665311813, -0.10120318084955215, -0.050738055258989334, -0.08568088710308075, -0.024974806234240532, -0.04005818068981171, -0.08854159712791443, -0.12502340972423553, -0.05760011449456215, -0.08451146632432938, -0.12320678681135178, -0.06857485324144363, -0.08179294317960739, -0.036408279091119766, -0.013643370009958744, -0.11076250672340393, -0.034199416637420654, -0.05612480267882347, -0.040561970323324203, -0.12218403816223145, -0.0564873069524765, -0.11088740825653076, -0.02638241834938526, -0.07431395351886749, -0.09478606283664703, -0.0604422502219677, -0.06319695711135864, -0.06878837198019028, -0.08932327479124069, -0.0913284569978714, -0.12197276204824448, -0.048002149909734726, -0.004720703233033419, -0.09698926657438278, -0.009281852282583714, -0.09516940265893936, -0.1190934106707573, -0.05037549138069153, -0.03292001411318779, -0.09234941750764847, -0.06887827813625336, -0.04531433433294296, -0.11162290722131729, -0.004450214095413685, -0.09233874827623367, -0.07645195722579956, -0.05061069130897522, -0.10152538120746613], [-0.0027815820649266243, -0.09745555371046066, -0.05758953467011452, -0.10553067922592163, -0.035592373460531235, 0.03456372395157814, -0.046036139130592346, -0.025277886539697647, -0.01325672771781683, -0.04052113741636276, 0.03143807500600815, -0.027359992265701294, -0.03677225112915039, -0.020619601011276245, -0.008947323076426983, -0.09529941529035568, 0.015396078117191792, -0.09313958138227463, -0.06312330812215805, -0.09872379153966904, -0.05419136956334114, 0.0032019184436649084, -0.03929304704070091, -0.04569229111075401, -0.03391914442181587, -0.1267780214548111, -0.042822547256946564, -0.03412044420838356, -0.0433143675327301, -0.0702076405286789, -0.10699789971113205, -0.06844472885131836, -0.0615498349070549, -0.0856112465262413, -0.07157120853662491, -0.08649018406867981, 0.03421588987112045, -0.027930282056331635, -0.11710318177938461, -0.08614571392536163, -0.08279469609260559, -0.039104364812374115, -0.03318100422620773, -0.04483955726027489, -0.03054463118314743, -0.10090412944555283, -0.03124888800084591, -0.0790829062461853, -0.026117688044905663, -0.034032873809337616, 0.005139973014593124, -0.020732596516609192, -0.0899423137307167, -0.09829156845808029, -0.042786698788404465, -0.05739723891019821, -0.04756472259759903, -0.056245800107717514, 0.0022166059352457523, -0.026004716753959656, -0.05599530413746834, 0.056189317256212234, -0.08968139439821243, -0.00844662170857191], [-0.05693952739238739, -0.02863248810172081, -0.019717682152986526, 0.0003429632051847875, -0.03577407822012901, -0.03533273562788963, -0.01792682334780693, -0.07242712378501892, 0.006233836989849806, -0.00540290679782629, 0.04430857673287392, -0.07850171625614166, -0.05931678041815758, -0.014885278418660164, -0.020872915163636208, -0.03527272492647171, 0.046100083738565445, -0.0295903068035841, -0.018733149394392967, -0.08944226056337357, -0.01480040792375803, -0.03764822334051132, 0.03516791760921478, -0.12224653363227844, 0.006935263518244028, -0.03812733292579651, -0.03609393909573555, -0.002565985545516014, 0.03600647673010826, -0.03737388923764229, -0.05444823205471039, -0.06214800104498863, -0.07273787260055542, -0.04739011824131012, -0.034807268530130386, -0.08716103434562683, 0.04090817645192146, -0.011460253037512302, -0.032866258174180984, 0.07149744778871536, -0.09542994946241379, -0.0721982792019844, 0.0038215492386370897, -0.07556534558534622, -0.06891834735870361, -0.048185523599386215, -0.011630931869149208, -0.032013241201639175, -0.013145498000085354, 0.029251253232359886, -0.11107675731182098, 0.06790012866258621, -0.08176857233047485, -0.051398083567619324, -0.03093811683356762, -0.11849778145551682, 0.005584112834185362, -0.04546746984124184, -0.005036113318055868, -0.00810342375189066, -0.035574447363615036, 0.03247741237282753, -0.027002422139048576, -0.09848003834486008], [-0.10494985431432724, -0.017664525657892227, -0.10316842794418335, -0.06866258382797241, 0.0028348504565656185, 0.05528778210282326, -0.11120633035898209, -0.08172285556793213, -0.1002822294831276, -0.04835215210914612, 0.015276452526450157, -0.05427081137895584, -0.022679153829813004, -0.06352344900369644, -0.0026771423872560263, -0.09448592364788055, 0.021111518144607544, -0.03353223204612732, -0.05463746562600136, 0.006981436628848314, -0.03568582981824875, -0.030902139842510223, -0.025567904114723206, -0.11402550339698792, -0.09268248826265335, -0.13614939153194427, -0.08577868342399597, -0.05664161592721939, -0.07103685289621353, -0.05625465139746666, -0.011641966179013252, -0.0022429851815104485, -0.06879720836877823, 0.009802267886698246, -0.10804925858974457, -0.03309110552072525, -0.030171455815434456, -0.06635961681604385, -0.01755610480904579, -0.08769389241933823, -0.06864281743764877, -0.07412252575159073, -0.022933194413781166, -0.030595576390624046, -0.06573432683944702, -0.07091769576072693, -0.13033616542816162, -0.04439011588692665, -0.11908286064863205, -0.044255416840314865, -0.03708935156464577, -0.07954276353120804, -0.03526639938354492, -0.058992210775613785, -0.015483710914850235, -0.0053764269687235355, -0.01142030581831932, -0.022971224039793015, -0.08496074378490448, -0.013693093322217464, -0.10219791531562805, -0.07345271855592728, -0.07592242956161499, -0.08399646729230881], [-0.05670848488807678, 0.007009644992649555, -0.10171860456466675, -0.04986284300684929, -0.09411254525184631, -0.07604362070560455, -0.055594880133867264, -0.050098154693841934, -0.02943599410355091, -0.0338609516620636, 0.019389092922210693, -0.023076070472598076, -0.00779628474265337, -0.008100437000393867, -0.01499570719897747, -0.00267216213978827, 0.03264952823519707, -0.003353158012032509, 0.042151570320129395, -0.0030836814548820257, -0.00419897586107254, 0.030998455360531807, 0.04359692335128784, -0.11703087389469147, -0.04822426661849022, -0.15275447070598602, -0.01605970598757267, -0.04432753100991249, 0.03810246288776398, -0.037347182631492615, -0.12118923664093018, -0.023506881669163704, -0.033738527446985245, -0.08901455253362656, -0.06538034230470657, -0.0012985069770365953, -0.027780134230852127, -0.014714844524860382, -0.09893832355737686, -0.07955098152160645, -0.06146041303873062, 0.029943419620394707, 0.00249038590118289, -0.1245473250746727, -0.03070341981947422, 0.004842518363147974, -0.0086892768740654, 0.04594532772898674, -0.02597888372838497, 0.020336708053946495, 0.08172764629125595, -0.010013101622462273, -0.013926961459219456, -0.01773591712117195, -0.03336963802576065, -0.059155918657779694, -0.005581249017268419, -0.08593063801527023, -0.07123545557260513, -0.00800724420696497, -0.0344003401696682, 0.02656247653067112, -0.031803350895643234, -0.09744872152805328], [-0.007988392375409603, -0.006456602830439806, 0.058269958943128586, 0.062004394829273224, 0.08661183714866638, 0.040043819695711136, 0.05856045335531235, 0.07722200453281403, 0.006531835533678532, -0.001186176436021924, 0.09734796732664108, 0.0033945064060389996, 0.06136026605963707, 0.002210065256804228, 0.04121807962656021, 0.018207978457212448, -0.07334991544485092, 0.1092720553278923, 0.0659450963139534, 0.06528642028570175, 0.05630349740386009, -0.0035484156105667353, 0.04809512570500374, 0.10404700040817261, 0.0007950749713927507, 0.020663974806666374, 0.05036991089582443, 0.024139035493135452, -0.017557235434651375, -0.009607989341020584, 0.07376405596733093, 0.03804628551006317, 0.07786764204502106, 0.009393286891281605, 0.07474313676357269, 0.020522844046354294, -0.0614856593310833, 0.007259703706949949, 0.07635536044836044, -0.020071370527148247, 0.003285546088591218, -0.024872278794646263, 0.0405796617269516, 0.10895229130983353, 0.026064017787575722, 0.051283467561006546, 0.022116245701909065, -0.04033903405070305, 0.009216698817908764, 0.002425694838166237, 0.11757564544677734, 0.04788899049162865, 0.09822465479373932, 0.09592346847057343, -0.036547720432281494, 0.032801590859889984, 0.04294165223836899, 0.07203532755374908, 0.015905208885669708, 0.088936448097229, -0.002185673452913761, -0.10807257145643234, 0.02530430443584919, 0.04660935327410698], [-0.0391094796359539, -0.05096985399723053, -0.032245878130197525, -0.005888697225600481, -0.056002795696258545, -0.030720509588718414, -0.028759723529219627, -0.09904216974973679, -0.0008305060327984393, -0.1080208346247673, 0.019140224903821945, -0.12088046222925186, -0.09050844609737396, -0.050740670412778854, 0.021590743213891983, -0.005312933120876551, 0.06893433630466461, -0.041564323008060455, -0.07373909652233124, -0.03821197524666786, -0.06689690798521042, 0.005351798143237829, -0.0745401605963707, -0.018175076693296432, 0.002300938591361046, -0.09548468887805939, -0.08771773427724838, -0.053592391312122345, 0.13164716958999634, 0.04160917177796364, -0.07811097055673599, -0.10800093412399292, -0.0692729726433754, -0.02738991007208824, -0.06434670090675354, -0.03988947719335556, 0.09579242765903473, 0.0035930126905441284, -0.07803833484649658, -0.03160623088479042, -0.04291066527366638, 0.04177815467119217, 0.040082190185785294, -0.016737723723053932, -0.0025388109497725964, -0.041580501943826675, -0.006532170344144106, 0.043787069618701935, -0.06893634796142578, 0.006625817157328129, -0.03021448664367199, 0.0896226242184639, -0.06932438910007477, -0.10414032638072968, 0.10750050097703934, -0.04726697877049446, -0.10871396958827972, -0.08128534257411957, -0.03526102378964424, -0.11581872403621674, -0.005560383200645447, 0.05038797855377197, -0.04153481498360634, -0.09515418857336044], [0.08894670754671097, 0.10564251989126205, 0.02664080634713173, -0.0011417570058256388, 0.060616642236709595, 0.023613302037119865, 0.010664560832083225, 0.0035488279536366463, 0.10751689225435257, 0.01631118170917034, -0.04735664278268814, 0.09354403614997864, 0.006117430981248617, -0.0694112479686737, 0.03762727975845337, 0.06844141334295273, -0.018299434334039688, 0.08343775570392609, 0.0018042380688712, 0.03722841665148735, 0.006579000502824783, -0.03074491396546364, 0.0010395778808742762, 0.022981852293014526, 0.0755271166563034, 0.018013788387179375, 0.04207715764641762, 0.09957730025053024, -0.007335561327636242, 0.023609168827533722, 0.01924128457903862, 0.02640964277088642, 0.025385377928614616, 0.0019997667986899614, 0.060977526009082794, 0.0007652640924789011, -0.07400846481323242, -0.040005311369895935, 0.05295206606388092, -0.017346857115626335, 0.007941142655909061, -0.013968272134661674, 0.034413255751132965, -0.014406762085855007, -0.0065264515578746796, 0.014676576480269432, 0.015306632965803146, -0.1060989648103714, -0.0008126155007630587, -0.0650438666343689, 0.07470936328172684, -0.14312320947647095, 0.0339706651866436, 0.058832794427871704, -0.04645052179694176, -0.006040446925908327, 0.06849092245101929, 0.03385002538561821, 0.03942493721842766, 0.006607481278479099, 0.024811221286654472, -0.13076473772525787, 0.04336770996451378, 0.05679679661989212], [-0.006527225021272898, -0.04533770680427551, 0.00013695665984414518, -0.08168677240610123, -0.1003582701086998, 0.0676470696926117, -0.07300933450460434, -0.009039022959768772, -0.05562079697847366, -0.11232909560203552, -0.03172212839126587, -0.0027014166116714478, -0.03416065126657486, -0.03771756961941719, 0.041738372296094894, -0.06373768299818039, 0.05430927500128746, -0.09260597079992294, -0.035405293107032776, -0.017582405358552933, -0.01973598077893257, 0.021486837416887283, 0.02254992537200451, -0.11529165506362915, -0.107118159532547, -0.044537171721458435, -0.06656747311353683, -0.045633599162101746, 0.05774598941206932, 0.022385230287909508, -0.10514286905527115, -0.0893818736076355, 0.003475026460364461, -0.1101633831858635, -0.04316970705986023, -0.09444937109947205, 0.04426732286810875, -0.058959610760211945, -0.05449133738875389, 0.05538241192698479, -0.06008069962263107, -0.0567016638815403, -0.10684411227703094, -0.09053152799606323, -0.027428360655903816, -0.009985877200961113, -0.08109450340270996, 0.014781606383621693, -0.011743202805519104, -0.007692296523600817, -0.06760299950838089, 0.03773079439997673, -0.12194615602493286, -0.05200890824198723, -0.05155489593744278, -0.026549894362688065, -0.06961718946695328, -0.020403245463967323, -0.12454546242952347, -0.022708376869559288, -0.06488151103258133, 0.07529227435588837, -0.02802630141377449, -0.10424530506134033], [0.025609809905290604, 0.11419160664081573, 0.001417297637090087, 0.07860910147428513, -0.004760609939694405, 0.13876475393772125, 0.13641034066677094, 0.009923979640007019, 0.10030250251293182, 0.02691577933728695, 0.1286841481924057, 0.10599835216999054, 0.11081928014755249, 0.04931086301803589, 0.07234560698270798, 0.016660617664456367, 0.09280300885438919, 0.04443761706352234, 0.12090285867452621, 0.0685018002986908, 0.024184245616197586, 0.049191396683454514, 0.03229431062936783, 0.04638846963644028, -0.0008263050112873316, 0.069228395819664, 0.046076174825429916, 0.042308393865823746, 0.07230020314455032, -0.004118005745112896, 0.10931024700403214, 0.09129231423139572, 0.08582573384046555, 0.02437008172273636, 0.04709199443459511, 0.027371767908334732, 0.07366307824850082, 0.07748919725418091, 0.10604386776685715, 0.06239243596792221, 0.13607466220855713, 0.10596448183059692, 0.046268854290246964, 0.005709697958081961, 0.09536159783601761, 0.015545785427093506, -0.010340336710214615, 0.10158422589302063, 0.056332290172576904, 0.07126963883638382, 0.10933081805706024, 0.12148312479257584, 0.06251893937587738, 0.06506688892841339, 0.07788123935461044, 0.05691596493124962, 0.11940187960863113, 0.015765218064188957, 0.07917796820402145, 0.07143835723400116, 0.12217707931995392, -0.009128130041062832, 0.06210649013519287, 0.0653064101934433], [-0.08556360751390457, 0.00019740677089430392, -0.10281286388635635, 0.05538569390773773, 0.005602503195405006, 0.04792679846286774, -0.05424351245164871, -0.03323656693100929, -0.0890965387225151, -0.0031883802730590105, 0.03391184285283089, -0.08416645228862762, -0.04654819145798683, -0.040684014558792114, 0.0580080971121788, -0.012993494980037212, 0.020530590787529945, -0.07295160740613937, 0.013941279612481594, -0.05234725773334503, 0.049961626529693604, 0.023441005498170853, 0.032110489904880524, -0.05677318200469017, -0.1318758726119995, -0.08232355862855911, -0.04722290486097336, -0.08407466858625412, 0.046164367347955704, -0.03879274055361748, -0.043217990547418594, -0.037710584700107574, -0.06792187690734863, -0.06758402287960052, -0.05323544517159462, -0.021461552008986473, 0.06744646281003952, 0.03616093471646309, -0.02702081948518753, 0.026661323383450508, -0.03714710474014282, 0.02504923567175865, -0.10086765140295029, -0.006476948969066143, -0.040511179715394974, -0.007922184653580189, 0.03066829778254032, 0.04991334676742554, 0.003024616977199912, 0.024136748164892197, -0.11988723278045654, 0.04279313236474991, -0.07940766215324402, -0.022576259449124336, 0.03519771620631218, -0.05678144842386246, -0.013068933971226215, -0.06255657225847244, -0.02914699725806713, -0.0487324595451355, 0.025133328512310982, 0.017597101628780365, -0.023492399603128433, -0.04002772271633148], [0.005701708607375622, -0.022724641487002373, -0.04220836982131004, -0.07396901398897171, -0.0190373994410038, -0.026892105117440224, -0.03797273710370064, -0.026214031502604485, -0.10722121596336365, -0.09456826746463776, -0.11050768941640854, -0.04384482651948929, -0.009724740870296955, -0.02299918234348297, -0.0481751449406147, -0.03390006721019745, -0.024202004075050354, -0.08913974463939667, -0.06067734956741333, -0.10448402166366577, -0.07037517428398132, -0.10665315389633179, -0.03466453775763512, -0.12687765061855316, -0.06315214931964874, -0.07382777333259583, -0.027047567069530487, -0.05389618128538132, -0.03720032051205635, -0.07334265112876892, -0.08050702512264252, -0.10800233483314514, -0.0021031727083027363, -0.02908378094434738, -0.08093293011188507, -0.01852376200258732, -0.10245461761951447, -0.13513916730880737, -0.05748213082551956, -0.04796421527862549, -0.09702745825052261, -0.02598375640809536, -0.02763308770954609, -0.09465387463569641, -0.06290547549724579, -0.01228689681738615, -0.074068583548069, -0.06345495581626892, -0.019060442224144936, -0.10425768047571182, -0.04846455901861191, -0.03898885101079941, -0.08883744478225708, -0.00993125606328249, -0.11545270681381226, -0.06440802663564682, -0.10273496806621552, 0.014870536513626575, -0.08066871762275696, -0.11405937373638153, -0.05864918604493141, -0.051103606820106506, -0.09959275275468826, -0.10551943629980087], [-0.12427588552236557, -0.10008744895458221, -0.0258649755269289, -0.11581525206565857, -0.017351431772112846, -0.06360013782978058, -0.030343521386384964, 0.04848696291446686, -0.12275150418281555, -0.07009167969226837, 0.07189337909221649, -0.09254325181245804, 0.04764735326170921, -0.008477684110403061, 0.035617560148239136, -0.017990248277783394, 0.046901360154151917, -0.00414623087272048, -0.011452225036919117, -0.06843867897987366, -0.0090007483959198, 0.022318052127957344, -0.023525705561041832, -0.029626773670315742, -0.011497433297336102, -0.07242296636104584, -0.061622265726327896, -0.03016464039683342, 0.10683880746364594, 0.011363748461008072, -0.07226662337779999, -0.10094957798719406, -0.005855214316397905, -0.10926929861307144, -0.037765417248010635, -0.003944996278733015, -0.0031391067896038294, 0.06270632147789001, -0.09232760965824127, 0.012544449418783188, -0.0606108158826828, 0.034092340618371964, -0.10894568264484406, -0.023465517908334732, -0.027672329917550087, -0.08563192188739777, -0.011968201957643032, 0.06923255324363708, -0.10963479429483414, 0.06922104209661484, -0.06554973125457764, 0.042584966868162155, -0.05322450399398804, -0.05310549959540367, -0.03960884362459183, 0.03332001343369484, -0.05989357456564903, -0.06429415196180344, -0.06441332399845123, -0.06355826556682587, 0.001184049528092146, 0.10096338391304016, 0.001376946223899722, -0.11384773254394531], [-0.0916740670800209, -0.03419029340147972, -0.11194878071546555, -0.07393176108598709, -0.07177688926458359, 0.03563060611486435, -0.007848872803151608, -0.0956559032201767, -0.08661109209060669, -0.02779208868741989, -0.038230590522289276, -0.04745255038142204, -0.015741944313049316, -0.06179125979542732, -0.013120463117957115, -0.05993707478046417, -0.026449676603078842, -0.09991233795881271, -0.01650329865515232, -0.06739246845245361, -0.04046133533120155, -0.055662546306848526, -0.05632086098194122, -0.0014543404104188085, -0.03279072418808937, -0.14240576326847076, -0.0067897685803473, -0.05705432593822479, -0.08653557300567627, -0.06365645676851273, -0.038840897381305695, -0.01464809849858284, 0.008230162784457207, -0.052602868527173996, -0.006967524066567421, -0.08795807510614395, -0.06063150614500046, -0.03124925121665001, -0.09875375032424927, -0.029887506738305092, -0.06345987319946289, 0.014552107080817223, -0.005645700730383396, 0.004602033644914627, -0.012595699168741703, -0.09593593329191208, -0.14216262102127075, -0.06737542152404785, -0.07987317442893982, -0.07009242475032806, -0.040071938186883926, 0.028711024671792984, -0.016932297497987747, -0.0787031278014183, -0.04571283608675003, -0.02238999493420124, -0.07707853615283966, -0.03284037485718727, -0.07999670505523682, -0.04793228581547737, -0.0494702011346817, 0.17093755304813385, -0.05263826623558998, -0.08573372662067413], [0.08473339676856995, 0.09452972561120987, 0.005267695523798466, 0.06972043961286545, 0.06081731244921684, -0.013270831666886806, 0.035697951912879944, 0.012835578061640263, 0.11139244586229324, 0.03316760063171387, -0.013184789568185806, 0.004593360237777233, 0.009109137579798698, 0.023905819281935692, -0.010928931646049023, 0.07228869199752808, 0.06059345230460167, 0.0031473152339458466, -0.012663539499044418, 0.10675907135009766, 0.10819799453020096, 0.04651834815740585, 0.023730799555778503, 0.035140130668878555, 0.05748837813735008, 0.12048414349555969, 0.12699410319328308, 0.10622350126504898, 0.03064999170601368, 0.018201524391770363, 0.059358127415180206, 0.09270400553941727, 0.014512320049107075, 0.08310182392597198, 0.05292185768485069, 0.04237587749958038, 0.029088616371154785, 0.04217678681015968, -0.00023067218717187643, 0.04844504967331886, 0.047057557851076126, 0.0225882176309824, 0.008137769997119904, 0.10671218484640121, -0.020603826269507408, 0.005419995170086622, -0.04732406139373779, -0.01832205057144165, 0.11907409131526947, 0.013512262143194675, -0.03806811943650246, 0.03143421187996864, 0.05812801793217659, 0.08888082951307297, -0.006286452524363995, 0.02630346268415451, 0.08200717717409134, 0.12064971029758453, 0.04478103294968605, 0.06005900725722313, 0.05542788654565811, 0.06319528818130493, 0.10195548832416534, 0.022320684045553207], [0.02226794883608818, -0.033843979239463806, -0.015321724116802216, -0.00039680078043602407, 0.03240491449832916, 0.06638146191835403, 0.03276018053293228, 0.0811353400349617, -0.002032332355156541, -0.010867671109735966, 0.09048372507095337, 0.045682668685913086, 0.06462643295526505, 0.028659241273999214, -0.017817271873354912, 0.03983936831355095, 0.02264663204550743, 0.2609817087650299, 0.01157333143055439, -0.013807279989123344, 0.049092862755060196, 0.04769017547369003, 0.07467460632324219, -0.01060207188129425, 0.0023597776889801025, -0.025826044380664825, -0.00935419276356697, -0.0029526646248996258, 0.011341863311827183, -0.028414977714419365, 0.09237001091241837, -0.0279668178409338, 0.02647002413868904, 0.031766075640916824, 0.06044730544090271, 0.01147953700274229, 0.0630018338561058, 0.045731108635663986, 0.046185363084077835, 0.07010594010353088, 0.03787972778081894, 0.048714011907577515, -0.15232333540916443, -0.07601018249988556, 0.08274746686220169, -0.009546489454805851, 0.014147475361824036, 0.03258836269378662, 0.0021401001140475273, -0.012514484114944935, 0.029770975932478905, 0.07851184904575348, -0.010608650743961334, 0.02670394442975521, 0.027780858799815178, 0.07042999565601349, 0.0052115595899522305, 0.09942438453435898, -0.0475434772670269, -0.01641041785478592, 0.052852462977170944, 0.047002874314785004, 0.04002377390861511, -0.0041643353179097176], [0.009459251537919044, 0.04836704954504967, -0.0511733703315258, 0.07634375244379044, -0.01185113936662674, -0.026615111157298088, -0.04358719289302826, -0.04239937663078308, -0.0003491706447675824, 0.0015544106718152761, -0.07731898874044418, 0.033456750214099884, -0.07081339508295059, 0.03188323974609375, -0.025730112567543983, 0.034152839332818985, 0.05053383857011795, -0.09840960055589676, 0.04841223359107971, -0.02901274710893631, -0.02939237654209137, -0.06437665224075317, 0.04025528207421303, 0.10702585428953171, -0.008030775934457779, -0.07193125784397125, -0.058395590633153915, 0.020987873896956444, -0.07100816816091537, 0.033410266041755676, -0.05227246508002281, -0.062191255390644073, -0.0007382838521152735, 0.014294824562966824, -0.03645695000886917, -0.03227757662534714, -0.08477848768234253, -0.08428509533405304, 0.011748462915420532, 0.028504814952611923, 0.05245457589626312, -0.05715636909008026, -0.10435576736927032, -0.03609788045287132, -0.06096644327044487, -0.005270242691040039, -0.06016245111823082, 0.03160053864121437, 0.005232054740190506, 0.01579957827925682, -0.017246779054403305, -0.05220263823866844, -0.03808239847421646, -0.05727662146091461, 0.014111066237092018, -0.022527901455760002, -0.044285669922828674, -0.03182641416788101, 0.003242872655391693, -0.027315160259604454, 0.014830355532467365, -0.025654425844550133, -0.04678092151880264, -0.06213085353374481], [-0.055363599210977554, -0.03950206935405731, -0.05226314067840576, -0.011216959916055202, -0.08354465663433075, 0.008688509464263916, -0.01247528474777937, -0.06472785770893097, -0.09659343957901001, -0.08483020961284637, -0.023376937955617905, -0.09271342307329178, -0.04648368060588837, -0.07564505189657211, 0.021412158384919167, -0.05621930956840515, -0.02046600915491581, -0.04220374673604965, -0.01081041619181633, -0.01742432825267315, -0.029837461188435555, 0.01520975586026907, -0.027041494846343994, -0.010723655112087727, -0.03661708906292915, 0.0016424377681687474, -0.04398674517869949, -0.07207690924406052, -0.03495354205369949, -0.05057179182767868, -0.0020580287091434, -0.10163944959640503, -0.02734171599149704, -0.05462559312582016, -0.07208417356014252, -0.01825234852731228, -0.056774940341711044, -0.03406739607453346, -0.03372103348374367, -0.04156063497066498, -0.0552419014275074, -0.01657150499522686, -0.009618401527404785, 0.008693750947713852, -0.05578349903225899, -0.06376820057630539, -0.07602513581514359, 0.0473022535443306, -0.09895774722099304, 0.03853733092546463, -0.07678227871656418, 0.027526801452040672, -0.04358002170920372, -0.014169386588037014, 0.041144296526908875, -0.09510739892721176, -0.025243744254112244, -0.10594484210014343, -0.076820507645607, -0.0428202860057354, -0.0455956868827343, 0.058255601674318314, -0.026488544419407845, -0.1055242046713829], [0.041379932314157486, -0.0047836401499807835, 0.07397360354661942, 0.0375031940639019, 0.11472112685441971, 0.06737147271633148, 0.03539843112230301, 0.04385168105363846, 0.02314353734254837, 0.05344436317682266, 0.07966037839651108, 0.09888913482427597, 0.08035962283611298, 0.12066708505153656, 0.1179109588265419, 0.05189192667603493, 0.07691294699907303, 0.10522621124982834, 0.06382954865694046, -0.0038882202934473753, 0.03318815305829048, 0.04210241138935089, 0.10075726360082626, 0.0990767627954483, 0.05541650950908661, 0.020304327830672264, 0.07662785053253174, 0.09926449507474899, 0.0456983707845211, 0.06038324907422066, 0.0075986492447555065, 0.02264646627008915, -0.009284392930567265, 0.0018549551023170352, 0.03859155625104904, 0.09921626001596451, 0.035565223544836044, 0.05590774491429329, 0.08607979118824005, 0.03474126756191254, 0.04647230729460716, 0.06477302312850952, 0.06837139278650284, 0.04974054917693138, 0.08976966142654419, 0.07552976906299591, 0.10002884268760681, 0.08624451607465744, 0.029525380581617355, 0.06169084832072258, 0.04979677125811577, 0.0828993022441864, 0.012139830738306046, 0.07357856631278992, 0.05003829672932625, 0.1087435930967331, 0.08751729875802994, 0.02890695445239544, 0.028206191956996918, 0.06255261600017548, 0.12373168021440506, 0.054550882428884506, 0.12324453890323639, 0.10611408948898315], [0.03142489120364189, 0.05505375936627388, 0.06817708164453506, 0.13153819739818573, 0.04134880751371384, 0.028845345601439476, 0.054553963243961334, 0.07971712201833725, 0.06900261342525482, -0.003847630461677909, 0.06574174761772156, 0.024933377280831337, 0.17441533505916595, 0.08339057862758636, 0.04963597282767296, 0.10594389587640762, 0.06946717202663422, 0.018225297331809998, 0.02475130744278431, 0.12244143337011337, 0.12224297970533371, 0.0762394368648529, 0.03604709357023239, 0.04028983786702156, 0.016999587416648865, 0.10348030179738998, 0.028853334486484528, 0.09804052859544754, 0.13186386227607727, 0.04350646585226059, 0.038170844316482544, 0.11935030668973923, 0.025713561102747917, -0.0023140355478972197, 0.07778666913509369, 0.06039642170071602, 0.05983433872461319, 0.08044783025979996, 0.028603006154298782, 0.06635060906410217, 0.019238300621509552, 0.11924988776445389, 0.09313519299030304, 0.015223626047372818, 0.02443467639386654, 0.10156785696744919, 0.01049029640853405, 0.0917443037033081, 0.13819167017936707, 0.022502610459923744, 0.10203996300697327, 0.12576347589492798, 0.07768664509057999, 0.09106750041246414, 0.04349920153617859, 0.07242264598608017, 0.025992529466748238, 0.0056542893871665, 0.11394864320755005, 0.03459959849715233, 0.11756972223520279, 0.09895940870046616, 0.02566606178879738, 0.07436352968215942], [-0.06096014380455017, 0.007736123166978359, -0.11095790565013885, -0.0033484329469501972, -0.010697678662836552, 0.06504098325967789, -0.006799963768571615, -0.0069648525677621365, -0.10456902533769608, -0.01651197113096714, 0.037985194474458694, -0.045415908098220825, -0.08000385761260986, -0.019122391939163208, 0.04638935625553131, 0.03710653632879257, 0.10207529366016388, 0.1225660964846611, 0.05736828222870827, -0.07517837733030319, -0.005593807902187109, 0.03668605908751488, 0.03102177195250988, -0.07355844229459763, 0.01084078848361969, -0.020473401993513107, -0.0204735416918993, -0.012783186510205269, 0.07286135107278824, 0.028231365606188774, 0.046716779470443726, -0.07067703455686569, 0.020511850714683533, -0.0868217721581459, -0.06254751980304718, -0.0075724171474576, -0.01581384614109993, -0.010875455103814602, -0.004708850756287575, 0.03160931169986725, -0.03138390928506851, 0.07479283213615417, -0.06652894616127014, -0.05894243344664574, -0.04041522741317749, -0.11647935211658478, 0.002939206548035145, 0.041796550154685974, 0.10878979414701462, 0.04596986621618271, 0.016467422246932983, 0.04107155650854111, -0.03716171532869339, -0.007384599186480045, -0.08445832133293152, -0.049957986921072006, 0.06004903465509415, -0.05998363345861435, -0.0037848728243261576, -0.06051309034228325, -0.057377688586711884, 0.05214529111981392, -0.10580218583345413, -0.10153163969516754], [-0.11116314679384232, -0.053982969373464584, -0.034558504819869995, -0.005386883858591318, -0.022011084482073784, -0.03660346940159798, -0.1064806804060936, 0.04090481251478195, -0.04731760546565056, -0.048566706478595734, -0.07929130643606186, -0.029281331226229668, -0.04638851433992386, -0.020310094580054283, -0.0566447377204895, -0.1067727729678154, -0.07716558873653412, -0.03961559757590294, -0.044589120894670486, -0.12157042324542999, -0.08236399292945862, -0.0876958891749382, -0.07492608577013016, -0.06696684658527374, -0.003925979603081942, -0.13128826022148132, -0.0840163454413414, 0.009018908254802227, -0.035942304879426956, -0.03514193370938301, -0.08335314691066742, -0.05176991969347, -0.1136125847697258, -0.05189217999577522, -0.0600762665271759, -0.06498392671346664, -0.03742431476712227, -0.06826946139335632, -0.04426833242177963, -0.02409197762608528, -0.05320385843515396, -0.0398140549659729, -0.11772123724222183, -0.07097864896059036, -0.08467639982700348, -0.04300116375088692, -0.07040181010961533, -0.042628172785043716, -0.16576150059700012, -0.026220209896564484, -0.07755804061889648, -0.07587599754333496, -0.10801006853580475, -0.10579618811607361, -0.07762640714645386, -0.07633101940155029, -0.005284949205815792, -0.06238366290926933, -0.08221913874149323, -0.10844796150922775, -0.05579493194818497, -0.06844419986009598, -0.02819312922656536, -0.060153424739837646], [0.001183215994387865, 0.028280867263674736, 0.029555009678006172, 0.025700904428958893, 0.041890423744916916, 0.041208311915397644, 0.0525539293885231, 0.004068306647241116, 0.0778946578502655, 0.09524963796138763, 0.040462881326675415, -0.05725020542740822, 0.047135625034570694, 0.0718224048614502, 0.09381997585296631, 0.08226165175437927, 0.09331102669239044, 0.03486181050539017, -0.01440410502254963, 0.05431729555130005, 0.07736703008413315, -0.05146091803908348, -0.014048425480723381, 0.14156527817249298, 0.0801386907696724, -0.006505404599010944, 0.04992562159895897, 0.11233246326446533, 0.041108373552560806, 0.059045881032943726, 0.0037010908126831055, 0.04463190585374832, 0.060590993613004684, 0.04689035937190056, 0.09734980762004852, 0.02018723264336586, 0.011988834477961063, 0.058049410581588745, 0.06119927018880844, 0.05254245549440384, -0.025353658944368362, 0.11007661372423172, 0.17701002955436707, 0.01780793070793152, 0.032642897218465805, 0.022959468886256218, 0.04279189929366112, 0.015598597936332226, -0.04213881492614746, 0.02790452167391777, 0.08222062140703201, 0.03612811118364334, 0.1035299301147461, 0.06641086935997009, 0.04641486704349518, 0.06939472258090973, 0.034864671528339386, 0.10261490941047668, -0.03659782186150551, 0.023416470736265182, 0.06001321226358414, 0.061521515250205994, 0.07225274294614792, 0.03634604811668396], [-0.009142455644905567, -0.046139877289533615, 0.009887615218758583, -0.1044280007481575, -0.04506818950176239, -0.11932770162820816, -0.13613517582416534, -0.05038806423544884, -0.040395915508270264, -0.004789408762007952, -0.06703846156597137, -0.04794963821768761, -0.0799652561545372, -0.058893561363220215, -0.11023296415805817, -0.11710470914840698, -0.041770003736019135, -0.05519415810704231, -0.026742568239569664, 0.011921044439077377, -0.13520583510398865, -0.07522338628768921, -0.016833262518048286, 0.027693361043930054, -0.08190683275461197, 0.04544218257069588, 0.04470326751470566, -0.009795572608709335, -0.14355744421482086, -0.03278651461005211, 0.0322568416595459, -0.048414427787065506, -0.06019584462046623, -0.08391774445772171, 0.029662299901247025, -0.08823078870773315, -0.06123451516032219, -0.03640418127179146, -0.05442335829138756, -0.07434319704771042, -0.1261427253484726, -0.13467606902122498, -0.056975189596414566, -0.07799189537763596, -0.06044953316450119, 0.022359995171427727, -0.05775339528918266, -0.098438560962677, 0.02766638807952404, -0.05896981060504913, -0.010393062606453896, -0.04077589139342308, 0.02870454080402851, -0.08002755045890808, -0.12873932719230652, -0.059022244065999985, 0.02110142633318901, -0.05189380422234535, 0.04445112124085426, -0.08866999298334122, -0.030553480610251427, -0.09159114956855774, -0.10266818851232529, -0.03306202217936516], [-0.03323468938469887, -0.1136980876326561, -0.00964532233774662, -0.08843214809894562, -0.004083874169737101, -0.011662698350846767, -0.09746649861335754, -0.014599245972931385, -0.0550210066139698, -0.09299149364233017, -0.04096195474267006, -0.05442347005009651, -0.030865466222167015, -0.07570669800043106, -0.022301772609353065, -0.048401106148958206, -0.055716775357723236, 0.006757386028766632, 0.05157925561070442, 3.6396344512468204e-05, -0.026100318878889084, -0.03956814855337143, 0.039671339094638824, -0.11985933035612106, -0.0991586446762085, -0.05426114425063133, -0.0004401350161060691, -0.06277167052030563, 0.05487654358148575, -0.024812612682580948, -0.05715830624103546, -0.02920026145875454, -0.06979981064796448, -0.05313551798462868, -0.09611458331346512, 0.025180451571941376, -0.038474373519420624, -0.017637241631746292, -0.0578024722635746, -0.07849910855293274, -0.04327310621738434, 0.0035395987797528505, -0.005727608688175678, -0.03202155977487564, -0.023709261789917946, -0.09791788458824158, 0.005434993654489517, 0.04924294352531433, -0.08051368594169617, -0.03615293279290199, -0.08646436035633087, -0.02556823380291462, -0.003478060243651271, -0.046043310314416885, -0.009782933630049229, -0.09394972026348114, -0.023319140076637268, -0.05459016188979149, -0.10305409878492355, -0.057099200785160065, -0.03209782391786575, 0.1197856217622757, -0.07673591375350952, -0.10786250978708267], [-0.04407570883631706, 0.0003430866345297545, -0.10065612941980362, -0.014285869896411896, -0.05401723086833954, 0.03021417185664177, -0.00200977036729455, -0.044014446437358856, -0.047041572630405426, -0.07843683660030365, 0.03077082335948944, -0.06286595016717911, -0.03120253048837185, -0.0650981217622757, 0.05114929750561714, -0.03434532880783081, 0.0419892780482769, 0.010280797258019447, -0.008517461828887463, -0.004001453053206205, -0.03095584362745285, 0.027876555919647217, 0.04322420433163643, -0.02027161978185177, -0.008382758125662804, -0.06701910495758057, -0.005608474835753441, -0.04681798815727234, 0.032972611486911774, -0.010025742463767529, -0.08653729408979416, -0.012796053662896156, -0.10431253165006638, -0.12217441201210022, -0.07770559191703796, -0.02352725714445114, -0.017858700826764107, 0.0021535933483392, -0.03752918913960457, 0.06198575720191002, -0.024618864059448242, 0.020790323615074158, -0.050174444913864136, -0.09441594034433365, -0.008983283303678036, -0.08205949515104294, -0.08504713326692581, -0.03299335017800331, -0.0961591899394989, 0.011377978138625622, -0.034309450536966324, 0.01634792797267437, -0.04829489439725876, -0.024456752464175224, -0.08431675285100937, -0.08603551238775253, -0.08342286944389343, -0.05197468772530556, -0.009591257199645042, -0.015481201931834221, -0.011413545347750187, 0.03684677556157112, -0.10299806296825409, -0.013949127867817879], [-0.029400194063782692, -0.007840091362595558, -0.0008938759565353394, 0.029557382687926292, -0.09532647579908371, 0.06000374257564545, 0.03382568433880806, -0.0073243798688054085, -0.023589644581079483, 0.009246411733329296, 0.0192829929292202, -0.032520707696676254, -0.08083898574113846, 0.0025852201506495476, 0.07509820908308029, -0.022121377289295197, -0.018534492701292038, 0.004454352427273989, -0.03666689246892929, -0.03766579180955887, -0.046853888779878616, 0.014269055798649788, 0.04302908107638359, -0.07251161336898804, -0.05377013236284256, -0.0986381471157074, 0.0029570800252258778, -0.08337204158306122, 0.08374805748462677, 0.025055034086108208, -0.05095414072275162, 0.02083013765513897, 0.02975594997406006, -0.06776373088359833, -0.040913697332143784, 0.03298415243625641, -0.011891212314367294, 0.08528651297092438, 0.04013216122984886, -0.016769427806138992, 0.012599005363881588, -0.047322213649749756, -0.027873476967215538, -0.008117049932479858, 0.023781953379511833, -0.09580416977405548, 0.008115888573229313, 0.05212939903140068, -0.015988247469067574, -0.027294576168060303, -0.025478946045041084, 0.03504639118909836, -0.07747096568346024, 0.040928807109594345, 0.01927247829735279, 0.06931199133396149, 0.06285998225212097, -0.024921199306845665, -0.021934306249022484, 0.012692318297922611, -0.04264242574572563, 0.09616488218307495, -0.017139378935098648, -0.0011322095524519682], [-0.017597908154129982, -0.02860637754201889, -0.002659732010215521, -0.030737752094864845, -0.044744737446308136, -0.013346577063202858, -0.02184743620455265, 0.04787406697869301, -0.013588317669928074, -0.04064108803868294, -0.0839012861251831, -0.09263107925653458, -0.054507941007614136, -0.02713811956346035, 0.024106018245220184, 0.047443240880966187, -0.02234625443816185, -0.09500009566545486, -0.011542079970240593, -0.09684215486049652, -0.05434307083487511, -0.04453854635357857, -0.015292750671505928, -0.060935333371162415, -0.05409334599971771, -0.09748012572526932, -0.03395954892039299, -0.008914376609027386, -0.023376556113362312, -0.005336264614015818, -0.07433018088340759, -0.1101091206073761, -0.00624792231246829, -0.12004508823156357, -0.039026785641908646, -0.044468823820352554, 0.0674554631114006, -0.015380574390292168, -0.10718273371458054, 0.09774387627840042, -0.08064990490674973, 0.04916936531662941, -0.0708923265337944, -0.04227272793650627, -0.09782852232456207, 0.004006787668913603, -0.04689145088195801, -0.007229761686176062, -0.09666517376899719, 0.020363910123705864, -0.002383256796747446, 0.0588788278400898, -0.038132742047309875, -0.013307626359164715, -0.022036675363779068, -0.0369371622800827, -0.03205042704939842, -0.06564656645059586, -0.03649824485182762, -0.05595182627439499, -0.05537652224302292, 0.14254970848560333, -0.005201154388487339, -0.03847728297114372], [-0.03010546788573265, -0.06840068846940994, -0.1165621355175972, 0.008961760438978672, -0.10903621464967728, -0.009959105402231216, -0.003173097735270858, -0.024184271693229675, -0.04241538047790527, -0.07653816044330597, 0.010767689906060696, -0.009132659994065762, -0.036742035299539566, -0.011985926888883114, 0.028299184516072273, -0.02771708555519581, 0.02927584759891033, -0.023227956146001816, -0.018971746787428856, -0.007842373102903366, 0.009284399449825287, -0.04075068235397339, -0.026994042098522186, -0.03520632162690163, -0.09908846765756607, -0.10608070343732834, -0.026850108057260513, -0.0612284392118454, -0.011265672743320465, 0.024100374430418015, -0.059579428285360336, -0.07503007352352142, -0.0371345579624176, -0.015558146871626377, -0.017326975241303444, -0.0013088756240904331, 0.07915172725915909, -0.020953038707375526, -0.11102750152349472, 0.06424310058355331, -0.05094504356384277, 0.04263179376721382, 0.0031560095958411694, -0.030290639027953148, -0.06967099756002426, -0.05345235392451286, -0.018830720335245132, 0.07769369333982468, -0.028637735173106194, 0.015714172273874283, -0.0272782314568758, 0.0616934634745121, -0.05281268060207367, -0.06380551308393478, -0.019309967756271362, -0.02051013708114624, -0.031220022588968277, -0.07610456645488739, -0.060599882155656815, -0.06788907200098038, -0.025873206555843353, -0.005020596086978912, -0.02232915535569191, -0.06489939242601395], [0.0046826256439089775, -0.07091808319091797, -0.04373221471905708, -0.03714485839009285, -0.06965982168912888, 0.030091412365436554, 0.001991509459912777, -0.07939114421606064, -0.07580302655696869, -0.10305588692426682, -0.053056713193655014, -0.018592335283756256, 0.0022039306350052357, -0.038484204560518265, 0.04098135605454445, -0.04658498615026474, 0.03158820793032646, -0.029302701354026794, -0.020695578306913376, 