{"conv1.lin_l.weight": [[-0.10092034190893173, -0.074081189930439, -0.054879553616046906, 0.20567989349365234, -0.08361348509788513, 0.007065790705382824, 0.06905806064605713, -0.003182073123753071, -0.013837774284183979, -0.05329132452607155, 0.0177600160241127, 0.056047555059194565, -0.0675976574420929, -0.0166056826710701, 0.1780918836593628, 0.15300004184246063, -0.028766093775629997, -0.030423693358898163, 0.14964917302131653, 0.07818248867988586, 0.14921332895755768, 0.06947419792413712, 0.09510423243045807, -0.012416304089128971, -0.16404779255390167, -0.07982313632965088, 0.18552979826927185, 0.06624996662139893, -0.08494485914707184, -0.04322842136025429, 0.13659560680389404, 0.14756463468074799, -0.013085528276860714, -0.02083943411707878, -0.08321244269609451, 0.15864911675453186, -0.05921221897006035, -0.028914501890540123, 0.014063846319913864, -0.10759779810905457, 0.07985266298055649, 0.0574408657848835, -0.08317380398511887, -0.10328084230422974, -0.12684638798236847, -0.04123394191265106, -0.05100506171584129, 0.06206732243299484, -0.13010121881961823, 0.056473422795534134, -0.05172186344861984, 0.09600607305765152, -0.07475890964269638, -0.12026194483041763, -0.050814758986234665, -0.11864783614873886, -0.05337155982851982, -0.1342438906431198, -0.058459311723709106, -0.09705749154090881, 0.11654536426067352, 0.10718223452568054, 0.12021417915821075, -0.12091250717639923, 0.0764826238155365, -0.1595904529094696, -0.09095235168933868, -0.11639993637800217, 0.0524996854364872, -0.11628961563110352, -0.03831962123513222, -0.04269895330071449, -0.04560054838657379, 0.03766447305679321, -0.04998796805739403, -0.15477542579174042, -0.026755768805742264, -0.1559676229953766, -0.04559529200196266, -0.07358665764331818, 0.14220736920833588, 0.17129285633563995, 0.036225106567144394, -0.05674789845943451, 0.18662938475608826, 0.11760681867599487, 0.2110823690891266, 0.044499389827251434, -0.023048758506774902, -0.18456315994262695, 0.02065686136484146, -0.0701097846031189, -0.03199204429984093, -0.05163860693573952, -0.03112201578915119, -0.10328879207372665, -0.1078648492693901, -0.005742943845689297, -0.02003900520503521, 0.0009871855145320296, 0.07103580236434937, 0.11259885877370834, -0.04813602566719055, -0.04211007058620453, -0.08860769867897034, 0.03542650118470192, 0.05869737267494202, -0.043298665434122086, -0.033480387181043625, -0.08558240532875061, -0.07875525206327438, 0.09978768229484558, 0.09975693374872208, 0.04194130748510361, -0.024073462933301926, 0.04229478910565376, -0.08968677371740341, -0.020161764696240425, -0.10431456565856934, 0.1517433077096939, -0.03927525505423546, -0.11402761936187744, -0.011119045317173004, 0.05921300873160362, 0.06743801385164261, -0.00956675410270691, -0.14593225717544556, 0.13691136240959167], [-0.09079084545373917, -0.08169011026620865, -0.10646305233240128, 0.14569994807243347, -0.08178969472646713, -0.024004768580198288, 0.06287606805562973, 0.01662272959947586, -0.003958533052355051, -0.018176956102252007, -0.034697726368904114, 0.02343634143471718, 0.0612618550658226, -0.11969872564077377, 0.04013057425618172, 0.03185528889298439, -0.018091438338160515, -0.02389366552233696, 0.11984147131443024, 0.15355831384658813, 0.0668683648109436, 0.10233152657747269, 0.04358142986893654, 0.0652243122458458, -0.11592437326908112, -0.01654154807329178, 0.12437371164560318, 0.09051690995693207, 0.0009411540231667459, 0.04208333045244217, 0.11478841304779053, 0.07151564955711365, -0.088350810110569, 0.02599969319999218, -0.11433671414852142, 0.1727348119020462, -0.060517821460962296, 0.02200930565595627, 0.03798673674464226, -0.08864374458789825, 0.06372877210378647, 0.06943231076002121, -0.028101863339543343, -0.1106102392077446, -0.07917075604200363, -0.09799598902463913, 0.023757029324769974, 0.15453094244003296, -0.11278611421585083, 0.09169559180736542, -0.017759116366505623, 0.11343922466039658, 0.02710159495472908, -0.09334062784910202, -0.04293357580900192, -0.024988969787955284, 0.02478644624352455, -0.0712648555636406, -0.035457730293273926, -0.048743173480033875, 0.0643865093588829, 0.11439672857522964, 0.08157748728990555, -0.06200043857097626, 0.010288942605257034, -0.09442247450351715, -0.05246314778923988, -0.07378440350294113, 0.1049162819981575, -0.04371074214577675, -0.006609340663999319, 0.006032138131558895, -0.04497535526752472, 0.04622223973274231, -0.028580693528056145, -0.021121708676218987, -0.05396002158522606, -0.1133478581905365, -0.02821260690689087, -0.03902776911854744, 0.15086331963539124, 0.02820776030421257, 0.0642932578921318, -0.09613719582557678, 0.003249097615480423, 0.05345432832837105, 0.1477491706609726, 0.08849278092384338, -0.07144774496555328, -0.055474281311035156, -0.0354912169277668, -0.027303801849484444, -0.12298226356506348, 0.016264785081148148, -0.021161969751119614, -0.16343572735786438, -0.04262371361255646, -0.0021201528143137693, 0.04062095284461975, 0.002605605171993375, 0.02316056191921234, 0.07248171418905258, 0.009805895388126373, -0.01860126294195652, -0.06864562630653381, 0.11449990421533585, 0.12443174421787262, -0.03131762519478798, -0.005761812441051006, -0.07583917677402496, -0.03911934792995453, 0.06139908730983734, 0.12731802463531494, 0.10706404596567154, -0.042701222002506256, 0.04596750810742378, -0.08727015554904938, -0.016580617055296898, -0.02379758469760418, 0.10326776653528214, -0.08968845009803772, -0.05572911724448204, -0.013556628488004208, 0.09854400157928467, -0.01688111573457718, -0.028259996324777603, -0.056229352951049805, -0.01333039440214634], [-0.11434602737426758, -0.004927801433950663, -0.05707257613539696, 0.01824864000082016, 0.031235957518219948, 0.00683743366971612, 0.11488750576972961, -0.024423884227871895, -0.030454382300376892, -0.023534685373306274, -0.10120704025030136, -0.0295140091329813, 0.014518857933580875, -0.12294747680425644, -0.014644958078861237, 0.027488581836223602, -0.11142583191394806, -0.02781238779425621, 0.07858996093273163, 0.13984625041484833, 0.0041195424273610115, 0.07033456861972809, 0.01505540031939745, 0.019344985485076904, -0.0706796646118164, -0.07283146679401398, 0.13272371888160706, 0.12810400128364563, -0.11672502756118774, 0.15558819472789764, 0.12150098383426666, 0.0318722277879715, -0.029974527657032013, 0.013355321250855923, -0.014907126314938068, -0.10019643604755402, -0.02626042813062668, -0.07281473278999329, -0.06726564466953278, -0.057660944759845734, 0.08563888818025589, 0.19354015588760376, -0.07555973529815674, -0.06192243471741676, -0.13469618558883667, 0.0012934388360008597, -0.0028515448793768883, 0.1334766298532486, -0.098152756690979, 0.10475733876228333, -0.04409737139940262, 0.13040003180503845, -0.10728460550308228, -0.11720689386129379, -0.10548308491706848, -0.06573937088251114, 0.01254433672875166, -0.0061957654543221, 0.013923190534114838, 0.004787409212440252, -0.007404075935482979, 0.07508928328752518, -0.07029085606336594, -0.06848325580358505, 0.1213095486164093, -0.10076640546321869, -0.10037681460380554, -0.11670951545238495, -0.05257895216345787, -0.10007212311029434, -0.002387627260759473, 0.009436017833650112, -0.003231523558497429, -0.12132801860570908, 0.011372390203177929, 0.0006258277571760118, -0.044643864035606384, -0.046298492699861526, -0.035038162022829056, -0.0832887589931488, 0.01202555000782013, 0.0011936378432437778, 0.05538107454776764, -0.030764440074563026, 0.10019481927156448, 0.05956466868519783, 0.004212797619402409, -0.0699315071105957, -0.12374603003263474, -0.08865319937467575, -0.07376841455698013, -0.03930387645959854, -0.17943085730075836, 0.019124671816825867, -0.0018154907738789916, -0.05204983055591583, -0.03454000502824783, 0.001288001541979611, 0.01567685976624489, -0.07272861897945404, 0.03302372992038727, 0.10866271704435349, -0.0416162945330143, -0.04807600751519203, -0.04915677383542061, 0.029809562489390373, -0.003397162538021803, 0.0026181377470493317, -0.056018903851509094, 0.006479049567133188, -0.027095187455415726, 0.0037728245370090008, -0.034826409071683884, -0.012706182897090912, -0.036188311874866486, 0.07671461999416351, -0.05570443719625473, -0.024467309936881065, -0.09295759350061417, 0.09816965460777283, -0.1039092093706131, -0.07981494814157486, -0.05981900170445442, 0.13568128645420074, -0.013521967455744743, -0.051381368190050125, -0.07399127632379532, -0.1017354428768158], [-0.12469411641359329, -0.11804131418466568, -0.040187086910009384, 0.07408951222896576, -0.06581945717334747, -0.12187110632658005, 0.05468490347266197, -0.06870288401842117, -0.08038879185914993, -0.008697133511304855, -0.08399588614702225, -0.04095407947897911, 0.09386922419071198, -0.040343187749385834, 0.0774817019701004, 0.1269959807395935, -0.052284710109233856, -0.16048109531402588, 0.059357672929763794, 0.03627467527985573, 0.11685233563184738, 0.07095251977443695, 0.058095596730709076, -0.10877207666635513, -0.11880889534950256, 0.001157169695943594, 0.05580975487828255, 0.06703449785709381, 0.014244139194488525, 0.031853850930929184, 0.033535171300172806, 0.1097283735871315, -0.06095317751169205, 0.0016336797270923853, -0.08056057244539261, 0.03788583725690842, -0.02579227089881897, -0.00785933155566454, -0.09400442987680435, -0.10386557132005692, -0.011996705085039139, 0.09588205069303513, -0.016261158511042595, -0.14338545501232147, -0.01928585022687912, -0.015691645443439484, -0.09917174279689789, 0.07922158390283585, -0.09845956414937973, 0.07370337098836899, -0.10300885140895844, 0.11118077486753464, -0.0532904714345932, -0.07445491850376129, 0.021217502653598785, -0.0765107125043869, -0.002575585385784507, -0.0504281260073185, -0.04035520181059837, -0.06506948173046112, 0.08030571788549423, 0.006948794703930616, -0.026264633983373642, -0.07470139861106873, 0.10474476218223572, -0.10861730575561523, -0.10876157879829407, -0.13441400229930878, -0.010144253261387348, -0.0017499160021543503, -0.007874424569308758, -0.029709896072745323, -0.039522260427474976, -0.023942556232213974, -0.004339409060776234, -9.16089047677815e-05, -0.03544231504201889, -0.046229392290115356, 0.08669537305831909, 0.0006905265036039054, 0.10865045338869095, 0.09877782315015793, 0.09018980711698532, -0.03216654807329178, 0.01820787414908409, 0.12802527844905853, 0.0293163750320673, 0.08430691063404083, -0.06037387251853943, -0.16590702533721924, -0.03652676194906235, -0.07608192414045334, -0.053443726152181625, -0.07581164687871933, -0.02869655378162861, -0.05017630010843277, -0.04194919019937515, -0.07384150475263596, -0.06743114441633224, -0.045783184468746185, 0.06822611391544342, 0.10940852016210556, -0.11121262609958649, -0.07866781204938889, -0.03950008004903793, 0.13216842710971832, 0.1451343595981598, -0.040430933237075806, -0.051109135150909424, -0.05742107704281807, -0.12320464104413986, 0.061894431710243225, 0.0662897527217865, -0.059757523238658905, -0.009442555718123913, 0.05628662183880806, -0.12705950438976288, -0.09216949343681335, -0.03297928348183632, 0.01865728199481964, -0.018336717039346695, -0.13879692554473877, -0.05175973102450371, 0.11840536445379257, -0.09060630202293396, 0.021933922544121742, -0.16560468077659607, -0.04762909933924675], [-0.07095614075660706, -0.05326983332633972, -0.09417443722486496, 0.17278501391410828, -0.037235818803310394, -0.10178069025278091, 0.14214755594730377, -0.06928575783967972, -0.05676582455635071, -0.04044047370553017, 0.052213121205568314, -0.011467174626886845, 0.1816866546869278, -0.05594963952898979, 0.13025063276290894, 0.11574330180883408, -0.048797689378261566, -0.10315007716417313, 0.07199188321828842, 0.08997547626495361, 0.1911177635192871, 0.04173450917005539, 0.010147428140044212, 0.011894536204636097, -0.035861749202013016, -0.02550770342350006, 0.044860243797302246, 0.09014653414487839, 0.04323716089129448, 0.04775633290410042, 0.12335149943828583, 0.05235816538333893, -0.10033319145441055, -0.0443064421415329, -0.16502146422863007, 0.07001017034053802, 0.030407993122935295, 0.04994545504450798, 0.08796665072441101, -0.06586582213640213, 0.018204139545559883, 0.09493705630302429, -0.07581089437007904, -0.07877421379089355, -0.09170333296060562, -0.13123910129070282, 0.05236714333295822, 0.16172227263450623, -0.1714700311422348, 0.08318503946065903, 0.0215819850564003, 0.06510630995035172, 0.07245910167694092, -0.10898099839687347, 0.013822254724800587, -0.08223090320825577, -0.012913182377815247, 0.009825946763157845, -0.1256069391965866, -0.014754015952348709, 0.08742222934961319, 0.06937646865844727, 0.09733512997627258, -0.018597062677145004, 0.08124200999736786, -0.054694510996341705, -0.025178126990795135, -0.027891583740711212, 0.05485314875841141, -0.03975493088364601, -0.022063452750444412, -0.09677928686141968, -0.07373405992984772, 0.09619231522083282, -0.0544135645031929, -0.041126906871795654, -0.08369354158639908, -0.04682322219014168, -0.1188865527510643, -0.06295828521251678, 0.050806380808353424, 0.23450399935245514, 0.0938933715224266, -0.08501124382019043, 0.097132109105587, 0.015831107273697853, 0.112233005464077, -0.004709402099251747, -0.07889078557491302, -0.0762762501835823, -0.10381616652011871, -0.04587424173951149, -0.05948355421423912, 0.01339669432491064, -0.020852534100413322, -0.09727255254983902, 0.08167125284671783, -0.062210824340581894, 0.03574666753411293, 0.008037894032895565, 0.04261206462979317, 0.0494781918823719, -0.0009893749374896288, -0.01652514934539795, -0.04183867946267128, 0.06874444335699081, 0.1840321272611618, 0.004020602907985449, -0.09405753761529922, -0.042477380484342575, -0.1153169795870781, 0.1326967179775238, 0.05657174065709114, 0.052515558898448944, -0.05045183375477791, 0.008916824124753475, -0.17295345664024353, -0.08333760499954224, -0.004681217949837446, 0.16004678606987, -0.12018033117055893, -0.00823936052620411, -0.10187765210866928, 0.1045851781964302, 0.06016482412815094, 0.02351580746471882, -0.10601343214511871, 0.00901721976697445], [-0.11546008288860321, -0.06040326878428459, -0.10461215674877167, 0.053539469838142395, 0.016738392412662506, 0.015271416865289211, 0.11475109308958054, -0.017188431695103645, 0.03879384323954582, 0.013690955005586147, 0.01721077971160412, 0.05962510406970978, -0.05800316110253334, -0.0817352756857872, 0.10267039388418198, 0.096834696829319, 0.01756906881928444, -0.06135889142751694, 0.07580813020467758, 0.0952935442328453, -0.01899060606956482, 0.06032557040452957, 0.13301420211791992, 0.06651522219181061, 0.0016118641942739487, 0.0009326369035989046, 0.1251164823770523, 0.10011126101016998, -0.06370897591114044, 0.04422907531261444, 0.024908095598220825, -0.03981371223926544, -0.026377888396382332, 0.06155538931488991, 0.0008541902061551809, -0.12477338314056396, -0.05424346774816513, -0.0550176277756691, 0.04011424630880356, -0.054927337914705276, -0.042603280395269394, 0.043571799993515015, -0.04448269307613373, -0.09709970653057098, -0.026124773547053337, -0.02753039263188839, 0.04885311797261238, 0.1185220330953598, -0.13174046576023102, 0.07537806034088135, -0.024104023352265358, -0.03029274195432663, -0.08589547127485275, -0.04504803940653801, 0.013153431937098503, -0.031525835394859314, 0.21358658373355865, -0.009326472878456116, -0.1173248365521431, 0.004073071293532848, 0.10243464261293411, 0.09984524548053741, 0.03836728632450104, 0.0015783074777573347, 0.052890680730342865, -0.057052623480558395, -0.07048657536506653, -0.0642172172665596, 0.15297554433345795, -0.0775918960571289, -0.0031260852701961994, -0.034249868243932724, -0.056003738194704056, -0.021921755746006966, -0.0645504742860794, 0.2159070372581482, 0.09156616777181625, 0.04700437933206558, -0.2140064388513565, -0.10071713477373123, 0.06308641284704208, -0.05243467912077904, 0.051458001136779785, -0.06708802282810211, -0.044994283467531204, 0.03141069412231445, 0.06504278630018234, 0.014048038050532341, -0.05123480036854744, -0.08805759251117706, -0.10000645369291306, 0.013664820231497288, -0.13893534243106842, -0.08826296776533127, -0.041252244263887405, -0.09324616193771362, -0.03836974501609802, 0.022136781364679337, 0.06979643553495407, -0.01845294050872326, -0.03892156854271889, 0.042205534875392914, -0.06800448149442673, 0.025556908920407295, 0.022218545898795128, -0.0046698651276528835, 0.06198282539844513, 0.08816490322351456, -0.038502126932144165, -0.054336242377758026, 0.02802913822233677, 0.07939428091049194, 0.0528988353908062, 0.03674236312508583, 0.08419113606214523, -0.012793086469173431, -0.0370950847864151, -0.045976437628269196, 0.033544205129146576, -0.05162455514073372, -0.0686124861240387, -0.031028322875499725, -0.08176659792661667, 0.07921261340379715, -0.08418021351099014, -0.1129397377371788, -0.10298275947570801, -0.039313897490501404], [-0.11265045404434204, -0.002312910743057728, -0.05908571928739548, 0.04412076622247696, 0.07448256015777588, -0.040182311087846756, 0.038701996207237244, -0.07178187370300293, -0.045794032514095306, 0.004745005164295435, -0.02851867489516735, -0.087613046169281, -0.03698877990245819, -0.07752935588359833, 0.1179228201508522, 0.06295206397771835, -0.023200727999210358, -0.1467590630054474, 0.0664278119802475, 0.026519209146499634, 0.01759437657892704, 0.12277819961309433, -0.009274465031921864, -0.115395188331604, -0.08147946000099182, -0.1039416640996933, 0.1341240406036377, 0.05737200751900673, -0.12931253015995026, 0.1075122281908989, 0.03344709426164627, 0.014012235216796398, -0.05215604975819588, -0.07646995782852173, -0.026233792304992676, -0.010645379312336445, -0.03063405118882656, -0.019979944452643394, -0.04734434559941292, -0.049923282116651535, 0.09306974709033966, -0.022706156596541405, -0.13276171684265137, -0.03211351856589317, -0.02933824621140957, -0.06893403828144073, -0.04020009934902191, 0.03039662539958954, -0.1476554572582245, 0.09731761366128922, -0.09650056064128876, -0.002155188238248229, -0.10625540465116501, -0.0529983751475811, -0.07714466005563736, 0.0026905806735157967, -0.011010916903614998, -0.13693341612815857, -0.018542299047112465, -0.0824967473745346, 0.05795370414853096, 0.016499893739819527, -0.11514880508184433, -0.09955702722072601, 0.08388461172580719, -0.11083528399467468, -0.010230446234345436, -0.14774109423160553, -0.025434158742427826, -0.06363754719495773, -0.08197744935750961, -0.01924678310751915, 0.008576524443924427, -0.08245182037353516, -0.12293623387813568, -0.05747092515230179, 0.017691953107714653, -0.10017465800046921, 0.11742521077394485, 0.01791742630302906, 0.09939897060394287, 0.08307411521673203, 0.09102238714694977, -0.011016983538866043, 0.13981227576732635, 0.11741102486848831, 0.1307898461818695, 0.01082164142280817, -0.08552410453557968, -0.025727853178977966, -0.03973492234945297, -0.0583706833422184, -0.06462205201387405, -0.06292809545993805, -0.04355783015489578, -0.09288522601127625, 0.00025433776318095624, -0.024557895958423615, 0.010566352866590023, -0.035780686885118484, 0.039939284324645996, 0.031059950590133667, -0.022343242540955544, -0.06233931705355644, -0.1107020303606987, 0.14802439510822296, 0.02838779054582119, -0.11011763662099838, -0.017174450680613518, -0.03653128817677498, -0.13021138310432434, 0.03922946751117706, -0.00843563862144947, -0.10695172101259232, -0.010245219804346561, 0.024602901190519333, -0.04909052327275276, -0.13048115372657776, -0.0637236014008522, 0.06819294393062592, -0.030407560989260674, -0.06081228330731392, -0.14208585023880005, 0.03970269486308098, -0.062401723116636276, -0.09506204724311829, -0.04282062128186226, -0.10636422783136368], [-0.10514448583126068, -0.051068734377622604, -0.15126430988311768, 0.17061495780944824, -0.008245477452874184, -0.11204736679792404, 0.14209118485450745, -0.02108406275510788, -0.04193068668246269, -0.12334572523832321, 0.005025962367653847, 0.024222031235694885, 0.019116351380944252, -0.06588637828826904, 0.1598348617553711, 0.07077555358409882, -0.062045201659202576, -0.07464665919542313, 0.07667140662670135, 0.11055731028318405, 0.055439434945583344, 0.0556030347943306, 0.0741591602563858, 0.11001549661159515, -0.04246073216199875, -0.10013062506914139, 0.1525372713804245, 0.08268123865127563, 0.061522141098976135, -0.006070203613489866, 0.2007056176662445, 0.05476021766662598, -0.1414034068584442, -0.002601632382720709, -0.13282975554466248, 0.11596521735191345, -0.03970161825418472, 0.08622554689645767, 0.047271691262722015, -0.07265204191207886, 0.09407886862754822, 0.044367678463459015, -0.0917823314666748, -0.06582888215780258, -0.07923096418380737, -0.11773169785737991, 0.058285459876060486, 0.19418646395206451, -0.24875964224338531, 0.0495227612555027, 0.01647905260324478, 0.0347750224173069, 0.06874878704547882, -0.07497601956129074, -0.028482720255851746, -0.09551271796226501, 0.09013383835554123, -0.06764216721057892, -0.07906176894903183, -0.05741327255964279, 0.04014185070991516, 0.09069380909204483, 0.08575408160686493, -0.07416655868291855, 0.06804724037647247, -0.15057578682899475, -0.030544046312570572, -0.03591204807162285, 0.06660629063844681, -0.05956365913152695, -0.040745772421360016, 0.020778032019734383, 0.010484217666089535, 0.006381581537425518, -0.03217163681983948, -0.04880576953291893, -0.017484275624155998, -0.07751874625682831, -0.10719363391399384, -0.046798985451459885, 0.07474616169929504, 0.03894752264022827, 0.10767041891813278, -0.015496126376092434, 0.11671357601881027, 0.10734143108129501, 0.1690133661031723, 0.05099128186702728, 0.013187501579523087, -0.03134201467037201, -0.0917702168226242, -0.05757497251033783, -0.09212952852249146, -0.09170664101839066, -0.07403682172298431, -0.12140342593193054, -0.020447760820388794, 0.02596919611096382, 0.03116537071764469, 0.06831004470586777, 0.06489823013544083, 0.086167111992836, -0.039046116173267365, -0.0351744219660759, -0.018301134929060936, 0.15418507158756256, 0.07991363108158112, -0.030606988817453384, -0.004430705681443214, -0.013737890869379044, -0.09202660620212555, 0.10969117283821106, 0.14589504897594452, 0.015518322587013245, 0.028288474306464195, 0.11393541097640991, -0.09874965250492096, -0.07032155990600586, -0.06448428332805634, 0.08637229353189468, -0.09344828873872757, -0.051360003650188446, -0.10528675466775894, 0.12303439527750015, 0.058275073766708374, -0.03631433844566345, -0.06619182229042053, 0.029771607369184494], [-0.08967289328575134, -0.09834443032741547, -0.15379853546619415, 0.19124256074428558, -0.0704462006688118, -0.07290339469909668, 0.127443328499794, -0.0282245185226202, 0.00497810635715723, -0.0896463394165039, -0.016219941899180412, 0.05735825002193451, 0.050749536603689194, -0.039516642689704895, 0.0984567254781723, 0.128089040517807, -0.014505053870379925, -0.14196506142616272, 0.06659097224473953, 0.11900980770587921, 0.026564447209239006, 0.03241811692714691, 0.015236681327223778, 0.06277243047952652, -0.07982279360294342, -0.046824391931295395, 0.11906023323535919, 0.09609983116388321, 0.02953445166349411, 0.010550380684435368, 0.10313530266284943, 0.108164481818676, -0.05328381806612015, -0.03673289716243744, -0.1952216923236847, 0.06306853890419006, -0.05226518213748932, 0.045559097081422806, -3.1603965908288956e-05, -0.14603224396705627, -0.022543959319591522, 0.052196700125932693, -0.0509687177836895, -0.09743662923574448, -0.15125469863414764, -0.04301277920603752, -0.023945901542901993, 0.09918951243162155, -0.18121376633644104, 0.11480440199375153, -0.0014713380951434374, 0.17247849702835083, 0.0782352015376091, -0.1448032706975937, -0.025089556351304054, -0.11999671906232834, 0.014280703850090504, -0.06660729646682739, -0.08368856459856033, -0.027998048812150955, 0.09828922152519226, 0.18127377331256866, 0.14225943386554718, -0.08687648177146912, 0.04379000514745712, -0.0692915990948677, -0.0027771603781729937, -0.07304306328296661, -0.0040357415564358234, -0.036877792328596115, -0.03916965797543526, -0.07136808335781097, -0.027549350634217262, 0.040374644100666046, -0.1444792002439499, -0.04859376698732376, -0.03654637560248375, -0.05623016506433487, -0.03825366497039795, -0.04809270799160004, 0.14941878616809845, 0.1815410554409027, 0.04785075783729553, -0.03691747039556503, 0.07194972038269043, 0.008903637528419495, 0.07346780598163605, 0.08513922244310379, -0.04987916350364685, -0.14881403744220734, -0.13514703512191772, -0.05978022515773773, -0.05668076500296593, -0.02276124432682991, -0.03990457206964493, -0.05235644802451134, 1.4103308785706758e-05, -0.029917167499661446, 0.045014187693595886, -0.010101922787725925, 0.04018189758062363, 0.03871266171336174, 0.08209939301013947, -0.004807580728083849, -0.027559544891119003, 0.06755052506923676, 0.033992208540439606, -0.04843150079250336, -0.05735955759882927, -0.05690702795982361, -0.1813165247440338, 0.14527148008346558, 0.1790163516998291, 0.03331593796610832, -0.05379278585314751, 0.04033529385924339, -0.15807321667671204, -0.023093504831194878, -0.09326998144388199, 0.1784408986568451, -0.10372409224510193, -0.055266812443733215, -0.16190902888774872, 0.039771560579538345, 0.08502165973186493, 0.08115207403898239, -0.11111273616552353, 0.06935930997133255], [-0.09141261130571365, -0.1330585479736328, -0.039732445031404495, -0.0004637610982172191, 0.1063535287976265, -0.12490080296993256, 0.014727610163390636, -0.08301584422588348, -0.18239183723926544, -0.004474781919270754, 0.018379436805844307, -0.04458749294281006, 0.09904003888368607, 0.026585351675748825, 0.04358147084712982, 0.10135526955127716, -0.11347971111536026, -0.12824364006519318, 0.031165525317192078, 0.03835261985659599, 0.05045634135603905, 0.1551167368888855, 0.015014959499239922, -0.1256139576435089, -0.0247147586196661, 0.023988990113139153, 0.09693943709135056, 0.061225369572639465, -0.06798757612705231, 0.354955792427063, -0.03757525235414505, 0.055369455367326736, -0.12821316719055176, -0.05040621757507324, -0.03892526030540466, -0.17664194107055664, 0.0104508176445961, -0.0194901991635561, -0.117311030626297, -0.08700474351644516, -0.006007365882396698, 0.06279202550649643, -0.014513549394905567, -0.08561629056930542, -0.019994162023067474, -0.03954731673002243, 0.03972422331571579, 0.08029299229383469, -0.05296175554394722, 0.10548959672451019, -0.08351466059684753, 0.073943130671978, -0.09668576717376709, -0.09013451635837555, -0.09949875622987747, -0.07036130130290985, -0.05717124417424202, 0.13198032975196838, -0.002320336177945137, -0.0013328315690159798, 0.026193976402282715, 0.11385839432477951, -0.12133309990167618, -0.1357588917016983, -0.013785865157842636, -0.025107838213443756, -0.15381784737110138, -0.03372805193066597, -0.015975890681147575, 0.008171869441866875, -0.10191687196493149, 0.036125268787145615, 0.07216499000787735, -0.131085604429245, -0.05244244635105133, 0.13624557852745056, 0.06197482347488403, 0.046102654188871384, -0.14393970370292664, 0.03707703948020935, 0.05521048605442047, -0.022624148055911064, -0.039850421249866486, 0.006502948701381683, 0.022082429379224777, 0.11320392042398453, 0.003875731024891138, -0.19282934069633484, -0.0018251208821311593, -0.072565458714962, -0.015321888029575348, -0.0810626745223999, -0.16516585648059845, 0.011987670324742794, -0.11009461432695389, -0.11834121495485306, 0.005669266916811466, 0.001365534495562315, -0.1378175914287567, -0.1182582825422287, 0.06337793916463852, -0.015897423028945923, -0.10233649611473083, 0.028721127659082413, -0.030232612043619156, -0.06993173807859421, -0.04759298264980316, -0.020044945180416107, 0.009712929837405682, -0.009103446267545223, 0.018992964178323746, 0.10846702754497528, -0.030486328527331352, -0.02002803049981594, 0.07726281136274338, 0.049406908452510834, -0.08462817966938019, 0.014553333632647991, -0.02508949674665928, 0.07550670951604843, -0.002122472273185849, -0.025870289653539658, -0.06427860260009766, -0.03364105522632599, 0.05480917915701866, -0.17352837324142456, -0.14637503027915955, -0.003804053645581007], [-0.06121388077735901, -0.09072291851043701, -0.0353221669793129, 0.01719660311937332, -0.08646943420171738, -0.06829988956451416, -0.013322819024324417, -0.017743268981575966, -0.03507153317332268, -0.06431348621845245, -0.08606795221567154, -0.03317822143435478, 0.022938398644328117, -0.07302480190992355, 0.026436697691679, 0.025588084012269974, 0.00840366818010807, -0.05496899411082268, 0.17342153191566467, 0.03322327882051468, 0.027763208374381065, -0.01952478662133217, 0.12178653478622437, -0.02158760279417038, -0.11824360489845276, -0.01244547963142395, 0.06361882388591766, 0.06255126744508743, -0.05367230251431465, 0.06891036033630371, 0.039228055626153946, 0.03974050655961037, -0.1259821355342865, -0.09015483409166336, -0.0900970920920372, -0.03679060935974121, -0.11263705044984818, -0.128495454788208, -0.028026774525642395, -0.11328616738319397, -0.0007717700209468603, 0.058114733546972275, 0.03716396540403366, -0.024937530979514122, -0.04830855876207352, -0.08603169769048691, -0.039329368621110916, 0.13481420278549194, -0.11032061278820038, 0.11164657771587372, -0.0756169855594635, 0.0660277009010315, -0.01727934740483761, 0.019054854288697243, -0.018044650554656982, -0.03909575939178467, -0.019688621163368225, -0.019209159538149834, -0.049018241465091705, -0.1293322592973709, 0.1282292753458023, 0.12542912364006042, -0.0760054662823677, -0.06378304958343506, 0.008938591927289963, -0.0651746541261673, -0.029063288122415543, -0.14139585196971893, -0.02441944181919098, -0.04204269498586655, -0.07062661647796631, -0.03144149109721184, 0.015820849686861038, -0.05288993567228317, -0.016012968495488167, -0.13617654144763947, -0.13420221209526062, 0.02331709675490856, 0.003494624514132738, -0.06053686514496803, -0.0009551626280881464, 0.09346617758274078, 0.021894728764891624, 0.004846121184527874, 0.12317346781492233, 0.07083100080490112, 0.07779274880886078, -0.08254494518041611, -0.1215340718626976, -0.01401289738714695, 0.09931875020265579, -0.06762261688709259, -0.024490028619766235, -0.059461940079927444, -0.08073067665100098, -0.06301093846559525, 0.061681751161813736, -0.08429502695798874, -0.10258571803569794, -0.1046801432967186, 0.02851266972720623, 0.027527203783392906, -0.09114211797714233, 0.016202175989747047, -0.03879076614975929, 0.07293056696653366, 0.17040205001831055, -0.02889973297715187, -0.13171526789665222, 0.029513346031308174, -0.08389193564653397, 0.005355238448828459, 0.00140989082865417, 0.0008212246466428041, -0.007723625283688307, 0.05082464590668678, -0.008729460649192333, -0.11711037158966064, -0.10761277377605438, 0.11156526952981949, -0.09514573216438293, -0.0008427209686487913, 0.01484202966094017, 0.09476133435964584, 0.19051691889762878, 0.012111739255487919, -0.131642684340477, 0.13423921167850494], [-0.13983505964279175, -0.07890024781227112, -0.07518328726291656, 0.10378075391054153, -0.0687233954668045, -0.02588692307472229, -0.014013017527759075, -0.02550364099442959, -0.058088626712560654, -0.11796761304140091, -0.11901036649942398, 0.09091456234455109, 0.08335718512535095, -0.03193915635347366, 0.05845941603183746, 0.06917666643857956, -0.08750550448894501, -0.016606342047452927, 0.07839801162481308, 0.04914982616901398, 0.05644484981894493, 0.08723647147417068, 0.0710480734705925, -0.10574918240308762, 0.008250745944678783, -0.0167841799557209, 0.05776876211166382, 0.09397018700838089, -0.01663457788527012, 0.04521241784095764, 0.14133572578430176, 0.016123179346323013, -0.14193306863307953, -0.11189989000558853, -0.11166118085384369, 0.022876610979437828, 0.028379706665873528, 0.03497706726193428, 0.01753203012049198, -0.09147367626428604, -0.013296890072524548, 0.07883024215698242, -0.10864841192960739, -0.13227027654647827, -0.062594473361969, -0.11793763190507889, -0.09104757010936737, 0.11568621546030045, -0.1251181960105896, 0.10854192078113556, 0.1838829517364502, 0.13708393275737762, -0.11268830299377441, -0.13243460655212402, -0.08029334992170334, -0.0036111539229750633, 0.031394682824611664, -0.07867708057165146, -0.05018782243132591, -0.07071664184331894, 0.04248460754752159, -0.004430043511092663, 0.07242242991924286, 0.026612399145960808, 0.03493257239460945, -0.061085816472768784, -0.050998080521821976, -0.05803142488002777, -0.016092704609036446, -0.11574413627386093, 0.028218938037753105, 0.03445931524038315, 0.016492510214447975, 0.03132828697562218, -0.08595052361488342, -0.022584551945328712, -0.04173542559146881, -0.03822147473692894, 0.026257382705807686, -0.017356958240270615, 0.006841740570962429, 0.03654259070754051, 0.08988183736801147, -0.08277163654565811, 0.11531595140695572, 0.08594289422035217, 0.11743640899658203, -0.032331377267837524, 0.012585249729454517, -0.1285274624824524, -0.09096182882785797, -0.033222902566194534, -0.1148073822259903, -0.08913420140743256, -0.1116066575050354, -0.10238898545503616, -0.04597499221563339, -0.02568875439465046, -0.1293368935585022, 0.022319797426462173, -0.005224644672125578, 0.11817598342895508, -0.0599643811583519, -0.062406595796346664, -0.016604559496045113, 0.013539519160985947, 0.08187506347894669, 0.0031869951635599136, -0.01239786110818386, -0.0559079572558403, -0.15167507529258728, 0.11297479271888733, 0.028102222830057144, 0.034146055579185486, -0.0005316223250702024, 0.12022165209054947, -0.06817710399627686, -0.0686480775475502, 0.11752674728631973, 0.052340034395456314, -0.09222710132598877, -0.07185205817222595, 0.016605667769908905, 0.042144253849983215, 0.05440082028508186, -0.05199623480439186, -0.1494477391242981, -0.020562298595905304], [-0.06978362053632736, -0.01629539392888546, -0.06890609860420227, 0.12386344373226166, -0.07270579040050507, 0.024441730231046677, 0.057987384498119354, -0.017600545659661293, 0.014696055091917515, -0.1435401737689972, 0.025793548673391342, -0.0600232370197773, 0.03034198470413685, -0.11158501356840134, -0.026615647599101067, 0.07145534455776215, -0.0141596719622612, -0.0025322812143713236, 0.08394347876310349, -0.015626292675733566, 0.09334805607795715, 0.10239333659410477, 0.013790681026875973, -0.02848922833800316, -0.005499151535332203, -0.003200389677658677, 0.12723872065544128, 0.1270560920238495, -0.108465276658535, 0.044745251536369324, 0.0021177588496357203, 0.14038141071796417, -0.04830724000930786, -0.1023663729429245, -0.12032870203256607, -0.00021112675312906504, -0.12262212485074997, -0.03977319970726967, -0.011348097585141659, -0.05982539430260658, 0.08396369218826294, -0.0025137905031442642, -0.01954980194568634, -0.1338815838098526, -0.07900310307741165, -0.011526447720825672, 0.00744481198489666, -0.02567416802048683, -0.09930719435214996, 0.07883527874946594, 0.021649695932865143, -0.015251572243869305, -0.01462596096098423, -0.07934698462486267, -0.10035977512598038, 0.0005625922931358218, 0.01153203472495079, -0.07046858221292496, -0.03980129212141037, -0.122919000685215, 0.06021954119205475, -0.011011335998773575, -0.036964207887649536, -0.11169008910655975, 0.0200028233230114, -0.02205471135675907, -0.08054972440004349, -0.1400928795337677, -0.06221761554479599, -0.02386602573096752, -0.004692738875746727, 0.035384178161621094, -0.06389378756284714, -0.10224685072898865, -0.0013711213832721114, -0.048168525099754333, -0.08631021529436111, -0.07573653757572174, 0.024454688653349876, -0.02486906759440899, 0.07749658077955246, 0.01632264256477356, 0.05926159396767616, 0.03281031921505928, 0.097054123878479, 0.01225744467228651, 0.1148696020245552, -0.042310282588005066, -0.008821655996143818, -0.1452210694551468, 0.03650791943073273, -0.1339172124862671, -0.13524195551872253, 0.018536005169153214, 0.005866247694939375, -0.009035693481564522, 0.03379940986633301, -0.020977111533284187, 0.03344516083598137, -0.14021579921245575, 0.07793492078781128, 0.037858232855796814, -0.03434891998767853, 0.030797144398093224, 0.005840178579092026, 0.005396845750510693, -0.024144142866134644, -0.009131941944360733, -0.04242376983165741, -0.09525305777788162, -0.09126727283000946, 0.0163637213408947, -0.07932726293802261, -0.11140849441289902, -0.0129171721637249, 0.016590842977166176, -0.07603876292705536, 0.03345828503370285, 0.015274635516107082, 0.03599272295832634, -0.0582355372607708, -0.08693563938140869, 0.028609026223421097, 0.01562841609120369, -0.1317884773015976, 0.009643686935305595, -0.0490468330681324, -0.011423996649682522], [-0.10116543620824814, -0.020360948517918587, -0.06788033992052078, 0.05469974875450134, -0.03409058228135109, -0.10036344826221466, 0.1512119174003601, -0.09182239323854446, -0.028871886432170868, -0.09037797152996063, -0.11730574816465378, -0.020678570494055748, 0.011618474498391151, -0.09292054176330566, 0.07264850288629532, 0.08508699387311935, -0.019921310245990753, -0.14126408100128174, 0.133181631565094, 0.1330416351556778, 0.13933053612709045, 0.04108576476573944, 0.05612761527299881, -0.12442416697740555, -0.04247734695672989, -0.10791098326444626, 0.06195411458611488, 0.16709302365779877, -0.03290535882115364, 0.09090099483728409, 0.1646198034286499, 0.017396090552210808, -0.08248762786388397, -0.04499727860093117, -0.05499552562832832, 0.07475532591342926, -0.05906343460083008, -0.13400711119174957, -0.10974160581827164, -0.017288299277424812, 0.038525793701410294, 0.11553560197353363, -0.09177421778440475, -0.17475108802318573, -0.13062629103660583, -0.14199064671993256, -0.04561943933367729, 0.09366408735513687, -0.0340275801718235, 0.04959958791732788, -0.12026968598365784, 0.03044104389846325, -0.010702777653932571, -0.088770791888237, -0.09482698887586594, -0.16394038498401642, 0.06196393445134163, -0.1302768886089325, -0.07592491805553436, -0.02170545607805252, 0.1566622108221054, 0.172662615776062, -0.042757511138916016, -0.019519543275237083, 0.07919487357139587, -0.06392823159694672, -0.1506151407957077, -0.10781344026327133, -0.04338190704584122, -0.05046907812356949, -0.021165983751416206, -0.04287083446979523, -0.05457353964447975, -0.03118065372109413, -0.055016305297613144, -0.022402312606573105, -0.0417504645884037, -0.060837358236312866, 0.012156721204519272, -0.1353897899389267, 0.14035184681415558, 0.07664846628904343, 0.12687161564826965, -0.11935549229383469, 0.16139541566371918, 0.040887899696826935, 0.09469350427389145, 0.018314149230718613, -0.07298028469085693, -0.15083955228328705, -0.06831908971071243, -0.11563608795404434, -0.06560131907463074, -0.009991215541958809, -0.07810717076063156, -0.1706409752368927, -0.10459090769290924, -0.012147181667387486, -0.020252954214811325, -0.016787637025117874, 0.005738232284784317, 0.07791196554899216, -0.036401182413101196, -0.06449954211711884, -0.04279628396034241, 0.11061827838420868, 0.17888611555099487, -0.014021200127899647, -0.04723907262086868, -0.12530428171157837, -0.1089780330657959, 0.10235928744077682, 0.1296113133430481, -0.0441875196993351, -0.012374389916658401, 0.10608979314565659, -0.19095680117607117, -0.012613186612725258, -0.011762534268200397, 0.075049489736557, -0.058395154774188995, -0.010125135071575642, -0.06452356278896332, 0.09163191169500351, -0.07168207317590714, 0.12497584521770477, -0.1224931851029396, -0.07819648832082748], [-0.12132889777421951, -0.045266468077898026, -0.05978042259812355, 0.1888628900051117, -0.02596413716673851, -0.006685846019536257, 0.1311694234609604, -0.08799225091934204, -0.0129473265260458, 0.0029102410189807415, -0.06730785220861435, -0.10363795608282089, 0.04203179106116295, -0.14862295985221863, 0.1886332780122757, 0.07575014233589172, -0.0035248249769210815, -0.16790340840816498, 0.09373697638511658, 0.11777547001838684, 0.06070084869861603, 0.09854530543088913, 0.051369909197092056, 0.03779161721467972, -0.018376193940639496, -0.04266774654388428, 0.18153053522109985, 0.09309011697769165, -0.03348514437675476, 0.0772576704621315, 0.021858278661966324, 0.07913433015346527, -0.035049911588430405, -0.020962536334991455, -0.07520726323127747, 0.01891735941171646, -0.0007223644061014056, 0.02497064135968685, -0.06640037149190903, -0.08723175525665283, 0.028167983517050743, 0.046860016882419586, -0.029506679624319077, -0.009959336370229721, -0.07340644299983978, -0.09892342239618301, 0.017656899988651276, 0.05043390765786171, -0.02431071177124977, 0.18957927823066711, -0.06960788369178772, 0.06786259263753891, -0.04004852846264839, -0.2186051905155182, -0.06003282219171524, -0.04574069753289223, 0.07367457449436188, -0.08841514587402344, -0.10427987575531006, -0.1265822947025299, 0.06001245602965355, 0.0469403937458992, 0.02952755056321621, -0.03055875562131405, 0.051788583397865295, -0.14353135228157043, 0.0075707039795815945, -0.08355704694986343, 0.05545095354318619, -0.14800319075584412, -0.11292221397161484, -0.10101668536663055, -0.04095079004764557, -0.09350240975618362, -0.009608657099306583, -0.08040055632591248, -0.09189034253358841, -0.0719095915555954, -0.02549421228468418, -0.06043589487671852, 0.12393496185541153, 0.13019271194934845, -0.002889782888814807, -0.05847811698913574, 0.10435300320386887, 0.04619868844747543, 0.1150585189461708, -0.008538658730685711, -0.11687082052230835, -0.05422661826014519, -0.10498801618814468, -0.013725286349654198, -0.14878502488136292, -0.08536406606435776, -0.0994107723236084, -0.07976434379816055, -0.07072483748197556, -0.009878634475171566, -0.052352484315633774, -0.08037039637565613, 0.05022786557674408, 0.16883571445941925, -0.020910825580358505, -0.024782784283161163, -0.0006953090196475387, 0.09860353916883469, 0.1543418914079666, 0.01936589740216732, -0.016720600426197052, -0.08425965160131454, -0.11645550280809402, 0.03786627948284149, 0.08471082895994186, -0.04452047497034073, -0.01734210178256035, 0.06888376176357269, -0.20692352950572968, -0.13715998828411102, -0.0943843424320221, 0.08992288261651993, -0.09919086843729019, -0.005008890759199858, -0.010833358392119408, 0.07737936824560165, -0.09149891138076782, -0.059412553906440735, -0.15210950374603271, -0.08576280623674393], [-0.11390171200037003, -0.04899168387055397, -0.13224928081035614, 0.1303505301475525, 0.003656452288851142, -0.0940718799829483, 0.021897612139582634, -0.01894354075193405, 0.011152253486216068, -0.10087117552757263, -0.021393761038780212, 0.09344501793384552, -0.01986880972981453, -0.09810382127761841, 0.14785096049308777, 0.10766923427581787, -0.0197824165225029, -0.09170280396938324, 0.10005796700716019, 0.16357125341892242, 0.12659423053264618, 0.12514440715312958, 0.12192197144031525, 0.09577997773885727, -0.15713278949260712, -0.027574853971600533, 0.07073448598384857, 0.1208764910697937, 0.04012439772486687, 0.009765644557774067, 0.028474491089582443, 0.041975993663072586, -0.027966387569904327, 0.019427817314863205, -0.0383196659386158, 0.11460980772972107, 0.09245742857456207, 0.039946865290403366, 0.005554380360990763, -0.013023186475038528, 0.05350847914814949, 0.013941625133156776, -0.060037896037101746, -0.1667776256799698, -0.06848663836717606, -0.04089607670903206, 0.010146464221179485, 0.18211022019386292, -0.1041589006781578, 0.16135172545909882, 0.06882520020008087, 0.200132817029953, 0.01441002544015646, -0.036199379712343216, -0.021062592044472694, -0.04819875955581665, -0.010502585209906101, -0.026625769212841988, -0.0318533219397068, -0.14737938344478607, 0.07108136266469955, 0.023512931540608406, 0.06928399205207825, -0.03737158700823784, 0.00016155207413248718, -0.09460325539112091, -0.005466482136398554, -0.0631968155503273, 0.13385625183582306, -0.003503001295030117, 0.004254285246133804, 0.03948909044265747, 0.013348751701414585, 0.07276484370231628, -0.024780886247754097, -0.0028899863827973604, -0.03720180317759514, -0.1297219842672348, 0.025696102529764175, -0.1181623712182045, 0.05757632106542587, 0.10969547182321548, 0.014974690973758698, -0.05183345824480057, 0.21497955918312073, 0.03131015598773956, 0.14823497831821442, 0.0955367386341095, -0.06349913775920868, -0.1432611495256424, -0.08055345714092255, -0.025501083582639694, -0.01860187202692032, -0.07398076355457306, -0.1074138656258583, -0.11057093739509583, -0.05852892994880676, -0.0729132741689682, -0.04272150248289108, 0.0320880226790905, 0.03270920738577843, 0.0833134725689888, 0.010829560458660126, -0.03060808777809143, 0.021166162565350533, 0.07945352047681808, 0.12824074923992157, -0.038597047328948975, 0.010870431549847126, -0.05526834726333618, -0.1611412912607193, 0.07565424591302872, 0.11570852994918823, 0.07086406648159027, -0.042893119156360626, 0.06111831218004227, -0.06232713907957077, -0.06553920358419418, -0.00034416408743709326, 0.18785728514194489, -0.012072339653968811, -0.1105518490076065, -0.05970395356416702, 0.1331234723329544, 0.010185297578573227, -0.014853413216769695, -0.11271771043539047, 0.0659080445766449], [-0.0591689832508564, -0.00597422057762742, 0.0334160253405571, 0.017510393634438515, -0.04380639269948006, -0.017019059509038925, -0.020014123991131783, -0.028777671977877617, -0.04313596710562706, -0.024671832099556923, -0.04962514340877533, 0.013214726001024246, 0.07853329181671143, -0.13798154890537262, -0.0049552046693861485, 0.11124443262815475, -0.061438195407390594, -0.1251581609249115, 0.08388205617666245, 0.04251663386821747, 0.13934509456157684, 0.08037891983985901, 0.13383498787879944, -0.024434540420770645, -0.016198987141251564, -0.0634651705622673, 0.10257679224014282, 0.15171435475349426, 0.03667581081390381, -0.021467266604304314, 0.04064491391181946, 0.1483517289161682, -0.04037423059344292, -0.04183178022503853, -0.09112626314163208, 0.06181683391332626, -0.021411826834082603, 0.03582111746072769, -0.052834536880254745, -0.03044023923575878, 0.016948604956269264, 0.06316936761140823, -0.04366856813430786, -0.1063239723443985, -0.024644851684570312, -0.04646581411361694, 0.03360620513558388, 0.11757873743772507, -0.06572715938091278, 0.05394942685961723, 0.03267732635140419, 0.1907438188791275, -0.09016068279743195, -0.10010924190282822, -0.02003958448767662, 0.00568087212741375, 0.01688508503139019, -0.0821993350982666, -0.07620587199926376, -0.09399917721748352, 0.08958033472299576, -0.005281681194901466, 0.04352138191461563, 0.028003977611660957, 0.029151160269975662, -0.014978128485381603, -0.11845062673091888, -0.00881772767752409, -0.03742695972323418, 0.014143259264528751, 0.00696803443133831, -0.09791285544633865, 0.11150506138801575, -0.0474323108792305, -0.009161759167909622, -0.008329925127327442, -0.09442056715488434, -0.08597443997859955, -0.04795015603303909, -0.033331822603940964, 0.006198588293045759, -0.055809974670410156, 0.10284110903739929, -0.03233829140663147, 0.1574118435382843, 0.13065263628959656, 0.025832708925008774, 0.017232950776815414, 0.015547213144600391, -0.08722029626369476, -0.01206732727587223, -0.09028590470552444, 0.013579324819147587, -0.0589720755815506, -0.011087561957538128, -0.09740764647722244, -0.08505069464445114, -0.06301109492778778, -0.08436378836631775, -0.09301701188087463, 0.003411633661016822, 0.06466438621282578, 0.038098789751529694, -0.057436585426330566, -0.015436820685863495, 0.014760581776499748, 0.0152214877307415, -0.060064930468797684, 0.022040892392396927, -0.1372612863779068, -0.17288297414779663, 0.06641481816768646, -0.04991225525736809, 0.004054635763168335, -0.011848575435578823, 0.01773238368332386, -0.0064652226865291595, -0.015553956851363182, 0.0436224639415741, 0.0815504863858223, -0.08146099001169205, -0.025313232094049454, -0.12922810018062592, 0.16386650502681732, -0.014791414141654968, -0.07470706850290298, -0.12872664630413055, -0.00939246453344822], [-0.08507649600505829, -0.062310151755809784, -0.0003539442259352654, 0.06795825809240341, -0.08539082854986191, -0.11493705958127975, 0.035759564489126205, -0.1034417599439621, -0.03404264152050018, 0.012448646128177643, -0.04809326305985451, -0.050294503569602966, 0.07196936011314392, -0.07673151046037674, 0.06893044710159302, 0.14302588999271393, -0.05433350428938866, -0.05550049990415573, 0.026598183438181877, -0.00614115409553051, 0.09634048491716385, 0.07321915030479431, 0.13351856172084808, -0.07861701399087906, -0.04702138900756836, -0.040354225784540176, 0.061739299446344376, 0.06660448014736176, -0.09189483523368835, 0.09276510775089264, 0.003958740271627903, 0.021603986620903015, -0.035070206969976425, -0.01575780101120472, -0.1717894971370697, -0.054367031902074814, -0.019185209646821022, -0.08237719535827637, -0.07159304618835449, -0.008504103869199753, 0.06396328657865524, 0.008749578148126602, -0.030038483440876007, -0.11836962401866913, -0.087478406727314, -0.0679924488067627, 0.03962433710694313, 0.07929704338312149, -0.06970317661762238, 3.282506440882571e-05, 0.027497360482811928, 0.1661546677350998, -0.06313294917345047, -0.01984124816954136, 0.054761309176683426, -0.006743085570633411, 0.06328994035720825, -0.06890229880809784, -0.08455384522676468, -0.10742426663637161, 0.12326827645301819, 0.08239022642374039, -0.0757133886218071, -0.12220462411642075, 0.12151867896318436, -0.005844457074999809, -0.10734204947948456, -0.11055134236812592, 0.003126162104308605, -0.00582222081720829, -0.02647762931883335, -0.07938425242900848, 0.01731964386999607, -0.03666762635111809, -0.03847004473209381, 0.004696991294622421, -0.11768218874931335, -0.06461139023303986, -0.05256340652704239, -0.12594228982925415, 0.06448177248239517, 0.13147784769535065, 0.061871372163295746, -0.0944838672876358, 0.061179403215646744, 0.0645475760102272, 0.1601688116788864, 0.05874026566743851, 0.0012575440341606736, -0.05540161952376366, 0.0034590300638228655, 0.018787510693073273, 0.011077696457505226, -0.016691723838448524, -0.1020912304520607, -0.09376727789640427, 0.0017813628073781729, -0.053351353853940964, -0.03461429849267006, -0.04621579870581627, -0.020728250965476036, 0.05355261266231537, -0.07616008818149567, -0.021178334951400757, -0.08082002401351929, 0.007434159517288208, 0.12989085912704468, 0.013658473268151283, -0.02972424402832985, -0.05544949322938919, -0.03650665655732155, -0.020534977316856384, 0.018723493441939354, -0.026934513822197914, 0.05849973112344742, 0.029789041727781296, -0.108013816177845, -0.05025511234998703, -0.050554223358631134, 0.08439278602600098, 0.0015587648376822472, 0.007756492123007774, -0.0075721717439591885, 0.05031394213438034, -0.0773160383105278, -0.03363469988107681, -0.11178082972764969, -0.016078930348157883], [-0.08273997157812119, -0.05466374382376671, -0.06166483089327812, 0.03549230098724365, -0.16512571275234222, 0.0032521304674446583, 0.1495516151189804, 0.009518912062048912, 0.0009026257321238518, 0.003502401290461421, 0.01384101714938879, -0.0221564881503582, 0.09961877018213272, -0.1314789354801178, 0.11010406911373138, 0.14252758026123047, -0.011103089898824692, -0.11274523288011551, 0.016219720244407654, 0.06991873681545258, -0.003978335298597813, -0.009370746091008186, 0.08667334914207458, 0.005562879145145416, -0.04641840606927872, -0.14206349849700928, 0.01333563681691885, 0.09978213161230087, -0.12877362966537476, 0.06152893230319023, -0.00011159240966662765, 0.029237207025289536, -0.06326460838317871, -0.06507731229066849, -0.014631330966949463, -0.036306604743003845, -0.0894244983792305, -0.09548770636320114, -0.048453185707330704, 0.001320417271926999, 0.12680527567863464, 0.09875737875699997, -0.07958804816007614, -0.13100141286849976, -0.0686376616358757, -0.09025488793849945, -0.11689899861812592, 0.09607366472482681, -0.08468372374773026, 0.029166022315621376, -0.07555079460144043, 0.02410736121237278, -0.00482919393107295, -0.13181768357753754, -0.10931161791086197, -0.05009162425994873, -0.04140836000442505, -0.06326603889465332, -0.05323610082268715, 0.002094313967972994, 0.0453905314207077, 0.053640540689229965, -0.10469723492860794, -0.11856390535831451, 0.07693483680486679, 0.015402879565954208, -0.1270928531885147, -0.024199137464165688, -0.01824498362839222, -0.055892664939165115, -0.05847034975886345, -0.0727136954665184, -0.05735163390636444, 0.021120723336935043, 0.0007665494340471923, 0.002092503709718585, -0.15245041251182556, -0.11351665109395981, 0.02028139866888523, -0.14947617053985596, 0.008188526146113873, 0.014237827621400356, 0.03518150374293327, 0.02043483965098858, 0.15195703506469727, 0.023665983229875565, 0.1229177713394165, -0.13282650709152222, -0.08075770735740662, -0.14391517639160156, -0.0014276423025876284, 0.0330810584127903, 0.029076138511300087, -0.038195546716451645, -0.09781265258789062, -0.03292590379714966, -0.13207004964351654, -0.15468566119670868, -0.11716775596141815, 0.017482886090874672, 0.07889185845851898, -0.01280851662158966, -0.06226586923003197, -0.04985828325152397, -0.08460825681686401, 0.07250368595123291, 0.02164708636701107, -0.09658718854188919, -0.145850270986557, -0.06703794747591019, -0.10903624445199966, 0.12964493036270142, 0.13546526432037354, -0.09634245932102203, -0.0613936223089695, 0.056057121604681015, 0.03196985274553299, -0.11345291137695312, -0.09817840903997421, 0.0859403908252716, -0.007279070559889078, -0.12333361804485321, -0.146421417593956, 0.0893448144197464, -0.03312638774514198, 0.30650296807289124, -0.04789311811327934, -0.05128181353211403], [-0.09049636870622635, -0.11245109885931015, -0.0826323926448822, 0.14376893639564514, -0.10480830073356628, 0.0211150124669075, 0.0012707328423857689, -0.05518047884106636, 0.17137035727500916, -0.12543229758739471, -0.034016821533441544, -0.01917433738708496, -0.022944267839193344, -0.10944739729166031, 0.09959549456834793, 0.03610135614871979, -0.14032842218875885, -0.0007722243899479508, 0.026087256148457527, 0.07598808407783508, 0.13242152333259583, 0.01480027660727501, -0.010548208840191364, 0.001634255051612854, -0.06100309267640114, -0.053752634674310684, 0.16320402920246124, 0.10490430891513824, -0.01388282235711813, 0.06082868576049805, -0.006209776271134615, 0.06621075421571732, -0.0612296424806118, -0.08143333345651627, -0.032946377992630005, 0.059427447617053986, -0.06619716435670853, -0.03986651822924614, 0.04016472026705742, -0.004537961445748806, 0.07207455486059189, 0.09290102124214172, -0.09102315455675125, 0.011496173217892647, 0.003532644361257553, -0.11312302201986313, -0.1217280849814415, 0.10825100541114807, -0.02865776978433132, 0.03406159207224846, -0.10034890472888947, 0.10304718464612961, -0.02107207477092743, -0.0688280314207077, 0.008457071147859097, -0.022737761959433556, 0.06308954209089279, -0.06219321861863136, -0.036415595561265945, -0.06584715098142624, -0.016653211787343025, 0.06746234744787216, 0.027325458824634552, -0.05699038878083229, 0.006175929680466652, -0.10472585260868073, -0.1072254478931427, -0.0825766921043396, 0.002337825018912554, -0.0934847816824913, -0.09829594194889069, 0.023694926872849464, 0.00038555494393222034, -0.08585355430841446, -0.0030868740286678076, -0.045550812035799026, -0.1105223223567009, -0.09770587831735611, 0.1279657632112503, -0.041612837463617325, 0.07868857681751251, 0.03110564313828945, 0.006167836021631956, -0.02750583179295063, 0.015462313778698444, -0.007935543544590473, 0.06307999044656754, 0.06920591741800308, -0.08709830045700073, -0.06157025694847107, -0.014581255614757538, -0.01140365470200777, -0.09392271190881729, -0.06692668795585632, -0.031709618866443634, -0.1253802329301834, -0.004557708278298378, -0.07305051386356354, -0.03059305064380169, 0.03005269542336464, 0.001061784103512764, -0.004284852184355259, -0.0828436017036438, -0.05021413415670395, 0.008276009932160378, 0.0700610801577568, 0.15632833540439606, -0.012577815912663937, -0.11988420784473419, -0.12602922320365906, -0.10508979111909866, 0.02958896942436695, 0.08786318451166153, -0.009936397895216942, 0.009901436977088451, 0.10495465248823166, -0.14096136391162872, -0.020964426919817924, -0.10521715134382248, 0.0857904851436615, 0.006653415504842997, -0.06286581605672836, -0.023759277537465096, 0.004715153481811285, -0.028248894959688187, -0.011898052878677845, 0.016389766708016396, -0.07673348486423492], [-0.09468747675418854, 0.009569397196173668, -0.12027474492788315, 0.1883423924446106, -0.013934248127043247, -0.04072785750031471, 0.1475793570280075, -0.12963701784610748, -0.09976645559072495, -0.06342483311891556, -0.09759069979190826, 0.001261634984984994, 0.06316263228654861, -0.11390883475542068, 0.03206377848982811, 0.09168597310781479, -0.05607450753450394, -0.1658983826637268, 0.05721199885010719, 0.0243866965174675, 0.07720708101987839, 0.16570936143398285, 0.14881488680839539, -0.0450022891163826, -0.010106504894793034, -0.06736888736486435, 0.047316502779722214, 0.02275226078927517, -0.05819219723343849, 0.020177599042654037, 0.028193799778819084, 0.08347293734550476, -0.100784532725811, 0.0006961958133615553, -0.03817690163850784, -0.03278262913227081, -0.09335518628358841, -0.00440108822658658, -0.06799979507923126, -0.11134731769561768, 0.06456686556339264, 0.040014348924160004, -0.05064963921904564, -0.06498058885335922, -0.004157069604843855, -0.11238439381122589, -0.10959385335445404, 0.0888756737112999, -0.015146465972065926, 0.04513084515929222, -0.11729369312524796, 0.16367539763450623, -1.8847640603780746e-06, -0.1899595409631729, -0.022393904626369476, -0.053686778992414474, 0.10106418281793594, -0.11559171229600906, -0.012152370065450668, -0.107256218791008, 0.03894747048616409, 0.03012886829674244, -0.06646741181612015, -0.016509708017110825, 0.08672262728214264, -0.02805255353450775, -0.07971405237913132, -0.05381659418344498, -0.07585567981004715, -0.011772030033171177, -0.05995503440499306, -0.05945926159620285, -0.0553625151515007, -0.009700065478682518, -0.021231617778539658, -0.08725525438785553, -0.08239973336458206, -0.011551880277693272, 0.022957991808652878, -0.1287248432636261, 0.009127983823418617, 0.08413201570510864, 0.036069899797439575, -0.02950412407517433, 0.09571052342653275, 0.06785300374031067, 0.051936302334070206, -0.06830909848213196, -0.03623427450656891, -0.1257322132587433, -0.045077670365571976, -0.04054901748895645, -0.12668785452842712, -0.13279786705970764, -0.04549480974674225, -0.027456821873784065, -0.11961942911148071, 0.05959121137857437, 0.007929312065243721, -0.04556364193558693, 0.11194774508476257, 0.12884370982646942, -0.06614989787340164, -0.1050758957862854, -0.03651650995016098, 0.07420458644628525, 0.15910065174102783, -0.07390132546424866, -0.08859477937221527, -0.14422276616096497, -0.1512954831123352, 0.011612828820943832, 0.05450775846838951, -0.0031387563794851303, -0.08797186613082886, 0.03131677582859993, -0.1481483429670334, -0.11266234517097473, -0.04471437260508537, 0.06106158718466759, -0.12995542585849762, -0.0356777049601078, -0.05276365578174591, 0.10435173660516739, -0.02607346512377262, 0.0184245016425848, -0.19040986895561218, -0.1282689869403839], [-0.14398646354675293, -0.046375542879104614, -0.13493457436561584, 0.1921870857477188, -0.06112905219197273, -0.12062878906726837, 0.11143409460783005, 0.003690877929329872, 0.16889603435993195, 0.002054368844255805, 0.02834436483681202, -0.004415260627865791, -0.025540929287672043, -0.12164156883955002, 0.01634485274553299, 0.13360993564128876, -0.06529400497674942, -0.15966573357582092, 0.04517270624637604, 0.10717891901731491, 0.01828794553875923, 0.01737808994948864, 0.08247055858373642, -0.021586855873465538, -0.10037018358707428, -0.06411543488502502, 0.04766394570469856, 0.12080444395542145, -0.0032898050267249346, 0.006560358684509993, 0.05051468312740326, 0.06016725301742554, -0.11656983941793442, -0.06116843968629837, -0.11585069447755814, 0.09633327275514603, -0.04412718117237091, 0.052845269441604614, 0.06293216347694397, -0.013971216045320034, 0.09482228010892868, 0.11155061423778534, -0.06397025287151337, -0.07400763779878616, -0.0036607198417186737, -0.12798768281936646, 0.20300248265266418, 0.06744734942913055, -0.17212627828121185, 0.17144332826137543, -0.00038327783113345504, 0.15616311132907867, 0.028325891122221947, -0.02722814492881298, 0.004374281503260136, -0.03398509696125984, 0.06724845618009567, 0.026528989896178246, -0.08306537568569183, -0.11650657653808594, 0.15458865463733673, 0.09450949728488922, 0.20648294687271118, -0.0807952955365181, 0.06744745373725891, -0.12656918168067932, -0.04711194336414337, -0.08031180500984192, 0.052081964910030365, -0.12003843486309052, 0.006969385780394077, -0.061174359172582626, 0.01190718449652195, -0.012953508645296097, -0.035444580018520355, 0.03917474299669266, -0.06903673708438873, -0.10863868147134781, -0.06207166612148285, -0.05776285007596016, 0.06464560329914093, 0.13664138317108154, 0.03689279779791832, -0.04598657041788101, 0.0771481841802597, 0.04173070192337036, 0.03800233453512192, 0.04073625057935715, -0.05818144604563713, -0.08399669080972672, -0.011523660272359848, -0.03322785720229149, -0.04674844816327095, -0.049918606877326965, -0.10954251885414124, -0.11587364226579666, 0.05388237535953522, -0.07615288347005844, 0.03526807576417923, -0.020515279844403267, 0.07407376170158386, 0.06596151739358902, -0.017378604039549828, -0.06445144861936569, -0.034390438348054886, 0.009631768800318241, 0.002114145550876856, -0.00517318956553936, -0.09254804253578186, -0.04734830930829048, -0.10792246460914612, 0.04384930431842804, 0.08357546478509903, -0.0010301540605723858, -0.033879414200782776, 0.07034620642662048, -0.04336150363087654, -0.11489418894052505, -0.03869933634996414, 0.16192051768302917, -0.03344932571053505, -0.08501676470041275, -0.09246575832366943, 0.08349083364009857, 0.08080850541591644, 0.013464576564729214, -0.09787234663963318, -0.045983798801898956], [-0.1290435940027237, -0.10491631180047989, -0.014296500943601131, 0.1178731843829155, -0.050772689282894135, -0.02427530102431774, 0.0844082161784172, -0.022387325763702393, -0.041578300297260284, -0.0004601494292728603, -0.004931577481329441, 0.01747453399002552, -0.02687513642013073, -0.10921943932771683, 0.1423618644475937, 0.05091828480362892, 0.0038674615789204836, -0.12721344828605652, 0.061738502234220505, 0.030770564451813698, 0.10624098777770996, 0.03306053578853607, 0.08432912081480026, -0.009509680792689323, -0.10222887247800827, 0.008942621760070324, 0.11808162182569504, 0.08287575095891953, -0.060424067080020905, 0.05175334960222244, 0.03634529560804367, 0.10840091109275818, -0.08280324190855026, -0.10448982566595078, -0.029863500967621803, -0.005055991001427174, 0.016844728961586952, -0.0942051112651825, -0.07921017706394196, -0.08812480419874191, 0.06185820698738098, 0.08821282535791397, -0.04829033091664314, -0.017982564866542816, -0.08186595141887665, -0.12343660742044449, -0.002550956094637513, 0.11028501391410828, -0.17031720280647278, 0.14936792850494385, -0.11895006150007248, 0.08797258138656616, -0.026988282799720764, -0.12409009784460068, 0.1264825463294983, -0.01631252095103264, 0.08488982170820236, -0.11415919661521912, -0.0256887786090374, -0.07002400606870651, 0.06810599565505981, 0.032641928642988205, -0.0205534640699625, -0.04129013791680336, 0.048487186431884766, -0.06940190494060516, -0.07439526170492172, -0.1322713941335678, -0.015720577910542488, -0.09091491997241974, 0.006113091949373484, -0.05379891395568848, -0.07402336597442627, -0.06301504373550415, -0.0949428528547287, -0.026884429156780243, -0.11564997583627701, -0.02523909881711006, -0.02301151491701603, -0.1060309112071991, 0.06009913235902786, 0.092902272939682, 0.06787698715925217, -0.019043806940317154, 0.1038089171051979, 0.10127542167901993, 0.14232760667800903, 0.03610840439796448, -0.09173259884119034, -0.12922611832618713, 0.013435671105980873, -0.07175906002521515, -0.0720522552728653, -0.10424233227968216, -0.07737287878990173, -0.04558467119932175, -0.038528140634298325, 0.03911612927913666, -0.05810389667749405, 5.699513712897897e-05, 0.06641627848148346, 0.07999957352876663, 0.005832080729305744, 0.015337323769927025, -0.02435643970966339, 0.06515055149793625, 0.10362174361944199, -0.028131909668445587, -0.011683537624776363, -0.030636364594101906, -0.036852698773145676, 0.13372497260570526, -0.001895589055493474, -0.05258215218782425, -0.017917785793542862, 0.10124202072620392, -0.04494883492588997, -0.13272269070148468, 0.0008979124831967056, 0.1246185228228569, -0.021980052813887596, -0.04289024695754051, -0.01096311118453741, 0.07746922224760056, -0.032293081283569336, -0.024877920746803284, -0.053200189024209976, -0.056564267724752426], [-0.0712502971291542, -0.13509760797023773, -0.13056199252605438, 0.0771644115447998, -0.00027305702678859234, -0.10744763165712357, 0.11341872811317444, -0.01253483910113573, 0.06939678639173508, -0.13144363462924957, -0.10820852220058441, -0.00629746587947011, 0.043084919452667236, -0.09946291148662567, 0.09048865735530853, 0.021893173456192017, -0.10141970962285995, -0.12758409976959229, -0.05144635587930679, 0.06009146198630333, 0.15419858694076538, 0.07710866630077362, 0.016365256160497665, -0.10155811905860901, -0.0740872323513031, -0.12408341467380524, 0.1571783572435379, 0.14432966709136963, -0.032567352056503296, 0.020302288234233856, 0.09691449999809265, 0.07477069646120071, -0.029277483001351357, 0.015055041760206223, -0.1731245070695877, -0.0043897321447730064, -0.012576542794704437, -0.004880188964307308, -0.023978492245078087, -0.10689942538738251, 0.04014885798096657, 0.07329888641834259, -0.09305141866207123, -0.07461987435817719, -0.011049691587686539, -0.11547769606113434, -0.0008972655050456524, 0.04981399327516556, -0.048441749066114426, 0.165189728140831, 0.016131166368722916, 0.08100195974111557, -0.04621134325861931, -0.03481683135032654, -0.07057055830955505, -0.010565273463726044, 0.0030419672839343548, -0.04618369787931442, 0.15150253474712372, -0.05078554525971413, 0.04407532513141632, 0.016618814319372177, -0.057699013501405716, -0.1256803274154663, 0.044190362095832825, -0.0697714313864708, -0.07373921573162079, -0.05600709095597267, 0.04777489975094795, -0.045206211507320404, -0.009644725359976292, -0.1342742145061493, 0.03770720958709717, -0.10186966508626938, -0.07000769674777985, 0.04939991980791092, -0.021602686494588852, -0.07630451768636703, 0.006439626216888428, -0.11368796974420547, 0.005779582541435957, 0.08638744056224823, 0.02310347929596901, -0.06157553195953369, 0.04318229854106903, 0.0887395590543747, 0.06826379150152206, 0.04930376261472702, -0.024812597781419754, -0.14047393202781677, -0.027391891926527023, -0.0789022445678711, -0.04595402255654335, 0.011568103916943073, -0.09748851507902145, -0.11689414083957672, -0.09627321362495422, 0.19613616168498993, 0.01305621862411499, -0.04806964471936226, 0.12023165076971054, 0.019588209688663483, -0.07676957547664642, -6.923457840457559e-05, -0.0845557153224945, 0.0745914876461029, 0.16291692852973938, -0.007168707437813282, 0.025664662942290306, -0.02528372034430504, -0.15232233703136444, 0.12493188679218292, 0.14127770066261292, -0.023772794753313065, 0.026716670021414757, 0.0056591699831187725, -0.11137229204177856, -0.14627057313919067, -0.050729237496852875, 0.02105199359357357, -0.09155981987714767, -0.14172104001045227, -0.1303676962852478, 0.10312677919864655, -0.09783396124839783, -0.12146733701229095, -0.02108675427734852, -0.082273468375206], [-0.05945185571908951, -0.019604768604040146, -0.10170293599367142, 0.1039290651679039, -0.05462316423654556, -0.0731041356921196, 0.06401590257883072, -0.024074753746390343, -0.02905106171965599, -0.12061503529548645, -0.03822261467576027, -0.059835225343704224, 0.05690152570605278, -0.06817840039730072, 0.20471274852752686, 0.13725091516971588, -0.07301659137010574, -0.09203668683767319, 0.1005767285823822, 0.14531785249710083, 0.07863609492778778, 0.08124654740095139, 0.10421136021614075, 0.00924041960388422, -0.06683306396007538, -0.033115193247795105, 0.07868970930576324, 0.17041833698749542, 0.025190921500325203, 0.0030093600507825613, 0.11368495970964432, 0.08006373047828674, -0.008825651369988918, -0.028979774564504623, -0.05158171430230141, 0.22297228872776031, -0.026125077158212662, -0.003436548402532935, 0.005178626161068678, -0.0873882994055748, 0.03621264174580574, 0.062379103153944016, -0.08188064396381378, -0.040064822882413864, -0.060738563537597656, -0.14466969668865204, -0.02927533909678459, 0.17295119166374207, -0.10243653506040573, 0.09343811124563217, -0.02920825034379959, 0.1496564894914627, 0.01942599192261696, -0.09294041991233826, -0.018114814534783363, -0.11061456054449081, 0.08929746598005295, -0.09205497056245804, -0.06631527841091156, -0.0654837042093277, 0.1054823249578476, 0.04209708049893379, 0.07563350349664688, -0.12073297053575516, 0.016580525785684586, -0.13762864470481873, -0.06386816501617432, -0.04828890040516853, 0.11927802860736847, -0.09505851566791534, -0.06308145821094513, 0.0003572015557438135, 0.01067008450627327, -0.005995083134621382, -0.046279702335596085, -0.03827355429530144, -0.0680151954293251, -0.11205244064331055, 0.022831197828054428, -0.08939974755048752, 0.13772203028202057, 0.08457082509994507, 0.11310824751853943, -0.05967045575380325, 0.12328250706195831, 0.11436440050601959, 0.17836794257164001, 0.026240188628435135, -0.020319918170571327, -0.07673054188489914, -0.1023276224732399, -0.07880450040102005, -0.12534937262535095, -0.04086622595787048, -0.07698497921228409, -0.13255798816680908, -0.043468229472637177, -0.03585797920823097, 0.03354329243302345, 0.04521571099758148, 0.0747971385717392, 0.06012521684169769, -0.027638109400868416, -0.05436943098902702, 0.020610902458429337, 0.06807025521993637, 0.11593519896268845, -0.029075801372528076, -0.056739211082458496, -0.0054703219793736935, -0.14996641874313354, 0.15143421292304993, 0.18436457216739655, 0.037419892847537994, 0.012779909186065197, 0.041783276945352554, -0.05560369789600372, -0.09726738929748535, -0.030609799548983574, 0.17305079102516174, -0.052240047603845596, -0.062093690037727356, -0.051514144986867905, 0.12712715566158295, -0.018792498856782913, 0.09080146253108978, -0.05361595377326012, 0.021869905292987823], [-0.013043711893260479, -0.10754260420799255, -0.06616611033678055, 0.05692308768630028, -0.045145805925130844, -0.11143407970666885, 0.13234837353229523, 0.0179047379642725, -0.033554643392562866, -0.11932016164064407, -0.032605044543743134, -0.01659548655152321, 0.0754827931523323, -0.11798485368490219, 0.117469921708107, 0.10650403797626495, 0.0011871104361489415, -0.15229065716266632, 0.0890684574842453, 0.03898932412266731, 0.052805572748184204, 0.11001080274581909, 0.03866139054298401, 0.01090629119426012, -0.060612961649894714, -0.028035787865519524, 0.046121906489133835, 0.06949137151241302, -0.006334618665277958, 0.11891588568687439, 0.14275334775447845, 0.10098202526569366, -0.023678205907344818, -0.09396383911371231, -0.008485707454383373, 0.08073664456605911, 0.0013006716035306454, 0.08969529718160629, -0.00791048165410757, -0.1392093300819397, 0.013465957716107368, 0.10708987712860107, -0.1163502112030983, -0.09306374192237854, -0.09832055121660233, -0.0736970528960228, -0.06527267396450043, 0.06823954731225967, -0.09890156984329224, 0.12543945014476776, -0.0066972277127206326, 0.17163477838039398, -0.033852603286504745, -0.1374557465314865, 0.03249640390276909, -0.11631623655557632, 0.01863381452858448, -0.04373795539140701, -0.06140415370464325, -0.07382205873727798, 0.13165834546089172, 0.09152282029390335, 0.08561655133962631, -0.14383700489997864, 0.08532969653606415, -0.15630653500556946, -0.05383763089776039, 0.0006228186539374292, 0.03338369354605675, -0.06220899522304535, -0.06765321642160416, -0.06500644981861115, -0.04472822695970535, -0.01775619201362133, -0.10274884104728699, -0.03318694233894348, -0.04169878736138344, -0.09890872240066528, -0.04157080501317978, -0.08684465289115906, 0.1584332287311554, 0.12388573586940765, 0.1169186607003212, 0.0016448099631816149, 0.11332192271947861, 0.08743894845247269, 0.08983570337295532, 0.03153165802359581, -0.03205177187919617, -0.06251687556505203, -0.06611627340316772, -0.08614283800125122, -0.06301314383745193, -0.04947837069630623, -0.04158288612961769, -0.0175260528922081, 0.04176141694188118, -0.0038043742533773184, -0.03355821594595909, -0.05062507465481758, 0.059787772595882416, 0.13220226764678955, 0.03296828269958496, 0.07222071290016174, -0.014914496801793575, 0.09458959102630615, 0.009183092042803764, -0.03213905543088913, -0.12622809410095215, -0.05064023658633232, -0.09459308534860611, 0.1480085253715515, 0.0357951894402504, -0.059179823845624924, -0.05090233311057091, 0.07212111353874207, -0.1210012286901474, -0.0977090373635292, -0.029544994235038757, 0.020409611985087395, 0.007186990696936846, 0.012897467240691185, -0.09857288748025894, 0.145711287856102, -0.0018164751818403602, 0.1024174839258194, -0.070870541036129, 0.02228717878460884], [-0.14816781878471375, -0.07349534332752228, -0.06129857152700424, 0.07930164784193039, -0.07246080785989761, -0.10626289248466492, 0.13143961131572723, -0.028220470994710922, -0.03206441551446915, -0.010574383661150932, 0.016380036249756813, -0.04097888991236687, 0.0027982122264802456, -0.10704919695854187, 0.14684541523456573, 0.14778879284858704, -0.10418862104415894, -0.08363457769155502, 0.1098417267203331, 0.1045927032828331, 0.15417173504829407, 0.0641542598605156, 0.017260435968637466, -0.03641340136528015, -0.02457345463335514, -0.02520175278186798, 0.09292495250701904, 0.05165259167551994, -0.0032880804501473904, 0.01494084857404232, 0.06431028991937637, 0.10159362852573395, -0.0789380818605423, -0.09153169393539429, -0.19274866580963135, 0.06271517276763916, -0.12684327363967896, 0.014247273094952106, -0.05903928726911545, -0.024448184296488762, -0.023258302360773087, -0.001655277330428362, -0.1346881091594696, -0.05789097771048546, -0.08951961994171143, -0.05413590371608734, -0.07834368199110031, 0.06031741201877594, -0.1643347442150116, 0.11683282256126404, -0.0326538123190403, 0.0708717480301857, 0.04958994314074516, -0.20146618783473969, 0.05921455845236778, -0.13689471781253815, 0.0446932390332222, -0.11565981805324554, -0.08318348973989487, -0.11470890790224075, 0.10647410899400711, 0.08036500960588455, 0.022890053689479828, -0.03555459529161453, 0.007190322037786245, -0.16565343737602234, -0.03770709037780762, -0.10493168979883194, -0.012217703275382519, -0.12392999231815338, -0.09306017309427261, -0.12476170808076859, -0.09101401269435883, -0.0670134425163269, -0.05460374429821968, -0.09823544323444366, -0.05690545216202736, -0.06627896428108215, 0.01713772490620613, -0.12733536958694458, 0.0788264274597168, 0.055346764624118805, 0.02130826748907566, -0.06249251961708069, 0.10769037902355194, 0.06870941072702408, 0.08482882380485535, 0.021960075944662094, -0.09765134751796722, -0.17611637711524963, -0.11473411321640015, -0.007918600924313068, -0.08120875060558319, -0.08270453661680222, -0.053992412984371185, -0.13523609936237335, -0.07740891724824905, -0.053286049515008926, -0.01709025725722313, -0.036287661641836166, 0.046794068068265915, 0.1493220180273056, -0.055672407150268555, -0.06496601551771164, -0.07051258534193039, 0.11494527012109756, 0.0706133171916008, -0.046279918402433395, -0.004997917450964451, -0.1045532375574112, -0.13509808480739594, 0.08951806277036667, 0.12861110270023346, -0.044321633875370026, -0.06970618665218353, 0.09566253423690796, -0.17417049407958984, -0.06489350646734238, -0.04279899224638939, 0.10440681874752045, -0.07236091792583466, -0.1186501756310463, -0.05707862973213196, 0.05927453562617302, 0.061054639518260956, 0.029906390234827995, -0.11978284269571304, -0.03991397097706795], [-0.04694342985749245, -0.07352084666490555, -0.14401954412460327, 0.02404852770268917, 0.03358341008424759, -0.0669511929154396, 0.10862608253955841, -0.07427810877561569, -0.04616248607635498, -0.08121436089277267, -0.06914027780294418, -0.049650028347969055, 0.11685743927955627, -0.13298733532428741, 0.16834405064582825, 0.0839923843741417, -0.009666485711932182, -0.052658624947071075, -0.023138778284192085, 0.09989795833826065, 0.134955033659935, 0.0737384483218193, 0.0023818728514015675, -0.01053941436111927, -0.09996634721755981, -0.08624507486820221, 0.19118547439575195, 0.06059873104095459, -0.03603551536798477, 0.08805650472640991, 0.03305152431130409, 0.06058018282055855, -0.15042589604854584, -0.018534116446971893, -0.14476042985916138, -0.08451171964406967, -0.06775085628032684, -0.007742706686258316, -0.07026103138923645, -0.11231986433267593, 0.057555630803108215, 0.16963879764080048, -0.11479216814041138, -0.11603949964046478, -0.09693896025419235, -0.14146654307842255, -0.060982123017311096, 0.18131513893604279, -0.055438388139009476, 0.12333349883556366, -0.017728028818964958, 0.1615372747182846, -0.08056802302598953, -0.019042128697037697, -0.04303541034460068, -0.09711651504039764, 0.10640867054462433, -0.048164281994104385, -0.035031143575906754, -0.05723090469837189, 0.13715195655822754, 0.060023777186870575, -0.032390449196100235, -0.09857341647148132, 0.04743446037173271, -0.04746772721409798, -0.15703487396240234, -0.05979439616203308, -0.05114101618528366, -0.01484284270554781, -0.12905868887901306, -0.1677205115556717, 0.1250658482313156, -0.11782360076904297, -0.03788966313004494, -0.012079836800694466, -0.0037425407208502293, -0.07356346398591995, 0.021129198372364044, -0.02856403961777687, 0.1717219203710556, 0.039645902812480927, 0.06036244332790375, -0.10658888518810272, 0.059613313525915146, 0.044628534466028214, 0.19073396921157837, -0.12101826071739197, -0.11670193821191788, -0.11289390921592712, -0.09389795362949371, -0.13952398300170898, -0.0819246768951416, -0.015034377574920654, -0.0866255834698677, -0.07714935392141342, -0.06767062842845917, 0.02642103098332882, -0.005152115132659674, -0.07964155822992325, 0.019786091521382332, 0.12708024680614471, -0.05994946137070656, -0.07280875742435455, -0.03121027536690235, 0.07697642594575882, 0.07134770601987839, -0.07825806736946106, -0.1458711326122284, -0.030327321961522102, -0.0198251623660326, 0.1793251931667328, 0.03802916407585144, -0.08387088775634766, 0.01111612282693386, 0.028800135478377342, -0.14197251200675964, -0.008714500814676285, -0.04490891471505165, 0.15142713487148285, -0.07903609424829483, -0.01398931909352541, -0.08040937781333923, 0.08890656381845474, -0.11691448092460632, 0.017283111810684204, -0.14709259569644928, -0.06167038157582283], [0.019259128719568253, -0.11851407587528229, -0.12080442160367966, 0.10171227902173996, 0.04958657547831535, -0.061388224363327026, 0.03515865281224251, -0.03696189448237419, -0.030302489176392555, -0.02367241308093071, -0.05652182549238205, -0.04615139961242676, -0.01165392529219389, -0.06942758709192276, 0.04803133010864258, 0.10703564435243607, -0.07936756312847137, -0.06630206108093262, -0.0028008243534713984, -0.03612365573644638, 0.045602962374687195, -0.007527954410761595, 0.0804525837302208, 0.007154291961342096, -0.12290987372398376, -0.02912025898694992, 0.04668588191270828, 0.0807807445526123, 0.03943952918052673, -0.024668946862220764, 0.005587103310972452, 0.06333792954683304, -0.01861889660358429, -0.03610561415553093, 0.010318953543901443, -0.04179956018924713, -0.11826611310243607, -0.07900898903608322, -0.134598508477211, -0.13724960386753082, 0.13539861142635345, 0.11284805089235306, -0.0682099238038063, -0.10426309704780579, -0.07749871164560318, -0.0509134940803051, 0.050182778388261795, 0.050932105630636215, 0.01186840608716011, 0.04555898532271385, -0.11496506631374359, 0.03345605358481407, 0.036278218030929565, -0.026124147698283195, -0.11865241825580597, -0.081105075776577, 0.0387270525097847, 0.0053790416568517685, -0.024319488555192947, -0.01729397103190422, 0.06824929267168045, 0.04137401282787323, -0.11987855285406113, 0.039997830986976624, 0.09985730051994324, 0.03129225969314575, -0.02403109148144722, -0.09555719047784805, -0.0960531085729599, -0.028149720281362534, -0.08706799149513245, -0.04148619994521141, 0.07103606313467026, -0.03301135078072548, -0.020003849640488625, 0.03001512587070465, 0.013978940434753895, -0.05286052078008652, 0.04861854016780853, -0.04121798649430275, -0.03980618342757225, 0.0055641657672822475, 0.008345307782292366, -0.026724204421043396, 0.09382150322198868, -0.041468165814876556, 0.056747306138277054, -0.051800262182950974, -0.013641403056681156, -0.03539476543664932, -0.0036625396460294724, -0.03513714298605919, -0.05170188099145889, -0.022215256467461586, -0.13948242366313934, -0.039365772157907486, -0.08654371649026871, -0.031613342463970184, 0.021580569446086884, -0.06997445970773697, -0.04094633832573891, -0.02283294126391411, -0.04148833453655243, 0.06380949914455414, 0.00770802516490221, -0.013566429726779461, -0.013593848794698715, -0.118775874376297, -0.01219252310693264, 0.03481455519795418, 0.04207824170589447, 0.006877651903778315, 0.12713958323001862, -0.11007211357355118, 0.00652676448225975, 0.10401102900505066, 0.04510454460978508, -0.11704950034618378, -0.10281343758106232, 0.04192968085408211, -0.10546693950891495, -0.04028443247079849, -0.028730198740959167, 0.057967476546764374, -0.0037561722565442324, -0.012362206354737282, -0.13706807792186737, -0.1471913903951645], [-0.08585099130868912, -0.09302449971437454, -0.04720792919397354, 0.03225106745958328, -0.038286563009023666, -0.08931946009397507, 0.17648369073867798, -0.077630415558815, -0.05459315702319145, -0.08220633864402771, -0.08555592596530914, -0.030703376978635788, 0.09296020865440369, -0.11884994804859161, 0.18618980050086975, 0.17027652263641357, -0.10541433095932007, -0.1621275246143341, -0.010151621885597706, 0.18319040536880493, 0.012198704294860363, 0.1309979110956192, 0.09131543338298798, -0.09890391677618027, -0.14822740852832794, -0.0705806091427803, 0.07362975925207138, 0.1654002070426941, -0.08340300619602203, -0.009420548565685749, 0.20095963776111603, 0.11228767037391663, -0.15297023952007294, -0.025357365608215332, -0.15201479196548462, -0.04639220982789993, -0.061051029711961746, -0.003627130761742592, 0.021199719980359077, -0.13875842094421387, -0.005140571855008602, 0.1557539850473404, -0.03716859593987465, -0.15840451419353485, -0.024458998814225197, -0.04757006838917732, -0.06320559233427048, 0.12333227694034576, -0.08620738238096237, 0.07524331659078598, -0.07182000577449799, 0.11154326796531677, -0.01423848606646061, -0.17093999683856964, -0.10736415535211563, -0.05672968551516533, 0.09278891980648041, -0.09482486546039581, -0.04135722294449806, -0.008908900432288647, 0.009316577576100826, 0.13764430582523346, 0.026656944304704666, -0.041217803955078125, 0.018251845613121986, -0.11824916303157806, -0.013068241998553276, -0.07667715847492218, 0.12885665893554688, -0.007268575020134449, -0.14294123649597168, -0.0927710086107254, -0.050934311002492905, 0.009280509315431118, -0.06580411642789841, -0.0257806945592165, -0.11569254845380783, -0.02173597365617752, 0.05807357281446457, -0.13143183290958405, 0.11219906061887741, 0.030119169503450394, 0.10184241831302643, -0.08278660476207733, 0.013100437819957733, 0.09402426332235336, 0.07213924825191498, -0.0224152784794569, -0.04006297513842583, -0.13432103395462036, -0.1095903292298317, -0.04587122052907944, -0.12246459722518921, -0.025583541020751, 0.014586009085178375, -0.1226000040769577, -0.10189728438854218, 0.04013597592711449, -0.027754325419664383, -0.06469941139221191, 0.027727292850613594, 0.12998712062835693, -0.05397160351276398, -0.010794769041240215, -0.008084912784397602, 0.1287761628627777, 0.0766863003373146, -0.08839893341064453, -0.06451872736215591, -0.05652491748332977, -0.15575721859931946, 0.13661113381385803, 0.05807226896286011, 0.123164102435112, -0.004030365031212568, 0.09567438811063766, -0.17291846871376038, -0.13886718451976776, -0.03848608210682869, 0.10717999935150146, -0.12930551171302795, -0.11277417093515396, -0.09049974381923676, 0.05222998932003975, -0.09018967300653458, -0.014575309120118618, -0.025258000940084457, -0.08440019190311432], [-0.1037503257393837, 0.01727895997464657, 0.003377613378688693, 0.12470976263284683, -0.014030896127223969, -0.11862284690141678, 0.048729486763477325, -0.04555489495396614, 0.0014839781215414405, -0.11584021896123886, -0.14419867098331451, -0.011173207312822342, 0.0342307910323143, -0.0935940220952034, 0.015041036531329155, 0.026434384286403656, -0.046738151460886, 0.005387085024267435, 0.10016946494579315, 0.039405982941389084, 0.13281968235969543, 0.07726673036813736, 0.10355400294065475, -0.023542312905192375, -0.06860729306936264, -0.060074251145124435, 0.11685965955257416, 0.13570542633533478, -0.04417670890688896, 0.2074921876192093, 0.1035585030913353, 0.10871529579162598, -0.11987411975860596, -0.13767516613006592, -0.09838943183422089, -0.039059754461050034, 0.015033447183668613, 0.02156101167201996, -0.016547467559576035, -0.04453793168067932, 0.11785027384757996, 0.022742124274373055, -0.10776833444833755, -0.02432355284690857, -0.08552812784910202, 0.0003525006177369505, -0.005524055100977421, 0.047954775393009186, -0.06854766607284546, -0.0237308107316494, -0.05319875851273537, 0.10106930881738663, -0.017823344096541405, -0.02087467722594738, -0.09204418957233429, 0.006246492266654968, -0.017103755846619606, 0.00031630590092390776, -0.005449674092233181, -0.10840190201997757, 0.1404157131910324, 0.06019974127411842, -0.12936052680015564, -0.10349761694669724, -0.010934609919786453, -0.041090771555900574, -0.13849931955337524, -0.13062618672847748, 0.019468914717435837, -0.08412457257509232, -0.02861221879720688, -0.027834443375468254, 0.0010572439059615135, -0.1019715964794159, -0.06135832890868187, -0.03883153200149536, 0.009526066482067108, 0.018611563369631767, 0.055875107645988464, 0.012759402394294739, 0.08954919874668121, 0.10740451514720917, 0.13478240370750427, -0.026513945311307907, 0.07387892156839371, 0.0012437916593626142, 0.14059093594551086, -0.060712214559316635, -0.1008748784661293, 0.009224709123373032, -0.04343826696276665, -0.14739780128002167, -0.01638175919651985, -0.0470733679831028, 0.018310895189642906, -0.060146965086460114, -0.011865541338920593, -0.04199925437569618, -0.06188216432929039, 0.020870210602879524, 0.06516492366790771, 0.11108606308698654, -0.05252298340201378, -0.04563714191317558, 0.015301317907869816, 0.09747568517923355, 0.16105884313583374, -0.06547725200653076, -0.07558734714984894, -0.024125101044774055, -0.012096371501684189, 0.07176441699266434, 0.10717883706092834, -0.07777806371450424, -0.01496223546564579, 0.1093023270368576, -0.010879077948629856, -0.07255961745977402, -0.12152867764234543, 0.09988901764154434, -0.09111984074115753, -0.05329776182770729, 0.012908835895359516, 0.02183646336197853, -0.029209569096565247, 0.00923015084117651, -0.04182964563369751, -0.0700308233499527], [-0.02364511415362358, -0.10109983384609222, -0.12780852615833282, 0.1764814555644989, -0.07159800082445145, -0.11285541206598282, 0.022937199100852013, -0.12053776532411575, -0.044070612639188766, -0.00810380931943655, 0.013559597544372082, 0.05096602812409401, -0.024120410904288292, -0.14774459600448608, 0.12150821089744568, 0.12585321068763733, -0.11442925781011581, -0.16811209917068481, 0.05711175501346588, 0.0625070258975029, 0.08734995871782303, 0.03087516687810421, 0.0875810757279396, 0.11649975180625916, -0.038523901253938675, -0.14011827111244202, 0.03043367527425289, 0.1356346309185028, 0.03560667112469673, -0.060253988951444626, 0.0966419130563736, 0.13894300162792206, -0.1307835429906845, -0.07358411699533463, -0.01834879070520401, 0.03317684307694435, -0.01186121255159378, 0.036827705800533295, 0.01703718490898609, -0.10829780250787735, 0.06479616463184357, 0.22281962633132935, -0.16688400506973267, -0.09531091898679733, -0.16216756403446198, -0.1212051659822464, 0.057687509804964066, 0.039167337119579315, -0.02773657627403736, 0.13150064647197723, 0.08233069628477097, 0.1787712723016739, 0.02256423607468605, -0.1483832150697708, 0.013459320180118084, -0.06008316949009895, 0.11430588364601135, -0.0029427744448184967, -0.09918807446956635, -0.08939071744680405, 0.08028431236743927, 0.1361939162015915, 0.10606427490711212, -0.0721818208694458, 0.03559470549225807, -0.08763532340526581, -0.027683289721608162, -0.046469587832689285, 0.06869349628686905, -0.07144561409950256, 0.02302568219602108, -0.04843940585851669, 0.042234957218170166, -0.011433887295424938, -0.09085217863321304, 0.007624455727636814, -0.0819949358701706, -0.125690296292305, -0.00015734571206849068, -0.04851020500063896, 0.0873892679810524, -0.022021502256393433, 0.0786697268486023, -0.05569322034716606, 0.11650306731462479, 0.05271254479885101, 0.16270551085472107, 0.11139441281557083, -0.0855998620390892, -0.05202321335673332, -0.10741864144802094, -0.03832114860415459, -0.21117834746837616, -0.0010759023716673255, -0.016103604808449745, -0.10368337482213974, 0.009589118883013725, -0.023123571649193764, -0.03702741488814354, -0.02237500064074993, 0.03333570063114166, 0.0893862396478653, 0.03395656496286392, -0.07229918986558914, 0.02213231660425663, 0.05670950934290886, 0.1356535702943802, -0.015238411724567413, -0.0734972357749939, -0.1188453882932663, -0.06971894949674606, 0.04193222150206566, 0.026756586506962776, 0.03357087820768356, -0.003046318655833602, 0.11594782769680023, -0.17984537780284882, -0.12573543190956116, -0.03323386609554291, 0.1605481058359146, -0.1371375024318695, -0.13971878588199615, -0.10405009239912033, 0.03898816928267479, -0.056555695831775665, -0.053855352103710175, -0.07089676707983017, 0.005793243180960417], [-0.05359090864658356, -0.017473533749580383, -0.03659491613507271, 0.04543520137667656, -0.0933261513710022, 0.001762217958457768, 0.05767735093832016, -0.13783489167690277, -0.0013272510841488838, -0.003537131939083338, -0.08093531429767609, -0.10922805964946747, 0.05600107088685036, -0.09264975041151047, 0.09205619990825653, 0.14935241639614105, -0.03181293606758118, -0.10130195319652557, 0.03167901933193207, 0.038484618067741394, 0.12130064517259598, 0.12044547498226166, 0.05513112619519234, -0.06741724163293839, -0.10965424031019211, 0.0094168521463871, 0.06182091683149338, 0.16767464578151703, 0.030781641602516174, 0.09354434907436371, 0.1049988716840744, 0.12777012586593628, -0.07330446690320969, -0.10041684657335281, -0.08896943926811218, 0.03470618277788162, -0.038618382066488266, 0.03273624926805496, -0.016777008771896362, -0.12242970615625381, -0.04751747474074364, 0.05719412863254547, -0.09841236472129822, -0.06358792632818222, -0.005927153863012791, -0.002195276552811265, -0.12166023254394531, 0.07666892558336258, -0.0895969346165657, 0.009505846537649632, -0.0033052614890038967, 0.14850324392318726, -0.10831090062856674, -0.020839732140302658, 0.029653139412403107, -0.019961068406701088, 0.04267917573451996, -0.0018509007059037685, -0.0024788742884993553, -0.10156527906656265, 0.1315152943134308, 0.09256988018751144, 0.025876427069306374, -0.11386067420244217, 0.0937642902135849, -0.06564337760210037, -0.14034277200698853, -0.02901795506477356, -0.08702259510755539, -0.09543266147375107, -0.054499100893735886, -0.07115273922681808, -0.00020171527285128832, -0.13982529938220978, -0.13865575194358826, -0.055246755480766296, -0.1300198882818222, -0.06724143773317337, 0.019122889265418053, -0.04939926043152809, 0.030789688229560852, 0.01715127006173134, -0.002022799337282777, -0.016037961468100548, 0.17110848426818848, 0.0632045790553093, 0.11334437131881714, -0.02952471561729908, -0.10296950489282608, -0.13903458416461945, -0.017350055277347565, -0.023966109380126, -0.10675414651632309, -0.1270301640033722, -0.05855695158243179, -0.044975001364946365, -0.0808923989534378, -0.02787736989557743, -0.023347409442067146, -0.03893683850765228, 0.06700537353754044, 0.08611100167036057, -0.1247100979089737, -0.04993303120136261, -0.0841316506266594, -0.003769918344914913, 0.12039731442928314, -0.006182088516652584, -0.07229548692703247, -0.02420736290514469, -0.0708148404955864, 0.13675205409526825, 0.01332874409854412, -0.0009620906785130501, 0.009993774816393852, 0.014264527708292007, -0.14275860786437988, -0.05097559839487076, -0.07276918739080429, 0.032503049820661545, -0.022176485508680344, 0.021706365048885345, -0.09340891987085342, 0.05067804083228111, -0.060176584869623184, 0.0492725595831871, -0.026101941242814064, -0.06654902547597885], [-0.06614381074905396, -0.07429482042789459, -0.0040300521068274975, -0.0056876386515796185, -0.0378866046667099, -0.10413163900375366, -0.0017848267452791333, -0.0975256860256195, 0.029740402474999428, -0.049165770411491394, -0.053999219089746475, 0.01644406095147133, -0.014972204342484474, -0.09184674173593521, 0.14037783443927765, 0.1480453461408615, 0.014103226363658905, -0.08286822587251663, 0.00019214203348383307, 0.039323996752500534, 0.12301971018314362, -0.021663391962647438, 0.09378872811794281, 0.023365657776594162, -0.10453712940216064, -0.012610985897481441, 0.06081078574061394, 0.005318122450262308, 0.004596273880451918, 0.03203287720680237, 0.05147966369986534, 0.08285998553037643, -0.07891838997602463, -0.10527341067790985, -0.03833538666367531, -0.028379013761878014, -0.023783231154084206, -0.09201032668352127, -0.03471647948026657, -0.06444492936134338, -0.014860790222883224, -0.004707850515842438, 0.016974719241261482, -0.025784574449062347, -0.008486107923090458, -0.12654241919517517, 0.0066907708533108234, 0.10269206017255783, -0.1386556327342987, 0.11022073775529861, -0.07169143110513687, 0.015368272550404072, -0.10506969690322876, -0.03913998231291771, -0.054015014320611954, 0.0197291299700737, -0.0035217006225138903, -0.021441452205181122, -0.017845360562205315, -0.14071021974086761, 0.05998716875910759, 0.08491296321153641, -0.10182423889636993, -0.1278635561466217, 0.06196490302681923, -0.0017629052745178342, -0.009643479250371456, -0.10090678185224533, -0.10602401196956635, -0.009678334929049015, 0.015932230278849602, -0.08627580106258392, -0.07881470024585724, -0.09787941724061966, -0.06494985520839691, 0.04646993800997734, -0.11339602619409561, -0.00714647863060236, -0.009454462677240372, -0.03363356366753578, 0.1198686733841896, 0.06635934114456177, 0.011042304337024689, -0.05364595726132393, 0.05863979086279869, 0.056879881769418716, 0.0733671486377716, -0.06552646309137344, -0.0028595179319381714, -0.07193838804960251, 0.03400181233882904, -0.0795537456870079, -0.059507694095373154, 0.004793907981365919, -0.15015219151973724, -0.08360758423805237, -0.11207044124603271, -0.10742183029651642, -0.005103926174342632, -0.08216845244169235, 0.11895249038934708, 0.01651301234960556, -0.07032434642314911, -0.0612633153796196, -0.09962662309408188, 0.05548107251524925, 0.0987534299492836, -0.11575406789779663, -0.029902169480919838, -0.02278352715075016, -0.08091838657855988, 0.0963086411356926, 0.02991476096212864, 0.03031776286661625, 0.0005579226999543607, 0.059352416545152664, -0.12963363528251648, -0.014077055267989635, -0.13263775408267975, 0.022415297105908394, -0.09872166812419891, -0.029368143528699875, -0.022583793848752975, 0.004425663501024246, -0.020502401515841484, 0.03906654566526413, -0.13275046646595, -0.0810464546084404], [-0.10079166293144226, -0.000560140993911773, -0.14891409873962402, 0.12103261053562164, -0.00959328655153513, 0.00011676222493406385, 0.13530901074409485, -0.05635271593928337, 0.03380455821752548, -0.09450480341911316, 0.06783672422170639, 0.02219952829182148, 0.0017883810214698315, -0.15234215557575226, 0.16441762447357178, 0.0971587672829628, -0.04765482246875763, -0.10297984629869461, 0.08590640872716904, 0.14710037410259247, 0.1441778987646103, 0.06944675743579865, 0.010279783979058266, 0.10160600394010544, -0.15702179074287415, -0.061437979340553284, 0.06423094123601913, 0.08692978322505951, 0.05786844715476036, 0.041389644145965576, 0.17639902234077454, 0.04616983234882355, -0.10840102285146713, -0.009827942587435246, -0.08866336196660995, 0.05610687658190727, -0.05410560593008995, 0.05356893315911293, 0.037674348801374435, -0.06265632063150406, -0.03823987394571304, 0.06552738696336746, -0.05885770916938782, -0.1432238668203354, -0.13860590755939484, -0.059048086404800415, -0.04374168440699577, 0.08781180530786514, -0.05971065163612366, 0.05069460719823837, -0.044986214488744736, 0.15188412368297577, -0.01627800054848194, -0.20096245408058167, 0.01514464057981968, -0.15217359364032745, 0.14527830481529236, -0.16407892107963562, -0.08771433681249619, -0.13065271079540253, 0.10912630707025528, 0.05356697365641594, 0.06787699460983276, -0.056116338819265366, -0.006106350105255842, -0.14214375615119934, -0.026296282187104225, -0.09336928278207779, 0.14773793518543243, -0.03729112818837166, -0.03432279825210571, -0.008314688690006733, -0.02638036012649536, 0.03758080303668976, -0.09419243782758713, -0.08494982123374939, -0.005019386298954487, -0.0161138903349638, 0.018643487244844437, -0.08396472781896591, 0.18890705704689026, 0.1927914023399353, 0.06090913712978363, -0.08287356048822403, 0.14025317132472992, 0.07919798046350479, 0.1880352944135666, 0.0588475838303566, -0.03979000449180603, -0.13544243574142456, -0.13506978750228882, -0.0929182693362236, -0.08252035826444626, -0.030517570674419403, -0.04867727309465408, -0.09871453046798706, -0.07963927090167999, -0.013379587791860104, -0.017180969938635826, -0.014065831899642944, -0.021439069882035255, 0.08030930906534195, -0.015421547926962376, -0.043397050350904465, -0.0024848980829119682, 0.12735815346240997, 0.11281349509954453, -0.002900051651522517, -0.010832497850060463, -0.06399521976709366, -0.15025189518928528, 0.09109614789485931, 0.13871251046657562, 0.09762824326753616, 0.04035394266247749, 0.12506921589374542, -0.1840643733739853, -0.11760440468788147, -0.056167829781770706, 0.122359998524189, -0.07520376145839691, -0.06567121297121048, -0.12501932680606842, 0.137899711728096, -0.02176976576447487, -0.0018405835144221783, -0.0810241624712944, 0.09855029731988907], [0.01795787550508976, -0.10340432077646255, -0.1192546859383583, 0.006196720991283655, -0.07793670892715454, -0.13883283734321594, 0.10950487107038498, 0.006546577904373407, -0.0350828543305397, -0.05022883042693138, -0.12761998176574707, -0.1081397607922554, 0.03267186880111694, -0.147073894739151, 0.09989727288484573, 0.05565700680017471, -0.08296100795269012, -0.10637177526950836, -0.025029011070728302, -0.019342543557286263, 0.05579360947012901, 0.09058287739753723, -0.0018727130955085158, -0.13522891700267792, 0.020529307425022125, -0.0648203045129776, 0.1295078992843628, 0.001441228436306119, 0.0025988463312387466, 0.041232988238334656, 0.04934397712349892, -0.01303311251103878, 0.017096979543566704, -0.08398885279893875, -0.10721654444932938, -0.051413293927907944, -0.0009318662341684103, -0.06709884852170944, -0.06972457468509674, -0.08149941265583038, -0.005722285248339176, 0.09000784903764725, -0.03082696534693241, 0.01902177557349205, -0.0035528866574168205, -0.11887811869382858, -0.09728483110666275, -0.017882751300930977, -0.04261709377169609, 0.07502759248018265, -0.03061351366341114, 0.05519945174455643, -0.04486314579844475, -0.123233862221241, -0.0421566367149353, -0.035817865282297134, -0.01271792408078909, 0.023757029324769974, 0.0028318441472947598, -0.07944607734680176, -0.027891354635357857, 0.1149696484208107, 0.011070976965129375, 0.017267925664782524, 0.06635607033967972, -0.06318546831607819, -0.1428118497133255, -0.053489625453948975, -0.004115978721529245, 0.0030371341854333878, -0.062210675328969955, -0.031492602080106735, -0.08972194790840149, 0.010554506443440914, -0.005842053331434727, 0.016763683408498764, -0.04376690089702606, -0.01838313229382038, 0.12946580350399017, -0.09027181565761566, 0.02703881822526455, 0.053913116455078125, 0.05685954540967941, -0.009102975949645042, 0.09930701553821564, 0.002464479301124811, 0.046912189573049545, -0.0929325520992279, -0.02552967518568039, -0.034477923065423965, -0.24360935389995575, 0.005252221133559942, -0.08612078428268433, -0.06569655984640121, -0.0932750254869461, -0.04202332720160484, -0.017246220260858536, 0.01579967699944973, -0.14381183683872223, -0.09926603734493256, -0.019792497158050537, 0.026182599365711212, -0.04758837819099426, -0.046661898493766785, -0.05571410804986954, 0.06541816890239716, 