{"conv1.weight": [[-0.008951384574174881, -0.013506842777132988, -0.043148841708898544, -0.020709095522761345, -0.048626068979501724, 0.039019081741571426, -0.010917761363089085, -0.08984478563070297, 0.0565483495593071, 0.1714407503604889, -0.03175925835967064, -0.024753637611865997, -0.05681746080517769, 0.021212846040725708, -0.009262746199965477, 0.0168561153113842, -0.024518584832549095, -0.041432302445173264, -0.019223889335989952, 0.01849510334432125, -0.006311133503913879, -0.02417384460568428, 0.021571848541498184, -0.013780136592686176, -0.04734654724597931, -0.04434279724955559, -0.029673412442207336, -0.0011440335074439645, -0.042014479637145996, -0.019893715158104897, -0.03370973467826843, -0.039547521620988846, -0.00762827368453145, 0.05288887396454811, 0.025005394592881203, -0.008881802670657635, -0.02674357406795025, 0.018967287614941597, -0.0016642276896163821, -0.02685105986893177, 0.09698914736509323, -0.0407116562128067, 0.058782391250133514, -0.06861492991447449, 0.016820793971419334, -0.049281273037195206, -0.07439994066953659, -0.016023537144064903, -0.043057702481746674, -0.059898875653743744, -0.023170338943600655, 0.006299213506281376, 0.05444491654634476, -0.0068718502297997475, -0.2393723875284195, -0.03903012350201607, -0.020537016913294792, 0.032863203436136246, -0.045358844101428986, -0.013019468635320663, -0.04482879117131233, 0.15826641023159027, -0.02630406804382801, -0.056435663253068924], [0.021593056619167328, -0.0965760201215744, 0.0027007143944501877, -0.07287648320198059, 0.01614944450557232, -0.04022899642586708, -0.037944577634334564, -0.07089599967002869, -0.04750176891684532, -0.028129950165748596, -0.038788024336099625, -0.08361451327800751, -0.041182391345500946, -0.033529117703437805, -0.0037109749391674995, -0.016053270548582077, -0.06500194221735, -0.08380737900733948, -0.06310070306062698, -0.053935352712869644, -0.06336230039596558, -0.024244066327810287, -0.033203594386577606, -0.014433109201490879, -0.051692478358745575, -0.015821462497115135, -0.02692275680601597, 0.007736300118267536, 0.011196563020348549, -0.05679742619395256, -0.049501433968544006, 0.014183648861944675, 0.01176907867193222, -0.1040952205657959, -0.0034677665680646896, -0.036835167557001114, 0.009037865325808525, -0.0006327674491330981, 0.07016782462596893, -0.02384551241993904, -0.014618528075516224, -0.03605169430375099, -0.054685890674591064, -0.005360709968954325, -0.016180774196982384, 0.0023215943947434425, -0.09518101811408997, -0.10332121700048447, -0.00413704477250576, 0.008493254892528057, -0.07536540925502777, -0.08086362481117249, 0.005348909646272659, -0.08056490868330002, -0.03936149179935455, -0.044436413794755936, -0.04014734923839569, -0.023157263174653053, -0.0652472972869873, -0.022411596029996872, -0.09584353119134903, -0.09669040888547897, -0.0451003834605217, -0.02627410553395748], [-0.03642589971423149, 0.015540826134383678, -0.04013689607381821, -0.04719933122396469, 0.05951336398720741, 0.025035835802555084, -0.03422212228178978, -0.012996035628020763, -0.03997137397527695, -0.05101044103503227, -0.05398211255669594, -0.023216240108013153, -0.042715903371572495, -0.100351482629776, -0.09510879218578339, -0.07490873336791992, -0.08674494922161102, -0.0542999692261219, -0.07712630927562714, -0.01691216230392456, -0.09127139300107956, -0.052210722118616104, -0.09860066324472427, -0.0589168444275856, -0.032152120023965836, 0.01282001007348299, -0.05935803800821304, -0.025320393964648247, -0.08887162804603577, -0.009374975226819515, -0.05526774749159813, -0.03003629483282566, -0.04424968361854553, -0.038169581443071365, 0.009159299544990063, -0.10978995263576508, -0.06476815789937973, -0.006516731809824705, -0.06178892403841019, -0.035394687205553055, 0.06737572699785233, -0.023888958618044853, -0.09767584502696991, -0.033150814473629, -0.02444944903254509, -0.0591064877808094, -0.05649232864379883, -0.01694515533745289, -0.0453101247549057, -0.0396830253303051, -0.028376832604408264, -0.06800924986600876, -0.0428316555917263, -0.09700652956962585, -0.03843463212251663, -0.07115311920642853, -0.014827984385192394, -0.011102263815701008, -0.04121346399188042, -0.006347711198031902, 0.1609029620885849, 0.0010861542541533709, 0.04379902780056, -0.05300894007086754], [0.1275796890258789, 0.021614763885736465, 0.06779199838638306, 0.0472375825047493, 0.13816387951374054, 0.1286984235048294, 0.09158378839492798, 0.04077041521668434, 0.07953488826751709, 0.0815143883228302, 0.05142556503415108, 0.045450933277606964, 0.09580610692501068, 0.03785557299852371, 0.03772716969251633, 0.08020055294036865, 0.08293315768241882, 0.055457547307014465, 0.06814343482255936, 0.08570554852485657, 0.1265368014574051, 0.05697018653154373, 0.010668113827705383, 0.0357993058860302, -0.006066610105335712, 0.03155452385544777, 0.13588757812976837, 0.1593857854604721, 0.16129614412784576, 0.07359613478183746, 0.1346520632505417, 0.11637255549430847, 0.10786005109548569, 0.013889984227716923, 0.11692368239164352, 0.14940869808197021, 0.10509388148784637, 0.09420008212327957, 0.05641753971576691, 0.052802205085754395, 0.06796693056821823, 0.06591900438070297, 0.031712908297777176, 0.11772964149713516, 0.08175160735845566, 0.049312807619571686, 0.09050879627466202, 0.10891219973564148, 0.08614088594913483, 0.034707874059677124, 0.1450345665216446, 0.011009166948497295, 0.14536020159721375, 0.15087810158729553, 0.09880620986223221, 0.12796813249588013, 0.1862519085407257, 0.055838074535131454, 0.04085896536707878, 0.07965493202209473, 0.041951898485422134, 0.08896897733211517, 0.14225025475025177, 0.10229042172431946], [0.09376498311758041, 0.014883538708090782, 0.03913149982690811, 0.038216426968574524, 0.015009395778179169, -0.0014758673496544361, 0.0675397589802742, 0.18015429377555847, -0.038221463561058044, -0.0033430445473641157, -0.003961304668337107, -0.009606349281966686, 0.03090282529592514, 0.019788730889558792, 0.016325274482369423, 0.03939351066946983, -0.022738777101039886, 0.019022736698389053, 0.158039852976799, -0.038952603936195374, 0.021851204335689545, 0.029781581833958626, 0.026046952232718468, 0.02753479592502117, 0.011529217474162579, -0.006102279759943485, 0.0004910894203931093, 0.06783972680568695, 0.04112632945179939, 0.0467422753572464, 0.09783031791448593, 0.021890709176659584, 0.02550293132662773, 0.001119326800107956, 0.002718594390898943, 0.04035302996635437, 0.0011015009367838502, 0.03545893356204033, 0.07022568583488464, 0.008191138505935669, 0.02559930458664894, 0.027443552389740944, 0.0366978719830513, 0.025811895728111267, -0.0667683333158493, -0.004751740954816341, -0.09356895089149475, 0.023667795583605766, 0.1761738508939743, 0.03466223552823067, 0.055028077214956284, -0.033585917204618454, 0.06241598352789879, -0.006933130323886871, -0.16240409016609192, -0.019794141873717308, -0.038921140134334564, 0.037738680839538574, 0.02302399091422558, 0.09086809307336807, 0.0438847541809082, 0.0001647589961066842, -0.006822161376476288, 0.0008479384705424309], [-0.06917057186365128, -0.1040438711643219, -0.057533204555511475, -0.040585439652204514, 0.0035635153762996197, -0.03175646439194679, 0.07067576795816422, -0.057876795530319214, 0.04105357453227043, -0.0365854911506176, -0.012472791597247124, 0.1474262923002243, -0.06666170060634613, 0.00907720997929573, -0.0758146345615387, -0.055398549884557724, -0.04059038311243057, -0.011998778209090233, -0.09855617582798004, -0.05054130032658577, -0.06742946803569794, -0.04188425466418266, -0.060962799936532974, -0.08610478788614273, -0.03411770612001419, -0.09231982380151749, -0.03571050986647606, -0.007260587066411972, -0.04419500008225441, -0.05115070566534996, -0.015081008896231651, 0.02194906771183014, -0.04678883031010628, -0.11106472462415695, -0.09755455702543259, -0.005357242655009031, 0.023878928273916245, -0.0801382064819336, 0.01705147884786129, -0.03570476546883583, -0.010714265517890453, -0.050616566091775894, 0.0030420164112001657, -0.037124235183000565, -0.05730755627155304, -0.09703997522592545, -0.07337024062871933, -0.08335941284894943, -0.03880252316594124, -0.037607718259096146, -0.03343092277646065, -0.07990127801895142, -0.04689814895391464, -0.07019941508769989, -0.05943991616368294, -0.008048273622989655, -0.08982720971107483, -0.03905809670686722, -0.08926422148942947, -0.0395033173263073, 0.08785144984722137, -0.05609891563653946, -0.00977783277630806, -0.06789727509021759], [0.044796913862228394, -0.01986946165561676, 0.06078779697418213, 0.028613368049263954, 0.030229104682803154, 0.055460911244153976, 0.0955783873796463, -0.011872751638293266, 0.016015497967600822, -0.008902265690267086, 0.011301247403025627, 0.010976620018482208, 0.011123061180114746, 0.010840226896107197, 0.0063095237128436565, 0.030518101528286934, 0.03665821626782417, 0.07278816401958466, -0.0022906719241291285, 0.03654332086443901, 0.047846414148807526, -0.023231983184814453, -0.02424466609954834, 0.00041593005880713463, 0.09561320394277573, -0.01340939849615097, 0.04426634684205055, 0.043757930397987366, 0.06520336121320724, 0.11990390717983246, 0.0035864925011992455, -0.0033389939926564693, 0.04507003724575043, 0.02975478395819664, -0.001976009923964739, 0.04953034222126007, 0.05482236295938492, 0.010064816102385521, 0.02644050307571888, 0.06578019261360168, -0.07393234223127365, -0.04391578212380409, 0.0670599564909935, -0.02077878639101982, -0.005314560607075691, 0.0057895067147910595, -0.027437303215265274, 0.06178831681609154, -0.02118109166622162, 0.07339790463447571, 0.023689622059464455, 0.1966453492641449, -0.02602642960846424, 0.02520843595266342, -0.2514346241950989, -0.0070054419338703156, 0.01770724169909954, 0.0024677528999745846, 0.02590108849108219, 0.08442818373441696, 0.027387771755456924, -0.00213520135730505, -0.010143725201487541, 0.08797281980514526], [-0.041860438883304596, -0.03655394911766052, -0.052114810794591904, 0.03498852625489235, -0.01821843720972538, 0.04497591778635979, -0.04411803558468819, -0.09992875903844833, 0.03307131305336952, -0.05048428475856781, -0.020862801000475883, 0.023312615230679512, -0.00403459882363677, -0.06497423350811005, -0.020525353029370308, -0.008033178746700287, -0.021913524717092514, -0.05877513810992241, -0.05053665116429329, -0.004711076617240906, -0.08343398571014404, -0.07723214477300644, -0.095125712454319, -0.028614163398742676, -0.16154883801937103, 0.012861454859375954, -0.008566001430153847, -0.007824718952178955, -0.042827509343624115, -0.007550233509391546, -0.0024579246528446674, -0.017631638795137405, 0.00021473289234563708, 0.0044691236689686775, -0.010591784492135048, -0.061614807695150375, 0.05613323673605919, -0.0075159827247262, -0.02897101454436779, 0.07272611558437347, 0.015120572410523891, -0.024971729144454002, -0.009624058380723, -0.004672394134104252, -0.017061421647667885, -0.02627072110772133, 0.027370041236281395, -0.023302139714360237, -0.028432505205273628, -0.01588030532002449, -0.012630227953195572, -0.056302208453416824, 0.036269936710596085, -0.05326218158006668, 0.046836696565151215, -0.002799571491777897, -0.043106742203235626, -0.007858523167669773, -0.06767537444829941, 0.041333459317684174, 0.016142340376973152, -0.03981209546327591, 0.005434226710349321, 0.021126078441739082], [0.0331585593521595, -0.014796258881688118, 0.02691715769469738, -0.04031253606081009, -0.05594649165868759, -0.004457511939108372, -0.0363602489233017, -0.026054784655570984, -0.03085572086274624, 0.016454169526696205, -0.012192877940833569, -0.038996852934360504, 0.05162989720702171, -0.015346180647611618, 0.0068697016686201096, -0.05997113883495331, 0.02511444129049778, 0.021705379709601402, 0.0889059454202652, 0.07689797878265381, -0.02284226194024086, 0.002322841202840209, -0.015057500451803207, -0.06556251645088196, -0.028007347136735916, 0.06810978800058365, -0.042367856949567795, 0.10529562085866928, -0.009922446683049202, -0.07111401110887527, -0.022510992363095284, 0.02642853558063507, 0.009952491149306297, 0.04094564542174339, 0.027984127402305603, -0.007909491658210754, 0.007468018680810928, 0.01829647645354271, -0.033578772097826004, 0.08193258941173553, 0.029240300878882408, 0.03125302121043205, 0.004371180664747953, -0.031146906316280365, 0.02936934493482113, 0.013501061126589775, -0.005308735650032759, 0.02031596377491951, -0.04592134803533554, 0.10981844365596771, 0.13214050233364105, -0.12611044943332672, 0.005094434600323439, -0.006131715141236782, -0.10060165077447891, 0.00949693564325571, 0.1306336373090744, 0.07611282169818878, -0.0010847144294530153, 0.11529383063316345, -0.055481042712926865, 0.00720709515735507, -0.043124306946992874, 0.09282995760440826], [-0.059349168092012405, -0.004689056426286697, -0.0828540027141571, -0.016865098848938942, 0.006647052243351936, 0.07635445147752762, 0.048349250108003616, -0.0879887118935585, 0.13621114194393158, -0.0015860345447435975, -0.05155016481876373, 0.042513251304626465, -0.030031178146600723, -0.004912514705210924, -0.024537239223718643, -0.003785971784964204, -0.055671174079179764, -0.008369718678295612, -0.011352560482919216, -0.06698198616504669, -0.017206616699695587, -0.050662811845541, -0.060437072068452835, -0.06204473599791527, -0.013851894997060299, 0.0032305982895195484, -0.037426937371492386, -0.07585487514734268, 0.010042496956884861, -0.0916767418384552, -0.058978937566280365, 0.011521179229021072, -0.018047843128442764, 0.007704774383455515, -0.03235357254743576, -0.030597932636737823, -0.06484902650117874, 0.012150424532592297, -0.10801567882299423, -0.03348085656762123, 0.05659487098455429, -0.050719182938337326, -0.030198724940419197, -0.027832679450511932, 0.0037387865595519543, -0.012600982561707497, 0.11553929001092911, -0.02230173721909523, -0.037898145616054535, -0.021463528275489807, -0.03371128439903259, -0.06256118416786194, -0.02819601073861122, -0.024222608655691147, 0.009420523419976234, 0.033448126167058945, -0.06926295161247253, -0.00717482715845108, -0.05686631426215172, -0.05027433857321739, -0.036128077656030655, -0.04788060486316681, -0.04550181329250336, -0.022556114941835403], [-0.03419744595885277, -0.026836559176445007, -0.0046243444085121155, -0.008303388021886349, 0.03870583698153496, 0.01946417987346649, -0.020558156073093414, -0.059932220727205276, -0.03598983213305473, -0.005834270268678665, -0.006003191228955984, 0.14575938880443573, -0.02682691626250744, -0.089678093791008, 0.02412395365536213, -0.04906141757965088, -0.05986981838941574, 0.013026348315179348, 0.008251281455159187, 0.0024289540015161037, -0.04840627685189247, -0.0639781579375267, -0.04297136515378952, -0.025186721235513687, -0.10680297017097473, 0.039601389318704605, -0.03840985521674156, 0.006024223752319813, -0.0874021127820015, -0.03343486785888672, -0.028701383620500565, 0.013792360201478004, -0.008603223599493504, -0.034838661551475525, -0.04796542972326279, -0.10016485303640366, -0.08485378324985504, -0.005208946764469147, 0.036335188895463943, -0.04899202287197113, 0.024155007675290108, 0.012812885455787182, -0.028732266277074814, -0.09106086939573288, -0.047182757407426834, -0.02960527502000332, -0.014073280617594719, 0.02548092231154442, -0.014791110530495644, -0.005985329393297434, -0.03650664910674095, -0.07700599730014801, -0.008623035624623299, -0.03728456422686577, -0.06486707180738449, 0.015567535534501076, -0.06179538741707802, -0.010982614010572433, -0.07281439751386642, -0.007915981113910675, 0.08935776352882385, 0.0007302979938685894, -0.009247600100934505, -0.04194009304046631], [0.09045764058828354, 0.016115505248308182, -0.0015463160816580057, 0.05615023523569107, 0.08507200330495834, 0.005577748641371727, 0.06015970557928085, 0.02655678614974022, 0.07178182899951935, -0.0621287003159523, -0.04836774244904518, 0.04633637145161629, 0.018385805189609528, -0.025701822713017464, -0.08719183504581451, 0.05223459750413895, -0.028689371421933174, -0.02322063036262989, -0.04430484026670456, -0.04409207031130791, -0.0784977525472641, 0.01628841832280159, -0.08036422729492188, 0.01870475336909294, -0.044927507638931274, 0.03556539863348007, -0.015215938910841942, -0.023499099537730217, -0.04974102973937988, -0.03283993527293205, -0.048516858369112015, 0.06900029629468918, 0.0520218089222908, -0.0854867622256279, -0.019493939355015755, -0.004339901730418205, -0.03143732249736786, 0.023237328976392746, 0.069229856133461, 0.06330808252096176, 0.008785448968410492, -0.002568195341154933, 0.00838508177548647, 0.016209667548537254, 0.018851077184081078, -0.00469568558037281, -0.06743728369474411, -0.05445351451635361, 0.12366428226232529, 0.019579743966460228, -0.00814088899642229, -0.141727477312088, 0.015243022702634335, -0.010734543204307556, 0.014053985476493835, -0.030339544638991356, -0.028254881501197815, 0.005710755940526724, -0.07089243084192276, -0.017782719805836678, 0.03200957924127579, -0.040024831891059875, -0.003991256467998028, -0.012295343913137913], [0.030568396672606468, 0.116022489964962, 0.150595560669899, 0.12187386304140091, 0.053326137363910675, 0.008723081089556217, 0.04040922597050667, 0.12167003750801086, 0.06426089257001877, 0.23903436958789825, 0.0353420227766037, 0.017239192500710487, 0.07806304097175598, 0.2040153592824936, 0.032187506556510925, 0.03855961933732033, 0.05828731507062912, 0.022709932178258896, 0.11404713243246078, 0.04926012083888054, -0.025150861591100693, 0.07388325780630112, 0.047397468239068985, 0.05193702131509781, 0.05337883159518242, 0.027088452130556107, 0.023989031091332436, 0.07121189683675766, 0.07384470850229263, 0.028900127857923508, 0.11389926820993423, 0.010671056807041168, 0.014473731629550457, 0.08681803941726685, 0.046300195157527924, 0.13676922023296356, 0.04700746759772301, 0.09981366991996765, 0.01492457464337349, 0.04224774241447449, -0.0181403961032629, 0.06899551302194595, 0.1717405766248703, 0.02197074517607689, 0.033893704414367676, 0.026007216423749924, 0.053797099739313126, 0.13343936204910278, -0.0048643979243934155, 0.09119263291358948, 0.08418698608875275, 0.02768341451883316, 0.07229671627283096, 0.032234154641628265, 0.019256774336099625, 0.021116064861416817, 0.048157304525375366, 0.0029745586216449738, 0.017110615968704224, 0.03175520896911621, 0.021342748776078224, 0.16878782212734222, 0.04523685202002525, 0.04720725864171982], [-0.10154692083597183, -0.011573604308068752, -0.04413968324661255, 0.2164427787065506, -0.09979422390460968, -0.06916019320487976, -0.05155499652028084, -0.025047902017831802, -0.05889694765210152, -0.006589370779693127, -0.04490802437067032, -0.0318264402449131, 0.07679667323827744, -0.03691357374191284, -0.02595258131623268, -0.03386091813445091, -0.05587463453412056, -0.04179542884230614, -0.07602681964635849, -0.04098076745867729, -0.038656458258628845, -0.09338311105966568, -0.06493831425905228, -0.009368274360895157, -0.07773013412952423, -0.02346106618642807, -0.015267971903085709, -0.07986863702535629, 0.0034947404637932777, 0.015416864305734634, -0.014042196795344353, -0.04411289468407631, -0.00781635008752346, -0.03535684943199158, 0.019407566636800766, -0.022537438198924065, -0.02981807291507721, -0.03201454132795334, -0.011538892984390259, -0.020233040675520897, 0.11626089364290237, -0.025025777518749237, -0.016589701175689697, -0.05324198678135872, -0.005253148265182972, 0.008688554167747498, -0.051313769072294235, -0.04112798720598221, -0.009535280056297779, -0.0380239374935627, -0.03992246091365814, -0.04896250367164612, 0.01673996075987816, -0.021702054888010025, 0.11785616725683212, -0.003913213033229113, -0.06757808476686478, 0.0011161171132698655, -0.11395042389631271, 0.13373622298240662, -0.10400519520044327, -0.016084713861346245, 0.02429141476750374, -0.02011294476687908], [0.1170596182346344, 0.04588250070810318, 0.17872901260852814, 0.1633724868297577, 0.10008223354816437, 0.018970288336277008, 0.08091505616903305, 0.12413468211889267, 0.045033782720565796, 0.10542136430740356, 0.1006031185388565, 0.12917637825012207, 0.10085579007863998, 0.020054535940289497, 0.021487250924110413, 0.08346077799797058, 0.10751323401927948, 0.0778282955288887, 0.1551612913608551, 0.11069434881210327, 0.08835195004940033, 0.08825524896383286, 0.051180221140384674, 0.09089722484350204, 0.03587830066680908, 0.0399862676858902, 0.1465570628643036, 0.12013351917266846, 0.16262923181056976, 0.01546967588365078, 0.0730055570602417, 0.052245140075683594, 0.11237847805023193, 0.11766441911458969, 0.0403083935379982, 0.04687109217047691, 0.03678063303232193, 0.11114892363548279, 0.12737154960632324, 0.07429933547973633, -0.006908824667334557, 0.10530352592468262, 0.0759335458278656, 0.085477314889431, 0.09692642092704773, 0.1165308803319931, 0.01700906828045845, 0.10433965921401978, 0.015525970607995987, 0.0788743868470192, 0.0850146934390068, 0.00033813598565757275, 0.1632792204618454, 0.042654819786548615, 0.006760424934327602, 0.06033231317996979, 0.06875765323638916, 0.13028496503829956, 0.036201804876327515, 0.09095893800258636, 0.053397443145513535, 0.08450639992952347, 0.08463172614574432, 0.14416636526584625], [0.049459733068943024, 0.04314194247126579, 0.15724089741706848, 0.13436679542064667, 0.03361102193593979, 0.045047055929899216, 0.04762355610728264, 0.12095455080270767, 0.06790090352296829, 0.18065565824508667, 0.042253270745277405, 0.0850675031542778, 0.09212204068899155, 0.05488917976617813, -0.005511618219316006, 0.05151098221540451, 0.11076198518276215, 0.08963312953710556, 0.08882970362901688, 0.0871339961886406, 0.0629035010933876, 0.040017783641815186, 0.009284446947276592, 0.07411041110754013, 0.028880508616566658, 0.10052568465471268, 0.1134883314371109, 0.15569482743740082, 0.09078402817249298, 0.1560167670249939, 0.13463211059570312, 0.03204492852091789, 0.08919861912727356, 0.11481623351573944, 0.10101579874753952, 0.046039409935474396, 0.04200282320380211, 0.10331317782402039, 0.0856696367263794, 0.09227535128593445, 0.037823386490345, 0.13160310685634613, 0.11787446588277817, 0.015873387455940247, 0.1010514572262764, 0.05586564168334007, 0.028824567794799805, -0.0021211029961705208, 0.00881811510771513, 0.1617036610841751, 0.14886772632598877, 0.006002399139106274, 0.06650881469249725, 0.10410219430923462, -0.08286135643720627, 0.07413285225629807, 0.06817935407161713, 0.07290320843458176, 0.0741424635052681, 0.11299299448728561, 0.0744125172495842, 0.12101664394140244, 0.13828393816947937, 0.015529345721006393], [-0.01242859661579132, 0.04281728342175484, 0.0557619109749794, 0.07857032865285873, 0.052866749465465546, 0.052235644310712814, -0.06316084414720535, -0.03073037974536419, 0.04004481062293053, 0.018038630485534668, -0.014051239937543869, 0.06369107216596603, 0.08110467344522476, -0.00017596720135770738, 0.02464165724813938, 0.017675509676337242, 0.022643931210041046, -0.061255209147930145, 0.01451084017753601, -0.0058350590988993645, 0.008770568296313286, -0.06939734518527985, -0.03354176878929138, -0.021348103880882263, 0.01092747412621975, 0.055874865502119064, 0.0677814930677414, 0.006594766862690449, -0.012789920903742313, 0.032745361328125, 0.0778108462691307, -0.014749538153409958, 0.036713775247335434, 0.02093648910522461, -0.028501169756054878, -0.05391468107700348, 0.05032378062605858, 0.01675025187432766, -0.03824432194232941, 0.03084876574575901, -0.02428576722741127, 0.02047584392130375, -0.004512018524110317, 0.010225795209407806, 0.04470929503440857, 0.029862968251109123, 0.06656549125909805, -0.019269902259111404, 0.060279086232185364, -0.04543276131153107, -0.003514959244057536, -0.03520054370164871, 0.04852857440710068, -0.04170103371143341, 0.2033591866493225, 0.008507787249982357, 0.008217418566346169, 8.940737461671233e-05, -0.056092169135808945, 0.030828149989247322, -0.04937300831079483, 0.02321123518049717, -0.007387349847704172, -0.021985964849591255], [-0.05326208472251892, -0.10286830365657806, -0.06809340417385101, 0.019719470292329788, -0.031599488109350204, -0.0363239087164402, -0.09121426194906235, -0.04645410180091858, -0.04564673826098442, -0.07399945706129074, -0.08209393918514252, -0.007780037820339203, -0.028700286522507668, 0.0014848867431282997, -0.05369963496923447, -0.025481270626187325, -0.06010796129703522, 0.0053561534732580185, -0.014639276079833508, -0.03677086532115936, -0.0861569419503212, 0.009745209477841854, -0.05496584251523018, -0.0806998759508133, 0.08623719960451126, -0.022546812891960144, -0.009497499093413353, -0.05927744507789612, -0.04848134517669678, -0.05036024749279022, -0.0613696463406086, -0.05850456282496452, -0.041124358773231506, 0.008389828726649284, -0.024582987651228905, -0.0689389780163765, -0.03796430304646492, -0.01453548762947321, -0.013933348469436169, -0.03262247145175934, 0.07944794744253159, -0.05870798975229263, -0.05220362916588783, -0.05535860359668732, -0.041869889944791794, -0.06597575545310974, 0.15922296047210693, -0.0007857150631025434, 0.034165412187576294, -0.08009298890829086, -0.040341977030038834, -0.013839884661138058, -0.038429003208875656, -0.00043668985017575324, 0.10042047500610352, 0.0606522262096405, -0.025549937039613724, -0.0556306466460228, 0.033238235861063004, -0.0196987334638834, -0.10154566913843155, -0.08466378599405289, -0.03390100970864296, -0.07911502569913864], [0.03787824884057045, 0.0022768715862184763, 0.01625971496105194, 0.09109000861644745, 0.0781518891453743, 0.05091831088066101, 0.05459306016564369, 0.08614616841077805, 0.06957430392503738, -0.03284703195095062, 0.07258594781160355, 0.14989420771598816, 0.10078731179237366, 0.137130469083786, 0.0054380320943892, 0.06456016004085541, 0.08311336487531662, 0.03873365372419357, 0.0046729352325201035, 0.08218485862016678, -0.0406729131937027, -0.019722620025277138, 0.10349905490875244, 0.11525531113147736, -0.032721687108278275, 0.0782574713230133, 0.03308819234371185, 0.022700829431414604, 0.01960761286318302, -0.04054063931107521, 0.04960717633366585, 0.053211759775877, 0.07953862100839615, -0.04780581593513489, 0.026491966098546982, 0.024504097178578377, 0.08551222085952759, 0.09675406664609909, -0.02795545756816864, 0.03226970508694649, 0.01093223411589861, 0.07282289862632751, 0.010272507555782795, 0.047432977706193924, 0.07301577925682068, -0.015578767284750938, 0.08559995889663696, 0.05527566000819206, 0.006867327261716127, 0.059046924114227295, 0.017696455121040344, -0.016500337049365044, 0.031991127878427505, 0.014297425746917725, 0.1278541535139084, 0.02890670672059059, 0.06780970096588135, 0.06698137521743774, -0.02537502720952034, 0.013069081120193005, 0.18747280538082123, -0.02294212393462658, 0.04821962118148804, 0.07487449049949646], [0.06556423753499985, -0.019781116396188736, 0.038780491799116135, 0.06847584992647171, 0.06936293095350266, 0.004779882729053497, 0.06745041906833649, -0.003105331677943468, -0.019766896963119507, 0.04810722917318344, 0.03932284936308861, 0.10061710327863693, -0.008445714600384235, 0.029646985232830048, 0.05832092463970184, 0.062418289482593536, 0.024555644020438194, 0.01121334359049797, 0.03763381391763687, 0.045311860740184784, 0.040343232452869415, -0.04335027188062668, -0.018344923853874207, 0.060191888362169266, 0.009488622657954693, 0.03383226320147514, 0.0007318253628909588, 0.029100686311721802, 0.05185290053486824, 0.011896032840013504, 0.04873345047235489, 0.05672033503651619, 0.030317019671201706, -0.004009046591818333, 0.06542141735553741, 0.005535922944545746, 0.04217199981212616, 0.04786236584186554, 0.01582399196922779, 0.008383926004171371, -0.22514702379703522, 0.011126522906124592, -0.026006381958723068, -0.017659513279795647, 0.04966751113533974, 0.04414159059524536, -0.030141625553369522, 0.06204697862267494, -0.003911574836820364, 0.03125394508242607, 0.06517378240823746, 0.03224561735987663, -0.004433137364685535, 0.0033908116165548563, -0.17012865841388702, 0.0357913076877594, 0.03383810445666313, 0.02763701230287552, 0.0425850935280323, 0.02351008728146553, 0.029176928102970123, 0.0279313325881958, 0.02135167084634304, 0.08591079711914062], [0.007506610359996557, -0.03552751615643501, -0.04183891415596008, -0.012695963494479656, 0.01730489172041416, -0.08233726024627686, 0.042882081121206284, -0.18219037353992462, -0.21661435067653656, -0.07095097005367279, -0.03270192816853523, -0.0015324095729738474, 0.0012985070934519172, -0.13722290098667145, -0.029584193602204323, -0.04956750571727753, -0.12373945116996765, -0.0007585564744658768, -0.027457065880298615, -0.08290938287973404, 0.1166558787226677, -0.13440851867198944, -0.16669300198554993, 0.010715916752815247, 0.16342853009700775, -0.129106804728508, -0.010792214423418045, -0.04464440792798996, -0.06083032488822937, -0.18453718721866608, -0.05899246409535408, 0.008876935578882694, -0.04719961807131767, -0.06070243567228317, -0.01925002783536911, -0.06105094775557518, 0.09840148687362671, -0.016959786415100098, 0.026590339839458466, 0.00022170008742250502, -0.41046878695487976, -0.14290235936641693, -0.22744645178318024, -0.19055743515491486, -0.12071840465068817, -0.07389101386070251, -0.18111799657344818, -0.08194774389266968, 0.053270138800144196, -0.03049444779753685, -0.07122109830379486, 0.23580694198608398, -0.08443887531757355, -0.037987224757671356, -0.29950276017189026, -0.09338338673114777, -0.07759665697813034, -0.08943899720907211, -0.0530579537153244, 0.08406214416027069, 0.044056884944438934, -0.10987185686826706, -0.04272226244211197, -0.09062950313091278], [0.0599612221121788, 0.0009820761624723673, 0.005194108933210373, 0.03971674293279648, 0.034382130950689316, -0.032829366624355316, 0.025605162605643272, 0.013517976738512516, 0.0310427937656641, 0.07886567711830139, 0.05137810483574867, -0.022740349173545837, 0.022650504484772682, 0.018184544518589973, 0.056645940989255905, 0.07100868225097656, 0.06230362504720688, 0.011646813713014126, -0.0018838840769603848, 0.06468001008033752, 0.011098474264144897, 0.04009095951914787, 0.07382309436798096, 0.05673571303486824, 0.012592707760632038, -0.024477019906044006, 0.014860465191304684, 0.07968855649232864, 0.05313899368047714, -0.0003624039818532765, 0.05398726090788841, 0.018440863117575645, 0.022591283544898033, 0.060993898659944534, 0.14747150242328644, -0.0051351431757211685, -0.00019130646251142025, 0.06245292350649834, 0.02131740190088749, 0.048646170645952225, -0.002059309044852853, 0.05872588977217674, 0.14374707639217377, 0.20049402117729187, 0.012731160968542099, 0.034193042665719986, 0.002150588668882847, 0.027560079470276833, 0.020517682656645775, 0.10152138769626617, 0.06629026681184769, -0.011718550696969032, 0.025154195725917816, 0.029250234365463257, -0.04576781764626503, -0.007059015333652496, 0.07177647203207016, 0.04537825658917427, -0.01844056509435177, 0.024554479867219925, 0.02897516079246998, 0.031167171895503998, 0.06509982794523239, 0.007446378003805876], [-0.08264341950416565, -0.018463855609297752, -0.08636825531721115, 0.02031637169420719, 0.005812888499349356, 0.07274878025054932, 0.04845302179455757, -0.0197993703186512, -0.001675245352089405, -0.091733418405056, -0.0032515779603272676, -0.0023086373694241047, 0.042121127247810364, 0.1777767688035965, 0.07486478239297867, 0.03159347176551819, 0.030705370008945465, 0.01496261078864336, -0.04303431138396263, 0.029723525047302246, -0.023020699620246887, -0.09610054641962051, -0.008343473076820374, 0.014070390723645687, 0.02432040497660637, -0.02279316633939743, 0.008479662239551544, -0.015228922478854656, -0.06067655608057976, 0.0574088990688324, -0.027676915749907494, -0.027241261675953865, -0.05712052807211876, -0.15361830592155457, 0.08044055849313736, -0.10356016457080841, -0.05954297259449959, -0.042991362512111664, 0.04361550882458687, -0.057176221162080765, -0.009225689806044102, 0.024874115362763405, -0.03082510456442833, -0.06831512600183487, -0.08018072694540024, 0.03662428632378578, -0.09582344442605972, 0.02262716181576252, -0.039469193667173386, -0.057788949459791183, -0.0735105499625206, -0.09475219994783401, 0.003640491282567382, 0.033938903361558914, -0.18252982199192047, 0.0003449571377132088, 0.014052673242986202, 0.018690146505832672, 0.12916356325149536, 0.001246104366146028, 0.007129952777177095, 0.048231422901153564, -0.05626646429300308, 0.018429100513458252], [0.10805904120206833, -0.025747189298272133, -0.05622594431042671, -0.05215507000684738, -0.06975823640823364, 0.1066981703042984, -0.041183266788721085, -0.06755092740058899, -0.040524180978536606, -0.06492845714092255, 0.0047292462550103664, -0.00488848052918911, -0.03945015370845795, -0.0990741029381752, 0.05947023257613182, -0.045733753591775894, -0.023203423246741295, -0.03920422121882439, -0.0940951555967331, -0.03667247295379639, -0.054525796324014664, -0.09362759441137314, -0.0816521942615509, -0.034056395292282104, -0.010456958785653114, 0.06914515048265457, -0.0031913716811686754, -0.007087174337357283, -0.025100745260715485, -0.000374595052562654, -0.018320906907320023, -0.006766687612980604, 0.0632152259349823, -0.08663015812635422, -0.015664558857679367, -0.09261710941791534, -0.016205254942178726, 0.04054662212729454, -0.08199049532413483, -0.0011850511655211449, -0.053124263882637024, 0.004995326977223158, -0.04540467634797096, -0.02609768696129322, -0.08066130429506302, -0.05893450230360031, -0.07631800323724747, -0.007676755078136921, 0.000629061134532094, 0.016159528866410255, -0.0220648143440485, -0.08036350458860397, 0.02984788455069065, -0.02845807746052742, -0.028802061453461647, -0.05753456428647041, 0.020947927609086037, -0.029747771099209785, -0.08124961704015732, -0.007671387400478125, 0.038838695734739304, -0.04755504056811333, -0.01415196992456913, -0.00564329419285059], [-0.05535928159952164, -0.02702694945037365, -0.027969930320978165, -0.07867809385061264, -0.038469329476356506, -0.029710544273257256, -0.060351625084877014, 0.0382997952401638, -0.022621188312768936, -0.06927098333835602, -0.09197556227445602, -0.04484090209007263, -0.024772511795163155, 0.012890096753835678, -0.07071162760257721, -0.019097283482551575, -0.02930276468396187, -0.03697820380330086, 0.0017294733552262187, -0.09349001199007034, -0.008029237389564514, 0.062484145164489746, -0.03245846554636955, -0.06252570450305939, -0.0027804458513855934, -0.07764274626970291, -0.009521950036287308, -0.05896234139800072, -0.07219203561544418, -0.16749002039432526, -0.0576704777777195, -0.01568668521940708, -0.044155362993478775, -0.07843872904777527, 0.015515037812292576, -0.021317392587661743, -0.12918426096439362, -0.02752898819744587, -0.009809119626879692, -0.05103716254234314, -0.043395161628723145, -0.03820653632283211, -0.07398643344640732, -0.009477333165705204, -0.017987072467803955, -0.08609911054372787, -0.014949203468859196, 0.006874418817460537, -0.0017694258131086826, -0.07601957023143768, -0.03982379660010338, 0.04304179176688194, -0.022849712520837784, -0.041668958961963654, 0.00800309143960476, -0.011916284449398518, -0.08987084776163101, -0.023890959098935127, 0.04750914126634598, -0.02701939083635807, -0.06893038004636765, 0.008805577643215656, -0.004588753450661898, -0.09147892147302628], [-0.06289493292570114, -0.03672259673476219, -0.010867797769606113, 0.0026949860621243715, 0.03897641599178314, 0.009339633397758007, 0.025080135092139244, 0.049793485552072525, 0.01050376147031784, -0.06743693351745605, -0.041841648519039154, 0.014356996864080429, -0.004093932453542948, 0.016178522258996964, 0.0017459033988416195, -0.024393195286393166, -0.02208259329199791, -0.06436865776777267, -0.010108686052262783, -0.02080988883972168, -0.025809185579419136, -0.04914693534374237, -0.04330340772867203, 0.047772135585546494, 0.04774975776672363, 0.022697191685438156, 0.005185005255043507, -0.04759351536631584, 0.012220680713653564, -0.027406178414821625, -0.008799494244158268, -0.06805246323347092, -0.051009729504585266, -0.020121034234762192, 0.0032305982895195484, -0.009188169613480568, -0.03777015209197998, -0.0060973879881203175, -0.0038363253697752953, -0.017001181840896606, 0.00034078554017469287, 0.03353796899318695, 0.002364599611610174, -0.0036521106958389282, -0.02271186001598835, -0.03264908492565155, -0.024706605821847916, -0.011762267909944057, -0.07989129424095154, -0.012892813421785831, -0.02388879284262657, -0.11083975434303284, 0.041976261883974075, -0.019798319786787033, -0.10258045792579651, 0.020069865509867668, -0.02136216312646866, 0.08876501023769379, 0.018154678866267204, -0.05108538642525673, -0.09714905172586441, -0.0043695536442101, -0.020287636667490005, -0.01252969540655613], [-0.028630277141928673, -0.009292332455515862, 0.03654414042830467, -0.008387669920921326, -0.011984264478087425, 0.023209694772958755, -0.0014367677504196763, -0.044235631823539734, -0.017615994438529015, -0.022894594818353653, 0.04004431143403053, 0.08212187141180038, -0.06541414558887482, 0.0030400243122130632, -0.08603160083293915, 0.06683439016342163, -0.02805374190211296, -0.008807921782135963, -0.023921668529510498, 0.058108989149332047, 0.07279318571090698, -0.02379482239484787, 0.005795738659799099, -0.010991385206580162, 0.07182789593935013, -0.050881512463092804, -0.01824965700507164, -0.009103871881961823, -0.05322371423244476, -0.00409257598221302, 0.005434668157249689, -0.05612921714782715, 0.013341653160750866, -0.005233775824308395, 0.033813510090112686, 0.017772898077964783, 0.06400776654481888, 0.01652120053768158, -0.005718351807445288, -0.04438553377985954, -0.30237051844596863, 0.0002856292121578008, -0.085587278008461, -0.02226911671459675, 0.00030814908677712083, -0.01284739002585411, -0.07356280088424683, -0.06725332140922546, 0.029741458594799042, 0.22781559824943542, 0.0052267275750637054, 0.12253642827272415, -0.005057942122220993, 0.030518272891640663, -0.21257707476615906, -0.053564202040433884, 0.026568472385406494, 0.004567077849060297, 0.024821842089295387, 0.08402525633573532, 0.042021557688713074, 0.01656608283519745, -0.005758191924542189, -0.04741751775145531], [0.04648389667272568, 0.10066676139831543, 0.13634029030799866, 0.137655109167099, 0.06253459304571152, 0.08185771107673645, 0.03135205805301666, 0.07590261846780777, 0.0542634055018425, 0.14785858988761902, 0.11849800497293472, 0.008204118348658085, 0.10111938416957855, 0.0860636979341507, 0.0341530367732048, 0.08856113255023956, 0.07165425270795822, 0.12530159950256348, 0.1508266031742096, 0.05575934797525406, 0.12805689871311188, 0.10244610160589218, 0.07023874670267105, 0.075434111058712, 0.08847200125455856, 0.12753704190254211, 0.138763427734375, 0.15721572935581207, 0.17695637047290802, 0.09472418576478958, 0.05805627256631851, 0.13526560366153717, 0.08803657442331314, 0.08672520518302917, 0.10490170866250992, 0.069956935942173, 0.14214348793029785, 0.0992373451590538, 0.04359399527311325, 0.13593532145023346, 0.18386824429035187, 0.12942612171173096, 0.03324206545948982, 0.01800520531833172, 0.1385742574930191, 0.0772092267870903, 0.13244473934173584, 0.06560157984495163, 0.03017178364098072, 0.062382303178310394, 0.09731854498386383, -0.020743099972605705, 0.06998713314533234, 0.11813593655824661, 0.0953105092048645, 0.10079243779182434, 0.17164099216461182, 0.08339870721101761, 0.019116943702101707, 0.09496692568063736, 0.08815938234329224, 0.04676921293139458, 0.03997959941625595, 0.04094698652625084], [-0.046412184834480286, 0.02840404212474823, -0.04479878023266792, 0.05893305689096451, 0.08586880564689636, 0.10582327097654343, 0.03681935742497444, -0.027946870774030685, 0.08719895035028458, -0.01872291788458824, -0.027976350858807564, 0.008135255426168442, 0.016375714913010597, -0.011004539206624031, 0.03719942271709442, 0.0330534465610981, -0.027493974193930626, -0.014886640012264252, -0.0466623492538929, 0.006158533971756697, -0.0020053288899362087, -0.03307146579027176, 0.0036909691989421844, -0.012620299123227596, 0.0023054510820657015, 0.048590194433927536, 0.0022430180106312037, -0.047518327832221985, 0.0017270379466935992, -0.0003268829022999853, 0.023504773154854774, 0.030624307692050934, -0.025036798790097237, -0.04908815026283264, 0.001496516284532845, -0.01903330348432064, 0.06979592889547348, 0.021974099799990654, -0.08615148812532425, 0.05769718065857887, 0.04669558256864548, -0.006668581627309322, -0.029303526505827904, -0.06478569656610489, 0.005274185445159674, 0.02839619666337967, 0.011195375584065914, 0.033713553100824356, 0.011659419164061546, 0.025659717619419098, -0.0015214813174679875, -0.006524673197418451, 0.017735036090016365, -0.024509957060217857, 0.047352325171232224, 0.055544689297676086, -0.024309230968356133, -0.00717685092240572, -0.09685084968805313, 0.05768154561519623, 0.03052358701825142, -0.08255894482135773, 0.031640440225601196, 0.010229451581835747], [0.03349405154585838, -0.02858678810298443, 0.10679737478494644, 0.028058089315891266, -0.021828820928931236, 0.008036971092224121, 0.013330391608178616, 0.05627435818314552, -0.09378688037395477, -0.05879925563931465, 0.035123955458402634, 0.11672184616327286, -0.08690795302391052, -0.10914088785648346, -0.00017623126041144133, 0.01311776414513588, 0.011342477984726429, -0.015392867848277092, 0.04303086921572685, 0.00040010581142269075, 0.00011209200602024794, 0.13949666917324066, 0.339056134223938, 0.051973577588796616, -0.11569705605506897, 0.038410115987062454, 0.05421854555606842, 0.005379137583076954, 0.0366075374186039, 0.0056837075389921665, 0.008329863660037518, -0.022385044023394585, -0.02206394635140896, -0.05310266092419624, 0.05799855291843414, 0.019678326323628426, -0.0737154558300972, 0.020266108214855194, 0.15964756906032562, -0.055662646889686584, -0.20548856258392334, -0.03988252580165863, 0.017981715500354767, 0.09347078949213028, -0.01966008171439171, 0.029049037024378777, -0.030304867774248123, 0.012499642558395863, 0.0238938145339489, -0.0016360848676413298, -0.021055715158581734, -0.05852799490094185, -0.013559695333242416, -0.006287985946983099, -0.0020156842656433582, 0.020986469462513924, 0.01443744357675314, 0.020170113071799278, 0.034501854330301285, 0.00232947850599885, 0.009470507502555847, 0.050250180065631866, -0.014502186328172684, -0.05540915206074715], [0.0591287799179554, -0.030950360000133514, 0.051989614963531494, -0.038494110107421875, -0.015548918396234512, 0.03919019550085068, 0.028132222592830658, -0.012795813381671906, -0.06624534726142883, 0.03566402941942215, 0.043783433735370636, -0.0773879811167717, -0.04854888841509819, 0.016113201156258583, 0.01077039260417223, 0.007992984727025032, 0.04256520792841911, -0.06142907962203026, 0.04547562077641487, 0.015150364488363266, 0.024396318942308426, 0.04391343146562576, -0.004566069692373276, 0.04270339012145996, -0.03532370552420616, 0.009927725419402122, 0.02473161742091179, 0.026696939021348953, 0.040609851479530334, 0.004062754567712545, 0.005272325128316879, 0.008293386548757553, 0.014709120616316795, -0.009195497259497643, 0.037723734974861145, 0.023618046194314957, -0.016599033027887344, 0.012921461835503578, 0.013378935866057873, -0.008826307952404022, -0.08465934544801712, 0.013693385757505894, -0.08923087269067764, 0.014632226899266243, 0.021128429099917412, 0.0676647424697876, -0.13770286738872528, -0.02076663076877594, 0.007769962772727013, 0.07552073150873184, 0.038947831839323044, -0.051804546266794205, 0.01725141890347004, 0.040410690009593964, -0.26232826709747314, 0.011092215776443481, 0.030498243868350983, 0.059571895748376846, -0.009083774872124195, -0.03508894145488739, 0.0671294778585434, 0.04575013741850853, 0.03254792094230652, 0.05917485058307648], [0.008805177174508572, -0.01402122713625431, -0.03159323334693909, -0.02726643532514572, 0.011104600504040718, 0.03524934872984886, 0.07526184618473053, 0.026666700839996338, 0.055722787976264954, 0.055420923978090286, 0.11257273703813553, -0.015510080382227898, 0.008675958029925823, 0.007949377410113811, 0.029961688444018364, 0.04911739379167557, -0.043803129345178604, 0.057071782648563385, -0.0038981656543910503, 0.001829802873544395, 0.06471771001815796, 0.00987163558602333, -0.01901678927242756, 0.03740624338388443, 0.0021495188120752573, 0.009657857939600945, -0.010434368625283241, 0.04585203528404236, 0.018204258754849434, 0.0633707195520401, 0.006801976356655359, 0.08407413214445114, 0.004736392293125391, 0.01499828789383173, 0.12622825801372528, 0.0037311301566660404, -0.05232427269220352, 0.003828139044344425, 0.004052086733281612, 0.013279465027153492, -0.021174093708395958, 0.005332569591701031, -0.050257403403520584, -0.0007428077515214682, 0.07210827618837357, 0.0498843714594841, 0.015680592507123947, 0.03963746875524521, -0.06611935794353485, -0.002542100613936782, -0.00056597706861794, 0.007779447827488184, -0.009848745539784431, 0.041390929371118546, -0.0818200409412384, 0.010409735143184662, 0.03207865357398987, -0.03129444271326065, -0.05698872730135918, -0.056601908057928085, 0.04163328930735588, 0.015480692498385906, -0.0292544923722744, 0.006352923810482025], [-0.05837403982877731, -0.0003529253590386361, -0.0357217900454998, 0.052545394748449326, 0.020126627758145332, 0.003919773735105991, -0.03364554047584534, -0.06616652011871338, -0.06663338094949722, -0.07930958271026611, -0.004020743537694216, -0.014470197260379791, -0.03803510591387749, -0.03812609985470772, -0.0469697043299675, -0.06289910525083542, -0.02687004581093788, -0.020941022783517838, -0.02357948012650013, -0.06616660952568054, -0.06765983253717422, -0.038893625140190125, -0.059470269829034805, -0.0498950220644474, -0.14546236395835876, -0.02594924531877041, -0.05355340242385864, 0.010055369697511196, -0.07747995108366013, -0.012560844421386719, -0.014243785291910172, 0.012399900704622269, -0.06649081408977509, -0.024206798523664474, -0.06654785573482513, -0.040468376129865646, 0.10539749264717102, -0.009279411286115646, -0.0008271513506770134, -0.025850694626569748, 0.03455745056271553, -0.03293253481388092, 0.007721934001892805, -0.040147434920072556, 0.009655913338065147, -0.056253582239151, -0.09089843928813934, -0.0913981944322586, -0.01145993173122406, -0.06227997690439224, -0.042472027242183685, -0.02311813458800316, -0.014040928333997726, -0.07938683032989502, 0.09463382512331009, -0.003111808327957988, 0.01036547590047121, -0.04610162600874901, -0.08025440573692322, 0.032554835081100464, 0.07228657603263855, -0.11186899989843369, -0.03668594732880592, -0.04743817448616028], [-0.021757571026682854, 0.035771314054727554, 0.0057596671395003796, 0.13161493837833405, 0.06348741054534912, 0.05728486180305481, -0.033470746129751205, -0.0015781496185809374, 0.024681737646460533, 0.006583233829587698, -0.008275774307549, 0.06609077751636505, 0.058092743158340454, 0.014563963748514652, -0.054089464247226715, 0.007733860984444618, -0.024105465039610863, 0.02154269814491272, 0.03800414502620697, -0.023510823026299477, -0.04502842575311661, 0.055355411022901535, -0.0012517403811216354, -0.039861030876636505, 0.0018255526665598154, 0.04297198727726936, 0.024450259283185005, -0.013024425134062767, -0.04979398846626282, -0.0810229703783989, 0.0005624237237498164, 0.010204868391156197, 0.016712039709091187, -0.04845116287469864, 0.0074979686178267, 0.008844099007546902, 0.012374254874885082, 0.008866849355399609, -0.005698184482753277, 0.18779297173023224, 0.0343153141438961, 0.017928585410118103, -0.022759241983294487, -0.13034215569496155, 0.04123833030462265, -0.08136621862649918, 0.06862642616033554, 0.011540723964571953, 0.04904739186167717, 0.05135863646864891, -0.0035481834784150124, -0.04678644984960556, 0.03806691616773605, -0.018564719706773758, -0.14986425638198853, -0.007855759002268314, -0.020901570096611977, 3.785595981753431e-05, -0.06433840095996857, 0.09222719073295593, 0.08837417513132095, -0.007609279826283455, -0.018620796501636505, -0.008086858317255974], [-0.04117068648338318, -0.043777089565992355, 0.028164835646748543, 0.1387222409248352, 0.04572240635752678, 0.0015351856127381325, -0.03888748213648796, 0.11469613015651703, -0.05192707106471062, 0.030919408425688744, 0.02243691124022007, -0.01981840282678604, -0.024005170911550522, 0.03011401556432247, -0.027128852903842926, 0.008945002220571041, 0.010472106747329235, -0.01856326125562191, 0.07696379721164703, 0.03244682401418686, 0.014004690572619438, 0.029361864551901817, 0.047756221145391464, 0.0009608918335288763, -0.1264684647321701, 0.007335611619055271, 0.029266590252518654, 0.07924723625183105, -0.01319584809243679, 0.09399152547121048, 0.09317033737897873, -0.05691562592983246, -0.0286348108202219, -0.016401879489421844, 0.1867816001176834, -0.003798876889050007, -0.10996091365814209, 0.03630618005990982, -0.07811388373374939, -0.0105414018034935, 0.2265564501285553, -0.02691490575671196, -0.04405558109283447, -0.0009626490063965321, 0.07064296305179596, 0.011965024285018444, -0.04477783292531967, 7.418531458824873e-05, 0.09726954996585846, 0.08286208659410477, -0.021214213222265244, -0.16906790435314178, 0.07647185027599335, -0.03450652211904526, -0.28034573793411255, -0.011060018092393875, 0.009235981851816177, 0.07983490079641342, 0.01962534338235855, 0.0391080379486084, -0.07560629397630692, 0.07074175775051117, -0.023648619651794434, 0.07349810004234314], [0.2359144538640976, -0.07136918604373932, -0.019926700741052628, -0.008829624392092228, 0.0740027129650116, 0.01055185403674841, -0.0026655930560082197, -0.04432155564427376, 0.0006062111351639032, -0.02237755060195923, 0.0035912529565393925, -0.04884398356080055, -0.017736326903104782, -0.011886750347912312, -0.002342506777495146, 0.0037699933163821697, 0.0015449590282514691, -0.016339082270860672, -0.07406923919916153, -0.02075153775513172, -0.06116768345236778, -0.08653474599123001, -0.0273728109896183, -0.0034265394788235426, -0.1066693440079689, 0.03450065106153488, -0.0058869486674666405, -0.006375653203576803, -0.028059817850589752, -0.09450490772724152, -0.017641466110944748, 0.04357784241437912, 0.04078148677945137, -0.08018509298563004, 0.05314456671476364, -0.05031593143939972, 0.12839466333389282, -0.00837748497724533, -0.011416333727538586, 0.008525810204446316, -0.015769779682159424, -0.018024906516075134, -0.05733432620763779, -0.008987389504909515, -0.02389080449938774, 0.06363017112016678, -0.05761774256825447, -0.08056802302598953, -0.053505588322877884, 0.029699329286813736, 0.004277761094272137, -0.08245158940553665, 0.024164872244000435, -0.036121923476457596, -0.034958649426698685, -0.03376300260424614, -0.020145859569311142, 0.004723601043224335, -0.07611707597970963, 0.012856347486376762, -0.030113251879811287, -0.023959854617714882, 0.12089971452951431, 0.008241144940257072], [-0.05281108617782593, -0.06620242446660995, -0.023471813648939133, -0.1541096270084381, 0.0974525734782219, 0.011602829210460186, -0.031577520072460175, -0.07370947301387787, -0.010374770499765873, -0.09087523072957993, -0.053690019994974136, -0.01682531088590622, -0.046526242047548294, -0.05022943764925003, -0.026813361793756485, 0.017231816425919533, -0.036588046699762344, -0.029061147943139076, -0.025884531438350677, -0.06568127870559692, -0.018115060403943062, -0.06579646468162537, -0.10507293790578842, -0.038256291300058365, -0.05869525671005249, -0.016011279076337814, -0.07712272554636002, -0.04354724660515785, -0.07574758678674698, -0.03468022495508194, -0.041889023035764694, 0.040933843702077866, -0.01809743605554104, -0.09212721884250641, -0.002859282772988081, -0.06397432088851929, -0.013638434000313282, -0.005873693153262138, -0.029509494081139565, 0.05203775689005852, -0.012413359247148037, -0.03156018257141113, -0.08277697116136551, -0.01914573460817337, -0.0462074801325798, -0.021466441452503204, 0.008779493160545826, 0.042424771934747696, 0.02997579239308834, -0.050040993839502335, -0.029117552563548088, -0.03434962034225464, -0.025318080559372902, -0.0213941503316164, -0.11476810276508331, -0.026854202151298523, -0.04707159847021103, -0.03981965407729149, 0.0008949319599196315, -0.03921394422650337, -0.028225157409906387, -0.02896544337272644, 0.0486476868391037, -0.03937226161360741], [0.03937023505568504, -0.03811895102262497, -0.02623705379664898, 0.04429813474416733, 0.06007431074976921, 0.05614123120903969, 0.014584580436348915, -0.06877024471759796, -0.040692634880542755, 0.002340317703783512, -0.0851016715168953, -0.04955685883760452, 0.01773526705801487, -0.016451219096779823, -0.09553380310535431, -0.028334906324744225, -0.020797092467546463, -0.05643673986196518, -0.018505360931158066, -0.07469497621059418, -0.0017348434776067734, -0.06205156072974205, -0.07280535995960236, 0.0020866896957159042, -0.08075723052024841, 0.036350786685943604, -0.01805649884045124, -0.04561774432659149, -0.023518148809671402, -0.006982412189245224, -0.005397181957960129, 0.01943381316959858, 0.00027905532624572515, -0.06794749945402145, -0.05103921517729759, -0.04291539266705513, 0.15021508932113647, -0.011730999685823917, -0.04223686456680298, 0.13209347426891327, 0.05644199252128601, 0.03779173642396927, -0.043912842869758606, -0.0707564651966095, -0.02208181656897068, 0.003954597748816013, -0.0010507708648219705, -0.06690971553325653, 0.01520361565053463, -0.00498424144461751, -0.024406930431723595, 0.019114438444375992, 0.011754339560866356, -0.04109039902687073, -0.05957387015223503, -0.06049294024705887, -0.052615053951740265, -0.010197412222623825, -0.06433640420436859, 0.036639321595430374, -0.02693711780011654, -0.02463606372475624, 0.004185972735285759, -0.03772931918501854], [0.07297808676958084, -0.018659785389900208, -0.0017466938588768244, -0.0375836119055748, -0.036481935530900955, 0.04751072824001312, 0.0015716610942035913, -0.07061472535133362, 0.012383071705698967, -0.02431263029575348, 0.018827570602297783, -0.020406179130077362, -0.01314668171107769, -0.0653948187828064, 0.028691813349723816, 0.0015288698486983776, -0.02296677604317665, -0.06182190403342247, -0.03769918158650398, -0.0034217301290482283, -0.06735038012266159, 0.030088845640420914, -0.009965987876057625, 0.02560456283390522, -0.05070217698812485, 0.041498664766550064, 0.010180351324379444, 0.004966337699443102, -0.002788847777992487, -0.0037937192246317863, -0.012288945727050304, 0.03853299841284752, 0.021263975650072098, -0.020068295300006866, 0.03155428543686867, 0.013855738565325737, 0.1616816371679306, 0.048867687582969666, -0.04064904898405075, -0.006518939509987831, 0.0015683770179748535, 0.026486368849873543, -0.008305290713906288, -0.08537176251411438, -0.06846722215414047, 0.020884716883301735, -0.05581691861152649, -0.041026875376701355, -0.0050400919280946255, 0.13293582201004028, 0.016185635700821877, 0.019549144431948662, 0.0473545677959919, -0.014371078461408615, -0.0974261686205864, -0.024221528321504593, 0.006280933506786823, -0.0012302037794142962, -0.07129935920238495, -0.024414805695414543, 0.012964948080480099, -0.014637368731200695, -0.020900174975395203, -0.0020970627665519714], [-0.05540189519524574, 0.04989670589566231, -0.026977507397532463, 0.009803584776818752, 0.015581246465444565, 0.013974686153233051, -0.021579718217253685, -0.036225445568561554, 0.004549425560981035, -0.060139261186122894, -0.01990881934762001, -0.012008951045572758, -0.05510883405804634, -0.07513287663459778, 0.0064650666899979115, -0.012424594722688198, -0.038287073373794556, 0.006900528445839882, -0.0740000382065773, -0.04590601101517677, -0.03026445023715496, -0.03481683135032654, -0.08265486359596252, -0.08459504693746567, -0.03946070000529289, -0.05394667014479637, -0.010090726427733898, -0.012326501309871674, -0.056579817086458206, -0.06662201136350632, -0.012379088439047337, -0.0022694780491292477, 0.010655472055077553, -0.0761513039469719, -0.008284441195428371, 0.009088727645576, 0.006210892461240292, -0.000549218209926039, -0.04385831952095032, 0.01878547854721546, 0.005720740184187889, -0.002492135390639305, -0.029504794627428055, 0.04305386543273926, -0.05260751396417618, 0.009914755821228027, 0.016758998855948448, -0.030998267233371735, 0.056418031454086304, -0.03223435953259468, -0.023347489535808563, -0.035164449363946915, -0.012573563493788242, -0.0053827292285859585, 0.13250671327114105, -0.026831069961190224, -0.016905970871448517, -0.0363258458673954, -0.0598415769636631, 0.04475020989775658, -0.038713179528713226, -0.028558310121297836, -0.03018854558467865, 0.07120578736066818], [-0.0843345895409584, -0.012907641008496284, 0.012831324711441994, 0.008765371516346931, 0.03638023883104324, -0.011190298944711685, 0.05915294587612152, -0.07931789755821228, 0.16075578331947327, -0.06616942584514618, 0.013025251217186451, -0.017419690266251564, 0.020832911133766174, 0.2812976837158203, 0.017263423651456833, -0.13654696941375732, 0.062197260558605194, -0.044206347316503525, -0.07364145666360855, 0.010266267694532871, -0.06406157463788986, -0.11485602706670761, 0.10151628404855728, 0.017218390479683876, 0.08543623238801956, -0.03329434618353844, -0.006635481957346201, -0.04786929860711098, -0.015037855133414268, 0.07120787352323532, 0.07608957588672638, 0.01774410344660282, -0.0022134913597255945, -8.556555258110166e-05, -0.10016187280416489, -0.015894008800387383, 0.08558709174394608, 0.05654370039701462, -0.08899179100990295, 0.01959657296538353, 0.007292274385690689, -0.0019204540876671672, -0.03603526949882507, -0.1543271392583847, -0.0425262451171875, 0.021672584116458893, -0.063843734562397, 0.11897306144237518, -0.08193518221378326, -0.08176544308662415, -0.05140402168035507, -0.029087256640195847, -0.011056206189095974, -0.029570993036031723, -0.0674048662185669, 0.015801146626472473, -0.00029226610786281526, -0.03810005635023117, 0.14255501329898834, -0.04866183176636696, 0.043248292058706284, 0.09532026946544647, -0.04812460392713547, -0.032016608864068985], [0.02268536388874054, 0.016850769519805908, -0.005176904145628214, 0.04180659353733063, 0.05964384600520134, -0.010170216672122478, 0.008907809853553772, 0.0672115683555603, 0.05100604519248009, 0.025842001661658287, 0.08389869332313538, 0.020468780770897865, 0.029513053596019745, 0.04179340600967407, 0.052043572068214417, 0.018924539908766747, 0.015993479639291763, 0.005477063823491335, 0.007497698534280062, 0.011666313745081425, 0.07549925893545151, -0.00971749983727932, 0.028516702353954315, 0.0220187921077013, -0.00311278086155653, 0.023126650601625443, 0.012051495723426342, 0.004031275399029255, 0.04842508211731911, -0.011384185403585434, 0.03254968672990799, 0.03708166629076004, 0.05845902860164642, 0.06726235151290894, 0.05933622643351555, 0.033945389091968536, -0.007081078365445137, 0.03691822290420532, 0.1006549596786499, 0.02228025160729885, -0.07000646740198135, 0.034568991512060165, -0.022246411070227623, -0.06558249145746231, -0.02295578643679619, -0.013941764831542969, -0.005015895701944828, 0.015567846596240997, -0.0054860240779817104, 0.024621281772851944, 0.027293533086776733, -0.020812442526221275, 0.01700100488960743, 0.00493723014369607, -0.1382971853017807, 0.0553305484354496, 0.012825831770896912, -0.027668677270412445, 0.02013234607875347, 0.019345585256814957, 0.0016609877347946167, 0.02455718442797661, 0.04635564237833023, -0.0005396578926593065], [-0.013428477570414543, -0.05605470761656761, -0.016636135056614876, -0.03127532824873924, -0.03525882959365845, -0.010976501740515232, -0.13373114168643951, 0.02403704635798931, 0.023418668657541275, -0.03786352649331093, -0.07038653641939163, 0.0041123041883111, -0.03162723407149315, 0.02308984473347664, -0.10140661895275116, -0.054635558277368546, -0.05122228339314461, -0.08771616965532303, 0.012344740331172943, -0.07283727824687958, -0.036078039556741714, 0.17306970059871674, -0.04762834683060646, -0.02583993226289749, 0.01263249572366476, -0.04680962488055229, 0.004497998394072056, -0.06904016435146332, -0.07006791234016418, -0.09798703342676163, -0.08342652022838593, -0.07483147084712982, -0.01613411121070385, -0.045513398945331573, -0.08739485591650009, -0.09040456265211105, 0.0015190016711130738, -0.04698527604341507, 0.01180619653314352, -0.03891706466674805, -0.12633150815963745, -0.02135971002280712, 0.003599176649004221, 0.06913762539625168, -0.07187080383300781, -0.08960110694169998, -0.012440454214811325, -0.06511758267879486, -0.024777479469776154, -0.02451026625931263, -0.055066511034965515, 0.010103690437972546, -0.03268273174762726, -0.09532979875802994, 0.16712264716625214, -0.04245289787650108, -0.051012638956308365, -0.03129417076706886, 0.0033450331538915634, -0.028479762375354767, -0.06117968633770943, -0.016778849065303802, -0.06394030153751373, -0.03988785296678543], [-0.019542286172509193, -0.09147445857524872, -0.0829201340675354, -0.05391274392604828, -0.042769819498062134, -0.06741044670343399, -0.018180429935455322, -0.03219372779130936, -0.008022915571928024, -0.08879071474075317, -0.022417593747377396, -0.03453399986028671, -0.024152806028723717, -0.06186915561556816, -0.09835363924503326, -0.01663951762020588, -0.07451144605875015, -0.08901800960302353, -0.01784401573240757, -0.09455645829439163, -0.05503625422716141, -0.10289458185434341, 0.0031170579604804516, -0.08000892400741577, -0.009329697117209435, -0.037812739610672, -0.07428152114152908, -0.034080181270837784, -0.075624980032444, -0.07281246036291122, -0.05672623962163925, -0.020735671743750572, -0.06365223973989487, -0.029253292828798294, -0.08648952841758728, -0.08379554003477097, -0.0685291513800621, -0.07092335820198059, -0.05664156749844551, -0.04192398861050606, 0.019678505137562752, -0.06056319922208786, -0.019845357164740562, -0.05190068110823631, -0.03779914975166321, -0.023978041484951973, -0.024293286725878716, -0.008635460399091244, -0.10711042582988739, -0.06835673004388809, -0.05231623351573944, -0.07719490677118301, -0.0614754855632782, -0.06888832896947861, 0.018774952739477158, -0.06037573143839836, -0.07415705174207687, -0.025278324261307716, 0.006495852954685688, -0.04912061244249344, -0.06353845447301865, -0.10816851258277893, -0.01521184854209423, -0.08805801719427109], [-0.030536793172359467, -0.058226078748703, -0.030936118215322495, 0.01781981810927391, 0.0345517136156559, -0.039923448115587234, -0.028893906623125076, -0.030509958043694496, 0.08621273934841156, -0.03199438005685806, -0.06090112775564194, -0.10030709952116013, -0.03284895047545433, -0.03587378188967705, -0.02426213212311268, 0.05975568667054176, -0.010113412514328957, -0.06829793751239777, -0.03195962309837341, -0.08038974553346634, -0.017784669995307922, -0.07191051542758942, -0.03354078158736229, -0.08419840782880783, -0.038731470704078674, -0.02599952556192875, -0.052737604826688766, -0.04701463133096695, -0.03372451290488243, -0.02799471840262413, -0.0440041683614254, 0.024098172783851624, 0.020476849749684334, -0.1057838499546051, -0.0018376342486590147, -0.0348973274230957, -0.08511963486671448, 0.011147859506309032, -0.023784248158335686, -0.025606587529182434, 0.02069944515824318, -0.03400348126888275, -0.0552150160074234, -0.03271220624446869, 0.00455484539270401, 0.022379139438271523, 0.03042525053024292, -0.0059031033888459206, -0.03072410635650158, -0.03713240474462509, -0.03248510882258415, -0.058330193161964417, -0.021407801657915115, -0.036390338093042374, -0.058914460241794586, -0.010884447023272514, -0.05256910249590874, -0.0065152402967214584, -0.11052025854587555, -0.05393703281879425, -0.16460704803466797, -0.03244035318493843, 0.04043407365679741, -0.00217167055234313], [-0.07584425061941147, -0.034681275486946106, -0.04201763495802879, -0.022431131452322006, -0.004182274453341961, -0.03808552026748657, 0.07165652513504028, -0.04598388075828552, -0.02788526937365532, -0.022128773853182793, -0.028078142553567886, 0.006298415828496218, -0.08516199141740799, 0.020068489015102386, -0.0014820991782471538, -0.07197240740060806, -0.0906447246670723, -0.10169579088687897, -0.01050630398094654, -0.09084698557853699, -0.09686271101236343, -0.1259884089231491, -0.09495212137699127, -0.029469121247529984, -0.08044449239969254, -0.08769531548023224, -0.038332726806402206, -0.0817161574959755, -0.06100373715162277, -0.10008475929498672, -0.03993754833936691, -0.07304150611162186, -0.05230411887168884, -0.004611114505678415, -0.023508839309215546, -0.05655533820390701, -0.05889706686139107, -0.012791799381375313, -0.06442821025848389, -0.01824847236275673, -0.0047111501917243, -0.08912283927202225, -0.06745512038469315, -0.06795450299978256, -0.07626203447580338, -0.06510188430547714, -0.0471373125910759, -0.020603656768798828, 0.011109672486782074, -0.05592680349946022, -0.03717256709933281, -0.005925639998167753, -0.06323549896478653, -0.09738406538963318, 0.037928979843854904, -0.08254600316286087, -0.09215426445007324, -0.04420560970902443, -0.05201982334256172, -0.02019248530268669, -0.010266515426337719, -0.008011062629520893, -0.0046696714125573635, -0.06235382705926895], [-0.009120470844209194, 0.009046539664268494, -0.042584482580423355, -0.02539941854774952, 0.02628096379339695, -0.001112853642553091, 0.08414684236049652, -0.022728359326720238, 0.017407849431037903, -0.050705138593912125, -0.06003826856613159, 0.05296792462468147, -0.012081908993422985, -0.04506206139922142, 0.025954470038414, 0.017384789884090424, -0.011495131067931652, 0.007346802391111851, 0.015739260241389275, -0.06670235097408295, -0.021933550015091896, -0.025093527510762215, -0.04053801670670509, 0.02658957615494728, -0.07927200198173523, 0.02250421606004238, 0.012188252992928028, -0.05626824498176575, -0.05732177197933197, -0.011506726033985615, 0.04670732840895653, 0.04243548586964607, 0.05567926913499832, -0.03596504405140877, 0.028015155345201492, -0.001995342317968607, 0.047555193305015564, -0.014610285870730877, 0.1001533642411232, -0.0032858934719115496, -0.00932470802217722, -0.025448668748140335, -0.013799773529171944, 0.039000093936920166, -0.01483001746237278, -0.02961360104382038, 0.005473323632031679, -0.004811188206076622, -0.02194230444729328, -0.03854545205831528, -0.009269900619983673, 0.014260446652770042, -0.0030242716893553734, -0.030418356880545616, 0.0242809746414423, 0.047806836664676666, 0.02281832881271839, -0.017450779676437378, -0.03478868678212166, -0.006172426510602236, 0.11173088848590851, 0.007025777827948332, 0.009782317094504833, -0.0029189034830778837], [0.08175580948591232, 0.033607788383960724, 0.07699038833379745, 0.034239526838064194, 0.052388086915016174, 0.09193286299705505, 0.10467446595430374, -0.01413819007575512, 0.03382172808051109, 0.01681903377175331, 0.07675577700138092, 0.007378611713647842, 0.014978863298892975, 0.011504534631967545, 0.0059881433844566345, 0.05386049300432205, 0.08209288120269775, 0.041223734617233276, -0.00013470019621308893, 0.06343759596347809, 0.11930779367685318, -0.02944362722337246, 0.01758718676865101, 0.0547037348151207, 0.05741012468934059, 0.06944022327661514, 0.10428012162446976, 0.03025367669761181, 0.0631217360496521, -0.0008499062387272716, 0.02176637016236782, 0.02672910876572132, 0.02088846266269684, 0.0008851625025272369, 0.08192170411348343, 0.013956899754703045, 0.1254221796989441, 0.02305586077272892, 0.03879993036389351, 0.041342806071043015, -0.09081648290157318, 0.057101428508758545, 0.016509177163243294, -0.02887692302465439, 0.04124198853969574, 0.05629812926054001, -0.018417498096823692, 0.03162618726491928, 0.030918344855308533, 0.10276912152767181, 0.05464078113436699, 0.025083040818572044, 0.044218048453330994, 0.08624880015850067, -0.12936881184577942, 0.023253271356225014, 0.052736956626176834, 0.020899781957268715, 0.03817349299788475, 0.03183964267373085, 0.1138739287853241, 0.013303936459124088, 0.04347039759159088, 0.0749390721321106], [0.009496212936937809, -0.0981205552816391, -0.04157301038503647, 0.002321359235793352, -0.05487643927335739, -0.09236745536327362, -0.04890158027410507, 0.004310073796659708, -0.007265494670718908, -0.023722244426608086, -0.07908616960048676, -0.16144031286239624, -0.07886871695518494, -0.04362668842077255, -0.06506814807653427, -0.050471995025873184, -0.019123872742056847, -0.09826406091451645, -0.0012576169101521373, -0.06299088895320892, 0.002441620221361518, -0.011721255257725716, -0.014910563826560974, -0.08201051503419876, -0.13578826189041138, -0.10439291596412659, -0.0093781603500247, -0.05097590386867523, -0.016038566827774048, -0.017950521782040596, -0.08120159059762955, -0.0650242269039154, -0.04646451771259308, -0.03051513433456421, -0.006033174227923155, -0.012361599132418633, -0.12753108143806458, -0.01848115213215351, -0.08763720095157623, -0.07143516093492508, 0.2377641201019287, -0.12084599584341049, -0.08343606442213058, 0.07259906828403473, -0.017578184604644775, -0.1445014625787735, 0.06366072595119476, 0.009501826018095016, -0.050464071333408356, -0.021900318562984467, -0.08171048760414124, -0.04955773428082466, -0.013809745199978352, -0.07645460963249207, 0.16864021122455597, -0.046401116997003555, -0.08106641471385956, -0.0031881220638751984, 0.04309052973985672, -0.025421075522899628, -0.08435267955064774, -0.05995423346757889, -0.07146026194095612, -0.04453355073928833], [0.000886890571564436, -0.04382286220788956, -0.030530882999300957, 0.02399410866200924, 0.08127099275588989, -0.0461159273982048, 0.08282913267612457, -0.06034019961953163, 0.002497571986168623, -0.02318492718040943, -0.01810113713145256, -0.08150994032621384, 0.012549343518912792, -0.039287663996219635, 0.04998117312788963, -0.02089034765958786, -0.06394331157207489, 0.0535174123942852, -0.061272993683815, 0.029377920553088188, -0.015727994963526726, -0.06941883265972137, -0.10098155587911606, 0.006205620244145393, 0.14016267657279968, -0.12648022174835205, -0.02310698665678501, -0.029453929513692856, 0.01644470915198326, 0.019211815670132637, -0.037504617124795914, 0.10858459770679474, -0.0063916342332959175, 0.0010422880295664072, -0.00823418889194727, -0.0017370394198223948, 0.1381489783525467, 0.00398996053263545, -0.043583691120147705, -0.012392884120345116, -0.3445483446121216, -0.06968329846858978, -0.09565794467926025, -0.10879284143447876, -0.033868592232465744, 0.021632999181747437, -0.07466703653335571, -0.027768291532993317, -0.0006177959148772061, 0.034362632781267166, -0.007271475624293089, 0.19084735214710236, -0.008370896801352501, 0.006263312418013811, -0.19432763755321503, -0.041697900742292404, -0.04080427438020706, -0.043310414999723434, -0.004258328583091497, 0.046409547328948975, -0.003736391430720687, -0.07014956325292587, -0.02695426717400551, -0.004592031706124544], [-0.007211019285023212, 0.004555895924568176, -0.050048161298036575, -0.011761536821722984, 0.06301845610141754, -0.014150380156934261, -0.004733901936560869, -0.07723391056060791, 0.0837181881070137, -0.015577618032693863, -0.05537999048829079, 0.126694455742836, -0.013976328074932098, -0.0811774730682373, -0.030480356886982918, -0.03980525583028793, -0.018028732389211655, -0.01140419952571392, -0.08542139083147049, -0.03912990540266037, -0.042579248547554016, -0.045950498431921005, -0.08241516351699829, -0.06259305030107498, -0.03836270049214363, 0.04075165465474129, -0.06434987485408783, -0.022487377747893333, -0.03966242074966431, -0.011848615482449532, -0.030144352465867996, 0.0322318933904171, 0.026049790903925896, -0.08385197818279266, 0.012518195435404778, -0.029394909739494324, -0.025757675990462303, -0.07661810517311096, 0.013741175644099712, -0.020535143092274666, -0.05762322247028351, -0.015065310522913933, -0.04097680374979973, -0.09545782953500748, -0.05869300663471222, 0.013049481436610222, -0.045212965458631516, -0.03978201746940613, -0.061313219368457794, -0.030515562742948532, -0.06466776132583618, -0.07100488245487213, -0.01718413271009922, -0.021934693679213524, -0.0002136282855644822, -0.03908936306834221, -0.007408501580357552, 0.000611513270996511, -0.09265124052762985, -0.06708693504333496, -0.009480783715844154, -0.003441218752413988, 0.050596997141838074, -0.023692402988672256], [0.07095619291067123, 0.06135282665491104, 0.06646990776062012, 0.10071608424186707, 0.12243299931287766, 0.08738439530134201, 0.021600160747766495, 0.0914207473397255, 0.1135406419634819, 0.07248953729867935, 0.06570330262184143, 0.033275146037340164, 0.1055060625076294, -0.003794315503910184, 0.10243671387434006, 0.057725757360458374, 0.10959608852863312, 0.08292991667985916, 0.0263479296118021, 0.08869093656539917, 0.06695118546485901, 0.09313033521175385, 0.07042434811592102, 0.053548265248537064, -0.0169486403465271, 0.05656694620847702, 0.013670457527041435, 0.04869868606328964, 0.11507691442966461, -0.008602157235145569, 0.078830786049366, 0.10388173162937164, 0.08108463138341904, 0.09789928048849106, 0.03539535403251648, 0.049732502549886703, 0.06840263307094574, 0.04245122894644737, 0.07154899835586548, 0.0369403176009655, -0.045518361032009125, 0.07482025772333145, 0.10093462467193604, 0.06824874132871628, 0.11526056379079819, 0.0259851161390543, 0.12466707080602646, 0.022413630038499832, 0.0601583831012249, 0.022811289876699448, 0.08381329476833344, -0.02936755120754242, 0.11781623959541321, 0.08038795739412308, 0.0019162297248840332, 0.04765356704592705, 0.11364009976387024, 0.09384052455425262, 0.06343597173690796, 0.06111794710159302, 0.09424703568220139, 0.11881320178508759, 0.07659680396318436, 0.150335431098938], [0.050476860255002975, 0.007007411681115627, -0.010534562170505524, 0.1837027221918106, 0.046352166682481766, 0.0027027211617678404, -0.010803797282278538, -0.008484892547130585, -0.03175191953778267, -0.03429669514298439, -0.06260447204113007, -0.04340774938464165, 0.032671596854925156, -0.005705181043595076, 0.06475865095853806, -0.03568841144442558, 0.008045881986618042, 0.011668790131807327, -0.023996904492378235, -0.02540859952569008, 0.004570566117763519, -0.06953815370798111, -0.018357019871473312, -0.030654458329081535, 0.0038436350878328085, 0.049277715384960175, 0.02775499038398266, -0.021112656220793724, -0.05509220063686371, -0.012801595963537693, -0.03829877823591232, 0.03423861414194107, 0.01926226168870926, -0.04672413691878319, -0.01327428873628378, -0.011405090801417828, 0.09253448992967606, -0.0014429733855649829, -0.1478414386510849, 0.021486427634954453, -0.00583607517182827, 0.06497348845005035, -0.014768521301448345, -0.11993200331926346, -0.030238887295126915, -0.0011632447130978107, 0.01573091559112072, 0.07967498898506165, 0.020303044468164444, 0.07953634858131409, 0.0011774740414693952, -0.03337053209543228, 0.028839513659477234, -0.0054450551979243755, 0.10358532518148422, 0.029506146907806396, -0.03299310430884361, 0.03766586631536484, -0.011739564128220081, 0.12773679196834564, 0.22572359442710876, 0.013693207874894142, -0.0028695929795503616, 0.024968378245830536], [-0.06364942342042923, -0.06771212071180344, -0.12170103937387466, -0.034770093858242035, -0.06453017145395279, -0.012223330326378345, -0.0198533795773983, -0.12765149772167206, -0.07933136075735092, -0.0677025318145752, -0.09721411019563675, -0.0620252788066864, -0.09090787172317505, -0.0885811522603035, -0.07462633401155472, -0.06484482437372208, -0.057943642139434814, -0.05776422843337059, -0.045949626713991165, -0.039390161633491516, -0.04031787067651749, -0.060617126524448395, 0.006204491481184959, -0.11154637485742569, -0.04165997356176376, -0.07343583554029465, -0.07647756487131119, -0.043303344398736954, -0.058097563683986664, -0.04958166554570198, -0.0873686745762825, -0.056844111531972885, -0.04338349029421806, -0.0901523008942604, -0.0953807532787323, -0.06586642563343048, -0.06439242511987686, -0.1030099019408226, -0.016990533098578453, -0.08616414666175842, 0.04001227021217346, -0.06824029237031937, -0.00635014520958066, -0.1222553551197052, -0.04083600267767906, -0.10460083931684494, -0.08200144022703171, -0.10284168273210526, -0.0877334326505661, -0.027399694547057152, -0.14319314062595367, -0.012796520255506039, -0.06724588572978973, -0.06263133883476257, 0.07836338877677917, -0.048846203833818436, -0.06064318120479584, -0.07140575349330902, -0.011984537355601788, -0.07567194849252701, -0.03628925606608391, -0.09896857291460037, -0.06981311738491058, -0.04661191627383232], [-0.09537266939878464, -0.02140670083463192, -0.025493597611784935, 0.10530073940753937, 0.005064137279987335, 0.024348417297005653, -0.03698790445923805, 0.0017597087426111102, -0.013386629521846771, -0.006122239865362644, -0.07973339408636093, -0.0285999346524477, 0.17483773827552795, -0.0716194361448288, -0.010217460803687572, -0.022231945767998695, 0.033137790858745575, -0.02700894884765148, -0.011866115964949131, -0.008679211139678955, -0.024364443495869637, -0.08621957898139954, -0.03243698552250862, 0.029169447720050812, 0.004913206212222576, 0.04214172065258026, -0.07069292664527893, -0.011002546176314354, -0.0011762332869693637, -0.024900082498788834, -0.032185956835746765, 0.006863481365144253, -0.0506819449365139, -0.012328405864536762, -0.05779330059885979, -0.05735825002193451, -0.05062494054436684, 0.041012540459632874, 0.06708341836929321, -0.04096370190382004, 0.03681621327996254, 0.017214423045516014, 0.07369176298379898, -0.08420045673847198, -0.006799900904297829, -0.026372654363512993, -0.0344148688018322, -0.017382493242621422, 0.0022695879451930523, 0.07050144672393799, 0.025817539542913437, -0.05290672928094864, 0.0537157841026783, 0.06499392539262772, 0.03173210844397545, -0.04942768067121506, 0.025645894929766655, 0.02543799951672554, 0.005581768229603767, 0.10648079961538315, 0.035550009459257126, 0.135291188955307, 0.04653836041688919, -0.010744974948465824], [-0.029480934143066406, -0.038214173167943954, -0.013802292756736279, -0.053483668714761734, 0.015091278590261936, -0.03998994454741478, -0.08550646901130676, -0.07281558215618134, -0.024880221113562584, -0.004044264554977417, -0.022216029465198517, -0.08624517917633057, -0.041568804532289505, -0.07584492117166519, -0.019800184294581413, -0.03274313360452652, -0.030871136114001274, -0.0329471193253994, -0.01874559000134468, -0.06194892153143883, 0.0017218329012393951, -0.12772934138774872, 0.021847402676939964, -0.0774625763297081, -0.1750643253326416, -0.06814174354076385, -0.03305088356137276, -0.03102204017341137, -0.023213572800159454, -0.08574751764535904, -0.04074695706367493, -0.054584719240665436, -0.01472423318773508, -0.057876065373420715, -0.030152931809425354, -0.016468534246087074, 0.022979579865932465, -0.03812167048454285, -0.06497809290885925, -0.02684343233704567, 0.05065291374921799, -0.035298775881528854, -0.03958434984087944, -0.10091155767440796, -0.04113397002220154, -0.05749109759926796, 0.012047292664647102, -0.025544846430420876, -0.03578193858265877, 0.018817437812685966, -0.026208624243736267, 0.04152009263634682, -0.05076085776090622, -0.006608597934246063, 0.06409980356693268, -0.021284524351358414, -0.02600652351975441, -0.03382240980863571, -0.027482543140649796, -0.025559091940522194, 0.049475084990262985, 0.0051224371418356895, -0.029753971844911575, -0.06712846457958221], [0.11448551714420319, 0.05007583275437355, 0.10750618577003479, 0.07617860287427902, -0.040817227214574814, 0.07031302154064178, 0.11853274703025818, 0.055951543152332306, -0.014045223593711853, 0.005817344877868891, 0.029446003958582878, -0.039440032094717026, 0.03261544927954674, 0.008277167566120625, 0.024343086406588554, 0.06585462391376495, 0.09123831242322922, -0.0451173298060894, 0.15513601899147034, 0.02383730746805668, 0.006563127972185612, 0.023719027638435364, 0.0940437763929367, 0.048536013811826706, -0.09363936632871628, -0.005071249324828386, 0.06613685935735703, 0.06201541796326637, 0.06360020488500595, -0.06276757270097733, 0.020695384591817856, 0.04660334810614586, 0.041491828858852386, 0.017533624544739723, 0.017873970791697502, 0.06695492565631866, -0.022017573937773705, 0.05990874394774437, -0.019177444279193878, 0.008652173914015293, 0.003684671362861991, 0.06960012763738632, 0.06691228598356247, -0.13842546939849854, -0.03543679416179657, 0.007078833412379026, -0.020672550424933434, 0.03871849924325943, 0.08463559299707413, 0.06297614425420761, 0.11297129839658737, -0.01423543132841587, 0.05345388129353523, 0.035226792097091675, -0.1894170343875885, -0.009835969656705856, 0.088672935962677, 0.03446751832962036, 0.1442890763282776, 0.10387881100177765, -0.09063281863927841, 0.022525165230035782, 0.02944280579686165, 0.03368983417749405], [-0.03511732444167137, -0.004708471707999706, -0.012540767900645733, -0.019474243745207787, -0.0519145205616951, 0.05465618520975113, -0.0319281630218029, 0.10207486152648926, -0.060619790107011795, -0.002285093069076538, 0.037600696086883545, 0.045308731496334076, -0.06685023754835129, 0.07682512700557709, 0.03689221292734146, -0.058080583810806274, 0.03366178646683693, -0.09209059923887253, -0.04917089268565178, 0.006186277139931917, -0.07786262780427933, -0.05258233845233917, 0.09352416545152664, 0.06224106624722481, -0.013199642300605774, 0.014098864048719406, 0.0031138723716139793, 0.02218947932124138, 0.033864494413137436, 0.04455816000699997, -0.006630558520555496, 0.022044124081730843, 0.017605626955628395, 0.03416196629405022, 0.017634375020861626, 0.03265781328082085, -0.0005640552844852209, -0.005182729102671146, -0.11573442816734314, 0.0512879304587841, 0.03147204592823982, -0.006010302808135748, -0.06286193430423737, 0.021087750792503357, 0.0032344036735594273, 0.019727827981114388, -0.001679662149399519, -0.006125487852841616, -0.04430186003446579, -0.06137339025735855, 0.0056238071992993355, -0.009708586148917675, -0.01707424968481064, -0.04211996868252754, -0.10403493046760559, 0.012951302342116833, -0.03567996993660927, 0.028476398438215256, 0.07568435370922089, -0.06545399874448776, 0.034256838262081146, 0.006150372326374054, -0.0067106676287949085, -0.022982677444815636], [-0.010990282520651817, 0.012286996468901634, -0.040915075689554214, 0.03856661915779114, 0.06439151614904404, -0.02904837764799595, -0.04285793378949165, 0.0580005906522274, -0.024714654311537743, -0.05662712827324867, -0.05425179377198219, -0.01572921685874462, 0.024006575345993042, -0.004964765161275864, -0.0023333639837801456, -0.030821900814771652, -0.05844634771347046, -0.02516038343310356, 0.09206905215978622, 0.01095561869442463, -0.06818218529224396, 0.07169505208730698, 0.001266238046810031, 0.03130809962749481, -0.017342884093523026, -0.052963290363550186, -0.001423230511136353, -0.01582106202840805, -0.02123977430164814, -0.0018588820239529014, -0.10865843296051025, -0.014658099040389061, -0.015874534845352173, -0.09163548052310944, 0.007454207632690668, -0.02582356333732605, 0.01734490692615509, 0.012450332753360271, 0.01641780696809292, -0.09279002249240875, 0.037405528128147125, -0.036378130316734314, 0.036500271409749985, -0.10375895351171494, -0.06368084996938705, -0.027928447350859642, -0.021467722952365875, -0.01564490795135498, -0.13551728427410126, -0.09387421607971191, 0.013154963962733746, -0.2101415991783142, 0.026419462636113167, -0.056393273174762726, -0.12757353484630585, -0.0370689295232296, -0.041598767042160034, -0.0481710284948349, -0.03179273009300232, -0.028455667197704315, -0.08894506096839905, -0.03578325733542442, -0.03018125519156456, -0.036074575036764145], [-0.030980989336967468, -0.09756937623023987, -0.03872516006231308, 0.014187049120664597, 0.05299433693289757, 0.011785177513957024, -0.049962323158979416, -0.024174563586711884, -0.03580271452665329, 0.0019333107629790902, -0.021589983254671097, -0.023906784132122993, 0.005311432294547558, -0.07053574919700623, -0.06997846066951752, -0.04179219529032707, -0.061940357089042664, -0.00939180888235569, -0.002728341380134225, -0.03617909923195839, -0.013139467686414719, -0.04342937842011452, 0.013030895963311195, -0.01286289468407631, -0.11392717808485031, -0.03962787240743637, -0.033744167536497116, -0.05188992992043495, -0.05523654818534851, -0.03973348066210747, -0.039059415459632874, -0.0446680411696434, 0.0019273280631750822, -0.09321600198745728, 0.0030507182236760855, -0.05758287385106087, -0.008697954006493092, -0.036302100867033005, -0.0630040094256401, 0.1012420803308487, 0.0575702041387558, -0.050393715500831604, -0.03495987504720688, -0.006306659895926714, -0.02265063114464283, -0.05175194516777992, 0.005282578058540821, -0.019478222355246544, -0.03638361021876335, -0.03313867747783661, -0.015576982870697975, -0.03444962576031685, 0.004093216732144356, -0.043135739862918854, 0.1614386886358261, -0.0524015799164772, -0.0007264037849381566, -0.009722127579152584, -0.05181825906038284, 0.04567739740014076, -0.036434583365917206, -0.014563091099262238, -0.03716599568724632, -0.04162038862705231], [0.08991128206253052, 0.0013009243411943316, 0.03257376700639725, 0.04207621514797211, 0.0690188780426979, 0.0050693838857114315, 0.10993387550115585, 0.051484499126672745, 0.02681530825793743, 0.04272103309631348, 0.09232617914676666, 0.05233858525753021, 0.10716021060943604, 0.018946141004562378, 0.05972403287887573, 0.11783480644226074, 0.06436523795127869, 0.06632599979639053, 0.0018781509716063738, 0.09640970081090927, 0.0434558130800724, 0.03394848480820656, -0.011122109368443489, 0.017533963546156883, -0.009321385994553566, 0.05035308003425598, 0.020961971953511238, 0.07204257696866989, 0.024195440113544464, 0.11024969071149826, 0.042832620441913605, 0.0138804716989398, 0.05232071503996849, 0.0699446052312851, 0.06618621945381165, 0.06809624284505844, 0.009554778225719929, 0.08129993826150894, 0.03109690733253956, 0.05655819922685623, -0.01435166411101818, 0.044774796813726425, 0.06635510176420212, 0.033525437116622925, 0.025999890640378, 0.027044042944908142, 0.04947803169488907, 0.048748888075351715, -0.008944264613091946, 0.04280296340584755, 0.049828942865133286, 0.07197371870279312, 0.08032170683145523, 0.08943580090999603, -0.042554713785648346, 0.04673539474606514, 0.02895052172243595, 0.10400187969207764, 0.0005200644955039024, -0.017789334058761597, 0.034667398780584335, 0.08481942117214203, 0.08129337430000305, 0.03918454796075821], [0.12126846611499786, -0.003753986209630966, 0.07047916203737259, 0.15447132289409637, 0.05202927067875862, 0.01619170978665352, 0.030696431174874306, 0.040360551327466965, 0.09438853710889816, 0.02356116846203804, 0.08092276751995087, 0.05504879355430603, 0.09638030081987381, 0.04992729797959328, 0.0062767318449914455, 0.11244247108697891, 0.10219127684831619, 0.08804690837860107, 0.10025565326213837, 0.12397143244743347, 0.03832234442234039, 0.0894232988357544, 0.25480765104293823, 0.06232672929763794, -0.014305937103927135, 0.03161799907684326, 0.09517146646976471, 0.0602484829723835, 0.12791727483272552, -0.013694719411432743, 0.06455239653587341, 0.059189945459365845, 0.04094495624303818, 0.0517817847430706, 0.06720580160617828, 0.041641488671302795, 0.001580717507749796, 0.048527251929044724, 0.07931677252054214, 0.044395316392183304, -0.05330532789230347, 0.07686712592840195, 0.07509265094995499, -0.03954225778579712, 0.041269656270742416, 0.05008712410926819, 0.04902978986501694, 0.06441891938447952, 0.06079002097249031, 0.12779802083969116, 0.08477310091257095, 0.04647079482674599, 0.07558343559503555, 0.08585081249475479, -0.11342205107212067, 0.08156401664018631, 0.07459422200918198, 0.0034307450987398624, 0.04891069605946541, -0.019609613344073296, 0.027212101966142654, 0.033959534019231796, 0.04953994229435921, 0.04265465959906578], [0.12055235356092453, 0.018879158422350883, -0.020258639007806778, 0.15743640065193176, 0.06369098275899887, 0.06980001926422119, 0.09841848909854889, 0.006258756387978792, 0.007606559433043003, -0.07569117099046707, -0.03195945918560028, 0.0679081529378891, 0.009252357296645641, -0.07195883244276047, -0.0007148496224544942, 0.2513220012187958, -0.002974495990201831, -0.034733183681964874, -0.06600017100572586, -0.0659148171544075, -0.08472999185323715, -0.05371315777301788, -0.046275798231363297, -0.01999318227171898, -0.011379778385162354, 0.03971702605485916, 0.012281525880098343, -0.01340030413120985, -0.04111348092556, -0.13420264422893524, 0.042608894407749176, 0.01747860573232174, 0.03341536968946457, -0.058642659336328506, 0.11858496069908142, -0.023006465286016464, 0.010718094184994698, -0.018265368416905403, 0.04679415002465248, 0.027916627004742622, -5.555432289838791e-05, 0.007945995777845383, -0.09042976796627045, -0.10319143533706665, -0.0067589422687888145, 0.05570973828434944, 0.004083478357642889, 0.11344702541828156, 0.012489882297813892, 0.010854631662368774, -0.010589275509119034, 0.009285545907914639, -0.005323295947164297, -0.004700206685811281, -0.09706897288560867, -0.020961157977581024, -0.01364696491509676, -0.019868427887558937, -0.042607422918081284, -0.004535231273621321, 0.004311496391892433, -0.02347606047987938, 0.006023392081260681, -0.004791156388819218], [0.03153703361749649, -0.01830243691802025, -0.06555984169244766, -0.0010262763826176524, -0.05887463316321373, -0.04130851477384567, -0.03455936163663864, -0.035703010857105255, -0.029882941395044327, -0.003797422396019101, -0.06775200366973877, 0.01443358976393938, -0.07417599856853485, -0.007963388226926327, -0.06002115458250046, -0.058082107454538345, -0.04537094011902809, -0.07725755125284195, -0.0943048968911171, -0.019993791356682777, -0.08444229513406754, -0.05620396137237549, -0.08187545090913773, -0.057517170906066895, -0.010501645505428314, -0.04124252125620842, -0.026742728427052498, -0.054163508117198944, -0.07252288609743118, -0.034960925579071045, -0.029690546914935112, -0.07970758527517319, 0.006083287764340639, -0.03773392736911774, -0.06923273950815201, -0.0812908336520195, -0.01600874774158001, -0.0722048431634903, 0.03634674847126007, -0.020198656246066093, 0.030421804636716843, -0.04205208271741867, -0.07076533138751984, -0.09323930740356445, -0.07202468812465668, -0.07964727282524109, -0.07424863427877426, -0.015581663697957993, -0.07847624272108078, -0.0006146006053313613, -0.06490644067525864, 0.020320940762758255, -0.00996754877269268, -0.07262395322322845, -0.16338777542114258, -0.03541724011301994, -0.02233707346022129, 0.003877851413562894, -0.04874259606003761, -0.03327494487166405, -0.013630645349621773, -0.10045962780714035, -0.051380861550569534, -0.08008945733308792], [-0.021120848134160042, 0.02196906879544258, -0.03136173635721207, -0.05603879690170288, -0.025094585493206978, 0.007485664915293455, 0.026696402579545975, 0.024033265188336372, 0.020290561020374298, 0.05853436142206192, 0.021795285865664482, 0.1060095801949501, -0.043979544192552567, -0.1992691159248352, 0.05983956903219223, 0.02434242144227028, 0.07010335475206375, -0.048559997230768204, -0.026719730347394943, 0.042343199253082275, -0.012204091064631939, -0.14119279384613037, -0.036178719252347946, -0.012500978074967861, -0.09578455239534378, 0.020205385982990265, -0.032090965658426285, -0.0033482604194432497, 0.059769079089164734, 0.033173561096191406, 0.023151792585849762, 0.014824378304183483, 0.0342547744512558, 0.1330977827310562, -0.03678501024842262, -0.020081093534827232, 0.03310462832450867, 0.06045865640044212, -0.02077047899365425, -0.04504161328077316, -0.01562174130231142, 0.017699358984827995, 0.009934556670486927, -0.16983671486377716, 0.05876581370830536, -0.05905964598059654, 0.037691861391067505, 0.18076297640800476, -0.07270991802215576, 0.027841465547680855, 0.02813604287803173, -0.0540936179459095, 0.18126216530799866, 0.044933613389730453, -0.0170535109937191, 0.009349768050014973, 0.039930570870637894, 0.031089799478650093, -0.11129934340715408, 0.0006308392621576786, 0.0535241961479187, 0.034375738352537155, 0.02125457674264908, 0.023034680634737015], [-0.05017020180821419, -0.055449798703193665, -0.12051688134670258, -0.034025464206933975, -0.11068853735923767, -0.0752953588962555, -0.024923527613282204, -0.09614918380975723, -0.125471830368042, -0.08465318381786346, -0.11710747331380844, -0.0597890242934227, -0.02005530335009098, -0.06291521340608597, -0.023790189996361732, -0.0706961527466774, -0.10434843599796295, -0.07479244470596313, -0.15081621706485748, -0.05499019846320152, -0.033390436321496964, -0.10916456580162048, -0.09377152472734451, -0.025969648733735085, 0.008273991756141186, -0.041596729308366776, -0.04862610250711441, -0.10305372625589371, -0.10233252495527267, -0.07535964250564575, -0.04054676741361618, -0.12453629076480865, -0.0564659908413887, -0.08416731655597687, -0.03231826797127724, -0.06351155787706375, -0.05655239149928093, -0.1006457582116127, -0.13652367889881134, -0.019138293340802193, -0.3029049038887024, -0.11511081457138062, -0.08796997368335724, -0.19394299387931824, -0.08392921835184097, -0.07854003459215164, -0.15842518210411072, -0.053490009158849716, -0.03194126486778259, -0.07074397802352905, -0.11410564929246902, 0.028723737224936485, -0.04935172572731972, -0.0855112224817276, -0.2999376058578491, -0.034815870225429535, -0.07690005004405975, -0.08759338408708572, -0.09770290553569794, -0.050966206938028336, -0.08576285094022751, -0.0634090006351471, -0.10472290217876434, -0.03962673619389534], [-0.0420062392950058, -0.03195936605334282, -0.021451834589242935, 0.011339746415615082, 0.07824350893497467, 0.0031748153269290924, -0.01651916839182377, -0.03190482035279274, 0.03187255561351776, -0.05670339986681938, -0.044864360243082047, -0.015160806477069855, -0.035804107785224915, -0.05677269771695137, -0.018980758264660835, -0.006263032555580139, -0.012203867547214031, -0.025525370612740517, 0.005973733961582184, -0.025288062170147896, -0.024354539811611176, -0.07554270327091217, 0.004068935755640268, -0.0151814641430974, -0.06972964107990265, -0.01515498198568821, -0.0005670513492077589, -0.05927267670631409, -0.009672751650214195, -0.01674761064350605, -0.013057696633040905, 0.036556072533130646, 0.025499772280454636, -0.039723824709653854, -0.041408490389585495, -0.051104094833135605, 0.172418013215065, -0.02253446727991104, 0.05534517765045166, -0.029522962868213654, 0.009213617071509361, 0.019550662487745285, -0.015985988080501556, -0.03695325553417206, -0.027135763317346573, -0.011769391596317291, 0.17768807709217072, 0.006226717960089445, -0.007683706935495138, -0.02641724981367588, -0.018575770780444145, -0.06153763085603714, 0.025518707931041718, -0.07637195289134979, 6.716256029903889e-05, 0.05287747457623482, -0.017732979729771614, -0.006071272771805525, -0.016117440536618233, 0.019624460488557816, -0.010937178507447243, -0.028523333370685577, 0.002689036773517728, -0.02852463163435459], [-0.01408944558352232, -0.015758609399199486, -0.012237906455993652, 0.03791726380586624, 0.07753545790910721, 0.001072622835636139, -0.0972362756729126, -0.07928381115198135, 0.0053419992327690125, -0.0354357473552227, 0.022284232079982758, 0.01768817938864231, -0.026158509775996208, -0.028935803100466728, -0.007286600768566132, -0.01673857681453228, -0.00552636431530118, -0.06202207878232002, -0.06270541250705719, -0.01626175083220005, -0.01110883243381977, -0.0659191682934761, -0.02814672701060772, -0.016466999426484108, 0.020127419382333755, -0.048526693135499954, -0.0388222262263298, 0.015982095152139664, -0.007965002208948135, -0.17472656071186066, -0.05008399114012718, -0.005175159312784672, -0.06133222207427025, -0.04450678825378418, -0.018972938880324364, -0.030556075274944305, -0.018088486045598984, -0.015359447337687016, -0.048782799392938614, -0.017493801191449165, 0.03918822482228279, -0.0017272431869059801, -0.009369328618049622, -0.02099079079926014, -0.0035408984404057264, -0.05786551907658577, 0.07479873299598694, -0.008238742128014565, -0.040447041392326355, -0.04160283878445625, -0.0141071155667305, -0.08586567640304565, -0.013248720206320286, -0.04630707576870918, 0.05528416484594345, 0.13205395638942719, 0.008785278536379337, -0.03293047100305557, -0.011125685647130013, -0.0019773184321820736, 0.0019448978127911687, -0.016835788264870644, -0.003834843635559082, -0.003643803531304002], [-0.07799853384494781, 0.034605517983436584, 0.0562472864985466, -0.02851971797645092, -0.04148401319980621, 0.2878626883029938, 0.09576190263032913, -0.04610039293766022, 0.14380493760108948, 0.024881184101104736, -0.07834374904632568, -0.03620491549372673, 0.04748257249593735, -0.07208452373743057, 0.0091276615858078, 0.0113930469378829, 0.03397359326481819, -0.00553302513435483, 0.028952449560165405, 0.044474415481090546, -0.04161173105239868, 0.023142976686358452, -0.025876203551888466, 0.021103227511048317, -0.06032723933458328, 0.03757729008793831, 0.04870152473449707, -0.004224558360874653, -0.008823304437100887, 0.02231319434940815, 0.1088380217552185, 0.08322153240442276, -0.00046646990813314915, -0.01115341205149889, 0.0427742525935173, 0.015421883203089237, 0.032297153025865555, 0.0037974659353494644, 0.006300841923803091, -0.013698212802410126, -0.043634332716464996, 0.06981814652681351, -0.005443584639579058, -0.022952774539589882, -0.01152013335376978, 0.036719661206007004, 0.08652501553297043, -0.03583461791276932, 0.08466888219118118, 0.02181883528828621, 0.028813937678933144, 0.08236953616142273, 0.051966309547424316, -0.07235303521156311, -0.04200123995542526, -0.005195600911974907, 0.028478698804974556, 0.03165668249130249, -0.007150197867304087, 0.00462890462949872, -0.0005528165493160486, 0.16577386856079102, 0.003729847026988864, 0.015101650729775429], [-0.04872674494981766, -0.07697958499193192, -0.05794685706496239, 0.006835304666310549, 0.027461418882012367, -0.05741032212972641, 0.06613993644714355, 0.005003670696169138, 0.12080714851617813, -0.060465093702077866, -0.08254589140415192, 0.16308115422725677, -0.05717511102557182, -0.011685621924698353, -0.022892707958817482, -0.04474803805351257, -0.04740216210484505, -0.007960071787238121, -0.048330653458833694, -0.04755407199263573, -0.01921338215470314, -0.06144651398062706, -0.009972193278372288, -0.022798584774136543, 0.015681402757763863, -0.005480275023728609, 0.0251980721950531, -0.0709676444530487, -0.017887089401483536, -0.09012302756309509, -0.050049107521772385, 0.003141887951642275, 0.014889497309923172, -0.0038041281513869762, -0.07461333274841309, -0.016616780310869217, 0.15559358894824982, -0.04501635208725929, 0.03203130140900612, -0.04226262867450714, 0.04026041552424431, -0.028375694528222084, -0.040766164660453796, -0.09459280967712402, -0.017408577725291252, -0.06275022774934769, -0.05818505957722664, -0.04831952229142189, -0.06059752404689789, -0.06151964142918587, -0.0345383882522583, -0.10788854211568832, -0.0427069365978241, -0.026517203077673912, 0.018057599663734436, -0.012367638759315014, -0.06509535759687424, -0.030771618708968163, -0.04891068488359451, -0.05373452976346016, -0.009896262548863888, -0.10178354382514954, -0.006632181350141764, 0.012988325208425522], [-0.03683020547032356, -0.011169607751071453, -0.024935977533459663, 0.043912891298532486, -0.0017952502239495516, -0.013887408189475536, -0.0320981927216053, -0.06600525230169296, 0.032966554164886475, -0.053341735154390335, -0.05031830817461014, -0.04725854843854904, -0.0036147942300885916, -0.06896837055683136, 0.007570261601358652, -0.016002928838133812, -0.01845695823431015, -0.051108311861753464, -0.041956108063459396, -0.06039419770240784, -0.004418324213474989, -0.04378323629498482, -0.038633644580841064, -0.037732236087322235, 0.007166620343923569, 0.0249398835003376, 0.051538243889808655, 0.0016399025917053223, 0.002593121724203229, -0.02967613749206066, 0.0030418080277740955, -0.005113579798489809, 0.04889730364084244, 0.001060928450897336, -0.0013994761975482106, -0.033018119633197784, -0.026628943160176277, 0.011711610481142998, -0.02943059802055359, 0.019691919907927513, -0.002274842234328389, 0.013211715035140514, -0.01674126274883747, -0.00037303537828847766, -0.02397112175822258, -0.009330881759524345, 0.09906409680843353, 0.08273133635520935, -0.045550305396318436, -0.006307513453066349, -0.056113578379154205, -0.05850570276379585, 0.017338229343295097, -0.03657453879714012, 0.006198352202773094, -0.05647674575448036, -0.02429874800145626, -0.012266946025192738, -0.05913405120372772, 0.028716621920466423, 0.07502274215221405, 0.014640462584793568, 0.008686009794473648, -0.009631556458771229], [0.11155601590871811, -0.02806803211569786, -0.0242104884237051, 