{
  "conv1.weight": [
    [
      0.30466532707214355,
      0.24008426070213318,
      0.31125885248184204,
      -0.02462322637438774,
      -0.26359736919403076,
      -0.20337803661823273,
      -0.0838436707854271,
      0.042785439640283585,
      -0.10270652174949646,
      -0.1821809560060501,
      -0.02564994990825653,
      0.19944703578948975,
      0.26292282342910767,
      -0.15613126754760742,
      -0.18130181729793549,
      -0.014566910453140736
    ],
    [
      0.13920284807682037,
      0.14155703783035278,
      -0.11770755797624588,
      0.10952803492546082,
      -0.05376477539539337,
      -0.037951141595840454,
      -0.2564449608325958,
      0.22652673721313477,
      -0.22300097346305847,
      0.07881122827529907,
      -0.15826523303985596,
      -0.2665969431400299,
      -0.02014399692416191,
      0.10493020713329315,
      -0.29013118147850037,
      0.02286110445857048
    ],
    [
      -0.11889336258172989,
      -0.045047465711832047,
      -0.1410159021615982,
      -0.03939611464738846,
      0.2844691276550293,
      -0.3040030896663666,
      -0.14960813522338867,
      0.26874107122421265,
      -0.016643842682242393,
      -0.06569928675889969,
      0.10633168369531631,
      -0.13356363773345947,
      0.12987178564071655,
      -0.19506581127643585,
      -0.09507210552692413,
      0.242020383477211
    ],
    [
      0.031002813950181007,
      -0.25011730194091797,
      0.18999232351779938,
      -0.2101536989212036,
      -0.020406484603881836,
      -0.0009137445595115423,
      -0.13934926688671112,
      0.14152967929840088,
      -0.031266357749700546,
      0.17267848551273346,
      0.16067560017108917,
      -0.24732044339179993,
      0.23616735637187958,
      0.00788333173841238,
      0.24968194961547852,
      0.19680294394493103
    ],
    [
      -0.09299004822969437,
      -0.06260935217142105,
      -0.11567050963640213,
      -0.14972223341464996,
      0.24495859444141388,
      0.29486456513404846,
      0.13997676968574524,
      0.28408336639404297,
      0.10732658952474594,
      0.049254972487688065,
      -0.12577582895755768,
      0.29511263966560364,
      -0.2258383333683014,
      0.2335837036371231,
      -0.04038653522729874,
      -0.12493499368429184
    ],
    [
      -0.001515430980361998,
      0.19434422254562378,
      -0.2801622748374939,
      -0.245155930519104,
      -0.05787702277302742,
      -0.31342601776123047,
      0.04297102615237236,
      -0.22389964759349823,
      -0.2838384807109833,
      -0.12845700979232788,
      -0.1694476157426834,
      -0.0016306715551763773,
      0.21191850304603577,
      -0.07700865715742111,
      0.06295488774776459,
      0.14284677803516388
    ],
    [
      0.08506777137517929,
      0.015543797984719276,
      0.05158892646431923,
      0.18615394830703735,
      -0.2838638126850128,
      -0.12593264877796173,
      0.279552161693573,
      -0.08294718712568283,
      0.2000851333141327,
      -0.2526404559612274,
      0.07061998546123505,
      -0.009244957938790321,
      -0.2970159351825714,
      0.07087033241987228,
      -0.03353569656610489,
      -0.30692964792251587
    ],
    [
      -0.09838765859603882,
      0.2605361044406891,
      0.06344031542539597,
      -0.19310499727725983,
      -0.1631973683834076,
      -0.14428628981113434,
      -0.16387444734573364,
      0.05954606831073761,
      -0.1484549343585968,
      0.22504033148288727,
      0.16883540153503418,
      0.23187178373336792,
      0.005630542058497667,
      0.28573673963546753,
      -0.2647351622581482,
      -0.17061294615268707
    ],
    [
      -0.17997442185878754,
      0.14777310192584991,
      -0.3007167875766754,
      -0.14984169602394104,
      0.12606041133403778,
      0.2959274649620056,
      0.20577561855316162,
      0.13076235353946686,
      -0.2233361452817917,
      0.09597928822040558,
      -0.11515721678733826,
      0.01832110807299614,
      -0.040501777082681656,
      0.2959379255771637,
      0.2062932699918747,
      0.03308664634823799
    ],
    [
      -0.3074805736541748,
      0.2477598786354065,
      0.21691614389419556,
      0.10748344659805298,
      -0.3125251829624176,
      -0.21011121571063995,
      0.1664784550666809,
      -0.29668259620666504,
      0.13500122725963593,
      0.0364936888217926,
      0.289018839597702,
      0.10826355218887329,
      0.1670556366443634,
      0.10213468968868256,
      -0.14927281439304352,
      -0.17179904878139496
    ]
  ],
  "conv1.bias": [
    -0.3066212236881256,
    -0.049349065870046616,
    0.004712688736617565,
    -0.10213834792375565,
    0.08734502643346786,
    0.22179089486598969,
    0.025731941685080528,
    -0.12284022569656372,
    -0.27554580569267273,
    -0.16252401471138,
    0.09739919751882553,
    -0.2944856882095337,
    -0.31419622898101807,
    0.017181141301989555,
    0.008097980171442032,
    -0.24862638115882874
  ],
  "conv2.weight": [
    [
      0.0417398139834404,
      0.07732538878917694,
      -0.13759560883045197,
      -0.02624785527586937,
      0.10474899411201477,
      0.15768460929393768,
      -0.12363826483488083,
      -0.09501050412654877,
      -0.10011658817529678,
      -0.08998885005712509,
      -0.11459711194038391,
      0.13565047085285187,
      -0.008957196027040482,
      -0.13445107638835907,
      -0.12526707351207733,
      -0.1502925604581833
    ],
    [
      -0.16612686216831207,
      0.010220041498541832,
      0.018875908106565475,
      0.10159645229578018,
      0.14628705382347107,
      0.12465345114469528,
      0.15383794903755188,
      -0.0686236247420311,
      -0.13310618698596954,
      -0.016318753361701965,
      -0.03806370496749878,
      -0.008399445563554764,
      0.004232070408761501,
      -0.09944474697113037,
      -0.1509263664484024,
      -0.07271705567836761
    ],
    [
      0.0332072488963604,
      0.09054544568061829,
      -0.1585373878479004,
      -0.15876834094524384,
      -0.010118614882230759,
      -0.06775390356779099,
      -0.07205096632242203,
      -0.17095980048179626,
      0.0794047862291336,
      -0.02976600080728531,
      0.13943515717983246,
      -0.11352299898862839,
      -0.16062533855438232,
      -0.002293863333761692,
      0.04197229817509651,
      0.10304379463195801
    ],
    [
      -0.020902644842863083,
      0.13579536974430084,
      -0.09645453840494156,
      -0.1497449427843094,
      -0.08721031993627548,
      -0.07062888890504837,
      0.0612417496740818,
      0.14148445427417755,
      0.16606667637825012,
      -0.08410093933343887,
      -0.042143601924180984,
      -0.02865058369934559,
      0.06478329002857208,
      -0.0543496236205101,
      -0.06281241774559021,
      0.030702272430062294
    ],
    [
      -0.11261241883039474,
      0.15163403749465942,
      -0.15371732413768768,
      -0.15617233514785767,
      -0.009570516645908356,
      -0.12488167732954025,
      -0.07703084498643875,
      0.10208944231271744,
      0.0007970811566337943,
      -0.020077873021364212,
      -0.16410095989704132,
      -0.05772832781076431,
      -0.05903707072138786,
      0.1302640587091446,
      0.06952044367790222,
      -0.016197897493839264
    ],
    [
      0.15296509861946106,
      0.1058943122625351,
      -0.04379778355360031,
      -0.05915556475520134,
      0.1604047566652298,
      -0.09609179943799973,
      0.04185529798269272,
      0.11526728421449661,
      0.08309561014175415,
      -0.09951744973659515,
      0.013597837649285793,
      0.022013762965798378,
      0.11728247255086899,
      -0.08404553681612015,
      -0.1506626158952713,
      -0.124640554189682
    ],
    [
      0.12915419042110443,
      0.10123871266841888,
      0.06987646222114563,
      -0.11776883155107498,
      -0.14815542101860046,
      0.013857504352927208,
      -0.07389699667692184,
      -0.15636931359767914,
      -0.150894433259964,
      -0.05160443112254143,
      -0.034649092704057693,
      -0.13467949628829956,
      -0.06734699755907059,
      -0.057521555572748184,
      0.15764154493808746,
      -0.07942429929971695
    ],
    [
      -0.038969986140728,
      0.14717982709407806,
      -0.1132233515381813,
      -0.011988670565187931,
      -0.08335516601800919,
      0.07230374217033386,
      0.10818158090114594,
      0.05553768202662468,
      -0.09804488718509674,
      0.05726898834109306,
      -0.08428667485713959,
      -0.14447546005249023,
      0.160660520195961,
      0.127676859498024,
      -0.058954399079084396,
      0.09342645108699799
    ],
    [
      -0.0021287528797984123,
      0.06346988677978516,
      -0.0011669619707390666,
      0.14134307205677032,
      0.12291112542152405,
      -0.013881991617381573,
      0.003812224604189396,
      0.16747832298278809,
      0.0812719538807869,
      -0.171841099858284,
      -0.03108013980090618,
      -0.051152173429727554,
      -0.043537672609090805,
      -0.004449358209967613,
      -0.05488908290863037,
      0.09537409991025925
    ],
    [
      -0.17428596317768097,
      0.12899468839168549,
      0.020328478887677193,
      0.1190776601433754,
      0.051914799958467484,
      0.12185001373291016,
      -0.17412488162517548,
      0.09208279103040695,
      0.03544425591826439,
      0.11588320136070251,
      0.16534718871116638,
      0.16366906464099884,
      0.08825378865003586,
      0.15896335244178772,
      0.020756985992193222,
      0.11864402890205383
    ],
    [
      0.028095783665776253,
      -0.16222751140594482,
      -0.035537928342819214,
      -0.07861455529928207,
      0.049435049295425415,
      -0.04876803234219551,
      -0.10699927806854248,
      -0.10298401117324829,
      -0.09389200806617737,
      0.14859391748905182,
      -0.01887321099638939,
      0.08408458530902863,
      -0.08550659567117691,
      0.044563084840774536,
      -0.16800826787948608,
      0.0229050200432539
    ],
    [
      -0.1336044818162918,
      0.14426781237125397,
      -0.10694010555744171,
      0.1576153188943863,
      0.06229940429329872,
      0.0908782109618187,
      -0.1670694351196289,
      0.16137084364891052,
      -0.09386547654867172,
      0.06013640761375427,
      -0.03467115759849548,
      0.04710209369659424,
      0.1063985824584961,
      -0.019685465842485428,
      -0.13996438682079315,
      -0.09615074098110199
    ],
    [
      0.12322842329740524,
      0.0402657724916935,
      -0.10803094506263733,
      0.0991879478096962,
      0.10592242330312729,
      0.13326454162597656,
      0.03577978536486626,
      0.08526699244976044,
      -0.13918957114219666,
      -0.07823318988084793,
      0.038248855620622635,
      0.0008443488623015583,
      -0.05129716172814369,
      -0.046712469309568405,
      -0.06524597853422165,
      0.1299912929534912
    ],
    [
      -0.07432451099157333,
      0.1177837923169136,
      -0.15268932282924652,
      0.06323843449354172,
      -0.1455492228269577,
      0.057534556835889816,
      -0.08500637859106064,
      0.12685781717300415,
      -0.13553588092327118,
      0.17581810057163239,
      0.16213689744472504,
      0.06514357775449753,
      0.17016199231147766,
      -0.1691383421421051,
      -0.006861844100058079,
      -0.1437988430261612
    ],
    [
      0.11222022026777267,
      -0.019159534946084023,
      0.10376111418008804,
      -0.03607160970568657,
      0.07462465763092041,
      0.13839507102966309,
      -0.12356332689523697,
      0.1619783192873001,
      -0.17332063615322113,
      -0.013468657620251179,
      -0.04184732958674431,
      -0.053281959146261215,
      0.17532724142074585,
      -0.11057215183973312,
      0.006731209810823202,
      0.00927051529288292
    ],
    [
      0.0625966489315033,
      -0.04053909331560135,
      0.13552936911582947,
      0.1635025441646576,
      -0.10267191380262375,
      -0.05375843122601509,
      -0.1256667524576187,
      0.10303334146738052,
      -0.16379506886005402,
      -0.059159718453884125,
      -0.08236667513847351,
      0.019341126084327698,
      -0.058718547224998474,
      0.13556133210659027,
      0.0534069687128067,
      0.03923641890287399
    ],
    [
      0.10657555609941483,
      -0.015670640394091606,
      0.039936814457178116,
      -0.08284597098827362,
      0.07446330040693283,
      -0.05437971651554108,
      0.13351702690124512,
      -0.07574370503425598,
      -0.029108045622706413,
      -0.15497563779354095,
      0.10663624852895737,
      -0.10838394612073898,
      0.15825028717517853,
      0.053279727697372437,
      -0.010016640648245811,
      -0.066257543861866
    ],
    [
      -0.04051608219742775,
      -0.1259055882692337,
      0.05342639610171318,
      -0.16564080119132996,
      -0.07679437845945358,
      -0.12193936854600906,
      0.06295611709356308,
      0.056524697691202164,
      0.15858569741249084,
      -0.026946628466248512,
      0.14575648307800293,
      -0.12129087001085281,
      -0.11430901288986206,
      -0.1273335963487625,
      0.004739518277347088,
      -0.16007839143276215
    ],
    [
      0.11983469873666763,
      -0.13830755650997162,
      0.07514458149671555,
      -0.07758669555187225,
      0.003264168044552207,
      -0.048137959092855453,
      0.08403424173593521,
      0.16768306493759155,
      -0.1742611825466156,
      -0.15156283974647522,
      -0.014655027538537979,
      0.006211328320205212,
      0.16868677735328674,
      0.07799946516752243,
      -0.0015330915339291096,
      -0.1520833820104599
    ],
    [
      0.03902256488800049,
      -0.06818100064992905,
      0.06771466135978699,
      -0.06281595677137375,
      -0.009477983228862286,
      0.1231532171368599,
      0.15887127816677094,
      -0.15554551780223846,
      -0.10714904963970184,
      -0.0679837092757225,
      -0.004984960425645113,
      0.12274795025587082,
      0.10744626820087433,
      -0.01480450201779604,
      -0.09664934128522873,
      0.15749011933803558
    ],
    [
      -0.062940314412117,
      -0.0790361687541008,
      0.0802043154835701,
      0.0980503186583519,
      0.05329561606049538,
      -0.04217221960425377,
      -0.06973421573638916,
      -0.0515330545604229,
      0.12968885898590088,
      0.09800101071596146,
      0.07702328264713287,
      -0.016933465376496315,
      0.08519449830055237,
      0.023158133029937744,
      -0.06808144599199295,
      -0.06897565722465515
    ],
    [
      0.07797840982675552,
      0.0008392491145059466,
      0.13590745627880096,
      0.11939197033643723,
      0.10037284344434738,
      -0.13546445965766907,
      -0.16233529150485992,
      0.0783512219786644,
      -0.011311223730444908,
      -0.17495232820510864,
      -0.07667451351881027,
      -0.08423348516225815,
      -0.11330893635749817,
      0.03621874749660492,
      0.05802999436855316,
      -0.10479109734296799
    ],
    [
      -0.15114809572696686,
      0.1157643273472786,
      0.09904015809297562,
      0.05450025573372841,
      0.0629989355802536,
      -0.027723437175154686,
      -0.02176155522465706,
      -0.043281082063913345,
      -0.08608972281217575,
      -0.12771379947662354,
      0.10883614420890808,
      -0.027122149243950844,
      0.009119060821831226,
      -0.1468096375465393,
      0.006548650562763214,
      -0.0008998773409985006
    ],
    [
      -0.125103160738945,
      -0.15042810142040253,
      -0.14361542463302612,
      -0.16801121830940247,
      0.14182831346988678,
      -0.08525268733501434,
      -0.03783781826496124,
      0.1115177795290947,
      0.046230580657720566,
      0.01785498484969139,
      -0.0011363421799615026,
      0.0003761816769838333,
      -0.0011599865974858403,
      -0.06509673595428467,
      0.015987521037459373,
      0.07236605137586594
    ],
    [
      -0.09262830018997192,
      0.13590534031391144,
      0.040727511048316956,
      -0.05013858526945114,
      0.06842675805091858,
      0.06487599015235901,
      0.06763635575771332,
      -0.04543742164969444,
      0.11720680445432663,
      0.004972253460437059,
      0.12723085284233093,
      -0.06000373139977455,
      -0.05780743807554245,
      0.07328270375728607,
      0.022928286343812943,
      0.05945063754916191
    ],
    [
      -0.08947036415338516,
      -0.01017233170568943,
      0.16838721930980682,
      -0.07340573519468307,
      0.0833517536520958,
      -0.17163076996803284,
      0.09470813721418381,
      0.1299048513174057,
      0.0013107247650623322,
      -0.034682873636484146,
      0.06786125153303146,
      0.03703397139906883,
      0.09067098051309586,
      0.02452830597758293,
      -0.13890941441059113,
      -0.13547462224960327
    ],
    [
      0.12375357747077942,
      -0.0015254418831318617,
      0.13285328447818756,
      0.09127148240804672,
      -0.09720047563314438,
      -0.1189425140619278,
      0.12018607556819916,
      -0.05586212873458862,
      0.10554679483175278,
      -0.11376616358757019,
      -0.028335051611065865,
      0.023793328553438187,
      -0.012995622120797634,
      0.13878905773162842,
      -0.013036188669502735,
      0.043592315167188644
    ],
    [
      0.13348838686943054,
      -0.17221646010875702,
      0.03793039172887802,
      0.11866651475429535,
      -0.026147862896323204,
      0.025952322408556938,
      0.10751589387655258,
      0.06724565476179123,
      -0.04917679354548454,
      0.14451266825199127,
      -0.09132884442806244,
      0.12420370429754257,
      0.16921071708202362,
      0.12171585857868195,
      0.048574432730674744,
      -0.09069281071424484
    ],
    [
      0.13305774331092834,
      -0.011544822715222836,
      -0.14119777083396912,
      0.1052318885922432,
      0.023986024782061577,
      0.1159663125872612,
      -0.045852165669202805,
      0.01568336971104145,
      0.046702731400728226,
      -0.0906362235546112,
      0.044432301074266434,
      0.12003392726182938,
      0.12376447021961212,
      0.06663119792938232,
      0.12183667719364166,
      -0.0502108670771122
    ],
    [
      -0.06081484630703926,
      -0.02675781212747097,
      0.16608798503875732,
      -0.06631648540496826,
      -0.10791940242052078,
      0.08476331830024719,
      0.002067513531073928,
      -0.10442720353603363,
      -0.13229450583457947,
      0.13286355137825012,
      0.044019367545843124,
      0.1505078822374344,
      -0.11485017836093903,
      0.1589026004076004,
      -0.03533482179045677,
      -0.005837928503751755
    ],
    [
      0.06599846482276917,
      -0.09909899532794952,
      -0.04188857227563858,
      -0.045998964458703995,
      0.10451562702655792,
      -0.12587055563926697,
      0.04091590642929077,
      -0.1373283863067627,
      -0.05872562527656555,
      -0.06281682103872299,
      -0.07614143937826157,
      -0.07127008587121964,
      0.04573478922247887,
      -0.10782086849212646,
      -0.05754062533378601,
      -0.09638990461826324
    ],
    [
      0.019230764359235764,
      0.02135157212615013,
      -0.07974101603031158,
      0.011724325828254223,
      0.15123412013053894,
      -0.0125391511246562,
      -0.11523595452308655,
      -0.16403764486312866,
      0.14892274141311646,
      0.06975619494915009,
      0.12749235332012177,
      0.11682071536779404,
      -0.03605441376566887,
      0.019730309024453163,
      0.03675961494445801,
      0.06454267352819443
    ]
  ],
  "conv2.bias": [
    -0.058780208230018616,
    -0.17342154681682587,
    0.16935448348522186,
    0.09553781896829605,
    -0.004328333772718906,
    0.11786998063325882,
    -0.05923899635672569,
    -0.16068358719348907,
    0.014249196276068687,
    -0.12416895478963852,
    -0.1057739183306694,
    0.1350138932466507,
    -0.09476948529481888,
    0.0909418985247612,
    0.1296248584985733,
    -0.12798750400543213
  ],
  "conv3.weight": [
    [
      -0.03538602963089943,
      -0.17095671594142914,
      -0.13328184187412262,
      0.03249623253941536,
      0.07743021100759506,
      0.10566804558038712,
      0.042534492909908295,
      0.17191369831562042,
      -0.05015379935503006,
      -0.13151289522647858,
      0.001769324648194015,
      -0.08244218677282333,
      0.06694363057613373,
      -0.11873049288988113,
      -0.06282925605773926,
      -0.03406485170125961
    ],
    [
      -0.1667480617761612,
      0.17600879073143005,
      0.0701206773519516,
      0.13983610272407532,
      0.17114831507205963,
      0.0011620096629485488,
      -0.0017334365984424949,
      0.15734082460403442,
      -0.03750700503587723,
      -0.04523496702313423,
      -0.042972903698682785,
      -0.15676583349704742,
      -0.055525436997413635,
      -0.06688281148672104,
      -0.06238085404038429,
      -0.025040896609425545
    ],
    [
      -0.10417619347572327,
      0.1062367781996727,
      -0.09136412292718887,
      0.04025917500257492,
      0.12581415474414825,
      -0.1423160880804062,
      0.1526573747396469,
      0.10314477980136871,
      -0.1347569227218628,
      -0.16507506370544434,
      0.012799660675227642,
      -0.029570206999778748,
      -0.0060006994754076,
      0.0162192452698946,
      0.02251754328608513,
      0.0942699983716011
    ],
    [
      -0.10326693952083588,
      0.06293441355228424,
      0.023115038871765137,
      -0.11918038874864578,
      0.01116364635527134,
      -0.10893601179122925,
      -0.1271379292011261,
      -0.017731959000229836,
      -0.17433032393455505,
      0.13967014849185944,
      0.15683294832706451,
      -0.12825214862823486,
      0.12853829562664032,
      0.06445544958114624,
      0.12218274176120758,
      -0.04911091923713684
    ],
    [
      -0.008914058096706867,
      0.05060281231999397,
      -0.024157581850886345,
      -0.07683538645505905,
      -0.05073608085513115,
      0.09997104108333588,
      -0.13912023603916168,
      0.056830767542123795,
      -0.058740969747304916,
      0.13547147810459137,
      -0.17415139079093933,
      -0.09128261357545853,
      0.12419459968805313,
      -0.045468609780073166,
      0.1477208435535431,
      0.07810693979263306
    ],
    [
      0.054188814014196396,
      -0.12754052877426147,
      -0.10853241384029388,
      -0.17052187025547028,
      -0.10021141916513443,
      -0.07691367715597153,
      0.010394065640866756,
      -0.03541066497564316,
      -0.06384296715259552,
      0.08037269115447998,
      -0.059249911457300186,
      0.07535853981971741,
      0.02971831150352955,
      0.04729704558849335,
      0.03238062188029289,
      -0.0014684383058920503
    ],
    [
      -0.08743365854024887,
      0.17353127896785736,
      -0.04798462986946106,
      -0.16255930066108704,
      -0.1071181520819664,
      -0.07108478993177414,
      0.1450197994709015,
      -0.02401719242334366,
      -0.10460265725851059,
      -0.15977336466312408,
      -0.16162709891796112,
      -0.08640042692422867,
      0.1695609837770462,
      -0.10693828761577606,
      -0.08229260891675949,
      -0.07988642156124115
    ],
    [
      -0.08369902521371841,
      -0.121078260242939,
      -0.07199939340353012,
      -0.16962428390979767,
      -0.005306098610162735,
      0.12300315499305725,
      0.12612536549568176,
      -0.1414625197649002,
      0.06248099356889725,
      0.005278660915791988,
      -0.10646045207977295,
      -0.1493234783411026,
      0.13371825218200684,
      -0.16310633718967438,
      -0.08279640972614288,
      -0.018633943051099777
    ],
    [
      -0.15634748339653015,
      -0.14300665259361267,
      0.12900806963443756,
      -0.11298088729381561,
      -0.032677337527275085,
      0.16518698632717133,
      0.0814681276679039,
      -0.16846118867397308,
      0.04613722860813141,
      -0.06628517061471939,
      -0.10731689631938934,
      -0.12647558748722076,
      0.039004843682050705,
      0.05935397371649742,
      -0.15443232655525208,
      0.1103302463889122
    ],
    [
      0.005701499059796333,
      -0.13694368302822113,
      -0.14858591556549072,
      0.17206768691539764,
      -0.009996832348406315,
      0.032512351870536804,
      0.004129147622734308,
      -0.08859619498252869,
      -0.14301162958145142,
      -0.14959198236465454,
      0.0930827260017395,
      -0.04007846862077713,
      -0.005354040302336216,
      -0.08012042194604874,
      0.17405451834201813,
      -0.1237662211060524
    ],
    [
      -0.00802008155733347,
      -0.09397600591182709,
      -0.12474048882722855,
      -0.1019803062081337,
      -0.06772060692310333,
      0.02872682735323906,
      -0.08171512931585312,
      -0.013170426711440086,
      0.09827062487602234,
      -0.12082468718290329,
      -0.021815882995724678,
      0.11360786110162735,
      -0.12031460553407669,
      -0.14895814657211304,
      -0.1529819369316101,
      -0.0934963971376419
    ],
    [
      0.09577453881502151,
      0.035384196788072586,
      0.0362076610326767,
      0.17674393951892853,
      0.06998486071825027,
      -0.08734241127967834,
      -0.0438532680273056,
      0.082120880484581,
      0.003347787307575345,
      -0.12131114304065704,
      0.10241972655057907,
      0.028543531894683838,
      0.10975254327058792,
      -0.09484473615884781,
      -0.1764478236436844,
      0.16175195574760437
    ],
    [
      -0.004926144611090422,
      0.01390449795871973,
      0.09697958081960678,
      0.03432631120085716,
      -0.04613183066248894,
      0.008664212189614773,
      0.051550209522247314,
      -0.0999065712094307,
      -0.11997447907924652,
      -0.11858300119638443,
      0.1237965002655983,
      -0.07063919305801392,
      -0.002533594612032175,
      0.01423600409179926,
      0.12346584349870682,
      0.1652068793773651
    ],
    [
      -0.12798701226711273,
      0.15349696576595306,
      -0.10665787011384964,
      -0.07256142795085907,
      -0.14094357192516327,
      0.07425469905138016,
      0.10261714458465576,
      -0.008168185129761696,
      0.17375171184539795,
      -0.06446944177150726,
      -0.07626248896121979,
      0.09046125411987305,
      -0.056308187544345856,
      0.07971448451280594,
      -0.07514222711324692,
      0.15284158289432526
    ],
    [
      0.15983913838863373,
      0.03996490687131882,
      0.10080980509519577,
      -0.16798271238803864,
      0.019427020102739334,
      -0.095921590924263,
      0.17057520151138306,
      -0.1680976003408432,
      -0.029161741957068443,
      0.004476290196180344,
      -0.17230714857578278,
      0.11263717710971832,
      -0.08629276603460312,
      -0.06802672147750854,
      0.029120542109012604,
      0.0043539381586015224
    ],
    [
      -0.011738424189388752,
      -0.11114629358053207,
      -0.11167944967746735,
      0.11833557486534119,
      -0.05686328187584877,
      -0.15931124985218048,
      0.038146164268255234,
      -0.02376270852982998,
      -0.06513062119483948,
      0.13251779973506927,
      0.15232312679290771,
      -0.12573100626468658,
      0.069978266954422,
      0.1389251947402954,
      -0.15101823210716248,
      0.02921845018863678
    ],
    [
      0.01715248078107834,
      -0.11495677381753922,
      0.16502898931503296,
      0.12328226864337921,
      0.06828664243221283,
      -0.12066071480512619,
      0.17103511095046997,
      0.16279827058315277,
      -0.06605742871761322,
      -0.13287724554538727,
      -0.03216078504920006,
      0.04359343275427818,
      0.06905955076217651,
      0.04992275312542915,
      0.1377638876438141,
      -0.09270884096622467
    ],
    [
      -0.1496737152338028,
      -0.16402596235275269,
      -0.1391129195690155,
      0.13964909315109253,
      -0.006799930240958929,
      0.03965872898697853,
      0.15875345468521118,
      0.1331871747970581,
      0.027009176090359688,
      -0.10075779259204865,
      -0.012742593884468079,
      0.12284303456544876,
      -0.0932411327958107,
      -0.0663364827632904,
      0.07019930332899094,
      -0.1570184975862503
    ],
    [
      -0.1254827082157135,
      -0.01868700608611107,
      -0.01115504838526249,
      -0.12536512315273285,
      -0.07220330089330673,
      0.03010043501853943,
      -0.17332619428634644,
      0.1072114035487175,
      0.05340315401554108,
      0.08122885972261429,
      0.04611904174089432,
      0.04703362658619881,
      -0.05016033351421356,
      -0.08396897464990616,
      0.10868462175130844,
      -0.119400754570961
    ],
    [
      -0.05103690177202225,
      -0.002840339206159115,
      -0.03487687557935715,
      0.08196701854467392,
      -0.05996278300881386,
      -0.12226307392120361,
      -0.10763729363679886,
      0.038284868001937866,
      0.1479174643754959,
      -0.04203943535685539,
      0.030546771362423897,
      -0.03938167914748192,
      -0.17323201894760132,
      -0.11647875607013702,
      0.13140754401683807,
      -0.06140979006886482
    ],
    [
      0.001148501643911004,
      0.12489067763090134,
      0.09993655979633331,
      -0.06609858572483063,
      -0.14417819678783417,
      0.10613857209682465,
      -0.1353592872619629,
      0.03940894827246666,
      -0.17095936834812164,
      -0.08365708589553833,
      0.02237481251358986,
      0.1406564861536026,
      0.13663816452026367,
      0.16156545281410217,
      0.11065123975276947,
      0.056328482925891876
    ],
    [
      -0.1171628013253212,
      -0.10812942683696747,
      0.025734759867191315,
      -0.08681458234786987,
      -0.16082607209682465,
      -0.11853716522455215,
      -0.0477227084338665,
      0.14822719991207123,
      -0.12189292162656784,
      0.07551752030849457,
      -0.1326143443584442,
      -0.17625734210014343,
      -0.156706303358078,
      -0.0445818193256855,
      -0.039633166044950485,
      0.11328640580177307
    ],
    [
      -0.06554964184761047,
      0.0861450582742691,
      -0.10317590832710266,
      -0.08295519649982452,
      0.12064842879772186,
      -0.13636568188667297,
      -0.005816328339278698,
      -0.1293562799692154,
      0.0365273654460907,
      0.04123932123184204,
      -0.08034221827983856,
      -0.012251772917807102,
      0.10378918051719666,
      -0.11049439013004303,
      0.03150185942649841,
      0.04836336150765419
    ],
    [
      0.06987479329109192,
      -0.131263867020607,
      -0.17623116075992584,
      -0.13592086732387543,
      -0.03943025320768356,
      0.034483518451452255,
      -0.1290770024061203,
      -0.14323197305202484,
      -0.11896154284477234,
      0.15235507488250732,
      -0.07692575454711914,
      -0.10795118659734726,
      -0.07028155773878098,
      -0.14773575961589813,
      0.11979570984840393,
      -0.12316031754016876
    ],
    [
      -0.14207325875759125,
      0.1062919870018959,
      -0.10891615599393845,
      -0.02162143774330616,
      0.04321352019906044,
      0.07601232826709747,
      0.1668969690799713,
      -0.07196656614542007,
      0.07117690145969391,
      0.10484860837459564,
      0.14385266602039337,
      0.10811901092529297,
      0.13739310204982758,
      0.12741929292678833,
      -0.15027785301208496,
      -0.04803899675607681
    ],
    [
      -0.1249537318944931,
      0.16729654371738434,
      0.112986721098423,
      -0.16993379592895508,
      -0.04865695536136627,
      0.09686848521232605,
      -0.07026056200265884,
      0.11238185316324234,
      0.00495908223092556,
      -0.17281988263130188,
      0.15292547643184662,
      0.11633594334125519,
      0.014277433976531029,
      -0.015492781065404415,
      0.12809202075004578,
      -0.00016194926865864545
    ],
    [
      0.1731461137533188,
      -0.00039226069930009544,
      -0.008362735621631145,
      0.047413308173418045,
      -0.11348074674606323,
      0.021890651434659958,
      0.06492108851671219,
      -0.17378345131874084,
      -0.09695669263601303,
      -0.08096430450677872,
      0.1139034554362297,
      0.08920909464359283,
      0.025328779593110085,
      0.09218961000442505,
      -0.13303829729557037,
      -0.07530885189771652
    ],
    [
      -0.03092166781425476,
      0.13297908008098602,
      0.12459554523229599,
      0.15733274817466736,
      0.17575038969516754,
      -0.11056675761938095,
      0.022029293701052666,
      -0.017229294404387474,
      0.05024679750204086,
      -0.07964266091585159,
      -0.0777829959988594,
      0.07089708745479584,
      -0.030986594036221504,
      0.14394231140613556,
      0.013203280046582222,
      -0.07761356979608536
    ],
    [
      0.10169939696788788,
      -0.07930648326873779,
      -0.16930721700191498,
      -0.02363993600010872,
      0.13297608494758606,
      -0.1130460649728775,
      0.06684134155511856,
      0.06693435460329056,
      0.0718628391623497,
      -0.08426176756620407,
      0.12739720940589905,
      0.07794184982776642,
      0.1352975070476532,
      -0.1751387119293213,
      -0.047962818294763565,
      -0.14399266242980957
    ],
    [
      -0.11874088644981384,
      0.04877890646457672,
      0.05969131737947464,
      -0.06316547840833664,
      0.08525637537240982,
      0.005893562454730272,
      -0.13297894597053528,
      0.1098305732011795,
      0.128581240773201,
      -0.06053650751709938,
      -0.043027233332395554,
      0.13008853793144226,
      -0.0352557972073555,
      0.0416584275662899,
      0.1725107580423355,
      -0.07121247053146362
    ],
    [
      0.09224136918783188,
      -0.1253596842288971,
      -0.09537249803543091,
      0.13851262629032135,
      0.01622765325009823,
      -0.1752525418996811,
      -0.14273858070373535,
      0.018593018874526024,
      -0.07735710591077805,
      -0.13268491625785828,
      0.009439608082175255,
      -0.06969504058361053,
      0.07271275669336319,
      -0.08554144948720932,
      -0.059108152985572815,
      -0.12457965314388275
    ],
    [
      0.04290976747870445,
      0.08997350931167603,
      0.10671381652355194,
      -0.0029585822485387325,
      0.1406211405992508,
      0.0003055857087019831,
      -0.08432378619909286,
      0.17145000398159027,
      0.018176671117544174,
      -0.09916236251592636,
      0.0022763933520764112,
      -0.1580743044614792,
      0.1419503539800644,
      -0.1684667021036148,
      0.029366638511419296,
      -0.07278052717447281
    ]
  ],
  "conv3.bias": [
    -0.1726834774017334,
    -0.062169868499040604,
    -0.09159896522760391,
    0.1302194744348526,
    -0.10509400814771652,
    -0.008193853311240673,
    -0.0672389343380928,
    -0.10301517695188522,
    0.013235037215054035,
    0.10616818070411682,
    0.022859249264001846,
    0.007831537164747715,
    -0.07652333378791809,
    -0.12776809930801392,
    0.03691962733864784,
    0.1657036393880844
  ],
  "lin.weight": [
    [
      -0.12191799283027649,
      0.20550912618637085,
      0.02706083655357361,
      -0.012246638536453247,
      0.20486047863960266,
      0.08818897604942322,
      -0.05843698978424072,
      0.1314069628715515,
      -0.03245830535888672,
      -0.06638538837432861,
      0.19789916276931763,
      0.06843671202659607,
      0.016074001789093018,
      0.13336148858070374,
      -0.011491000652313232,
      -0.1946108639240265
    ],
    [
      -0.0365452766418457,
      -0.014026790857315063,
      0.04118296504020691,
      0.1357945203781128,
      0.11758249998092651,
      0.1916573941707611,
      -0.01527056097984314,
      -0.23512211441993713,
      0.2437935471534729,
      -0.0019735097885131836,
      0.08747056126594543,
      0.11102664470672607,
      0.18329215049743652,
      0.050769954919815063,
      0.08776721358299255,
      0.12845128774642944
    ]
  ],
  "lin.bias": [
    0.22381705045700073,
    -0.22888168692588806
  ]
}