{
  "conv1.att_src": [
    [
      [
        -0.5760409832000732,
        -0.09271075576543808,
        0.008853600360453129,
        -0.19188456237316132,
        0.1640927493572235,
        0.41667255759239197,
        0.04834190383553505,
        -0.2307766228914261,
        -0.5176604390144348,
        -0.30532947182655334,
        0.1829812377691269,
        -0.5532423257827759,
        -0.5902719497680664,
        0.03227774798870087,
        0.015213456936180592,
        -0.46708768606185913
      ]
    ]
  ],
  "conv1.att_dst": [
    [
      [
        0.1402738392353058,
        0.25986531376838684,
        -0.4624137878417969,
        -0.08821044117212296,
        0.3520270586013794,
        0.5299263000488281,
        -0.4155077040195465,
        -0.3192991614341736,
        -0.33645907044410706,
        -0.30242305994033813,
        -0.3851233422756195,
        0.45587679743766785,
        -0.0301022008061409,
        -0.45184603333473206,
        -0.42098158597946167,
        -0.5050840377807617
      ]
    ]
  ],
  "conv1.bias": [
    0.0,
    0.0,
    0.0,
    0.0,
    0.0,
    0.0,
    0.0,
    0.0,
    0.0,
    0.0,
    0.0,
    0.0,
    0.0,
    0.0,
    0.0,
    0.0
  ],
  "conv1.lin.weight": [
    [
      -0.0025615456979721785,
      0.3285016715526581,
      -0.4735606908798218,
      -0.41438916325569153,
      -0.09783001989126205
    ],
    [
      -0.5297866463661194,
      0.07263428717851639,
      -0.37845948338508606,
      -0.4797745943069458,
      -0.21713197231292725
    ],
    [
      -0.28641873598098755,
      -0.002756337868049741,
      0.358207643032074,
      -0.1301683932542801,
      0.10641317814588547
    ],
    [
      0.24145512282848358,
      0.14379078149795532,
      0.026273813098669052,
      0.08720120042562485,
      0.314657598733902
    ],
    [
      -0.4798174202442169,
      -0.21286502480506897,
      0.4725293815135956,
      -0.14020633697509766,
      0.33820560574531555
    ],
    [
      -0.42704033851623535,
      0.11936956644058228,
      -0.015626830980181694,
      -0.5020485520362854,
      0.11979272961616516
    ],
    [
      -0.056685671210289,
      -0.5188058018684387,
      -0.16630549728870392,
      0.4403863549232483,
      0.1072336956858635
    ],
    [
      -0.3264070153236389,
      -0.27585387229919434,
      -0.24388834834098816,
      -0.276998370885849,
      0.10065122693777084
    ],
    [
      -0.2509346306324005,
      0.3803875744342804,
      0.2853839099407196,
      0.3919348418712616,
      0.009517353028059006
    ],
    [
      0.48298323154449463,
      -0.4474840760231018,
      -0.28838852047920227,
      -0.3042123019695282,
      0.24978213012218475
    ],
    [
      -0.5083041787147522,
      -0.2532787024974823,
      0.2130809724330902,
      0.5002087354660034,
      0.3478242754936218
    ],
    [
      0.22102871537208557,
      -0.37750697135925293,
      0.1622346043586731,
      -0.19465123116970062,
      0.030968323349952698
    ],
    [
      -0.06846049427986145,
      0.5002263784408569,
      0.34869927167892456,
      0.05592663586139679,
      -0.5197370052337646
    ],
    [
      0.41879063844680786,
      0.3666552007198334,
      0.18168018758296967,
      -0.5282639265060425,
      -0.35515278577804565
    ],
    [
      0.2813999354839325,
      -0.5014851093292236,
      0.2281937152147293,
      0.06168559193611145,
      0.4885309934616089
    ],
    [
      0.18299880623817444,
      0.2823755741119385,
      0.1726391315460205,
      -0.2523171007633209,
      -0.2903933823108673
    ]
  ],
  "conv2.att_src": [
    [
      [
        -0.11892085522413254,
        -0.5745295286178589,
        -0.44791659712791443,
        0.10920918732881546,
        0.2602175772190094,
        0.355115681886673,
        0.14294449985027313,
        0.5777456164360046,
        -0.1685504913330078,
        -0.4419717490673065,
        0.005946120712906122,
        -0.2770611643791199,
        0.2249756157398224,
        -0.39901429414749146,
        -0.21114854514598846,
        -0.11448080837726593
      ]
    ]
  ],
  "conv2.att_dst": [
    [
      [
        -0.5603855848312378,
        0.5915079116821289,
        0.2356526404619217,
        0.4699433147907257,
        0.5751734375953674,
        0.0039051338098943233,
        -0.0058255125768482685,
        0.5287709832191467,
        -0.1260487586259842,
        -0.1520199179649353,
        -0.14441785216331482,
        -0.5268386006355286,
        -0.18660280108451843,
        -0.22477121651172638,
        -0.20964162051677704,
        -0.08415424823760986
      ]
    ]
  ],
  "conv2.bias": [
    0.0,
    0.0,
    0.0,
    0.0,
    0.0,
    0.0,
    0.0,
    0.0,
    0.0,
    0.0,
    0.0,
    0.0,
    0.0,
    0.0,
    0.0,
    0.0
  ],
  "conv2.lin.weight": [
    [
      -0.09924372285604477,
      -0.30840447545051575,
      0.13086740672588348,
      -0.40573543310165405,
      -0.18810704350471497,
      -0.29868921637535095,
      0.15421035885810852,
      0.13845667243003845,
      0.38845402002334595,
      -0.06600549072027206,
      0.3570290207862854,
      -0.2971007525920868,
      -0.2799987494945526,
      -0.31190234422683716,
      0.011609401553869247,
      -0.39211034774780273
    ],
    [
      0.2935338616371155,
      -0.33878293633461,
      0.18406589329242706,
      -0.19004783034324646,
      0.007995545864105225,
      -0.11791343986988068,
      0.20584100484848022,
      0.4107379615306854,
      -0.42685097455978394,
      -0.37125164270401,
      -0.03589734062552452,
      0.015214585699141026,
      0.41319653391838074,
      0.19105888903141022,
      -0.0037552921567112207,
      -0.3725266754627228
    ],
    [
      0.09558537602424622,
      -0.1670086532831192,
      0.16586637496948242,
      -0.15386703610420227,
      -0.02321622334420681,
      0.30166253447532654,
      0.3891535699367523,
      -0.3810071349143982,
      -0.26246050000190735,
      -0.16652539372444153,
      -0.012210609391331673,
      0.3006698489189148,
      0.26318851113319397,
      -0.03626347333192825,
      -0.2367415577173233,
      0.38577044010162354
    ],
    [
      -0.1541716456413269,
      -0.19359828531742096,
      0.19645963609218597,
      0.24017325043678284,
      0.13054706156253815,
      -0.10330042243003845,
      -0.17081324756145477,
      -0.1262296885251999,
      0.317671537399292,
      0.2400524616241455,
      0.18866772949695587,
      -0.04147835075855255,
      0.2086830586194992,
      0.05672561004757881,
      -0.16676481068134308,
      -0.16895516216754913
    ],
    [
      0.1910073161125183,
      0.0020557320676743984,
      0.3329039216041565,
      0.292449414730072,
      0.24586224555969238,
      -0.3318187892436981,
      -0.39763861894607544,
      0.19192051887512207,
      -0.027706725522875786,
      -0.42854392528533936,
      -0.1878134310245514,
      -0.20632906258106232,
      -0.27754905819892883,
      0.08871744573116302,
      0.1421438753604889,
      -0.25668472051620483
    ],
    [
      -0.37023571133613586,
      0.2835635244846344,
      0.24259786307811737,
      0.13349781930446625,
      0.15431524813175201,
      -0.06790827959775925,
      -0.053304705768823624,
      -0.10601656883955002,
      -0.21087588369846344,
      -0.31283363699913025,
      0.26659300923347473,
      -0.06643542647361755,
      0.022337045520544052,
      -0.3596086800098419,
      0.016040852293372154,
      -0.0022042402997612953
    ],
    [
      -0.3064389228820801,
      -0.3684720993041992,
      -0.35178452730178833,
      -0.41154175996780396,
      0.3474070131778717,
      -0.20882557332515717,
      -0.092683345079422,
      0.2731616497039795,
      0.11324133723974228,
      0.043735604733228683,
      -0.0027834586799144745,
      0.0009214531746692955,
      -0.0028413753025233746,
      -0.15945377945899963,
      0.03916126862168312,
      0.1772599071264267
    ],
    [
      -0.22689206898212433,
      0.33289873600006104,
      0.09976162016391754,
      -0.12281394749879837,
      0.16761063039302826,
      0.15891307592391968,
      0.16567455232143402,
      -0.11129849404096603,
      0.28709685802459717,
      0.012179483659565449,
      0.31165069341659546,
      -0.14697852730751038,
      -0.14159871637821198,
      0.17950522899627686,
      0.056162599474191666,
      0.14562372863292694
    ],
    [
      -0.21915672719478607,
      -0.02491702139377594,
      0.4124627411365509,
      -0.17980659008026123,
      0.20416927337646484,
      -0.42040783166885376,
      0.2319866120815277,
      0.31820058822631836,
      0.00321060698479414,
      -0.08495534211397171,
      0.16622543334960938,
      0.09071433544158936,
      0.22209763526916504,
      0.060081835836172104,
      -0.3402571976184845,
      -0.33184367418289185
    ],
    [
      0.30313313007354736,
      -0.0037365544121712446,
      0.3254227638244629,
      0.22356857359409332,
      -0.23809155821800232,
      -0.2913484573364258,
      0.2943945527076721,
      -0.13683371245861053,
      0.258535772562027,
      -0.2786690592765808,
      -0.0694064199924469,
      0.058281514793634415,
      -0.03183264285326004,
      0.3399623930454254,
      -0.03193201124668121,
      0.10677893459796906
    ],
    [
      0.3269784152507782,
      -0.42184245586395264,
      0.09291011095046997,
      0.2906724214553833,
      -0.06404892355203629,
      0.06356994807720184,
      0.26335906982421875,
      0.16471754014492035,
      -0.12045805156230927,
      0.3539822995662689,
      -0.2237090766429901,
      0.30423569679260254,
      0.41447994112968445,
      0.298141747713089,
      0.11898257583379745,
      -0.22215110063552856
    ],
    [
      0.3259235918521881,
      -0.028278924524784088,
      -0.3458625078201294,
      0.25776442885398865,
      0.058753520250320435,
      0.2840583026409149,
      -0.11231441050767899,
      0.03841625154018402,
      0.11439786106348038,
      -0.2220125049352646,
      0.10883647203445435,
      0.294021874666214,
      0.30315980315208435,
      0.16321243345737457,
      0.2984376847743988,
      -0.12299100309610367
    ],
    [
      -0.14896534383296967,
      -0.06554298102855682,
      0.4068307876586914,
      -0.16244155168533325,
      -0.26434746384620667,
      0.20762687921524048,
      0.005064353346824646,
      -0.25579336285591125,
      -0.3240540325641632,
      0.3254479169845581,
      0.10782499611377716,
      0.3686675429344177,
      -0.2813243269920349,
      0.38923028111457825,
      -0.08655228465795517,
      -0.014299945905804634
    ],
    [
      0.16166256368160248,
      -0.24274197220802307,
      -0.10260562598705292,
      -0.11267399042844772,
      0.256009966135025,
      -0.3083186149597168,
      0.10022309422492981,
      -0.33638444542884827,
      -0.14384782314300537,
      -0.1538691520690918,
      -0.1865076869726181,
      -0.1745753437280655,
      0.1120268926024437,
      -0.2641060948371887,
      -0.140945166349411,
      -0.23610608279705048
    ],
    [
      0.04710555821657181,
      0.052300456911325455,
      -0.19532479345798492,
      0.0287186149507761,
      0.37044644355773926,
      -0.030714521184563637,
      -0.28226926922798157,
      -0.401808500289917,
      0.36478474736213684,
      0.17086708545684814,
      0.3122912347316742,
      0.28615114092826843,
      -0.08831492066383362,
      0.0483291894197464,
      0.09004230052232742,
      0.15809661149978638
    ],
    [
      -0.14398151636123657,
      -0.4247943162918091,
      0.41483208537101746,
      0.23401890695095062,
      -0.010602208785712719,
      0.28872132301330566,
      -0.14510531723499298,
      -0.39359280467033386,
      0.034903258085250854,
      -0.3041505813598633,
      -0.2590921223163605,
      0.3307151198387146,
      -0.23213687539100647,
      0.22276124358177185,
      0.3175147771835327,
      -0.31350407004356384
    ]
  ],
  "conv3.att_src": [
    [
      [
        -0.08684451878070831,
        -0.03333262354135513,
        0.09786531329154968,
        0.32269588112831116,
        0.27941766381263733,
        0.4554458558559418,
        -0.03628826141357422,
        -0.5587334036827087,
        0.5793398022651672,
        -0.00468975817784667,
        0.2078610360622406,
        0.26383864879608154,
        0.43556708097457886,
        0.12064739316701889,
        0.20856599509716034,
        0.3052457571029663
      ]
    ]
  ],
  "conv3.att_dst": [
    [
      [
        0.531868577003479,
        -0.5439039468765259,
        -0.40542784333229065,
        -0.06561291962862015,
        -0.43249884247779846,
        0.151058167219162,
        -0.4168691039085388,
        0.3430187702178955,
        -0.23227660357952118,
        0.5182231664657593,
        -0.4158443212509155,
        0.09879795461893082,
        -0.49339282512664795,
        0.2116943597793579,
        -0.14684134721755981,
        0.5898171067237854
      ]
    ]
  ],
  "conv3.bias": [
    0.0,
    0.0,
    0.0,
    0.0,
    0.0,
    0.0,
    0.0,
    0.0,
    0.0,
    0.0,
    0.0,
    0.0,
    0.0,
    0.0,
    0.0,
    0.0
  ],
  "conv3.lin.weight": [
    [
      -0.30736860632896423,
      -0.04577362909913063,
      -0.02732417732477188,
      -0.30708059668540955,
      -0.1768612563610077,
      0.0737307071685791,
      -0.4245607256889343,
      0.2626132369041443,
      0.13081048429012299,
      0.1989692598581314,
      0.11296811699867249,
      0.11520838737487793,
      -0.12286721915006638,
      -0.20568114519119263,
      0.26622188091278076,
      -0.29247093200683594
    ],
    [
      -0.12501436471939087,
      -0.006957381963729858,
      -0.08543054759502411,
      0.20077738165855408,
      -0.1468782275915146,
      -0.299482136964798,
      -0.26365646719932556,
      0.09377839416265488,
      0.36232230067253113,
      -0.10297516733407974,
      0.0748240053653717,
      -0.09646501392126083,
      -0.42433005571365356,
      -0.28531351685523987,
      0.3218814432621002,
      -0.15042264759540558
    ],
    [
      0.002813242841511965,
      0.305918425321579,
      0.2447935789823532,
      -0.16190780699253082,
      -0.3531630039215088,
      0.2599853575229645,
      -0.3315611779689789,
      0.09653180837631226,
      -0.4187632203102112,
      -0.20491717755794525,
      0.05480687692761421,
      0.3445366322994232,
      0.3346937894821167,
      0.3957529067993164,
      0.27103906869888306,
      0.1379760354757309
    ],
    [
      -0.2869890630245209,
      -0.26486191153526306,
      0.06303703039884567,
      -0.21265143156051636,
      -0.39394181966781616,
      -0.2903555631637573,
      -0.11689627915620804,
      0.3630810081958771,
      -0.2985754609107971,
      0.1849793940782547,
      -0.32483747601509094,
      -0.43174055218696594,
      -0.38385048508644104,
      -0.10920270532369614,
      -0.09708103537559509,
      0.2774938941001892
    ],
    [
      -0.16056318581104279,
      0.21101143956184387,
      -0.25272831320762634,
      -0.2031978964805603,
      0.2955271005630493,
      -0.3340263366699219,
      -0.014247036539018154,
      -0.31685689091682434,
      0.0894734114408493,
      0.10101529210805893,
      -0.1967974454164505,
      -0.030010590329766273,
      0.2542305290699005,
      -0.2706548571586609,
      0.07716348767280579,
      0.11846555769443512
    ],
    [
      0.1711575984954834,
      -0.3215295076370239,
      -0.4316764175891876,
      -0.33293676376342773,
      -0.09658399969339371,
      0.08446702361106873,
      -0.3161727786064148,
      -0.35084524750709534,
      -0.29139506816864014,
      0.3731922209262848,
      -0.1884288340806961,
      -0.2644253075122833,
      -0.17215394973754883,
      -0.3618772327899933,
      0.2934383749961853,
      -0.30167993903160095
    ],
    [
      -0.3480069637298584,
      0.2603611350059509,
      -0.2667890191078186,
      -0.05296149104833603,
      0.10585107654333115,
      0.1861914098262787,
      0.40881240367889404,
      -0.17628136277198792,
      0.17434708774089813,
      0.25682559609413147,
      0.352365642786026,
      0.2648364007472992,
      0.3365429937839508,
      0.3121122717857361,
      -0.36810407042503357,
      -0.11767103523015976
    ],
    [
      -0.3060728907585144,
      0.40979114174842834,
      0.2767598032951355,
      -0.4162510931491852,
      -0.119184710085392,
      0.23727835714817047,
      -0.17210254073143005,
      0.2752781808376312,
      0.012147221714258194,
      -0.4233205318450928,
      0.37458938360214233,
      0.2849636971950531,
      0.034972429275512695,
      -0.03794940933585167,
      0.31376010179519653,
      -0.0003966930671595037
    ],
    [
      0.42411965131759644,
      -0.0009608385735191405,
      -0.020484434440732002,
      0.11613840609788895,
      -0.27796992659568787,
      0.05362092703580856,
      0.15902353823184967,
      -0.4256807565689087,
      -0.23749442398548126,
      -0.19832123816013336,
      0.27900534868240356,
      0.2185167521238327,
      0.062042586505413055,
      0.2258175164461136,
      -0.3258759379386902,
      -0.18446825444698334
    ],
    [
      -0.07574230432510376,
      0.3257308900356293,
      0.30519551038742065,
      0.3853849470615387,
      0.43049877882003784,
      -0.2708321213722229,
      0.05396052822470665,
      -0.04220297932624817,
      0.12307901680469513,
      -0.195083886384964,
      -0.19052866101264954,
      0.17366169393062592,
      -0.0759013444185257,
      0.35258522629737854,
      0.03234129771590233,
      -0.1901136338710785
    ],
    [
      0.2491116225719452,
      -0.1942604035139084,
      -0.41471630334854126,
      -0.05790577828884125,
      0.3257235586643219,
      -0.2769051790237427,
      0.16372717916965485,
      0.16395501792430878,
      0.1760272979736328,
      -0.20639833807945251,
      0.3120581805706024,
      0.1909177601337433,
      0.33140987157821655,
      -0.42900049686431885,
      -0.1174844279885292,
      -0.3527085483074188
    ],
    [
      -0.2908545732498169,
      0.11948343366384506,
      0.14621326327323914,
      -0.15472319722175598,
      0.20883460342884064,
      0.01443622075021267,
      -0.3257305920124054,
      0.2690288722515106,
      0.31495845317840576,
      -0.14828355610370636,
      -0.10539476573467255,
      0.3186505436897278,
      -0.08635871112346649,
      0.10204189270734787,
      0.4225633144378662,
      -0.17443421483039856
    ],
    [
      0.22594428062438965,
      -0.30706727504730225,
      -0.2336139678955078,
      0.3392852544784546,
      0.039749469608068466,
      -0.42927929759025574,
      -0.3496367037296295,
      0.04554340988397598,
      -0.18948543071746826,
      -0.3250103294849396,
      0.02312222309410572,
      -0.1707172840833664,
      0.17810913920402527,
      -0.20953291654586792,
      -0.1447848081588745,
      -0.3051565885543823
    ],
    [
      0.10510703921318054,
      0.22038918733596802,
      0.2613944113254547,
      -0.00724701676517725,
      0.34445005655288696,
      0.0007485290989279747,
      -0.2065502554178238,
      0.4199650287628174,
      0.04452357068657875,
      -0.24289719760417938,
      0.005576002411544323,
      -0.38720136880874634,
      0.3477059304714203,
      -0.4126574695110321,
      0.07193327695131302,
      -0.17827515304088593
    ],
    [
      -0.42298638820648193,
      -0.15228445827960968,
      -0.22437073290348053,
      0.3189712464809418,
      -0.2574267089366913,
      -0.0200707595795393,
      -0.16470107436180115,
      -0.2523346245288849,
      0.03241908922791481,
      0.26005786657333374,
      0.055993497371673584,
      0.019183270633220673,
      -0.18744312226772308,
      -0.3129666745662689,
      0.0904342457652092,
      0.4058893620967865
    ],
    [
      -0.21116815507411957,
      0.3559522330760956,
      0.04687074199318886,
      -0.02121179923415184,
      0.35482874512672424,
      0.15274778008460999,
      -0.10121583193540573,
      0.22760352492332458,
      -0.056219432502985,
      -0.11498286575078964,
      0.34277141094207764,
      0.11853586137294769,
      0.027840986847877502,
      0.23098887503147125,
      -0.019902996718883514,
      -0.3370758891105652
    ]
  ],
  "lin.weight": [
    [
      -0.07971501350402832,
      -0.019834190607070923,
      -0.17725756764411926,
      -0.16935604810714722,
      0.10185429453849792,
      -0.1407826840877533,
      0.1496732532978058,
      0.1492694914340973,
      0.040418386459350586,
      -0.08655694127082825,
      0.07038503885269165,
      -0.15028274059295654,
      -0.09671497344970703,
      -0.06419786810874939,
      0.09395334124565125,
      0.1486559808254242
    ],
    [
      0.1696736216545105,
      0.1924593448638916,
      0.10617753863334656,
      0.041889071464538574,
      0.24001166224479675,
      0.15048405528068542,
      0.18014758825302124,
      -0.2084830105304718,
      -0.1956755518913269,
      0.06656843423843384,
      -0.0005437731742858887,
      -0.1971760392189026,
      0.23657268285751343,
      0.04856482148170471,
      -0.23168087005615234,
      -0.17888444662094116
    ]
  ],
  "lin.bias": [
    -0.1663755476474762,
    -0.07254081964492798
  ]
}