{
  "conv1.bias": [
    0.0,
    0.0,
    0.0,
    0.0,
    0.0,
    0.0,
    0.0,
    0.0,
    0.0,
    0.0,
    0.0,
    0.0,
    0.0,
    0.0,
    0.0,
    0.0
  ],
  "conv1.lin.weight": [
    [
      -0.0025615456979721785,
      0.3285016715526581,
      -0.4735606908798218,
      -0.41438916325569153,
      -0.09783001989126205
    ],
    [
      -0.5297866463661194,
      0.07263428717851639,
      -0.37845948338508606,
      -0.4797745943069458,
      -0.21713197231292725
    ],
    [
      -0.28641873598098755,
      -0.002756337868049741,
      0.358207643032074,
      -0.1301683932542801,
      0.10641317814588547
    ],
    [
      0.24145512282848358,
      0.14379078149795532,
      0.026273813098669052,
      0.08720120042562485,
      0.314657598733902
    ],
    [
      -0.4798174202442169,
      -0.21286502480506897,
      0.4725293815135956,
      -0.14020633697509766,
      0.33820560574531555
    ],
    [
      -0.42704033851623535,
      0.11936956644058228,
      -0.015626830980181694,
      -0.5020485520362854,
      0.11979272961616516
    ],
    [
      -0.056685671210289,
      -0.5188058018684387,
      -0.16630549728870392,
      0.4403863549232483,
      0.1072336956858635
    ],
    [
      -0.3264070153236389,
      -0.27585387229919434,
      -0.24388834834098816,
      -0.276998370885849,
      0.10065122693777084
    ],
    [
      -0.2509346306324005,
      0.3803875744342804,
      0.2853839099407196,
      0.3919348418712616,
      0.009517353028059006
    ],
    [
      0.48298323154449463,
      -0.4474840760231018,
      -0.28838852047920227,
      -0.3042123019695282,
      0.24978213012218475
    ],
    [
      -0.5083041787147522,
      -0.2532787024974823,
      0.2130809724330902,
      0.5002087354660034,
      0.3478242754936218
    ],
    [
      0.22102871537208557,
      -0.37750697135925293,
      0.1622346043586731,
      -0.19465123116970062,
      0.030968323349952698
    ],
    [
      -0.06846049427986145,
      0.5002263784408569,
      0.34869927167892456,
      0.05592663586139679,
      -0.5197370052337646
    ],
    [
      0.41879063844680786,
      0.3666552007198334,
      0.18168018758296967,
      -0.5282639265060425,
      -0.35515278577804565
    ],
    [
      0.2813999354839325,
      -0.5014851093292236,
      0.2281937152147293,
      0.06168559193611145,
      0.4885309934616089
    ],
    [
      0.18299880623817444,
      0.2823755741119385,
      0.1726391315460205,
      -0.2523171007633209,
      -0.2903933823108673
    ]
  ],
  "conv2.bias": [
    0.0,
    0.0,
    0.0,
    0.0,
    0.0,
    0.0,
    0.0,
    0.0,
    0.0,
    0.0,
    0.0,
    0.0,
    0.0,
    0.0,
    0.0,
    0.0
  ],
  "conv2.lin.weight": [
    [
      0.15332984924316406,
      -0.0993000939488411,
      0.3319777846336365,
      0.40049779415130615,
      -0.25149381160736084,
      -0.13168072700500488,
      -0.3078193962574005,
      0.2523791193962097,
      -0.4012143313884735,
      -0.14491112530231476,
      -0.2017563283443451,
      0.047375887632369995,
      -0.14383047819137573,
      0.33205610513687134,
      0.13081982731819153,
      0.09610920399427414
    ],
    [
      0.26105573773384094,
      -0.03838507458567619,
      0.0978248193860054,
      -0.20293036103248596,
      0.18239709734916687,
      -0.13320255279541016,
      0.32704856991767883,
      -0.18553341925144196,
      -0.07129985839128494,
      -0.3796112537384033,
      0.26120439171791077,
      -0.26548537611961365,
      0.38763245940208435,
      0.13050813972949982,
      -0.024535659700632095,
      -0.16229717433452606
    ],
    [
      -0.09924372285604477,
      -0.30840447545051575,
      0.13086740672588348,
      -0.40573543310165405,
      -0.18810704350471497,
      -0.29868921637535095,
      0.15421035885810852,
      0.13845667243003845,
      0.38845402002334595,
      -0.06600549072027206,
      0.3570290207862854,
      -0.2971007525920868,
      -0.2799987494945526,
      -0.31190234422683716,
      0.011609401553869247,
      -0.39211034774780273
    ],
    [
      0.2935338616371155,
      -0.33878293633461,
      0.18406589329242706,
      -0.19004783034324646,
      0.007995545864105225,
      -0.11791343986988068,
      0.20584100484848022,
      0.4107379615306854,
      -0.42685097455978394,
      -0.37125164270401,
      -0.03589734062552452,
      0.015214585699141026,
      0.41319653391838074,
      0.19105888903141022,
      -0.0037552921567112207,
      -0.3725266754627228
    ],
    [
      0.09558537602424622,
      -0.1670086532831192,
      0.16586637496948242,
      -0.15386703610420227,
      -0.02321622334420681,
      0.30166253447532654,
      0.3891535699367523,
      -0.3810071349143982,
      -0.26246050000190735,
      -0.16652539372444153,
      -0.012210609391331673,
      0.3006698489189148,
      0.26318851113319397,
      -0.03626347333192825,
      -0.2367415577173233,
      0.38577044010162354
    ],
    [
      -0.1541716456413269,
      -0.19359828531742096,
      0.19645963609218597,
      0.24017325043678284,
      0.13054706156253815,
      -0.10330042243003845,
      -0.17081324756145477,
      -0.1262296885251999,
      0.317671537399292,
      0.2400524616241455,
      0.18866772949695587,
      -0.04147835075855255,
      0.2086830586194992,
      0.05672561004757881,
      -0.16676481068134308,
      -0.16895516216754913
    ],
    [
      0.1910073161125183,
      0.0020557320676743984,
      0.3329039216041565,
      0.292449414730072,
      0.24586224555969238,
      -0.3318187892436981,
      -0.39763861894607544,
      0.19192051887512207,
      -0.027706725522875786,
      -0.42854392528533936,
      -0.1878134310245514,
      -0.20632906258106232,
      -0.27754905819892883,
      0.08871744573116302,
      0.1421438753604889,
      -0.25668472051620483
    ],
    [
      -0.37023571133613586,
      0.2835635244846344,
      0.24259786307811737,
      0.13349781930446625,
      0.15431524813175201,
      -0.06790827959775925,
      -0.053304705768823624,
      -0.10601656883955002,
      -0.21087588369846344,
      -0.31283363699913025,
      0.26659300923347473,
      -0.06643542647361755,
      0.022337045520544052,
      -0.3596086800098419,
      0.016040852293372154,
      -0.0022042402997612953
    ],
    [
      -0.3064389228820801,
      -0.3684720993041992,
      -0.35178452730178833,
      -0.41154175996780396,
      0.3474070131778717,
      -0.20882557332515717,
      -0.092683345079422,
      0.2731616497039795,
      0.11324133723974228,
      0.043735604733228683,
      -0.0027834586799144745,
      0.0009214531746692955,
      -0.0028413753025233746,
      -0.15945377945899963,
      0.03916126862168312,
      0.1772599071264267
    ],
    [
      -0.22689206898212433,
      0.33289873600006104,
      0.09976162016391754,
      -0.12281394749879837,
      0.16761063039302826,
      0.15891307592391968,
      0.16567455232143402,
      -0.11129849404096603,
      0.28709685802459717,
      0.012179483659565449,
      0.31165069341659546,
      -0.14697852730751038,
      -0.14159871637821198,
      0.17950522899627686,
      0.056162599474191666,
      0.14562372863292694
    ],
    [
      -0.21915672719478607,
      -0.02491702139377594,
      0.4124627411365509,
      -0.17980659008026123,
      0.20416927337646484,
      -0.42040783166885376,
      0.2319866120815277,
      0.31820058822631836,
      0.00321060698479414,
      -0.08495534211397171,
      0.16622543334960938,
      0.09071433544158936,
      0.22209763526916504,
      0.060081835836172104,
      -0.3402571976184845,
      -0.33184367418289185
    ],
    [
      0.30313313007354736,
      -0.0037365544121712446,
      0.3254227638244629,
      0.22356857359409332,
      -0.23809155821800232,
      -0.2913484573364258,
      0.2943945527076721,
      -0.13683371245861053,
      0.258535772562027,
      -0.2786690592765808,
      -0.0694064199924469,
      0.058281514793634415,
      -0.03183264285326004,
      0.3399623930454254,
      -0.03193201124668121,
      0.10677893459796906
    ],
    [
      0.3269784152507782,
      -0.42184245586395264,
      0.09291011095046997,
      0.2906724214553833,
      -0.06404892355203629,
      0.06356994807720184,
      0.26335906982421875,
      0.16471754014492035,
      -0.12045805156230927,
      0.3539822995662689,
      -0.2237090766429901,
      0.30423569679260254,
      0.41447994112968445,
      0.298141747713089,
      0.11898257583379745,
      -0.22215110063552856
    ],
    [
      0.3259235918521881,
      -0.028278924524784088,
      -0.3458625078201294,
      0.25776442885398865,
      0.058753520250320435,
      0.2840583026409149,
      -0.11231441050767899,
      0.03841625154018402,
      0.11439786106348038,
      -0.2220125049352646,
      0.10883647203445435,
      0.294021874666214,
      0.30315980315208435,
      0.16321243345737457,
      0.2984376847743988,
      -0.12299100309610367
    ],
    [
      -0.14896534383296967,
      -0.06554298102855682,
      0.4068307876586914,
      -0.16244155168533325,
      -0.26434746384620667,
      0.20762687921524048,
      0.005064353346824646,
      -0.25579336285591125,
      -0.3240540325641632,
      0.3254479169845581,
      0.10782499611377716,
      0.3686675429344177,
      -0.2813243269920349,
      0.38923028111457825,
      -0.08655228465795517,
      -0.014299945905804634
    ],
    [
      0.16166256368160248,
      -0.24274197220802307,
      -0.10260562598705292,
      -0.11267399042844772,
      0.256009966135025,
      -0.3083186149597168,
      0.10022309422492981,
      -0.33638444542884827,
      -0.14384782314300537,
      -0.1538691520690918,
      -0.1865076869726181,
      -0.1745753437280655,
      0.1120268926024437,
      -0.2641060948371887,
      -0.140945166349411,
      -0.23610608279705048
    ]
  ],
  "conv3.bias": [
    0.0,
    0.0,
    0.0,
    0.0,
    0.0,
    0.0,
    0.0,
    0.0,
    0.0,
    0.0,
    0.0,
    0.0,
    0.0,
    0.0,
    0.0,
    0.0
  ],
  "conv3.lin.weight": [
    [
      0.3915243446826935,
      0.097893625497818,
      0.24693258106708527,
      -0.4114719331264496,
      0.047586288303136826,
      -0.2349589467048645,
      0.4178222119808197,
      -0.4117533564567566,
      -0.07143138349056244,
      0.010964627377688885,
      -0.42206457257270813,
      0.2759036123752594,
      -0.2113732397556305,
      -0.16663074493408203,
      0.0713304728269577,
      0.010664925910532475
    ],
    [
      -0.028753148391842842,
      -0.272251695394516,
      -0.2735576629638672,
      0.289861798286438,
      -0.13928602635860443,
      -0.39023128151893616,
      0.09343863278627396,
      -0.05820650979876518,
      -0.15953677892684937,
      0.3246009945869446,
      0.3731139600276947,
      -0.3079768121242523,
      0.17141103744506836,
      0.34029585123062134,
      -0.3699176013469696,
      0.07157029211521149
    ],
    [
      0.04201482608914375,
      -0.2815854251384735,
      0.4042368233203888,
      0.3019786477088928,
      0.16726742684841156,
      -0.2955571711063385,
      0.4189487397670746,
      0.3987726867198944,
      -0.16180700063705444,
      -0.32548147439956665,
      -0.07877751439809799,
      0.10678166896104813,
      0.1691606491804123,
      0.12228526920080185,
      0.3374512195587158,
      -0.22708936035633087
    ],
    [
      -0.36662423610687256,
      -0.4017799198627472,
      -0.3407556712627411,
      0.34206902980804443,
      -0.016656359657645226,
      0.09714365005493164,
      0.3888649642467499,
      0.3262406289577484,
      0.06615869700908661,
      -0.24680517613887787,
      -0.031212853267788887,
      0.30090275406837463,
      -0.22839319705963135,
      -0.16249053180217743,
      0.17195247113704681,
      -0.3846152126789093
    ],
    [
      -0.30736860632896423,
      -0.04577362909913063,
      -0.02732417732477188,
      -0.30708059668540955,
      -0.1768612563610077,
      0.0737307071685791,
      -0.4245607256889343,
      0.2626132369041443,
      0.13081048429012299,
      0.1989692598581314,
      0.11296811699867249,
      0.11520838737487793,
      -0.12286721915006638,
      -0.20568114519119263,
      0.26622188091278076,
      -0.29247093200683594
    ],
    [
      -0.12501436471939087,
      -0.006957381963729858,
      -0.08543054759502411,
      0.20077738165855408,
      -0.1468782275915146,
      -0.299482136964798,
      -0.26365646719932556,
      0.09377839416265488,
      0.36232230067253113,
      -0.10297516733407974,
      0.0748240053653717,
      -0.09646501392126083,
      -0.42433005571365356,
      -0.28531351685523987,
      0.3218814432621002,
      -0.15042264759540558
    ],
    [
      0.002813242841511965,
      0.305918425321579,
      0.2447935789823532,
      -0.16190780699253082,
      -0.3531630039215088,
      0.2599853575229645,
      -0.3315611779689789,
      0.09653180837631226,
      -0.4187632203102112,
      -0.20491717755794525,
      0.05480687692761421,
      0.3445366322994232,
      0.3346937894821167,
      0.3957529067993164,
      0.27103906869888306,
      0.1379760354757309
    ],
    [
      -0.2869890630245209,
      -0.26486191153526306,
      0.06303703039884567,
      -0.21265143156051636,
      -0.39394181966781616,
      -0.2903555631637573,
      -0.11689627915620804,
      0.3630810081958771,
      -0.2985754609107971,
      0.1849793940782547,
      -0.32483747601509094,
      -0.43174055218696594,
      -0.38385048508644104,
      -0.10920270532369614,
      -0.09708103537559509,
      0.2774938941001892
    ],
    [
      -0.16056318581104279,
      0.21101143956184387,
      -0.25272831320762634,
      -0.2031978964805603,
      0.2955271005630493,
      -0.3340263366699219,
      -0.014247036539018154,
      -0.31685689091682434,
      0.0894734114408493,
      0.10101529210805893,
      -0.1967974454164505,
      -0.030010590329766273,
      0.2542305290699005,
      -0.2706548571586609,
      0.07716348767280579,
      0.11846555769443512
    ],
    [
      0.1711575984954834,
      -0.3215295076370239,
      -0.4316764175891876,
      -0.33293676376342773,
      -0.09658399969339371,
      0.08446702361106873,
      -0.3161727786064148,
      -0.35084524750709534,
      -0.29139506816864014,
      0.3731922209262848,
      -0.1884288340806961,
      -0.2644253075122833,
      -0.17215394973754883,
      -0.3618772327899933,
      0.2934383749961853,
      -0.30167993903160095
    ],
    [
      -0.3480069637298584,
      0.2603611350059509,
      -0.2667890191078186,
      -0.05296149104833603,
      0.10585107654333115,
      0.1861914098262787,
      0.40881240367889404,
      -0.17628136277198792,
      0.17434708774089813,
      0.25682559609413147,
      0.352365642786026,
      0.2648364007472992,
      0.3365429937839508,
      0.3121122717857361,
      -0.36810407042503357,
      -0.11767103523015976
    ],
    [
      -0.3060728907585144,
      0.40979114174842834,
      0.2767598032951355,
      -0.4162510931491852,
      -0.119184710085392,
      0.23727835714817047,
      -0.17210254073143005,
      0.2752781808376312,
      0.012147221714258194,
      -0.4233205318450928,
      0.37458938360214233,
      0.2849636971950531,
      0.034972429275512695,
      -0.03794940933585167,
      0.31376010179519653,
      -0.0003966930671595037
    ],
    [
      0.42411965131759644,
      -0.0009608385735191405,
      -0.020484434440732002,
      0.11613840609788895,
      -0.27796992659568787,
      0.05362092703580856,
      0.15902353823184967,
      -0.4256807565689087,
      -0.23749442398548126,
      -0.19832123816013336,
      0.27900534868240356,
      0.2185167521238327,
      0.062042586505413055,
      0.2258175164461136,
      -0.3258759379386902,
      -0.18446825444698334
    ],
    [
      -0.07574230432510376,
      0.3257308900356293,
      0.30519551038742065,
      0.3853849470615387,
      0.43049877882003784,
      -0.2708321213722229,
      0.05396052822470665,
      -0.04220297932624817,
      0.12307901680469513,
      -0.195083886384964,
      -0.19052866101264954,
      0.17366169393062592,
      -0.0759013444185257,
      0.35258522629737854,
      0.03234129771590233,
      -0.1901136338710785
    ],
    [
      0.2491116225719452,
      -0.1942604035139084,
      -0.41471630334854126,
      -0.05790577828884125,
      0.3257235586643219,
      -0.2769051790237427,
      0.16372717916965485,
      0.16395501792430878,
      0.1760272979736328,
      -0.20639833807945251,
      0.3120581805706024,
      0.1909177601337433,
      0.33140987157821655,
      -0.42900049686431885,
      -0.1174844279885292,
      -0.3527085483074188
    ],
    [
      -0.2908545732498169,
      0.11948343366384506,
      0.14621326327323914,
      -0.15472319722175598,
      0.20883460342884064,
      0.01443622075021267,
      -0.3257305920124054,
      0.2690288722515106,
      0.31495845317840576,
      -0.14828355610370636,
      -0.10539476573467255,
      0.3186505436897278,
      -0.08635871112346649,
      0.10204189270734787,
      0.4225633144378662,
      -0.17443421483039856
    ]
  ],
  "lin.weight": [
    [
      0.13044899702072144,
      -0.17728537321090698,
      -0.13487708568572998,
      0.19588643312454224,
      0.02294936776161194,
      -0.24784451723098755,
      -0.20186284184455872,
      0.02629449963569641,
      -0.1093994677066803,
      -0.1876448094844818,
      0.01334962248802185,
      -0.09856367111206055,
      0.10283136367797852,
      -0.12097388505935669,
      -0.08359155058860779,
      -0.17618224024772644
    ],
    [
      0.06068357825279236,
      0.12724176049232483,
      0.15091612935066223,
      -0.004184067249298096,
      0.19886833429336548,
      0.0004321634769439697,
      -0.11925184726715088,
      0.24246692657470703,
      0.025705695152282715,
      -0.1402367651462555,
      0.003219306468963623,
      -0.22355082631111145,
      0.20074811577796936,
      -0.23824790120124817,
      0.04153069853782654,
      -0.10292720794677734
    ],
    [
      -0.2442113161087036,
      -0.08792147040367126,
      -0.12954050302505493,
      0.18415814638137817,
      -0.14862537384033203,
      -0.011587858200073242,
      -0.09509021043777466,
      -0.14568546414375305,
      0.018717169761657715,
      0.15014448761940002,
      0.032327860593795776,
      0.011075466871261597,
      -0.10822033882141113,
      -0.18069139122962952,
      0.05221223831176758,
      0.2343403398990631
    ],
    [
      -0.12191799283027649,
      0.20550912618637085,
      0.02706083655357361,
      -0.012246638536453247,
      0.20486047863960266,
      0.08818897604942322,
      -0.05843698978424072,
      0.1314069628715515,
      -0.03245830535888672,
      -0.06638538837432861,
      0.19789916276931763,
      0.06843671202659607,
      0.016074001789093018,
      0.13336148858070374,
      -0.011491000652313232,
      -0.1946108639240265
    ]
  ],
  "lin.bias": [
    -0.0365452766418457,
    -0.014026790857315063,
    0.04118296504020691,
    0.1357945203781128
  ]
}